tree
version=v4
num_class=1
num_tree_per_iteration=1
label_index=0
max_feature_idx=60
objective=regression
feature_names=object_id canonical_label display_x display_y anchor_x anchor_y hour minute day_of_week source_temp people_count_total people_count_within_1m people_count_within_2m people_count_within_3m nearest_person_distance mean_person_distance nearest_person_dx nearest_person_dy temp_lag_1 temp_lag_2 temp_lag_3 temp_lag_4 temp_lag_5 temp_lag_6 temp_lag_7 temp_lag_8 temp_lag_9 temp_lag_10 temp_lag_11 temp_lag_12 temp_lag_13 temp_lag_14 temp_lag_15 temp_lag_16 temp_lag_17 temp_lag_18 temp_lag_19 temp_lag_20 temp_lag_21 temp_lag_22 temp_lag_23 temp_lag_24 temp_lag_25 temp_lag_26 temp_lag_27 temp_lag_28 temp_lag_29 temp_lag_30 temp_roll_mean_5 temp_roll_mean_10 temp_roll_mean_20 temp_roll_mean_30 temp_roll_std_5 temp_roll_std_10 temp_roll_std_20 temp_roll_std_30 temp_delta_1 seconds_since_previous observations_in_frame target_minutes_ahead requested_horizon_min
feature_infos=none none none none none none [6:21] [0:59] [1:4] [19.838238:25.678250499999997] [0:5] [0:1] [0:1] [0:2] [0.22267341670931409:7.7428289318052874] [0.22267341670931409:7.7428289318052874] [-2.8100459999999998:6.9101750000000006] [-0.27741299999999924:4.1759320000000004] [19.838238:25.678250499999997] [19.838238:25.678250499999997] [19.838238:25.678250499999997] [19.838238:25.678250499999997] [19.838238:25.678250499999997] [19.838238:25.678250499999997] [19.838238:25.678250499999997] [19.838238:25.678250499999997] [19.838238:25.678250499999997] [19.838238:25.678250499999997] [19.838238:25.678250499999997] [19.838238:25.678250499999997] [19.838238:25.678250499999997] [19.838238:25.678250499999997] [19.838238:25.678250499999997] [19.838238:25.678250499999997] [19.838238:25.678250499999997] [19.838238:25.678250499999997] [19.838238:25.678250499999997] [19.838238:25.678250499999997] [19.838238:25.678250499999997] [19.838238:25.678250499999997] [19.838238:25.678250499999997] [19.838238:25.678250499999997] [19.838238:25.678250499999997] [19.838238:25.678250499999997] [19.838238:25.678250499999997] [19.838238:25.678250499999997] [19.838238:25.678250499999997] [19.838238:25.678250499999997] [19.996988399999999:24.978297400000002] [20.071736699999999:24.6594768] [20.1321203:24.409267199999999] [20.207960033333332:24.290536133333333] [0.011944289487218743:1.7991767179734928] [0.022971404153315955:1.7640156039463788] [0.036935392414012232:1.8223966707830053] [0.038532884668383983:1.8237463221386419] [-3.6893209999999996:3.7381270000000022] [28:321479] [1:2] [5:125.5] [5:120]
tree_sizes=2735 2917 2946 2933 2933 2943 2946 2938 2927 2919 2942 2937 2942 2942 2937 2935 2931 2945 2923 2933 2945 2927 2933 2953 2932 2940

Tree=0
num_leaves=31
num_cat=0
split_feature=9 50 8 9 8 6 51 48 59 6 59 59 8 6 59 55 6 9 6 59 59 55 51 55 51 6 6 51 6 6
split_gain=6413.16 1277.48 775.357 560.65 466.094 403.126 271.47 257.746 229.581 200.368 151.901 132.852 114.575 109.048 108.324 104.431 94.3372 88.5239 84.6254 84.171 82.1783 74.1242 80.8744 72.1088 70.2826 59.0728 57.4602 55.8775 71.2318 63.4212
threshold=22.280355500000002 23.185573425000005 1.5000000000000002 21.112217000000005 3.5000000000000004 13.500000000000002 22.429616583333338 21.598876000000004 30.491666666666671 13.500000000000002 45.00833333333334 44.50833333333334 2.5000000000000004 9.5000000000000018 20.475000000000005 0.50445324674800307 11.500000000000002 23.193664500000001 13.500000000000002 77.750000000000014 45.00833333333334 0.5256432636155518 22.165582883333339 0.073126210471034819 21.643354300000006 10.500000000000002 10.500000000000002 23.364128333333337 12.500000000000002 10.500000000000002
decision_type=2 2 2 2 2 2 2 2 2 2 2 2 2 2 2 2 2 2 2 2 2 2 2 2 2 2 2 2 2 2
left_child=2 4 8 10 6 7 9 20 23 12 -4 17 -2 -13 24 -8 -6 -3 19 -18 -5 22 26 -1 -9 -22 -16 29 -29 -15
right_child=1 11 3 5 16 -7 15 14 -10 -11 -12 13 -14 27 21 -17 18 -19 -20 -21 25 -23 -24 -25 -26 -27 -28 28 -30 -31
leaf_value=22.523096866968036 22.521362602801066 22.526512086193449 22.463284308976274 22.484417439409643 22.48961725266161 22.489156668654854 22.516901718572509 22.481984003644364 22.53545354026328 22.49189364865871 22.486984043838973 22.5109205233375 22.507047851949121 22.498037420746073 22.495029838604204 22.525511791615354 22.513015131047105 22.53708243730955 22.486600000347362 22.490295624579947 22.491161125945798 22.494421181643222 22.513918985323446 22.499138110818418 22.498745397787982 22.509681568914576 22.50657861506393 22.538675056606792 22.525379986087525 22.524808985528828
leaf_weight=163 744 990 697 1207 603 7801 8738 250 458 576 374 412 1555 104 529 1483 710 2549 197 185 463 489 1012 369 2265 233 1452 600 917 340
leaf_count=163 744 990 697 1207 603 7801 8738 250 458 576 374 412 1555 104 529 1483 710 2549 197 185 463 489 1012 369 2265 233 1452 600 917 340
internal_value=22.5073 22.5187 22.4941 22.4926 22.5139 22.494 22.5159 22.4988 22.5199 22.5077 22.4716 22.5304 22.5117 22.525 22.5018 22.5182 22.4991 22.5341 22.5044 22.5083 22.4892 22.5053 22.507 22.5065 22.4971 22.4974 22.5035 22.5279 22.5306 22.5185
internal_weight=38465 20703 17762 16772 14791 15701 13096 7900 990 2875 1071 5912 2299 2373 5997 10221 1695 3539 1092 895 1903 3482 2993 532 2515 696 1981 1961 1517 444
internal_count=38465 20703 17762 16772 14791 15701 13096 7900 990 2875 1071 5912 2299 2373 5997 10221 1695 3539 1092 895 1903 3482 2993 532 2515 696 1981 1961 1517 444
is_linear=0
shrinkage=1


Tree=1
num_leaves=31
num_cat=0
split_feature=9 50 8 9 8 6 51 48 59 6 59 59 8 59 6 55 6 9 6 59 59 51 55 50 55 59 8 51 6 6
split_gain=6034.15 1201.98 729.534 527.515 438.548 379.301 255.426 242.678 216.013 188.527 143.579 125 107.804 103.774 102.603 98.2595 88.7618 84.484 79.624 79.1965 75.2058 73.7236 68.2487 79.4339 67.8472 55.8509 53.6112 52.5752 67.022 59.673
threshold=22.280355500000002 23.185573425000005 1.5000000000000002 21.112217000000005 3.5000000000000004 13.500000000000002 22.429616583333338 21.588200000000004 30.491666666666671 13.500000000000002 44.50833333333334 44.50833333333334 2.5000000000000004 20.475000000000005 9.5000000000000018 0.50445324674800307 11.500000000000002 22.990344500000003 13.500000000000002 77.750000000000014 30.008333333333336 21.643354300000006 0.5327675540809983 22.126880200000006 0.073126210471034819 120.99166666666669 3.5000000000000004 23.364128333333337 12.500000000000002 10.500000000000002
decision_type=2 2 2 2 2 2 2 2 2 2 2 2 2 2 2 2 2 2 2 2 2 2 2 2 2 2 2 2 2 2
left_child=2 4 8 10 6 7 9 20 24 12 -4 17 -2 21 -13 -8 -6 -3 19 -18 -5 -9 23 -15 -1 -22 -7 29 -29 -16
right_child=1 11 3 5 16 26 15 13 -10 -11 -12 14 -14 22 27 -17 18 -19 -20 -21 25 -23 -24 -25 -26 -27 -28 28 -30 -31
leaf_value=0.01531384271803809 0.013631606363952385 0.015690705556471861 -0.044501157335796154 -0.023725401376312755 -0.017161382609301834 -0.016742494037295479 0.0093045486421249445 -0.024680375975111257 0.027299815725888972 -0.014953279377271731 -0.022395727010727506 0.0035027894263892677 -0.00025370177974264881 -0.0041574212238645845 -0.0089938200730830427 0.017656320244234126 0.0055345587957466779 0.028093306958743375 -0.020088117922133848 -0.016503363236382199 -0.012628039397483731 -0.0082649447595848705 -0.012888515105086337 0.0058352086034348105 -0.0079261508541620847 0.038113837888464328 -0.024753148466119958 0.030424686871469021 0.017528467984111406 0.0169745975947076
leaf_weight=163 744 594 595 957 603 6958 8738 276 458 576 476 412 1555 1957 104 1483 710 2945 197 185 818 2283 460 1129 369 20 843 600 917 340
leaf_count=163 744 594 595 957 603 6958 8738 276 458 576 476 412 1555 1957 104 1483 710 2945 197 185 818 2283 460 1129 369 20 843 600 917 340
internal_value=-1.30247e-12 0.0110059 -0.0128282 -0.0143054 0.00643584 -0.0129158 0.00829427 -0.0082823 0.0121967 0.000394546 -0.0346765 0.0224396 0.00423985 -0.0054312 0.0171123 0.0105163 -0.00792287 0.0260116 -0.00282138 0.000979234 -0.0179792 -0.0100354 -0.00210853 -0.00050166 -0.000805627 -0.011417 -0.0176081 0.0199717 0.0226291 0.0108919
internal_weight=38465 20703 17762 16772 14791 15701 13096 7900 990 2875 1071 5912 2299 6105 2373 10221 1695 3539 1092 895 1795 2559 3546 3086 532 838 7801 1961 1517 444
internal_count=38465 20703 17762 16772 14791 15701 13096 7900 990 2875 1071 5912 2299 6105 2373 10221 1695 3539 1092 895 1795 2559 3546 3086 532 838 7801 1961 1517 444
is_linear=0
shrinkage=0.03


Tree=2
num_leaves=31
num_cat=0
split_feature=9 50 51 8 8 29 51 9 59 59 59 59 55 8 55 50 9 51 8 51 55 55 54 59 49 59 15 55 7 51
split_gain=5678.07 1088.97 725.162 411.69 388.426 258.662 223.332 215.204 207.194 117.612 110.087 103.55 98.3908 93.9002 82.3466 144.077 79.7046 65.8085 64.6937 61.5781 60.9444 59.3417 57.8361 69.6378 76.695 55.4236 69.2768 52.5237 51.5693 46.8127
threshold=22.307012000000004 23.185573425000005 21.992299483333337 3.5000000000000004 1.5000000000000002 20.940015000000002 22.429616583333338 21.112217000000005 30.491666666666671 44.50833333333334 44.50833333333334 30.008333333333336 0.50445324674800307 1.5000000000000002 0.5256432636155518 22.172447200000004 23.193664500000001 21.643354300000006 2.5000000000000004 23.364128333333337 0.073126210471034819 0.59790987256534045 0.23395062146787687 60.50833333333334 21.508139700000005 44.50833333333334 2.1627939253571475 0.80942076402683327 36.500000000000007 22.317380300000004
decision_type=2 2 2 2 2 2 2 2 2 2 2 2 2 2 2 2 2 2 2 2 2 2 2 2 2 2 8 2 2 2
left_child=2 3 5 6 8 10 13 -6 20 16 -1 17 -8 -2 15 -9 -3 -7 -13 -11 -4 29 23 -20 -25 27 -27 -5 -16 -15
right_child=1 9 4 25 7 11 12 14 -10 19 -12 18 -14 21 28 -17 -18 -19 22 -21 -22 -23 -24 24 -26 26 -28 -29 -30 -31
leaf_value=-0.044658232554613819 0.017337099311643102 0.018007053293825733 0.014854427271642568 -0.0056207359478259635 -0.046708957127605873 -0.024754940003076452 0.0091214465159778612 -0.009538339979783237 0.026350194951585127 0.0079840705257350209 -0.021481255699483486 -0.015901445168204516 0.017570981212653505 -0.0031030562017133907 -0.016537071118966261 0.00072437457663403117 0.028037046445908136 -0.016939844503830338 -0.011476946344793055 0.019309913544024282 -0.0069564870555842585 -0.016088863957176607 -0.01805945908142018 -0.011707242076002733 0.0094407605168941831 -0.00067046209460584186 -0.020465923264562032 0.014762689098715781 -0.0047753940005318121 0.0063088193722540238
leaf_weight=415 267 990 163 824 126 1254 8612 2950 478 568 332 2215 1449 1390 1131 2113 2549 4278 799 1805 394 225 427 244 420 239 476 132 477 723
leaf_count=415 267 990 163 824 126 1254 8612 2950 478 568 332 2215 1449 1390 1131 2113 2549 4278 799 1805 394 225 427 244 420 239 476 132 477 723
internal_value=-7.64484e-11 0.0109324 -0.0121525 0.00646484 -0.00526025 -0.0173508 0.00831133 -0.00786731 0.0118607 0.0217664 -0.0343574 -0.0160326 0.0103384 0.000482549 -0.00713368 -0.00525528 0.0252313 -0.0187114 -0.0124226 0.016599 -0.00057376 -0.00144224 -0.00834546 -0.00551027 0.00166951 -0.00753132 -0.013849 -0.00280629 -0.0130481 0.000117382
internal_weight=38465 20249 18216 14337 7832 10384 12666 6797 1035 5912 747 9637 10061 2605 6671 5063 3539 5532 4105 2373 557 2338 1890 1463 664 1671 715 956 1608 2113
internal_count=38465 20249 18216 14337 7832 10384 12666 6797 1035 5912 747 9637 10061 2605 6671 5063 3539 5532 4105 2373 557 2338 1890 1463 664 1671 715 956 1608 2113
is_linear=0
shrinkage=0.03


Tree=3
num_leaves=31
num_cat=0
split_feature=9 50 8 9 8 6 51 48 59 6 59 59 8 6 59 55 6 9 6 59 59 51 55 50 55 6 8 59 6 48
split_gain=5343.25 1063.86 645.58 468.269 388.387 345.553 226.384 218.573 191.512 172.638 130.201 110.662 103.045 96.2337 95.07 86.9229 81.8201 76.0865 74.0246 72.9085 67.2476 65.1486 61.7481 71.2974 60.1853 52.506 49.9314 48.535 48.4524 55.5612
threshold=22.280355500000002 23.185573425000005 1.5000000000000002 21.112217000000005 3.5000000000000004 13.500000000000002 22.44717781666667 21.588200000000004 30.491666666666671 13.500000000000002 45.00833333333334 44.50833333333334 2.5000000000000004 9.5000000000000018 20.475000000000005 0.50445324674800307 11.500000000000002 22.990344500000003 13.500000000000002 77.750000000000014 45.00833333333334 21.643354300000006 0.5327675540809983 22.126880200000006 0.073126210471034819 10.500000000000002 3.5000000000000004 55.250000000000007 10.500000000000002 21.838487400000002
decision_type=2 2 2 2 2 2 2 2 2 2 2 2 2 2 2 2 2 2 2 2 2 2 2 2 2 2 2 2 2 2
left_child=2 4 8 10 6 7 9 20 24 12 -4 17 -2 -13 21 -8 -6 -3 19 -18 -5 -9 23 28 -1 -22 -7 -14 -16 -30
right_child=1 11 3 5 16 26 15 14 -10 -11 -12 13 27 -15 22 -17 18 -19 -20 -21 25 -23 -24 -25 -26 -27 -28 -29 29 -31
leaf_value=0.01440879459761403 0.012884094984165786 0.014679772301901584 -0.040316390740435297 -0.021328160831105617 -0.016325322913752511 -0.015795162119234259 0.0088113218923129445 -0.023197316294131073 0.0256903153401952 -0.014044996975801693 -0.018374615590770377 0.002920670712793933 -0.0038559114082638369 0.018870142335255968 -0.010661357828825487 0.016712943448919052 0.0054778121101643727 0.026449856363212988 -0.019206015509245965 -0.015667140610641925 -0.015210972532606034 -0.0077660584991470286 -0.01209694204469839 0.0056887869936061881 -0.0074796713673608087 0.0028842217510696069 -0.023526015948782612 0.0072438344171004638 0.0076873109480856275 -0.0051068701434017717
leaf_weight=163 805 594 697 1141 603 6958 8623 276 458 585 374 412 1092 1961 626 1466 710 2945 197 185 439 2283 460 1129 369 215 843 525 475 856
leaf_count=163 805 594 697 1141 603 6958 8623 276 458 585 374 412 1092 1961 626 1466 710 2945 197 185 439 2283 460 1129 369 215 843 525 475 856
internal_value=-1.58609e-11 0.0103567 -0.0120715 -0.0134611 0.0060572 -0.0121519 0.00780612 -0.00772928 0.0114695 0.000581221 -0.0326542 0.0211134 0.00411398 0.016101 -0.00502348 0.00995948 -0.00745542 0.0244743 -0.00255747 0.00110707 -0.016932 -0.00943039 -0.0018432 -0.000314769 -0.000773243 -0.00926225 -0.0166306 -0.000252098 -0.00377824 -0.000540953
internal_weight=38465 20703 17762 16772 14791 15701 13096 7900 990 3007 1071 5912 2422 2373 6105 10089 1695 3539 1092 895 1795 2559 3546 3086 532 654 7801 1617 1957 1331
internal_count=38465 20703 17762 16772 14791 15701 13096 7900 990 3007 1071 5912 2422 2373 6105 10089 1695 3539 1092 895 1795 2559 3546 3086 532 654 7801 1617 1957 1331
is_linear=0
shrinkage=0.03


Tree=4
num_leaves=31
num_cat=0
split_feature=9 50 51 8 8 29 51 9 6 59 6 59 59 59 6 8 6 6 6 6 9 6 59 54 50 51 8 50 59 6
split_gain=5028.59 963.703 645.545 364.618 343.25 229.317 197.715 194.577 186.286 183.774 147.148 104.121 98.8703 92.7818 91.5374 85.8771 82.2865 75.863 74.7056 84.5983 71.8743 68.549 68.5996 67.8838 67.4816 59.9512 64.3263 58.7282 51.2093 43.2795
threshold=22.307012000000004 23.185573425000005 21.992299483333337 3.5000000000000004 1.5000000000000002 20.940015000000002 22.429616583333338 21.112217000000005 13.500000000000002 30.491666666666671 13.500000000000002 44.50833333333334 44.50833333333334 30.008333333333336 10.500000000000002 2.5000000000000004 16.500000000000004 11.500000000000002 10.500000000000002 13.500000000000002 23.206251500000004 13.500000000000002 77.750000000000014 0.51187930508125257 22.116149375000003 23.485919733333336 2.5000000000000004 21.646930950000002 60.50833333333334 13.500000000000002
decision_type=2 2 2 2 2 2 2 2 2 2 2 2 2 2 2 2 2 2 2 2 2 2 2 2 2 2 2 2 2 2
left_child=2 3 5 6 9 12 10 -6 24 -4 15 20 -1 27 25 -2 18 -5 -15 28 -3 22 -19 29 -9 -13 -27 -7 -20 -8
right_child=1 11 4 17 7 13 23 8 -10 -11 -12 14 -14 16 -16 -17 -18 21 19 -21 -22 -23 -24 -25 -26 26 -28 -29 -30 -31
leaf_value=-0.042115856432771104 0.012852962659515988 0.017026066236527696 -0.00054954571866796512 -0.015693526196933229 -0.044317613895095524 -0.023159805880781825 0.007171835063534188 -0.0077645876366966033 -0.014224005270178518 0.024807099572424468 -0.013786029563213153 -0.0040396395779498558 -0.020151347710290944 -0.015105601799703708 0.019382975982463413 -0.00017739942310127799 -0.017268314830354473 0.0053134777827621238 -0.0051276779073201016 -0.011604514383940818 0.026462494403557201 -0.019122941440871948 -0.015197126411757356 0.016520162686720699 -0.00037616561719145682 0.0048884283034294641 0.029952082942860822 -0.015905972304178929 0.0096236817922483939 0.011468841442751244
leaf_weight=415 672 1021 557 594 126 1319 5447 1863 2046 478 522 288 332 959 1685 1411 1504 710 437 794 2518 182 185 1171 2762 256 144 4213 411 3443
leaf_count=415 672 1021 557 594 126 1319 5447 1863 2046 478 522 288 332 959 1685 1411 1504 710 437 794 2518 182 185 1171 2762 256 144 4213 411 3443
internal_value=1.42471e-11 0.0102881 -0.0114363 0.00608542 -0.00493348 -0.016341 0.00782314 -0.00738425 -0.00668666 0.0111611 0.000457034 0.02048 -0.0323539 -0.0150998 0.015618 0.00402635 -0.0116826 -0.00708631 -0.00845279 -0.00456726 0.0237401 -0.00233916 0.00107386 0.00973038 -0.0033523 0.00639698 0.0139113 -0.0176355 0.00202186 0.00883602
internal_weight=38465 20249 18216 14337 7832 10384 12666 6797 6671 1035 2605 5912 747 9637 2373 2083 4105 1671 2601 1642 3539 1077 895 10061 4625 688 400 5532 848 8890
internal_count=38465 20249 18216 14337 7832 10384 12666 6797 6671 1035 2605 5912 747 9637 2373 2083 4105 1671 2601 1642 3539 1077 895 10061 4625 688 400 5532 848 8890
is_linear=0
shrinkage=0.03


Tree=5
num_leaves=31
num_cat=0
split_feature=9 50 51 55 31 20 9 6 59 9 59 22 59 46 59 55 55 6 6 6 6 6 9 59 51 46 59 59 6 6
split_gain=4731.6 941.59 556.067 238.697 216.195 209.519 196.743 226.503 119.078 99.0111 95.2561 93.8309 88.1564 86.4062 86.3443 81.8083 83.4625 77.3301 70.2465 79.5985 67.9636 66.7546 57.7515 55.7503 53.9744 51.7815 50.5984 48.4935 45.9199 45.318
threshold=22.280355500000002 23.185573425000005 21.992299483333337 0.073126210471034819 20.940015000000002 22.303888500000003 21.346419500000003 13.500000000000002 30.475000000000005 22.990344500000003 44.50833333333334 22.120181500000005 44.50833333333334 21.985293000000002 30.008333333333336 0.5327675540809983 0.31965118708694057 16.500000000000004 10.500000000000002 13.500000000000002 13.500000000000002 9.5000000000000018 23.001421500000003 55.250000000000007 21.643354300000006 21.782241000000003 10.491666666666669 90.00833333333334 13.500000000000002 13.500000000000002
decision_type=2 2 2 2 2 2 2 2 2 2 2 2 2 2 2 2 2 2 2 2 2 2 2 2 2 2 2 2 2 2
left_child=2 5 4 26 10 20 -5 8 25 -3 -1 -7 28 -13 24 16 -10 18 -16 27 -2 -14 -15 -24 -6 -8 -4 -20 -11 -26
right_child=1 9 3 6 14 11 7 -9 15 12 -12 13 21 22 17 -17 -18 -19 19 -21 -22 -23 23 -25 29 -27 -28 -29 -30 -31
leaf_value=-0.040664409542083738 3.639081196642502e-05 0.011276585874412347 -0.0038403773307800291 -0.037164296132822836 -0.022573313148809882 -0.0061841999445055047 0.012701530754793343 -0.013970566265323368 0.00057359937749858604 0.027248292517632534 -0.019360250650973552 -0.00047860151302329842 0.0040668727147770171 0.0072068785906367946 -0.01467633139682869 -0.012513159533311719 0.013280585402373863 -0.016760535992771865 -0.0031700599181869208 -0.011256378411552317 -0.012583145654636758 0.019119436813118219 0.014625115673724404 0.0052163680144975228 -0.0090894003897780754 -0.0072332978962034175 0.026885707166681927 0.011991308587258486 0.018918594288143589 -0.016970165813566203
leaf_weight=425 1777 1003 60 180 1244 453 123 1979 1308 2116 340 1055 316 8105 951 269 722 1492 561 794 490 1648 2140 771 811 2518 246 287 829 3452
leaf_count=425 1777 1003 60 180 1244 453 123 1979 1308 2116 340 1055 316 8105 951 269 722 1492 561 794 490 1648 2140 771 811 2518 246 287 829 3452
internal_value=-2.37868e-11 0.00974589 -0.0113596 -0.005082 -0.0158479 0.00570103 -0.00620026 -0.00539472 -0.00195918 0.0198656 -0.0311959 0.00722013 0.0216205 0.00772317 -0.0146239 0.00303298 0.00509303 -0.0113191 -0.00818807 -0.00443025 -0.00269125 0.0166975 0.00850865 0.0121331 -0.0170753 -0.00630487 0.020861 0.00196121 0.0249035 -0.0154709
internal_weight=38465 20703 17762 7405 10357 14791 7099 6919 4940 5912 765 12524 4909 12071 9592 2299 2030 4085 2593 1642 2267 1964 11016 2911 5507 2641 306 848 2945 4263
internal_count=38465 20703 17762 7405 10357 14791 7099 6919 4940 5912 765 12524 4909 12071 9592 2299 2030 4085 2593 1642 2267 1964 11016 2911 5507 2641 306 848 2945 4263
is_linear=0
shrinkage=0.03


Tree=6
num_leaves=31
num_cat=0
split_feature=48 51 50 8 8 48 60 50 55 50 60 55 55 60 55 8 54 60 50 18 60 60 55 51 48 8 51 16 46 44
split_gain=4416.29 803.389 589.266 405.208 263.339 254.72 166.825 131.268 109.5 143.648 100.215 93.697 87.3145 69.5058 63.6805 63.2048 85.4826 61.6127 60.0205 56.4319 54.9067 53.322 67.0125 52.9609 50.8572 49.8688 49.6065 62.6685 49.3937 47.0287
threshold=22.364639100000005 23.283249950000002 22.033629200000004 3.5000000000000004 1.5000000000000002 21.053057500000005 37.500000000000007 22.682973625000002 0.5303508311588031 22.172447200000004 37.500000000000007 0.64234221386514956 0.50445324674800307 52.500000000000007 0.073126210471034819 2.5000000000000004 0.35425744767466022 25.000000000000004 23.518376375000003 21.112217000000005 37.500000000000007 17.500000000000004 0.50445324674800307 23.828779958333339 21.468942600000002 1.5000000000000002 21.567463150000002 -1.3468939999999996 21.991941500000003 23.071396000000004
decision_type=2 2 2 2 2 2 2 2 2 2 2 2 2 2 2 2 2 2 2 2 2 2 2 2 2 2 2 10 2 2
left_child=2 3 5 7 6 10 14 11 9 -6 -1 20 -9 26 -4 -15 24 18 -3 -10 -2 -5 -23 -20 -17 -13 -7 -28 -14 -11
right_child=1 17 4 21 8 13 -8 12 19 29 -12 25 28 15 -16 16 -18 -19 23 -21 -22 22 -24 -25 -26 -27 27 -29 -30 -31
leaf_value=-0.039244458042622839 0.002756596183728774 0.01770130076286433 0.014741163979257855 -0.00031525504116039623 -0.0087684726209923524 -0.020728737719473426 0.024021008289633564 0.0088437226742815785 -0.04186995226712454 0.0002840649532369457 -0.018789088955717931 0.018359149915999486 0.0035631697102649694 -0.013857983894075259 -0.0069980725269245944 -0.013478559882278205 -0.021234566532511961 0.017051307207375455 0.031440233852578089 -0.012667799062574059 0.0096961297571165877 0.0060066470972917696 -0.014952942588758499 0.019352305938751011 0.00075387026364200375 -0.011425744391279294 -0.014468626744105026 0.00013459832205072692 0.018674107505502618 0.015444024303352248
leaf_weight=485 2535 925 175 560 2570 1104 456 6732 63 1985 388 57 226 1553 395 288 256 2641 988 1090 1724 162 900 487 1049 450 6337 276 1405 203
leaf_count=485 2535 925 175 560 2570 1104 456 6732 63 1985 388 57 226 1553 395 288 256 2641 988 1090 1724 162 900 487 1049 450 6337 276 1405 203
internal_value=9.73021e-12 0.00987368 -0.0104654 0.00634033 -0.00353361 -0.0145627 0.0104961 0.008088 -0.00596882 -0.0039588 -0.0301532 0.00411435 0.0103525 -0.0133097 -0.000323746 -0.00955134 -0.00535283 0.020213 0.0236922 -0.0142634 0.00556565 -0.00780587 -0.0117557 0.0274492 -0.0023119 -0.00807715 -0.0148419 -0.0138591 0.0165803 0.00169059
internal_weight=38465 19792 18673 14751 6937 11736 1026 13129 5911 4758 873 4766 8363 10863 570 3146 1593 5041 2400 1153 4259 1622 1062 1475 1337 507 7717 6613 1631 2188
internal_count=38465 19792 18673 14751 6937 11736 1026 13129 5911 4758 873 4766 8363 10863 570 3146 1593 5041 2400 1153 4259 1622 1062 1475 1337 507 7717 6613 1631 2188
is_linear=0
shrinkage=0.03


Tree=7
num_leaves=31
num_cat=0
split_feature=9 51 51 8 8 29 51 9 6 59 6 55 59 59 9 8 6 6 59 6 6 6 6 59 6 6 8 51 55 59
split_gain=4201.69 785.16 536.472 325.935 292.415 191.461 175.994 166.303 165.669 158.598 128.779 89.264 82.5375 79.1065 79.1005 78.2964 71.212 69.4341 67.3632 66.3055 64.3742 71.8449 62.6386 63.7848 50.8098 53.9738 89.3771 49.6517 47.5882 44.2222
threshold=22.307012000000004 23.230666600000003 21.992299483333337 3.5000000000000004 1.5000000000000002 20.940015000000002 22.429616583333338 21.346419500000003 13.500000000000002 30.491666666666671 13.500000000000002 0.50445324674800307 44.50833333333334 30.008333333333336 22.990344500000003 2.5000000000000004 16.500000000000004 11.500000000000002 28.491666666666671 9.5000000000000018 10.500000000000002 13.500000000000002 13.500000000000002 77.750000000000014 9.5000000000000018 11.500000000000002 2.5000000000000004 21.643354300000006 0.073126210471034819 90.00833333333334
decision_type=2 2 2 2 2 2 2 2 2 2 2 2 2 2 2 2 2 2 2 2 2 2 2 2 2 2 2 2 2 2
left_child=2 3 5 6 9 12 10 -6 24 28 15 -8 -1 27 -3 -2 20 -5 -16 -20 -15 29 23 -19 -9 26 -26 -7 -4 -22
right_child=1 14 4 17 7 13 11 8 -10 -11 -12 -13 -14 16 18 -17 -18 22 19 -21 21 -23 -24 -25 25 -27 -28 -29 -30 -31
leaf_value=-0.038475871887372198 0.012191143742425734 0.011000146520176592 0.013083517525825032 -0.01489771360750757 -0.035239352523038781 -0.021381764552248508 0.0079139298886942832 0.0027940092585928777 -0.013109011522772834 0.023006163577312434 -0.012900478887564406 0.015395531973007011 -0.018407405992319069 -0.01380658992887494 0.024496925038001344 -0.0002508086406302055 -0.015831791441007728 0.0052289776856433859 0.0050508479430218748 0.019288268577997123 -0.002851941868156085 -0.010509207454815806 -0.018165628020907494 -0.014548754583087723 0.0067048075540886059 -0.00061576226694987828 -0.011038848813539713 -0.014593476403159609 -0.0061898070051887915 0.011626334555709949
leaf_weight=415 672 900 163 594 180 1254 8799 1096 2046 478 522 1715 332 959 2207 1411 1504 710 345 2007 561 794 182 185 306 1621 1548 4278 394 287
leaf_count=415 672 900 163 594 180 1254 8799 1096 2046 478 522 1715 332 959 2207 1411 1504 710 345 2007 561 794 182 185 306 1621 1548 4278 394 287
internal_value=1.63168e-12 0.00940427 -0.0104538 0.00581529 -0.00452576 -0.014925 0.00740472 -0.00678777 -0.00601382 0.0103293 0.000423995 0.0091343 -0.0295566 -0.0137909 0.0191279 0.00376311 -0.0106356 -0.00666327 0.0207324 0.0171999 -0.00763092 -0.00402405 -0.00212172 0.00114084 -0.00283797 -0.00461428 -0.00811028 -0.0161323 -0.000549678 0.00204814
internal_weight=38465 20249 18216 14790 7832 10384 13119 6797 6617 1035 2605 10514 747 9637 5459 2083 4105 1671 4559 2352 2601 1642 1077 895 4571 3475 1854 5532 557 848
internal_count=38465 20249 18216 14790 7832 10384 13119 6797 6617 1035 2605 10514 747 9637 5459 2083 4105 1671 4559 2352 2601 1642 1077 895 4571 3475 1854 5532 557 848
is_linear=0
shrinkage=0.03


Tree=8
num_leaves=31
num_cat=0
split_feature=9 50 8 9 8 6 48 59 49 9 59 6 59 59 6 6 59 6 59 6 6 59 55 50 7 6 8 55 6 59
split_gain=3953.53 778.357 479.585 352.86 282.785 260.695 194.685 150.646 136.594 104.932 102.117 89.0931 78.859 77.0545 68.104 64.2803 61.5732 61.2829 61.0497 60.4661 59.8386 60.0152 52.1946 56.1342 48.8249 48.0708 46.4816 44.6904 56.8459 42.6541
threshold=22.290692500000002 23.136933862500005 1.5000000000000002 21.053163500000004 3.5000000000000004 13.500000000000002 21.588200000000004 20.491666666666671 22.437777000000001 22.990344500000003 30.008333333333336 13.500000000000002 20.475000000000005 44.50833333333334 16.500000000000004 11.500000000000002 45.50833333333334 7.5000000000000009 120.99166666666669 9.5000000000000018 13.500000000000002 77.750000000000014 0.5256432636155518 22.126880200000006 23.500000000000004 13.500000000000002 3.5000000000000004 0.50445324674800307 15.500000000000002 45.00833333333334
decision_type=2 2 2 2 2 2 2 2 2 2 2 2 2 2 2 2 2 2 2 2 2 2 2 2 2 2 2 2 2 2
left_child=2 4 7 10 8 6 18 -1 11 -3 -4 16 24 25 17 -6 -2 -10 29 -15 21 -17 23 -14 -8 -11 -7 -19 -29 -5
right_child=1 9 3 5 15 26 12 -9 14 13 -12 -13 22 19 -16 20 -18 27 -20 -21 -22 -23 -24 -25 -26 -27 -28 28 -30 -31
leaf_value=-0.0036415675194824441 -0.00044735775854196471 0.0099457291083367219 -0.038851359327651769 -0.018850376642714189 -0.014450782308798109 -0.013568601642738373 -0.0022247963289085278 0.01992152546373446 -0.003637563358817715 0.024888321991944094 -0.01878141418294893 -0.011573752870016116 -0.0029513638019833359 0.003070782188722795 -0.017714074472586314 0.0050721083346649369 0.0099972467319355066 0.0080871233005043522 0.037154870498925449 0.017198789227482129 -0.017156658975648584 -0.014112291635895098 -0.010316740492818808 0.0053461187485740269 -0.010959714141595845 0.016807732144432559 -0.021026568150552139 0.015258573497480469 -0.012100135505606886 -0.0095330637589953107
leaf_weight=425 1512 1295 494 1241 594 6976 857 574 360 2190 424 448 1946 324 90 710 765 7789 20 1720 197 185 494 1178 1756 950 843 1349 72 687
leaf_count=425 1512 1295 494 1241 594 6976 857 574 360 2190 424 448 1946 324 90 710 765 7789 20 1720 197 185 494 1178 1756 950 843 1349 72 687
internal_value=4.34404e-11 0.00898015 -0.010301 -0.0114938 0.00501831 -0.0104559 -0.00671151 0.00989719 0.00658747 0.0175844 -0.0295816 0.000655577 -0.00412358 0.0194926 0.00826081 -0.00650842 0.0030617 0.00850509 -0.0149894 0.0149593 -0.00218813 0.00110662 -0.00125542 0.000177456 -0.00809488 0.0224436 -0.0143727 0.00897972 0.0138723 -0.0155304
internal_weight=38465 20550 17915 16916 14071 15998 8179 999 12385 6479 918 2725 6231 5184 9660 1686 2277 9570 1948 2044 1092 895 3618 3124 2613 3140 7819 9210 1421 1928
internal_count=38465 20550 17915 16916 14071 15998 8179 999 12385 6479 918 2725 6231 5184 9660 1686 2277 9570 1948 2044 1092 895 3618 3124 2613 3140 7819 9210 1421 1928
is_linear=0
shrinkage=0.03


Tree=9
num_leaves=31
num_cat=0
split_feature=9 50 8 9 8 6 49 51 59 6 59 6 9 8 59 45 55 59 6 6 59 6 8 8 59 54 59 49 8 55
split_gain=3719.88 732.737 451.242 332.006 276.3 245.288 183.359 156.572 141.743 123.181 96.0823 88.064 102.76 80.5252 75.0695 70.1086 66.4565 61.7588 60.4813 56.3022 56.4683 53.4708 69.7067 54.6114 50.2255 49.2185 48.0661 46.404 43.7346 38.7761
threshold=22.290692500000002 23.185573425000005 1.5000000000000002 21.053163500000004 3.5000000000000004 13.500000000000002 21.611684200000003 22.429616583333338 20.491666666666671 13.500000000000002 30.008333333333336 10.500000000000002 23.400422000000002 2.5000000000000004 45.50833333333334 21.452499500000005 0.50445324674800307 60.50833333333334 11.500000000000002 13.500000000000002 77.750000000000014 12.500000000000002 2.5000000000000004 2.5000000000000004 28.491666666666671 0.49258959164076282 120.75000000000001 22.837947400000008 3.5000000000000004 0.63415255029884932
decision_type=2 2 2 2 2 2 2 2 2 2 2 2 2 2 2 2 2 2 2 2 2 2 2 2 2 2 2 2 2 2
left_child=2 4 8 10 7 6 14 9 -1 13 -4 12 -3 -2 -5 -8 -9 21 -6 20 -20 22 -17 -23 -14 -19 -16 -18 -7 -13
right_child=1 11 3 5 18 28 15 16 -10 -11 -12 29 24 -15 26 17 27 25 19 -21 -22 23 -24 -25 -26 -27 -28 -29 -30 -31
leaf_value=-0.0035323205199311761 0.011732237965236788 0.002110928480164333 -0.037685818151921513 -0.018609166845149881 -0.014017258755547568 -0.013161543796852646 -0.015771307074102785 0.0073217303677009056 0.019323879465824218 -0.012308970783944793 -0.018217971711776453 0.021044834841186869 0.025972290256856902 -0.00047729632468685574 -0.0078860347752854956 0.0077783282195454627 0.0067412452944619712 0.0049754563138785643 0.0049199451175977443 -0.016641959141074743 -0.013688923091904536 -0.0078207402679627992 -0.0073086524902226183 0.0097770061514491826 0.011701569716848848 -0.012675551221923091 0.033719269755081487 0.017972335786631093 -0.020395771330388203 0.013445800755705841
leaf_weight=425 717 628 494 1315 594 6976 422 8684 574 558 424 3657 393 1510 644 299 499 1113 710 197 185 257 3525 415 510 163 26 984 843 724
leaf_count=425 717 628 494 1315 594 6976 422 8684 574 558 424 3657 393 1510 644 299 499 1113 710 197 185 257 3525 415 510 163 26 984 843 724
internal_value=1.61308e-11 0.00871074 -0.00999195 -0.011149 0.00511063 -0.0101422 -0.00651016 0.0065977 0.00960027 0.000295473 -0.0286941 0.0176245 0.0114308 0.00345366 -0.0144448 -0.00396734 0.00832405 -0.00310433 -0.00631317 -0.00212249 0.00107342 -0.00475751 -0.006129 0.00304692 0.0179124 0.00272066 -0.0062715 0.0141933 -0.0139415 0.019789
internal_weight=38465 20550 17915 16916 14638 15998 8179 12952 999 2785 918 5912 1531 2227 1985 6194 10167 5772 1686 1092 895 4496 3824 672 903 1276 670 1483 7819 4381
internal_count=38465 20550 17915 16916 14638 15998 8179 12952 999 2785 918 5912 1531 2227 1985 6194 10167 5772 1686 1092 895 4496 3824 672 903 1276 670 1483 7819 4381
is_linear=0
shrinkage=0.03


Tree=10
num_leaves=31
num_cat=0
split_feature=48 51 50 8 6 48 59 8 50 6 6 8 59 6 6 6 59 6 19 6 6 55 51 59 59 6 8 6 59 7
split_gain=3470.53 639.613 462.757 336.96 218.702 199.842 149.483 174.159 115.081 127.168 94.0459 122.928 85.3252 77.664 71.6425 173.134 76.2843 78.6347 65.4084 58.4784 57.8496 57.5712 59.9577 50.5946 49.485 87.6286 63.0734 48.7877 54.3931 47.2639
threshold=22.364639100000005 23.364128333333337 22.033629200000004 3.5000000000000004 13.500000000000002 21.053057500000005 20.491666666666671 1.5000000000000002 22.712228625000005 15.500000000000002 11.500000000000002 1.5000000000000002 107.75000000000001 7.5000000000000009 13.500000000000002 11.500000000000002 30.008333333333336 10.500000000000002 21.346419500000003 11.500000000000002 9.5000000000000018 0.59355254720734829 22.177374950000004 30.475000000000005 44.50833333333334 9.5000000000000018 2.5000000000000004 13.500000000000002 77.750000000000014 21.500000000000004
decision_type=2 2 2 2 2 2 2 2 2 2 2 2 2 2 2 2 2 2 2 2 2 2 2 2 2 2 2 2 2 2
left_child=2 3 5 8 6 12 18 -8 9 13 24 -12 -1 -2 15 16 -7 -18 -4 -5 -3 22 -9 -15 25 -10 -26 28 -21 -19
right_child=1 20 4 19 -6 14 7 21 10 -11 11 -13 -14 23 -16 -17 17 29 -20 27 -22 -23 -24 -25 26 -27 -28 -29 -30 -31
leaf_value=-0.030033526144901221 -0.0040633660947813448 0.010711848299451284 -0.042619282090386679 -0.015739196708144183 -0.012298228063942363 -0.015557284530395434 0.018929075364370721 -0.0035150128877988254 0.017172557678441079 -0.01125941184473811 0.019966549375923015 0.0094092410896981157 -0.00018999456000735155 0.0041016038198076745 -0.01395130176688926 0.0037177246938074103 -0.011920452190204413 -0.0071374767308147839 -0.0052512803456874679 0.0034193984927863097 0.02043626027336292 -0.014427275336121471 0.0064939729070860926 0.01065063725695067 0.005750119039930876 0.0034588048304326313 -0.0078187892984562107 -0.01602627844587989 -0.014750924264831888 0.0085105620750453616
leaf_weight=776 675 648 43 486 1752 2085 590 950 696 449 1332 3896 97 2508 6100 797 1186 343 2152 731 3662 206 1244 1841 952 1055 456 219 186 352
leaf_count=776 675 648 43 486 1752 2085 590 950 696 449 1332 3896 97 2508 6100 797 1186 343 2152 731 3662 206 1244 1841 952 1055 456 219 186 352
internal_value=1.27365e-11 0.00875282 -0.00927735 0.00590731 -0.00313457 -0.0129083 -3.81887e-05 0.00432621 0.00742137 0.00403735 0.00962963 0.0120991 -0.0267176 0.00540443 -0.0117985 -0.00904136 -0.0116054 -0.00722493 -0.00598332 -0.00703027 0.0189742 0.000736342 0.00216009 0.00687391 0.00554286 0.00890985 0.00135564 -0.00330444 -0.000266185 0.000787861
internal_weight=38465 19792 18673 15482 6937 11736 5185 2990 13860 5473 8387 5228 873 5024 10863 4763 3966 1881 2195 1622 4310 2400 2194 4349 3159 1751 1408 1136 917 695
internal_count=38465 19792 18673 15482 6937 11736 5185 2990 13860 5473 8387 5228 873 5024 10863 4763 3966 1881 2195 1622 4310 2400 2194 4349 3159 1751 1408 1136 917 695
is_linear=0
shrinkage=0.03


Tree=11
num_leaves=31
num_cat=0
split_feature=9 50 51 8 8 29 9 59 51 59 59 8 59 55 55 9 51 59 50 55 59 15 50 55 51 59 55 51 50 45
split_gain=3300.08 632.008 424.603 245.967 230.398 149.325 140.576 130.965 129.806 79.8221 67.3979 66.7152 66.1582 66.0704 60.1827 53.3104 48.1498 48.0879 43.6539 91.283 42.956 60.2902 42.181 39.4324 39.2248 37.125 36.129 31.7812 30.0021 29.9737
threshold=22.307012000000004 23.185573425000005 21.992299483333337 3.5000000000000004 1.5000000000000002 20.940015000000002 21.346419500000003 45.491666666666674 22.429616583333338 44.50833333333334 44.50833333333334 1.5000000000000002 30.008333333333336 0.50445324674800307 0.073126210471034819 23.223801500000004 23.364128333333337 120.75000000000001 22.168941150000006 0.52236377776680432 44.50833333333334 2.1627939253571475 21.646930950000002 0.80942076402683327 22.216811450000005 10.491666666666669 0.59790987256534045 22.317380300000004 22.677065550000005 21.832427000000006
decision_type=2 2 2 2 2 2 2 2 2 2 2 2 2 2 2 2 2 2 2 2 2 8 2 2 2 2 2 2 2 2
left_child=2 3 5 8 7 10 -6 14 11 15 -1 -2 22 -10 25 -3 -11 -14 -8 -20 23 29 -7 24 -5 -4 27 -13 -15 -22
right_child=1 9 4 20 6 12 18 -9 13 16 -12 26 17 28 -16 -17 -18 -19 19 -21 21 -23 -24 -25 -26 -27 -28 -29 -30 -31
leaf_value=-0.034223844694983525 0.014596519591888476 0.013811638335738537 -0.0041871512234210959 0.0047394157270659217 -0.032157052886284267 -0.019063742946334877 -0.0077559213062606052 0.023471959452734722 0.006906371897898847 0.0047130956019694635 -0.016089088087059916 -0.0026692580127043366 -0.0096290978541932679 0.0028180780526011738 -0.0045419350319336783 0.021850162642260109 0.014728176311020035 0.029139441739896247 0.00082677250481136906 -0.0094903522904825118 0.011248924975573529 -0.017622143041592937 -0.012916185540974328 0.013495198326894421 -0.0089769681792093714 0.024273357824845746 -0.012661102778961261 0.005085706812379345 0.015522586411877752 -0.010003931807974974
leaf_weight=415 267 1060 60 289 180 1319 3265 371 8612 568 332 1390 4076 193 472 2479 1805 29 2147 1205 122 476 4213 132 535 132 225 723 1256 117
leaf_count=415 267 1060 60 289 180 1319 3265 371 8612 568 332 1390 4076 193 472 2479 1805 29 2147 1205 122 476 4213 132 535 132 225 723 1256 117
internal_value=-9.90851e-12 0.00833442 -0.00926458 0.00493097 -0.00399068 -0.0132424 -0.00599855 0.00919532 0.00635822 0.016588 -0.026164 0.00038972 -0.0122408 0.00790358 0.00121847 0.0194425 0.012331 -0.00935522 -0.00528697 -0.0028821 -0.0058874 -0.0114493 -0.014382 -0.00172764 -0.00416625 0.0153794 -0.0012327 -1.57608e-05 0.0138304 0.000844807
internal_weight=38465 20249 18216 14337 7832 10384 6797 1035 12666 5912 747 2605 9637 10061 664 3539 2373 4105 6617 3352 1671 715 5532 956 824 192 2338 2113 1449 239
internal_count=38465 20249 18216 14337 7832 10384 6797 1035 12666 5912 747 2605 9637 10061 664 3539 2373 4105 6617 3352 1671 715 5532 956 824 192 2338 2113 1449 239
is_linear=0
shrinkage=0.03


Tree=12
num_leaves=31
num_cat=0
split_feature=9 50 9 50 47 54 59 9 48 59 59 59 44 59 59 50 46 9 54 59 59 54 54 43 50 48 54 50 9 59
split_gain=3108.83 707.498 284.772 203.094 192.274 170.714 89.405 88.7048 72.9834 70.0748 67.5606 64.1878 52.8825 47.6501 47.3487 40.7528 39.614 36.9888 32.458 55.3761 31.9306 61.2797 50.3145 30.6847 30.5295 29.8571 32.4594 28.4827 28.8705 26.9624
threshold=22.171968000000003 23.136933862500005 21.112217000000005 22.033629200000004 22.276662000000005 0.085398978385022459 77.750000000000014 22.990344500000003 23.139538100000003 15.491666666666669 55.250000000000007 30.008333333333336 22.224892500000006 120.75000000000001 55.250000000000007 21.646930950000002 22.042830500000004 20.599489000000002 0.6284026533875674 30.750000000000004 60.491666666666674 0.48327536406060689 0.21469010223951757 21.637055500000006 23.483075950000003 22.312636100000002 0.64793654764502528 23.820167525000006 23.223801500000004 18.008333333333336
decision_type=2 2 2 2 2 2 2 2 2 2 2 2 2 2 2 2 2 2 2 2 2 2 2 2 2 2 2 2 2 2
left_child=2 4 6 11 8 9 17 -3 25 -5 24 15 -6 -13 -10 -4 -14 -1 -18 -20 23 22 -22 -7 -9 -2 -27 28 -26 -29
right_child=1 7 3 5 12 20 -8 10 14 -11 -12 13 16 -15 -16 -17 18 -19 19 -21 21 -23 -24 -25 27 26 -28 29 -30 -31
leaf_value=-0.036946633843814622 -0.0056942680632383752 0.0085585250492265248 -0.018426578880024806 -0.0044610616276341102 -0.0016720462685378833 0.0078256989069705012 -0.0087979327995298777 0.01591738234724779 0.017924776154886385 0.022484821892696721 0.011931008643568599 -0.0089680302721419775 -0.011941643142356321 0.02668789605664856 -0.003675573192210528 -0.012224636683138024 0.0071004172198319794 -0.024172217162069669 0.0059359277664469611 -0.01299959465341839 -0.0052372858195310146 -0.013053996168023963 0.010316208206065908 -0.0076116901279799521 0.014807519166233797 0.00074479432127405381 -0.0096077319975461685 0.022610024329252076 0.026109900074920193 0.012242068102183784
leaf_weight=357 1632 1295 1208 124 768 120 238 1353 274 290 1485 4280 104 34 137 4527 9774 476 461 199 339 281 418 3377 245 2258 310 449 1198 454
leaf_count=357 1632 1295 1208 124 768 120 238 1353 274 290 1485 4280 104 34 137 4527 9774 476 461 199 339 281 418 3377 245 2258 310 449 1198 454
internal_value=1.31451e-11 0.0072243 -0.0100688 -0.00900158 0.0038224 -0.004027 -0.0250138 0.0155818 -0.00134068 0.0144141 0.0173362 -0.0114515 0.00592809 -0.00868701 0.0107247 -0.013531 0.00648198 -0.029647 0.00666561 0.000226581 -0.00571048 -0.00109002 0.00335104 -0.00708195 0.0195062 -0.00252136 -0.000504927 0.021576 0.0241909 0.0173973
internal_weight=38465 22396 16069 14998 15917 4949 1071 6479 4611 414 5184 10049 11306 4314 411 5735 10538 833 10434 660 4535 1038 757 3497 3699 4200 2568 2346 1443 903
internal_count=38465 22396 16069 14998 15917 4949 1071 6479 4611 414 5184 10049 11306 4314 411 5735 10538 833 10434 660 4535 1038 757 3497 3699 4200 2568 2346 1443 903
is_linear=0
shrinkage=0.03


Tree=13
num_leaves=31
num_cat=0
split_feature=9 50 9 6 6 47 6 59 59 9 6 59 59 55 49 55 50 6 51 6 9 42 55 51 59 55 6 6 51 50
split_gain=2925.1 665.685 268.256 258.572 240.766 180.911 124.715 109.121 95.1451 83.4624 75.0056 66.5063 63.5677 60.8121 58.3595 56.5692 79.4765 51.0462 47.5109 44.5171 41.6578 37.5216 37.0835 34.995 64.3646 40.8589 33.7674 32.1558 40.8265 41.4546
threshold=22.171968000000003 23.136933862500005 21.191302500000003 13.500000000000002 11.500000000000002 22.276662000000005 13.500000000000002 45.475000000000009 77.750000000000014 22.990344500000003 10.500000000000002 20.491666666666671 55.250000000000007 0.067388164194484443 21.649554300000005 0.59790987256534045 22.946019462500004 11.500000000000002 22.093514316666671 9.5000000000000018 20.599489000000002 21.793265500000004 0.33748509056660086 22.675195833333337 45.00833333333334 0.50445324674800307 10.500000000000002 13.500000000000002 23.828779958333339 23.458650825000003
decision_type=2 2 2 2 2 2 2 2 2 2 2 2 2 2 2 2 2 2 2 2 2 2 2 2 2 2 2 2 2 2
left_child=2 5 8 4 7 6 17 14 20 26 18 21 27 -13 -4 23 -17 -2 -9 -14 -1 -6 -12 24 -7 -25 -3 28 29 -11
right_child=1 9 3 -5 11 15 -8 10 -10 12 22 13 19 -15 -16 16 -18 -19 -20 -21 -22 -23 -24 25 -26 -27 -28 -29 -30 -31
leaf_value=-0.035838234405808085 -0.001686764160257574 0.00072822619606356849 -0.016668840827253274 -0.012640073772090645 0.014861275039985775 0.0014218940758369688 -0.010694017396192884 -0.012012968293850342 -0.0076177468527491915 0.015616107014141487 0.0026614047402182209 0.024781315460520915 -0.00016992429978455656 0.0055750744853285137 -0.0084622811627615892 -0.0064308529754889057 0.010579441285750831 0.0055600339081485267 0.0010602019989801191 0.013870622460840532 -0.022875542116433601 -0.0046258626286471592 0.025980773063293144 0.007023161431563763 0.0095269510963440253 0.015048431872283878 0.01140041147149019 0.0145250553981332 0.014274390004697794 0.025484965203282292
leaf_weight=357 2129 376 1204 7372 100 2557 997 718 272 521 731 172 243 1080 2214 733 373 1485 384 1242 595 803 67 5662 1346 635 919 1066 665 1447
leaf_count=357 2129 376 1204 7372 100 2557 997 718 272 521 731 172 243 1080 2214 733 373 1485 384 1242 595 803 67 5662 1346 635 919 1066 665 1447
internal_value=-1.88232e-13 0.00700757 -0.00976673 -0.00865371 -0.00472123 0.00370773 -0.00130046 -0.00814907 -0.0232657 0.0151143 -0.00238526 0.00373783 0.0168162 0.00821363 -0.0113531 0.00575024 -0.000694108 0.00129096 -0.00745753 0.0115731 -0.0277366 -0.00246782 0.0046193 0.00644902 0.00421703 0.00783244 0.00830177 0.018921 0.0207008 0.0228723
internal_weight=38465 22396 16069 14845 7473 15917 4611 5318 1224 6479 1900 2155 5184 1252 3418 11306 1106 3614 1102 1485 952 903 798 10200 3903 6297 1295 3699 2633 1968
internal_count=38465 22396 16069 14845 7473 15917 4611 5318 1224 6479 1900 2155 5184 1252 3418 11306 1106 3614 1102 1485 952 903 798 10200 3903 6297 1295 3699 2633 1968
is_linear=0
shrinkage=0.03


Tree=14
num_leaves=31
num_cat=0
split_feature=18 51 8 8 18 6 50 48 6 6 8 43 6 6 6 51 6 18 49 55 8 55 8 6 6 8 54 6 57 6
split_gain=2746.95 534.753 344.844 256.302 246.062 206.615 125.933 120.128 79.276 69.1288 127.784 56.5146 53.1487 53.1173 52.2391 47.5314 44.3577 42.0988 42.0601 41.8579 40.162 39.1104 47.8064 44.4112 37.1602 51.1362 35.9445 34.0422 33.3096 32.6573
threshold=22.289800000000003 23.364128333333337 1.5000000000000002 3.5000000000000004 21.112217000000005 13.500000000000002 22.682973625000002 21.588200000000004 15.500000000000002 11.500000000000002 1.5000000000000002 21.453228000000006 7.5000000000000009 11.500000000000002 9.5000000000000018 22.369986983333337 8.5000000000000018 20.599489000000002 22.233929100000001 0.15771062231225277 3.5000000000000004 0.42582949219810479 2.5000000000000004 12.500000000000002 11.500000000000002 2.5000000000000004 0.42271796863722572 16.500000000000004 45.500000000000007 11.500000000000002
decision_type=2 2 2 2 2 2 2 2 2 2 2 2 2 2 2 2 2 2 2 2 2 2 2 2 2 2 2 2 2 2
left_child=2 3 19 6 17 7 8 -6 12 16 -11 -9 -2 -5 -3 -15 -8 -4 -14 -1 27 -12 -23 -24 25 -16 -18 -7 -20 -13
right_child=1 14 4 13 5 20 9 11 -10 10 21 29 18 15 24 -17 26 -19 28 -21 -22 22 23 -25 -26 -27 -28 -29 -30 -31
leaf_value=0.016733881835238773 -0.0037062836533373108 0.0090268439779875153 -0.030387376474788768 -0.013200394469938839 -0.012074864700963639 -0.008794567818205215 0.017498223595679378 -0.013649009281973715 -0.010549118493472729 0.018441196059373621 0.0059944151299439899 -0.0041233245835085811 -0.0030673829431950798 0.0081567168345665422 -0.001248736403370932 -0.0059286712138017436 0.005641384431790207 -0.018368368511871142 0.0053104222735725834 0.0039409161382354795 -0.018348388123330457 0.0010640369683588475 0.024973981256049348 0.011351060456501078 0.016442176291098821 0.025187818010025842 -0.0024717068209041534 -0.013082422125076314 0.017005682151620734 0.00064374139269505765
leaf_weight=357 747 648 459 603 1813 2753 234 441 377 1368 2988 3814 521 296 71 794 2328 612 3694 648 836 287 287 863 2683 908 623 4222 233 1957
leaf_count=357 747 648 459 603 1813 2753 234 441 377 1368 2988 3814 521 296 71 794 2328 612 3694 648 836 287 287 863 2683 908 623 4222 233 1957
internal_value=-4.46525e-12 0.00748425 -0.00858775 0.00499157 -0.00960262 -0.00866142 0.00627704 -0.00528069 0.00273426 0.00847579 0.0104277 -0.00329777 0.00369823 -0.006056 0.0168783 -0.00210365 0.00492554 -0.0235194 0.00494175 0.00848528 -0.0121348 0.00795033 0.0120173 0.0147509 0.0182677 0.0232706 0.00392859 -0.01139 0.00600434 -0.00250677
internal_weight=38465 20553 17912 16243 16907 15836 14550 8025 5572 8978 5793 6212 5195 1693 4310 1090 3185 1071 4448 1005 7811 4425 1437 1150 3662 979 2951 6975 3927 5771
internal_count=38465 20553 17912 16243 16907 15836 14550 8025 5572 8978 5793 6212 5195 1693 4310 1090 3185 1071 4448 1005 7811 4425 1437 1150 3662 979 2951 6975 3927 5771
is_linear=0
shrinkage=0.03


Tree=15
num_leaves=31
num_cat=0
split_feature=9 50 51 8 8 59 9 6 31 51 6 6 9 8 59 55 59 6 55 50 6 6 6 6 59 59 55 59 59 51
split_gain=2598.29 474.402 372.342 195.825 176.78 128.499 119.423 119.921 117.127 84.0908 81.5929 76.146 87.2657 63.908 61.9211 59.8437 55.5014 55.7496 54.4423 53.7818 52.8289 50.7787 44.664 45.8184 48.9516 42.4853 39.3447 38.6971 36.6019 44.8667
threshold=22.339967000000005 23.168480425000002 21.992299483333337 3.5000000000000004 1.5000000000000002 45.491666666666674 21.346419500000003 13.500000000000002 20.940015000000002 22.429616583333338 13.500000000000002 10.500000000000002 23.400422000000002 2.5000000000000004 28.491666666666671 0.5185291502513778 30.008333333333336 16.500000000000004 0.073126210471034819 22.116149375000003 10.500000000000002 13.500000000000002 11.500000000000002 13.500000000000002 77.750000000000014 28.491666666666671 0.5327675540809983 60.50833333333334 30.508333333333336 22.037056416666669
decision_type=2 2 2 2 2 2 2 2 2 2 2 2 2 2 2 2 2 2 2 2 2 2 2 2 2 2 2 2 2 2
left_child=2 3 8 9 5 18 -6 19 14 10 13 12 -3 -2 -1 -11 -10 20 -4 -8 -18 27 -5 24 -24 -14 28 -22 29 -21
right_child=1 11 4 22 6 -7 7 -9 16 15 -12 -13 25 -15 -16 -17 17 -19 -20 26 21 -23 23 -25 -26 -27 -28 -29 -30 -31
leaf_value=-0.032592626840971847 0.01183620609720335 0.00070523294469437012 0.013945040283724666 -0.012128772073455394 -0.02909170258914431 0.02162861701451195 -0.0058401355201026604 -0.01032779380115496 -0.012815087632752999 0.0061643563040016799 -0.010616067943720183 0.016650200101731301 0.022444898922126102 -0.00023753950933557542 -0.015416017316056156 0.013141080000914971 -0.011141592920975203 -0.012815967553237606 -0.0047478737003850534 0.029469591115734405 -0.0034015952272967217 -0.0077298959038444425 0.0048227231042657307 -0.015344933839207819 -0.01261415752841801 0.0093197857296943437 -0.0069680040346876112 0.0094216105533869131 0.00605447934185713 -0.0019944519530034153
leaf_weight=340 573 664 192 558 180 395 1872 2121 5541 8417 459 4454 393 1267 425 1274 964 1504 520 42 437 798 696 182 183 510 518 411 1161 1414
leaf_count=340 573 664 192 558 180 395 1872 2121 5541 8417 459 4454 393 1267 425 1274 964 1504 520 42 437 798 696 182 183 510 518 411 1161 1414
internal_value=-1.42165e-11 0.00763756 -0.00795993 0.00453546 -0.00326622 0.00790592 -0.00495855 -0.00434913 -0.0117505 0.00585784 0.000699612 0.0146491 0.00896121 0.00352238 -0.0230501 0.00708153 -0.0108552 -0.00821546 0.000292912 -0.00181653 -0.00556443 -0.0022981 -0.00525782 -0.00164425 0.00119252 0.015032 0.00058609 0.00281343 0.00208132 -0.00108684
internal_weight=38465 19630 18835 13609 8415 1107 7308 7128 10420 11990 2299 6021 1567 1840 765 9691 9655 4114 712 5007 2610 1646 1619 1061 879 903 3135 848 2617 1456
internal_count=38465 19630 18835 13609 8415 1107 7308 7128 10420 11990 2299 6021 1567 1840 765 9691 9655 4114 712 5007 2610 1646 1619 1061 879 903 3135 848 2617 1456
is_linear=0
shrinkage=0.03


Tree=16
num_leaves=31
num_cat=0
split_feature=9 49 8 9 47 51 8 59 59 6 6 6 59 59 49 6 55 48 8 6 59 8 6 7 59 8 59 8 6 8
split_gain=2445.43 559.027 280.548 201.407 137.544 133.443 132.66 109.928 107.207 104.924 128.28 88.1725 87.2853 72.9853 64.5953 56.1265 57.3237 51.0841 50.4955 48.7296 39.8726 39.4879 36.8645 36.7028 36.6354 35.7653 35.6891 67.1303 41.1723 67.1099
threshold=22.171968000000003 22.951082250000002 1.5000000000000002 20.940015000000002 22.276662000000005 23.364128333333337 3.5000000000000004 20.491666666666671 45.00833333333334 13.500000000000002 11.500000000000002 13.500000000000002 60.00833333333334 30.008333333333336 21.622539450000001 10.500000000000002 0.77661264988118228 23.253885200000003 1.5000000000000002 9.5000000000000018 120.50833333333334 2.5000000000000004 8.5000000000000018 16.500000000000004 15.025000000000002 3.5000000000000004 60.475000000000009 1.5000000000000002 13.500000000000002 1.5000000000000002
decision_type=2 2 2 2 2 2 2 2 2 2 2 2 2 2 2 2 2 2 2 2 2 2 2 2 2 2 2 2 2 2
left_child=2 4 7 13 11 8 26 -1 17 10 12 18 14 -4 -5 -10 -17 -3 -2 24 -14 -12 -19 -20 -7 -11 28 -28 29 -6
right_child=1 5 3 9 6 19 -8 -9 15 25 21 -13 20 -15 -16 16 -18 22 23 -21 -22 -23 -24 -25 -26 -27 27 -29 -30 -31
leaf_value=-0.0045275288676723422 0.011891200251671601 0.0084213365565092603 -0.033402301988121372 -0.015585363000405956 -0.0069946540223495305 0.019380310937747783 -0.0077756025005120376 0.018361017112057631 -0.0065806041589697049 -0.010797150895111057 -0.011270499114736753 -0.0099987093118163797 -0.0032246395802039162 -0.014814262033727748 -0.0078483748987943237 0.0084959142733709286 -0.017236028501796424 0.033427965702116487 0.0039994440185664058 0.017359549430170328 0.024580963083135426 0.0027568636935788563 0.01455102489623024 -0.0032190575731230486 0.0037820992824406574 -0.01739060001235879 0.023917272988557815 0.0069952008192026719 0.0074602110734460925 0.0042625474951146682
leaf_weight=327 309 1954 412 1593 552 193 724 447 481 6537 207 961 1405 353 2488 829 86 100 940 3626 48 1417 1351 1947 455 835 250 1352 2796 3490
leaf_count=327 309 1954 412 1593 552 193 724 447 481 6537 207 961 1405 353 2488 829 86 100 940 3626 48 1417 1351 1947 455 835 250 1352 2796 3490
internal_value=1.60776e-11 0.0064073 -0.00893011 -0.00982182 0.00249522 0.0121498 0.00454837 0.00869105 0.00871736 -0.00903191 -0.00644475 -0.00203089 -0.00862034 -0.0248251 -0.0108685 0.00171601 0.00607739 0.0115878 0.000364942 0.0160054 -0.00230608 0.000968893 0.015852 -0.000868731 0.00842786 -0.011544 0.00560555 0.00963597 0.0046613 0.0027252
internal_weight=38465 22396 16069 15295 13321 9075 9164 774 4801 14530 7158 4157 5534 765 4081 1396 915 3405 3196 4274 1453 1624 1451 2887 648 7372 8440 1602 6838 4042
internal_count=38465 22396 16069 15295 13321 9075 9164 774 4801 14530 7158 4157 5534 765 4081 1396 915 3405 3196 4274 1453 1624 1451 2887 648 7372 8440 1602 6838 4042
is_linear=0
shrinkage=0.03


Tree=17
num_leaves=31
num_cat=0
split_feature=9 48 51 8 8 60 9 6 60 29 47 55 6 9 60 6 50 60 6 6 6 6 6 55 60 55 51 55 60 60
split_gain=2302.55 422.368 330.422 156.429 142.302 118.028 108.304 105.875 104.432 103.757 85.4015 77.5521 78.8321 59.3919 57.6606 50.5128 49.0347 45.8386 48.3948 48.6583 49.5837 45.4975 41.9898 39.5665 39.114 36.5677 32.8785 32.7722 38.034 31.7686
threshold=22.339967000000005 23.1081471 21.992299483333337 1.5000000000000002 3.5000000000000004 37.500000000000007 21.346419500000003 13.500000000000002 37.500000000000007 20.940015000000002 22.303559500000002 0.74569828524777959 9.5000000000000018 23.223801500000004 105.00000000000001 13.500000000000002 22.116149375000003 25.000000000000004 16.500000000000004 10.500000000000002 13.500000000000002 11.500000000000002 13.500000000000002 0.073126210471034819 75.000000000000014 0.5327675540809983 21.643354300000006 0.45580642176452052 52.500000000000007 75.000000000000014
decision_type=2 2 2 2 2 2 2 2 2 2 2 2 2 2 2 2 2 2 2 2 2 2 2 2 2 2 2 2 2 2
left_child=2 4 9 8 10 13 -5 16 23 14 15 12 -7 -3 -1 -2 -8 26 19 -19 24 -6 29 -4 -21 27 -11 28 -18 -23
right_child=1 5 3 6 21 11 7 -9 -10 17 -12 -13 -14 -15 -16 -17 25 18 -20 20 -22 22 -24 -25 -26 -27 -28 -29 -30 -31
leaf_value=-0.024783398039650042 0.0019747892258515599 0.010954094636325037 0.011507476550691268 -0.02764581855634848 -0.012135253741588747 -0.0014227521319856455 -0.0055455064045408778 -0.0097008569181550632 0.017739699981161164 -0.016970683533091391 0.006285812658644533 -0.010443541236107853 0.011904188483913111 0.018394222876578829 0.0017380936358527964 -0.0093014983893921783 -0.0024782200310658241 -0.010809751427290029 -0.012067749863274167 -0.0030662376039709226 -0.0077785682559651272 0.0054504267851677186 -0.0149442011556482 -0.0055069917355025748 0.0092955510576108562 -0.0066920701939024701 -0.010991027353558306 0.0087737661860245175 0.0061110507049829616 -0.01023158781534555
leaf_weight=664 1755 1426 170 180 531 488 1872 2121 492 1068 8739 188 2202 2991 83 449 1404 1150 1834 585 980 556 158 445 380 518 3676 520 693 147
leaf_count=664 1755 1426 170 180 531 488 1872 2121 492 1068 8739 188 2202 2991 83 449 1404 1150 1834 585 980 556 158 445 380 518 3676 520 693 147
internal_value=2.22988e-11 0.00718979 -0.00749326 -0.00307165 0.00380563 0.012912 -0.00466359 -0.00408324 0.00743775 -0.0110641 0.00495487 0.00818462 0.00948651 0.0159922 -0.0218366 -0.000322422 -0.00170357 -0.0102322 -0.00820611 -0.00591782 -0.00302542 -0.00522889 -0.000969559 -0.000803805 0.00180162 0.000590559 -0.0123372 0.00203206 0.000360294 0.00217126
internal_weight=38465 19630 18835 8415 12335 7295 7308 7128 1107 10420 10943 2878 2690 4417 747 2204 5007 9673 4929 3095 1945 1392 861 615 965 3135 4744 2617 2097 703
internal_count=38465 19630 18835 8415 12335 7295 7308 7128 1107 10420 10943 2878 2690 4417 747 2204 5007 9673 4929 3095 1945 1392 861 615 965 3135 4744 2617 2097 703
is_linear=0
shrinkage=0.03


Tree=18
num_leaves=31
num_cat=0
split_feature=9 48 9 6 6 51 47 59 59 6 59 59 48 6 54 6 6 54 6 46 47 44 6 59 59 51 6 54 9 44
split_gain=2168.39 497.388 200.709 163.833 214.1 135.022 128.712 108.72 93.3288 70.7453 67.4523 57.7801 57.4197 56.861 51.6855 55.4947 49.1456 44.8192 43.5882 38.856 36.8442 35.0913 33.3746 32.2512 32.0012 39.976 45.3134 47.2148 28.5155 28.2044
threshold=22.171968000000003 22.941220700000006 20.940015000000002 13.500000000000002 11.500000000000002 23.364128333333337 22.276662000000005 60.475000000000009 55.250000000000007 13.500000000000002 30.008333333333336 15.491666666666669 21.613494800000005 10.500000000000002 0.63611352384310893 10.500000000000002 8.5000000000000018 0.074634919254750395 9.5000000000000018 22.144456000000002 22.231071000000004 21.798925500000003 11.500000000000002 15.025000000000002 55.250000000000007 23.828779958333339 13.500000000000002 0.5961353869149485 22.920345500000003 22.078036500000003
decision_type=2 2 2 2 2 2 2 2 2 2 2 2 2 2 2 2 2 2 2 2 2 2 2 2 2 2 2 2 2 2
left_child=2 6 10 4 7 8 9 12 16 -2 -1 21 -4 20 15 -10 -3 -13 23 -8 -9 -6 -20 -7 25 26 27 -24 -18 -21
right_child=1 5 3 -5 11 18 19 13 14 -11 -12 17 -14 -15 -16 -17 28 -19 22 29 -22 -23 24 -25 -26 -27 -28 -29 -30 -31
leaf_value=-0.031651002762893454 1.6202350805369869e-06 0.02800444691725399 -0.014504409695266774 -0.010879168523452162 0.013795269927808973 0.018489509238415653 -0.0067105488386088024 -0.0099181771750677262 -0.0060875442503635913 -0.0094313777286467414 -0.013781416308261433 0.015618365181113611 -0.0073748694861155324 0.0066855049389593895 -0.013863606546384593 0.0082785737611572752 0.0055668000921768202 0.0036572752156794801 0.021388796778220549 -0.0050362330424832185 0.0032510940734116569 -0.0065195145249139479 0.027042809118713679 0.0036549474711490928 0.0097477180155632771 0.0082573513673564157 0.012151563858417685 0.011183587185515608 0.011444196605848724 0.0049196283037813504
leaf_weight=412 3137 138 1626 7372 88 188 281 565 363 927 353 379 2713 584 180 726 1040 1101 970 264 289 587 707 442 772 371 514 222 2601 8553
leaf_count=412 3137 138 1626 7372 88 188 281 565 363 927 353 379 2713 584 180 726 1040 1101 970 264 289 587 707 442 772 371 514 222 2601 8553
internal_value=-1.36354e-11 0.00603346 -0.00840907 -0.00765945 -0.00466705 0.0113711 0.00228875 -0.00767735 0.00806764 -0.00215005 -0.0234053 0.00340281 -0.0100466 -0.000528421 0.00102838 0.00348987 0.0104314 0.00672028 0.0153548 0.00427153 -0.0054616 -0.00387107 0.0166434 0.00808177 0.0148634 0.0170405 0.0192986 0.023253 0.0097654 0.00462153
internal_weight=38465 22396 16069 15304 7932 9234 13162 5777 5048 4064 765 2155 4339 1438 1269 1089 3779 1480 4186 9098 854 675 3556 630 2586 1814 1443 929 3641 8817
internal_count=38465 22396 16069 15304 7932 9234 13162 5777 5048 4064 765 2155 4339 1438 1269 1089 3779 1480 4186 9098 854 675 3556 630 2586 1814 1443 929 3641 8817
is_linear=0
shrinkage=0.03


Tree=19
num_leaves=31
num_cat=0
split_feature=18 51 51 55 51 18 18 55 59 59 15 48 59 54 55 48 59 51 59 59 59 60 55 59 45 36 55 7 38 40
split_gain=2039.38 401.541 241.261 124.9 113.555 94.0853 92.2112 52.4871 52.3991 50.9546 64.1316 58.1514 50.7306 65.1598 54.6651 50.0975 49.3412 42.028 40.1307 37.8585 36.9815 32.9751 37.417 32.6371 32.1575 34.3472 31.6716 30.6939 30.5514 26.927
threshold=22.289800000000003 23.364128333333337 21.986638933333335 0.073126210471034819 22.690212683333336 21.346419500000003 20.790389000000005 0.59355254720734829 30.008333333333336 55.250000000000007 4.0502293216097547 23.2856153 60.491666666666674 0.49258959164076282 0.21113922176379699 22.919128400000002 45.00833333333334 21.643354300000006 28.491666666666671 45.00833333333334 120.75000000000001 25.000000000000004 0.8436424973850245 10.491666666666669 21.635708000000005 21.627822500000004 0.69427964927319363 42.500000000000007 21.489648500000005 22.242026000000006
decision_type=2 2 2 2 2 2 2 2 2 2 10 2 2 2 2 2 2 2 2 2 2 2 2 2 2 2 2 2 2 2
left_child=2 4 6 23 7 -5 19 15 17 11 26 -6 24 14 -14 16 -2 -8 -3 -1 -10 22 -9 -4 -7 -26 -11 -13 -18 -17
right_child=1 18 3 5 9 12 8 21 20 10 -12 27 13 -15 -16 29 28 -19 -20 -21 -22 -23 -24 -25 25 -27 -28 -29 -30 -31
leaf_value=-0.029170340013894017 -0.00032209500689921498 0.017714681159152684 -0.0045705347569262389 -0.026149700796395017 0.0064458612746771558 0.0099634279389145021 -0.016173976648407168 -0.0028627534907469084 -0.007455596363575949 0.0076482169995972333 -0.0040642911619742979 0.0098216612623535753 -0.0028436797727249205 -0.011523351701451282 0.0092955262650179903 0.021483486977926756 -0.020709860416559072 -0.010163367578122742 0.011908005343919096 -0.011815861849965793 0.026540384701742178 -0.0096005276892174151 0.019267537997969028 0.019866624404814903 0.021984552473920147 -0.0055791774457498661 -0.0084257951816398419 0.019293259462722621 0.0061092276039173762 0.0058276301999077469
leaf_weight=320 3614 1990 61 171 5605 126 1394 379 4147 1368 828 794 609 306 739 177 39 4206 2320 175 29 576 84 254 41 5334 120 503 1932 224
leaf_count=320 3614 1990 61 171 5605 126 1394 379 4147 1368 828 794 609 306 739 177 39 4206 2320 175 29 576 84 254 41 5334 120 503 1932 224
internal_value=1.44341e-11 0.00644869 -0.00739951 -0.00336283 0.00428869 -0.00415817 -0.0104026 0.00141535 -0.00976292 0.00647845 0.00262799 0.0077705 -0.00363258 0.000974273 0.00381127 0.0024957 0.0017603 -0.0116596 0.014589 -0.0230349 -0.00721951 -0.00480887 0.00115225 0.0151343 -0.00501774 -0.00536892 0.00635193 0.0134949 0.00557856 0.0127381
internal_weight=38465 20553 17912 7641 16243 7326 10271 7025 9776 9218 2316 6902 7155 1654 1348 5986 5585 5600 4310 495 4176 1039 463 315 5501 5375 1488 1297 1971 401
internal_count=38465 20553 17912 7641 16243 7326 10271 7025 9776 9218 2316 6902 7155 1654 1348 5986 5585 5600 4310 495 4176 1039 463 315 5501 5375 1488 1297 1971 401
is_linear=0
shrinkage=0.03


Tree=20
num_leaves=31
num_cat=0
split_feature=9 49 8 9 47 8 51 59 59 6 46 6 6 59 6 55 8 8 6 48 59 8 59 7 8 59 6 8 53 16
split_gain=1928.57 442.238 227.769 162.462 108.708 113.469 106.284 93.6158 89.1542 73.0705 117.541 72.1174 67.8832 70.3695 48.3464 48.6151 45.2709 43.6576 41.5575 41.3355 37.1348 36.2732 34.1263 33.9618 33.3071 32.8492 36.1824 40.2983 39.188 32.4189
threshold=22.171968000000003 22.951082250000002 1.5000000000000002 20.599489000000002 22.276662000000005 3.5000000000000004 23.364128333333337 20.491666666666671 45.00833333333334 13.500000000000002 21.390529500000003 13.500000000000002 11.500000000000002 90.250000000000014 10.500000000000002 0.77661264988118228 1.5000000000000002 2.5000000000000004 9.5000000000000018 23.253885200000003 55.250000000000007 2.5000000000000004 60.50833333333334 16.500000000000004 3.5000000000000004 45.475000000000009 13.500000000000002 1.5000000000000002 0.18371458735424304 0.67219800000000085
decision_type=2 2 2 2 2 2 2 2 2 2 2 2 2 2 2 2 2 2 2 2 2 2 2 2 2 2 2 2 2 10
left_child=2 4 7 20 11 25 8 -1 19 10 22 16 13 17 -10 -16 -2 -12 -8 -3 -4 -14 -5 -18 -11 26 27 -6 -28 -29
right_child=1 6 3 9 5 -7 18 -9 14 24 12 -13 21 -15 15 -17 23 -19 -20 -21 -22 -23 -24 -25 -26 -27 28 29 -30 -31
leaf_value=-0.0042515239191301367 0.011267165577907152 0.0075035734013390067 -0.032345895757898688 -0.016029987752734374 -0.0063862266772999792 -0.0073619609330457612 0.0072408247310495758 0.016870655359812831 -0.0063505730517315062 -0.0095878670398947194 0.006552849971311411 -0.009019260223295484 -0.010706193287505944 0.0031465237516947091 0.0076246503016344676 -0.016072207202533866 0.0038682374721529223 -0.0084752408812991103 0.015489070532810624 0.014187713794358559 -0.014244506210271341 0.0027380666164896566 -0.0052025966024847378 -0.0030755011529676919 -0.015950693714939904 0.0078805350803807604 0.0044048135400328869 0.0011832381491418708 0.013167165900563544 0.0082598853032328882
leaf_weight=327 309 1954 306 1165 468 724 648 447 481 6537 183 961 207 625 829 86 940 3529 3626 1451 153 1417 338 1947 835 2522 1879 2166 608 797
leaf_count=327 309 1954 306 1165 468 724 648 447 481 6537 183 961 207 625 829 86 940 3529 3626 1451 153 1417 338 1947 835 2522 1879 2166 608 797
internal_value=-1.79861e-12 0.00569004 -0.00793044 -0.00873391 0.00221052 0.00403581 0.0107976 0.00794694 0.0077343 -0.00819007 -0.00609769 -0.00181328 -0.0042073 -0.00616633 0.00134957 0.0053974 0.000353472 -0.00773436 0.0142385 0.0103519 -0.0263121 0.00102442 -0.0135951 -0.000814637 -0.0103086 0.00501354 0.00379175 0.0017946 0.00654696 0.00308674
internal_weight=38465 22396 16069 15295 13321 9164 9075 774 4801 14836 7464 4157 5961 4337 1396 915 3196 3712 4274 3405 459 1624 1503 2887 7372 8440 5918 3431 2487 2963
internal_count=38465 22396 16069 15295 13321 9164 9075 774 4801 14836 7464 4157 5961 4337 1396 915 3196 3712 4274 3405 459 1624 1503 2887 7372 8440 5918 3431 2487 2963
is_linear=0
shrinkage=0.03


Tree=21
num_leaves=31
num_cat=0
split_feature=9 48 51 8 8 59 59 9 6 6 45 8 6 59 9 6 6 59 6 50 7 6 51 51 6 59 59 51 6 8
split_gain=1815.84 333.459 259.154 128.908 120.169 101.636 99.6203 89.1272 86.345 83.8407 75.7174 64.6624 63.7238 62.6475 50.565 44.3588 67.8144 43.3763 44.1608 43.1165 41.2983 41.0209 38.484 34.9335 34.4704 32.0015 27.9292 26.1451 55.9632 46.0334
threshold=22.339967000000005 23.1081471 21.992299483333337 1.5000000000000002 3.5000000000000004 45.491666666666674 44.50833333333334 21.391755000000003 13.500000000000002 8.5000000000000018 22.285568000000001 3.5000000000000004 9.5000000000000018 55.250000000000007 23.223801500000004 13.500000000000002 11.500000000000002 20.475000000000005 10.500000000000002 22.116149375000003 21.500000000000004 11.500000000000002 22.352847100000002 22.142597400000003 13.500000000000002 30.991666666666671 15.491666666666669 23.364128333333337 12.500000000000002 2.5000000000000004
decision_type=2 2 2 2 2 2 2 2 2 2 2 2 2 2 2 2 2 2 2 2 2 2 2 2 2 2 2 2 2 2
left_child=2 4 9 5 10 23 14 -5 19 13 24 12 -8 -1 -3 16 17 -11 -19 -9 -20 -6 -23 26 25 -2 -4 -14 -29 -30
right_child=1 6 3 7 21 -7 11 8 -10 15 -12 -13 27 -15 -16 -17 -18 18 20 -21 -22 22 -24 -25 -26 -27 -28 28 29 -31
leaf_value=-0.020848306683088548 -0.002285517886675676 0.0096503966812343661 -0.001677316370162558 -0.024036776017058979 -0.011482178984922858 0.019006062175772047 -0.0016865065223170123 -0.0050739075210339468 -0.0087011507956101658 -0.012098384762712593 0.0056622223065883439 -0.016951653673361565 0.0060596039001932873 -0.0076971363382231138 0.016515416581888466 -0.010262303515542892 0.0050860878897060913 -0.0093682412602863613 -0.00661388187567887 0.00068617121685300968 0.0074521803802152379 0.007683412629179656 -0.0055775700039071155 -0.0055418830395355355 -0.0078895708585653892 0.0060827961276829151 0.016831078720735568 0.020039817557566324 0.013397025104271295 -0.0010039404217786795
leaf_weight=978 942 1426 141 198 531 395 504 1872 2121 1126 8809 97 882 489 2991 5858 440 775 355 3117 399 305 556 418 462 730 153 556 511 328
leaf_count=978 942 1426 141 198 531 395 504 1872 2121 1126 8809 97 882 489 2991 5858 440 775 355 3117 399 305 556 418 462 730 153 556 511 328
internal_value=7.14776e-12 0.00638484 -0.00665433 -0.0027385 0.00337789 0.00680175 0.0114692 -0.00418363 -0.00363076 -0.00981669 0.00443398 0.00712612 0.00796595 -0.0164646 0.0142991 -0.0087274 -0.00582223 -0.00763001 -0.00433937 -0.00147516 0.000829565 -0.00492437 -0.000880009 3.11044e-05 -0.000636129 0.00136811 0.0079546 0.0101025 0.0126586 0.00776709
internal_weight=38465 19630 18835 8415 12335 1107 7295 7308 7110 10420 10943 2878 2781 1467 4417 8953 3095 2655 1529 4989 754 1392 861 712 2134 1672 294 2277 1395 839
internal_count=38465 19630 18835 8415 12335 1107 7295 7308 7110 10420 10943 2878 2781 1467 4417 8953 3095 2655 1529 4989 754 1392 861 712 2134 1672 294 2277 1395 839
is_linear=0
shrinkage=0.03


Tree=22
num_leaves=31
num_cat=0
split_feature=9 48 8 9 51 47 8 59 59 6 6 59 49 6 7 8 44 8 59 6 59 55 6 59 8 8 8 8 54 59
split_gain=1709.98 393.898 201.923 147.381 106.779 103.35 86.1688 84.0843 77.0117 64.8477 104.735 83.2002 61.5402 57.689 42.9837 51.0492 53.5383 40.9018 39.9026 38.3023 102.211 62.6356 35.4481 33.8103 33.6858 32.0067 31.365 30.8588 42.5416 30.2088
threshold=22.171968000000003 22.941220700000006 1.5000000000000002 20.599489000000002 23.364128333333337 22.276662000000005 3.5000000000000004 20.491666666666671 77.750000000000014 13.500000000000002 11.500000000000002 30.008333333333336 21.649554300000005 13.500000000000002 35.500000000000007 3.5000000000000004 22.565505000000005 2.5000000000000004 120.50833333333334 12.500000000000002 44.50833333333334 0.60854777093294732 12.500000000000002 55.250000000000007 2.5000000000000004 2.5000000000000004 3.5000000000000004 2.5000000000000004 0.33300588171355699 15.025000000000002
decision_type=2 2 2 2 2 2 2 2 2 2 2 2 2 2 2 2 2 2 2 2 2 2 2 2 2 2 2 2 2 2
left_child=2 5 7 23 8 13 -7 -1 14 10 11 12 -5 25 -3 16 -16 22 27 -19 21 -21 29 -4 -12 -2 -11 -13 -29 -6
right_child=1 4 3 9 17 6 -8 -9 -10 26 24 18 -14 -15 15 -17 -18 19 -20 20 -22 -23 -24 -25 -26 -27 -28 28 -30 -31
leaf_value=-0.0040788993535888036 0.0061150360267554259 0.0060553319830908186 -0.030723812017183494 -0.015667302955436002 0.014883908940773492 0.0046233627151828138 -0.0065778917796194469 0.01593914625680249 -0.0014066880490802116 -0.0090023923762541855 -0.010300408653995912 0.011091484036130297 -0.0071244740673119412 -0.0085272611127292265 0.021508786294398445 -0.0048635194233941784 0.010100361635108461 0.020032342672869626 0.0232622888230253 0.029926251629730994 -0.00097822460088898503 0.0054102481544032336 0.013485049669969914 -0.013451694782969413 0.0026554915743032775 -0.0015084969754257361 -0.015176923911193175 -0.0032135996079935857 -0.013218452970850312 0.0013979808112503768
leaf_weight=327 617 2349 306 1396 212 8431 667 447 794 6537 207 112 1663 927 530 147 1228 1232 48 269 332 144 1490 153 1417 2520 835 2156 465 507
leaf_count=327 617 2349 306 1396 212 8431 667 447 794 6537 207 112 1663 927 530 147 1228 1232 48 269 332 144 1490 153 1417 2520 835 2156 465 507
internal_value=-1.40019e-11 0.00535788 -0.00746749 -0.008224 0.0101079 0.00202545 0.00380217 0.00748191 0.00717017 -0.00770602 -0.00573488 -0.00760887 -0.0110231 -0.00195207 0.00877102 0.0121197 0.0135398 0.0136505 -0.00385339 0.0167852 0.0114154 0.0213783 0.0108451 -0.0249664 0.00100409 -9.06444e-06 -0.00970176 -0.00432962 -0.00498859 0.00537436
internal_weight=38465 22396 16069 15295 9234 13162 9098 774 5048 14836 7464 5840 3059 4064 4254 1905 1758 4186 2781 1977 745 413 2209 459 1624 3137 7372 2733 2621 719
internal_count=38465 22396 16069 15295 9234 13162 9098 774 5048 14836 7464 5840 3059 4064 4254 1905 1758 4186 2781 1977 745 413 2209 459 1624 3137 7372 2733 2621 719
is_linear=0
shrinkage=0.03


Tree=23
num_leaves=31
num_cat=0
split_feature=9 50 50 6 18 59 19 55 9 6 9 53 59 6 54 6 21 41 55 59 46 7 60 55 6 54 6 59 9 59
split_gain=1610.3 295.374 229.765 102.41 92.1647 85.2026 78.8663 78.1626 62.2485 56.7009 71.5253 50.4228 48.1791 46.2893 48.7067 43.657 45.6913 37.0848 36.6681 35.3814 34.672 34.6184 32.6628 29.8388 32.2485 37.156 26.5131 29.0002 25.4287 36.3838
threshold=22.339967000000005 23.168480425000002 22.033629200000004 13.500000000000002 20.790389000000005 30.475000000000005 22.120181500000005 0.5256432636155518 21.346419500000003 10.500000000000002 23.400422000000002 0.070855969094425417 60.00833333333334 15.500000000000002 0.2323409187059142 7.5000000000000009 22.059954000000001 21.276380500000005 0.24433723679133615 45.00833333333334 21.971240000000005 20.500000000000004 17.500000000000004 0.073126210471034819 12.500000000000002 0.39066859047781816 11.500000000000002 77.750000000000014 22.970943500000004 55.250000000000007
decision_type=2 2 2 2 2 2 2 2 2 2 2 2 2 2 2 2 2 2 2 2 2 2 2 2 2 2 2 2 2 2
left_child=2 6 4 5 19 8 -2 11 -4 10 21 -7 17 14 -14 -8 -17 -6 -13 -1 -18 -3 -12 -10 -25 -26 -11 -28 -22 -30
right_child=1 9 3 -5 12 7 15 -9 23 26 22 18 13 -15 -16 16 20 -19 -20 -21 28 -23 -24 24 25 -27 27 -29 29 -31
leaf_value=-0.026701835609333858 -0.0053619563149128989 -0.01813658987544477 -0.030735584139018446 -0.0081330933911863638 -0.016043939811462047 0.016335019894394346 -0.0037301742006161363 -0.0093194837207487696 0.0096385978327857124 0.018569391474277934 0.020407450547149004 -0.00072395842445760277 0.00099151621804261588 -0.01028720583132992 -0.013109292277053855 -0.0046318820181718845 -0.00021580342117496752 -0.0088068464545537229 0.0077438103542421602 -0.010621512020080302 0.0044542120313860734 0.0018749984538382184 0.0081987421010283057 -0.0050910541274213498 -0.0051791774142605261 0.011826873942878425 0.013420014758410578 0.0062412226765758867 0.0095546359182325166 0.0023741588856638829
leaf_weight=350 836 90 74 1924 694 355 603 348 162 714 291 825 1265 823 267 470 1079 7793 1041 190 7373 574 612 2261 224 239 3136 604 2382 866
leaf_count=350 836 90 74 1924 694 355 603 348 162 714 291 825 1265 823 267 470 1079 7793 1041 190 7373 574 612 2261 224 239 3136 604 2382 866
internal_value=-6.14515e-12 0.00601263 -0.00626641 -0.0021717 -0.00894766 -9.72281e-05 0.00356487 0.00390027 -0.00356668 0.0115452 0.00663698 0.00597162 -0.00834519 -0.00454874 -0.001466 0.00414914 0.00453954 -0.00939864 0.00400002 -0.0210439 0.00490797 -0.000837416 0.0121331 -0.00287004 -0.00361395 0.00359932 0.013272 0.0122607 0.0054285 0.00764014
internal_weight=38465 19630 18835 7453 11382 5529 13609 2569 2960 6021 1567 2221 10842 2355 1532 12773 12170 8487 1866 540 11700 664 903 2886 2724 463 4454 3740 10621 3248
internal_count=38465 19630 18835 7453 11382 5529 13609 2569 2960 6021 1567 2221 10842 2355 1532 12773 12170 8487 1866 540 11700 664 903 2886 2724 463 4454 3740 10621 3248
is_linear=0
shrinkage=0.03


Tree=24
num_leaves=31
num_cat=0
split_feature=18 9 18 6 6 47 59 59 48 6 55 59 6 59 6 55 49 59 51 7 51 50 6 47 9 59 59 51 54 6
split_gain=1518.52 339.877 143.504 137.023 151.511 103.3 94.6195 75.8198 72.1418 61.95 62.5443 58.8853 46.6599 45.0658 43.9498 42.7881 32.4301 31.4692 30.3046 29.2591 29.1882 37.6871 30.7134 29.0002 27.7859 24.9107 23.8454 25.0588 23.0222 20.4092
threshold=22.171123000000005 23.001421500000003 21.112217000000005 13.500000000000002 11.500000000000002 22.268153000000002 55.250000000000007 45.025000000000006 23.253885200000003 9.5000000000000018 0.75392380978412066 77.750000000000014 10.500000000000002 15.491666666666669 13.500000000000002 0.067388164194484443 21.649554300000005 90.50833333333334 22.067351366666667 6.5000000000000009 23.828779958333339 23.518376375000003 8.5000000000000018 21.797332500000003 22.040814000000005 107.75000000000001 107.75000000000001 21.588130566666671 0.65539575424062713 11.500000000000002
decision_type=2 2 2 2 2 2 2 2 2 2 2 2 2 2 2 2 2 2 2 2 2 2 2 2 2 2 2 2 2 2
left_child=2 5 11 4 7 14 8 16 -3 -8 -11 -1 18 23 29 25 -4 -14 -9 -19 21 22 -10 -6 -7 -15 -21 -28 -17 -2
right_child=1 6 3 -5 13 24 9 12 20 10 -12 -13 17 15 -16 28 -18 19 -20 26 -22 -23 -24 -25 -26 -27 27 -29 -30 -31
leaf_value=-0.021405912894400067 -0.0021997673612237038 0.0078458243868618563 -0.012471209955549883 -0.0091976212245643389 0.012600139471405482 -0.006465913598330166 -0.0051399791875498041 -0.0087382581514603361 0.027638163960685854 0.0086074073275728673 -0.012567429615184665 -0.0044856012158659324 -0.00016674476372926229 0.023405209428959153 -0.0079037528582863413 0.0049646090915534506 -0.0065196873209458009 -0.012544349460182963 0.0015440807676215906 0.043844822287559509 0.0089901666644673327 0.019524705166149833 0.011455689548410622 -0.0056030140964899592 0.0039922614053748522 -0.0054081099713221194 0.030189899865155374 0.0068915819149950276 -0.015605277105727617 0.0030177233673151834
leaf_weight=833 1818 2438 1320 7367 91 234 459 762 114 1792 135 238 525 173 885 1230 2193 37 390 25 689 1348 1425 586 9985 32 56 161 51 1073
leaf_count=833 1818 2438 1320 7367 91 234 459 762 114 1792 135 238 525 173 885 1230 2193 37 390 25 689 1348 1425 586 9985 32 56 161 51 1073
internal_value=9.80181e-12 0.0050493 -0.00703666 -0.00627911 -0.00346194 0.00218605 0.00981969 -0.00612021 0.0118252 0.00476472 0.00712396 -0.0176458 -0.00138637 0.00325931 -0.00205402 0.00618213 -0.00875596 0.00415997 -0.00525726 0.0123016 0.0145382 0.0158623 0.0126544 -0.00315621 0.00375278 0.0189075 0.0161004 0.0129041 0.00414567 -0.000263286
internal_weight=38465 22395 16070 14999 7632 13995 8400 5469 6014 2386 1927 1071 1956 2163 3776 1486 3513 804 1152 279 3576 2887 1539 677 10219 205 242 217 1281 2891
internal_count=38465 22395 16070 14999 7632 13995 8400 5469 6014 2386 1927 1071 1956 2163 3776 1486 3513 804 1152 279 3576 2887 1539 677 10219 205 242 217 1281 2891
is_linear=0
shrinkage=0.03


Tree=25
num_leaves=31
num_cat=0
split_feature=9 48 8 9 51 46 8 59 59 6 48 6 6 59 7 8 46 8 6 59 55 59 8 6 49 51 8 8 59 6
split_gain=1430.37 331.789 172.057 126.915 91.4909 86.4492 78.7076 74.0812 68.3887 54.9172 88.464 47.1691 43.8855 41.9151 38.5051 46.0541 51.7824 36.5905 35.5071 93.8496 57.592 31.9595 31.3384 31.2245 30.0035 34.8339 29.9214 29.4735 28.8148 26.8952
threshold=22.171968000000003 22.941220700000006 1.5000000000000002 20.599489000000002 23.364128333333337 22.276662000000005 3.5000000000000004 20.491666666666671 77.750000000000014 13.500000000000002 21.551709800000005 13.500000000000002 11.500000000000002 60.750000000000007 35.500000000000007 3.5000000000000004 22.735086500000005 2.5000000000000004 12.500000000000002 44.50833333333334 0.60854777093294732 28.491666666666671 2.5000000000000004 12.500000000000002 21.700549350000006 22.057395300000007 2.5000000000000004 3.5000000000000004 28.491666666666671 16.500000000000004
decision_type=2 2 2 2 2 2 2 2 2 2 2 2 2 2 2 2 2 2 2 2 2 2 2 2 2 2 2 2 2 2
left_child=2 5 7 28 8 11 -7 -1 14 10 21 -2 13 26 -3 16 -16 23 -19 20 -20 -5 -14 -6 -15 -26 -12 29 -4 -11
right_child=1 4 3 9 17 6 -8 -9 -10 27 12 -13 22 24 15 -17 -18 18 19 -21 -22 -23 -24 -25 25 -27 -28 -29 -30 -31
leaf_value=-0.0038814656938417655 -6.0857031737770727e-05 0.0054787181387644284 -0.031468446123249387 -0.014575697331411692 0.0047510472770621003 0.0042392971480977211 -0.0064053124608006327 0.01490815567562119 -0.0015419666144307186 -0.0056561401151773907 0.0056383260240092381 -0.0078117844982065069 -0.0099543781607054124 0.0098770415382459752 0.018286326143756675 -0.0049124752318638618 0.0079319335391714579 0.018630273998252914 0.028076981856975856 -0.0015421597604465907 0.0045687455504472979 -0.0071369099472306814 0.0025464704904933615 0.012363226392905824 -0.010929683691168996 0.0035777078175605933 -0.0074431318960357339 -0.014191473094824544 -0.01634152621501947 -0.0096581972234460588
leaf_weight=327 3103 2349 204 936 719 8469 675 447 794 2372 167 915 207 240 787 147 971 1232 269 332 144 1169 1409 1490 261 347 2728 835 255 4165
leaf_count=327 3103 2349 204 936 719 8469 675 447 794 2372 167 915 207 240 787 147 971 1232 269 332 144 1169 1409 1490 261 347 2728 835 255 4165
internal_value=-6.68423e-12 0.0049003 -0.00682974 -0.00752806 0.00925976 0.00184185 0.00345352 0.0069699 0.00654047 -0.00704739 -0.00523345 -0.00182594 -0.00318652 -0.00497033 0.00804904 0.0112184 0.0125673 0.012539 0.0155038 0.0103337 0.0198804 -0.0104446 0.000945186 0.00988556 0.000895409 -0.00264997 -0.00668852 -0.00888397 -0.0230646 -0.00820602
internal_weight=38465 22396 16069 15295 9234 13162 9144 774 5048 14836 7464 4018 5359 3743 4254 1905 1758 4186 1977 745 413 2105 1616 2209 848 608 2895 7372 459 6537
internal_count=38465 22396 16069 15295 9234 13162 9144 774 5048 14836 7464 4018 5359 3743 4254 1905 1758 4186 1977 745 413 2105 1616 2209 848 608 2895 7372 459 6537
is_linear=0
shrinkage=0.03


end of trees

feature_importances:
hour=166
target_minutes_ahead=152
day_of_week=87
source_temp=66
temp_roll_mean_30=62
temp_roll_std_30=61
temp_roll_mean_20=40
temp_roll_mean_5=25
temp_roll_std_20=18
requested_horizon_min=15
temp_roll_mean_10=12
minute=11
temp_lag_1=10
temp_lag_30=10
temp_lag_29=9
temp_lag_12=5
temp_lag_27=5
temp_lag_28=4
mean_person_distance=3
nearest_person_dx=2
temp_lag_2=2
temp_lag_14=2
temp_lag_26=2
temp_roll_std_10=2
temp_lag_3=1
temp_lag_4=1
temp_lag_5=1
temp_lag_19=1
temp_lag_21=1
temp_lag_23=1
temp_lag_24=1
temp_lag_25=1
seconds_since_previous=1

parameters:
[boosting: gbdt]
[objective: regression]
[metric: rmse,l2]
[tree_learner: serial]
[device_type: cpu]
[data_sample_strategy: bagging]
[data: ]
[valid: ]
[num_iterations: 1200]
[learning_rate: 0.03]
[num_leaves: 31]
[num_threads: 8]
[seed: 42]
[deterministic: 0]
[force_col_wise: 0]
[force_row_wise: 0]
[histogram_pool_size: -1]
[max_depth: -1]
[min_data_in_leaf: 20]
[min_sum_hessian_in_leaf: 0.001]
[bagging_fraction: 0.85]
[pos_bagging_fraction: 1]
[neg_bagging_fraction: 1]
[bagging_freq: 0]
[bagging_seed: 400]
[bagging_by_query: 0]
[feature_fraction: 0.85]
[feature_fraction_bynode: 1]
[feature_fraction_seed: 30056]
[extra_trees: 0]
[extra_seed: 12879]
[early_stopping_round: 0]
[early_stopping_min_delta: 0]
[first_metric_only: 0]
[max_delta_step: 0]
[lambda_l1: 0]
[lambda_l2: 0]
[linear_lambda: 0]
[min_gain_to_split: 0]
[drop_rate: 0.1]
[max_drop: 50]
[skip_drop: 0.5]
[xgboost_dart_mode: 0]
[uniform_drop: 0]
[drop_seed: 17869]
[top_rate: 0.2]
[other_rate: 0.1]
[min_data_per_group: 100]
[max_cat_threshold: 32]
[cat_l2: 10]
[cat_smooth: 10]
[max_cat_to_onehot: 4]
[top_k: 20]
[monotone_constraints: ]
[monotone_constraints_method: basic]
[monotone_penalty: 0]
[feature_contri: ]
[forcedsplits_filename: ]
[refit_decay_rate: 0.9]
[cegb_tradeoff: 1]
[cegb_penalty_split: 0]
[cegb_penalty_feature_lazy: ]
[cegb_penalty_feature_coupled: ]
[path_smooth: 0]
[interaction_constraints: ]
[verbosity: -1]
[saved_feature_importance_type: 0]
[use_quantized_grad: 0]
[num_grad_quant_bins: 4]
[quant_train_renew_leaf: 0]
[stochastic_rounding: 1]
[linear_tree: 0]
[max_bin: 255]
[max_bin_by_feature: ]
[min_data_in_bin: 3]
[bin_construct_sample_cnt: 200000]
[data_random_seed: 175]
[is_enable_sparse: 1]
[enable_bundle: 1]
[use_missing: 1]
[zero_as_missing: 0]
[feature_pre_filter: 1]
[pre_partition: 0]
[two_round: 0]
[header: 0]
[label_column: ]
[weight_column: ]
[group_column: ]
[ignore_column: ]
[categorical_feature: 0,1]
[forcedbins_filename: ]
[precise_float_parser: 0]
[parser_config_file: ]
[objective_seed: 16083]
[num_class: 1]
[is_unbalance: 0]
[scale_pos_weight: 1]
[sigmoid: 1]
[boost_from_average: 1]
[reg_sqrt: 0]
[alpha: 0.9]
[fair_c: 1]
[poisson_max_delta_step: 0.7]
[tweedie_variance_power: 1.5]
[lambdarank_truncation_level: 30]
[lambdarank_norm: 1]
[label_gain: ]
[lambdarank_position_bias_regularization: 0]
[eval_at: ]
[multi_error_top_k: 1]
[auc_mu_weights: ]
[num_machines: 1]
[local_listen_port: 12400]
[time_out: 120]
[machine_list_filename: ]
[machines: ]
[gpu_platform_id: -1]
[gpu_device_id: -1]
[gpu_use_dp: 0]
[num_gpu: 1]

end of parameters

pandas_categorical:[["cableduct_1", "cableduct_2", "cableduct_3", "cableduct_4", "chair_1", "machine_1", "machine_2", "machine_3", "machine_4", "machine_5", "machine_6", "screen_1", "screen_2", "window_1"], ["Cableduct", "Chair", "Machine", "Screen", "Window"]]
