tree
version=v4
num_class=1
num_tree_per_iteration=1
label_index=0
max_feature_idx=60
objective=quantile
feature_names=object_id canonical_label display_x display_y anchor_x anchor_y hour minute day_of_week source_temp people_count_total people_count_within_1m people_count_within_2m people_count_within_3m nearest_person_distance mean_person_distance nearest_person_dx nearest_person_dy temp_lag_1 temp_lag_2 temp_lag_3 temp_lag_4 temp_lag_5 temp_lag_6 temp_lag_7 temp_lag_8 temp_lag_9 temp_lag_10 temp_lag_11 temp_lag_12 temp_lag_13 temp_lag_14 temp_lag_15 temp_lag_16 temp_lag_17 temp_lag_18 temp_lag_19 temp_lag_20 temp_lag_21 temp_lag_22 temp_lag_23 temp_lag_24 temp_lag_25 temp_lag_26 temp_lag_27 temp_lag_28 temp_lag_29 temp_lag_30 temp_roll_mean_5 temp_roll_mean_10 temp_roll_mean_20 temp_roll_mean_30 temp_roll_std_5 temp_roll_std_10 temp_roll_std_20 temp_roll_std_30 temp_delta_1 seconds_since_previous observations_in_frame target_minutes_ahead requested_horizon_min
feature_infos=none none none none none none [7:21] [0:59] [1:3] [20.085569:25.901764] [0:4] none none [0:1] [2.5046956686537789:11.53583528725961] [2.679749184197842:11.53583528725961] [-11.256985:-1.8557190000000001] [-4.8917030000000006:-0.55127900000000007] [20.085569:25.365593000000001] [20.085569:25.689505] [20.085569:25.689505] [20.085569:25.689505] [20.085569:25.901764] [20.085569:25.365593000000001] [20.085569:25.122602000000001] [20.085569:25.901764] [20.085569:25.689505] [20.085569:25.901764] [20.085569:25.689505] [20.085569:25.333296000000001] [20.085569:25.689505] [20.085569:25.689505] [20.085569:25.689505] [20.085569:25.689505] [20.085569:25.689505] [20.085569:25.689505] [20.085569:25.689505] [20.085569:25.689505] [20.085569:25.689505] [20.085569:25.689505] [20.085569:25.689505] [20.085569:25.689505] [20.085569:25.689505] [20.085569:25.689505] [20.085569:25.689505] [20.085569:25.689505] [20.085569:25.365593000000001] [20.085569:25.365593000000001] [20.327488800000001:24.872952399999999] [20.4100207:24.656756300000001] [20.496198100000001:24.145738250000001] [20.497939933333331:24.043209866666665] [0.01852957008899038:1.6755225632495825] [0.029949905104890932:1.7102872080818488] [0.073793402236829578:1.2904055149804803] [0.089419701562512693:1.4745312463620026] [-3.0405489999999986:3.3821510000000004] [28:324989] none [5:15] [5:10]
tree_sizes=1270 1341 1365 1194 1450 1275 1451 1474 1559 1728 1547 1557 1643 1808 1648 1730 1567 1636 1730 1823 1823 2084 1741 1570 1834 1830 1563 1468 1729 1485 1716 1659

Tree=0
num_leaves=14
num_cat=0
split_feature=48 37 46 54 53 33 48 47 47 21 47 26 59
split_gain=6.76674 3.40578 1.75601 1.30921 1.30208 0.74815 0.410598 0.671083 0.871111 0.297554 0.129781 0.266327 0.0494286
threshold=23.466762500000005 22.941489500000003 23.209284000000004 0.5967575495389611 0.71359129869032145 24.574516000000006 23.142409700000005 22.649114000000001 22.523346000000004 23.515272500000005 22.930337500000004 23.074112000000003 13.508333333333335
decision_type=2 2 2 2 2 2 2 2 2 2 2 2 2
left_child=5 -2 3 -3 9 6 12 8 -8 -4 11 -9 -1
right_child=1 2 4 -5 -6 -7 7 10 -10 -11 -12 -13 -14
leaf_value=24.438378257751467 24.493758907318114 24.481825866699218 24.471700087467376 24.477608838069457 24.47539764189354 24.509844036102294 24.459561456085538 24.450262554370301 24.473263157324762 24.458015762090398 24.449662049535696 24.473616275787354 24.450776336197087
leaf_weight=1730 26 33 23 20 24 20 20 29 25 73 118 20 20
leaf_count=1730 26 33 23 20 24 20 20 29 25 73 118 20 20
internal_value=24.4668 24.4721 24.4706 24.4751 24.4685 24.4663 24.4662 24.4675 24.4707 24.467 24.4666 24.4679 24.4661
internal_weight=2181 199 173 53 120 1982 1962 212 45 96 167 49 1750
internal_count=2181 199 173 53 120 1982 1962 212 45 96 167 49 1750
is_linear=0
shrinkage=1


Tree=1
num_leaves=14
num_cat=0
split_feature=48 37 21 32 19 37 42 59 9 57 59 20 19
split_gain=6.5233 2.7643 1.32272 1.14281 0.867594 0.723161 0.408612 0.185671 0.151272 0.185826 0.363564 0.72 0.0443503
threshold=23.466762500000005 22.941489500000003 23.442177000000004 24.574516000000006 23.8287145 23.153400500000004 24.470168000000005 5.5083333333333337 23.047974000000004 45.500000000000007 8.7500000000000018 22.989121500000003 23.465679500000004
decision_type=2 2 2 2 2 2 2 2 2 2 2 2 2
left_child=3 -2 4 8 -3 -4 7 -7 -1 12 -11 -12 -10
right_child=1 2 5 -5 -6 6 -8 -9 9 10 11 -13 -14
leaf_value=-0.029288729930656093 0.02615502147674565 0.0088618274110368444 0.01457997207641604 0.041757596397399933 0.013051039819237702 0.0089354613258624295 0.0065830552468404231 -0.012708463655441798 -0.0033010441389866685 -0.0084699061651956013 -0.017643658566265638 0.0066616473445968057 -0.0076144793270649935
leaf_weight=1683 26 23 23 21 20 31 21 55 157 51 25 25 20
leaf_count=1683 26 23 23 21 20 31 21 55 157 51 25 25 20
internal_value=-4.84862e-05 0.0051294 0.00375867 -0.000568365 0.00831977 0.00225 0.00121262 0.000296512 -0.000642911 5.3964e-06 0.00103218 0.00285 -0.000580508
internal_weight=2181 199 173 1982 43 130 107 86 1961 278 101 50 177
internal_count=2181 199 173 1982 43 130 107 86 1961 278 101 50 177
is_linear=0
shrinkage=0.03


Tree=2
num_leaves=14
num_cat=0
split_feature=48 46 9 51 53 33 50 19 31 15 20 18 29
split_gain=6.48869 2.95833 2.00713 2.29789 1.19955 0.756017 0.744898 0.272104 0.47342 0.153646 0.0483886 0.0336066 0.0288668
threshold=23.466762500000005 23.209284000000004 23.361741000000006 23.399977683333336 0.71359129869032145 24.574516000000006 23.635070650000003 23.465679500000004 23.319668500000002 4.3980713374313565 24.090281500000003 23.224605000000004 24.227548500000001
decision_type=2 2 2 2 2 2 2 2 2 8 2 2 2
left_child=5 2 -2 -4 6 7 -3 9 11 -1 12 -9 -11
right_child=1 4 3 -5 -6 -7 -8 8 -10 10 -12 -13 -14
leaf_value=0.0035102221380523728 0.010951199544137201 0.0091169894331488421 0.025370370832443249 0.014142572914123583 0.011871554402974889 0.040504868505477951 -0.012640936289681153 -0.022401411232644063 0.0063080416995868966 -0.022010001462763544 -0.004614319647662006 -0.012418714717537586 -0.015848940630097889
leaf_weight=25 21 25 25 27 28 20 73 41 21 1801 20 20 34
leaf_count=25 21 25 25 27 28 20 73 41 21 1801 20 20 34
internal_value=-3.47311e-05 0.0051294 0.00993493 0.0130962 0.00234524 -0.000553228 0.000780613 -0.000612385 0.00107927 -0.000686169 -0.000717654 -0.000258196 -0.000733651
internal_weight=2181 199 73 52 126 1982 98 1962 82 1880 1855 61 1835
internal_count=2181 199 73 52 126 1982 98 1962 82 1880 1855 61 1835
is_linear=0
shrinkage=0.03


Tree=3
num_leaves=12
num_cat=0
split_feature=48 46 56 53 33 50 48 55 6 59 21
split_gain=5.12304 2.23365 1.53925 1.30612 0.74815 0.476735 0.410598 0.800684 2.78437 0.0494286 0.0432432
threshold=23.466762500000005 23.209284000000004 -0.18514749999999933 0.71359129869032145 24.574516000000006 23.635070650000003 23.142409700000005 0.40893078438892255 11.500000000000002 13.508333333333335 24.018405000000005
decision_type=2 2 2 2 2 2 2 2 2 2 2
left_child=4 2 -2 5 6 -3 9 8 -8 -1 -9
right_child=1 3 -4 -5 -6 -7 7 10 -10 -11 -12
leaf_value=-0.026025246661102733 0.014052263620351155 0.0088434797501543636 0.024609259707469917 0.011515407770885605 0.03928972245031357 -0.012261708200990706 -0.01601996264365315 -0.0092558731860766328 0.0066754540697580803 -0.01483931172448595 0.00071244807865570052
leaf_weight=1730 39 25 34 28 20 73 44 128 20 20 20
leaf_count=1730 39 25 34 28 20 73 44 128 20 20 20
internal_value=-6.22414e-05 0.00452638 0.00870206 0.00210714 -0.000522956 0.000474491 -0.000581804 0.000665095 0.00346875 -0.000732856 -0.000547297
internal_weight=2181 199 73 126 1982 98 1962 212 64 1750 148
internal_count=2181 199 73 126 1982 98 1962 212 64 1750 148
is_linear=0
shrinkage=0.03


Tree=4
num_leaves=15
num_cat=0
split_feature=48 46 25 53 33 27 48 47 47 50 47 26 18 7
split_gain=4.19067 1.47658 1.46177 1.30612 0.740324 0.644128 0.486904 0.90536 1.13778 0.476735 0.129781 0.266327 0.0793469 0.118367
threshold=23.466762500000005 23.209284000000004 23.587164000000005 0.71359129869032145 24.574516000000006 23.316094000000003 23.142409700000005 22.649114000000001 22.523346000000004 23.635070650000003 22.930337500000004 23.074112000000003 23.371391500000005 41.500000000000007
decision_type=2 2 2 2 2 2 2 2 2 2 2 2 2 2
left_child=4 2 5 9 6 -2 12 8 -8 -3 11 -9 -1 -14
right_child=1 3 -4 -5 -6 -7 7 10 -10 -11 -12 -13 13 -15
leaf_value=-0.027706924717554149 0.019789707961165595 0.0085781753576497175 0.018771532862287402 0.011169945537759008 0.038111030776804174 -0.00020161932066910571 -0.0051998680814704197 -0.014514951884237834 0.0062076438931062709 -0.011893856954960955 -0.015367369952724577 0.0060713802946046206 -0.015731161897319865 0.0015301715428210961
leaf_weight=1701 21 25 29 28 20 23 20 29 25 73 118 20 29 20
leaf_count=1701 21 25 29 28 20 23 20 29 25 73 118 20 29 20
internal_value=-7.59965e-05 0.00407412 0.00746918 0.00210714 -0.000492683 0.00402273 -0.000551223 0.000806604 0.00458333 0.000474491 -0.000211077 0.00108674 -0.000715714 0.000474491
internal_weight=2181 199 73 126 1982 44 1962 212 45 98 167 49 1750 49
internal_count=2181 199 73 126 1982 44 1962 212 45 98 167 49 1750 49
is_linear=0
shrinkage=0.03


Tree=5
num_leaves=13
num_cat=0
split_feature=48 46 56 32 53 48 55 46 50 30 18 14
split_gain=3.62969 1.38291 1.46053 1.11319 0.952948 0.486861 0.721897 1.43438 0.476735 0.172973 0.0761444 0.121569
threshold=23.466762500000005 23.209284000000004 -0.18514749999999933 24.574516000000006 0.71359129869032145 23.142409700000005 0.40893078438892255 22.9878435 23.635070650000003 22.697497500000001 23.371391500000005 6.8338261425780074
decision_type=2 2 2 2 2 2 2 2 2 2 2 10
left_child=3 2 -2 5 8 10 7 -7 -3 -8 -1 -12
right_child=1 4 -4 -5 -6 6 9 -9 -10 -11 11 -13
leaf_value=-0.026852889418771966 0.013066022435549969 0.0083208300969202648 0.023282636120712324 0.036967699853500055 0.010834847171626239 0.0061186198131112975 0.0011250598559739025 -0.01467703689358266 -0.011537041246312075 -0.0087688224868163762 0.0014842663965364501 -0.015360219084955237
leaf_weight=1698 39 25 34 21 28 30 20 34 73 128 20 31
leaf_count=1698 39 25 34 21 28 30 20 34 73 128 20 31
internal_value=-8.97517e-05 0.00377261 0.00705822 -0.000477547 0.00186905 -0.000551121 0.000806604 0.00346875 0.000474491 -0.000344594 -0.000715694 0.000426471
internal_weight=2181 199 73 1982 126 1961 212 64 98 148 1749 51
internal_count=2181 199 73 1982 126 1961 212 64 98 148 1749 51
is_linear=0
shrinkage=0.03


Tree=6
num_leaves=15
num_cat=0
split_feature=18 9 51 43 16 33 49 51 55 17 19 26 14 9
split_gain=2.89247 1.31019 2.34902 1.10694 1.52451 1.00925 0.611502 0.540971 0.96763 0.427907 0.338521 0.157428 0.0348485 0.0307692
threshold=23.514906000000003 23.224605000000004 23.10413736666667 23.327724500000006 -9.9880329999999979 24.623725000000004 23.145475650000005 23.170778116666671 0.4171793433949581 -1.2131404999999997 24.150353500000005 24.382710500000005 10.513669236625667 24.151839500000005
decision_type=2 2 2 2 8 2 2 2 2 8 2 2 8 2
left_child=5 12 -3 13 -5 6 -1 8 -8 -6 11 -9 -2 -4
right_child=1 2 3 4 9 -7 7 10 -10 -11 -12 -13 -14 -15
leaf_value=-0.024503219194282628 -0.0033412306394978645 0.022592556973645903 -0.00078380976383516548 0.0076052070449264663 -0.015572748435204165 0.035858668857895105 0.0058627237380090205 -0.0092709220977485983 -0.006370492584480106 0.012480766454131145 0.0055823332121261969 0.0021792396978581132 -0.008907177080922651 0.0012047325419381203
leaf_weight=1704 20 23 32 28 23 23 24 142 34 20 20 22 46 20
leaf_count=1704 20 23 32 28 23 23 24 142 34 20 20 22 46 20
internal_value=-0.000117262 0.00321226 0.00479795 0.00315244 0.00558803 -0.000475748 -0.000549588 0.000861571 0.00338793 0.0020407 6.52181e-05 -0.000384146 -0.000295454 -0.000173076
internal_weight=2181 212 146 123 71 1969 1946 242 58 43 184 164 66 52
internal_count=2181 212 146 123 71 1969 1946 242 58 43 184 164 66 52
is_linear=0
shrinkage=0.03


Tree=7
num_leaves=15
num_cat=0
split_feature=48 37 50 33 43 14 15 25 19 47 35 27 18 7
split_gain=3.20544 1.49816 0.932452 0.74815 0.594745 0.986508 0.331369 0.297458 0.152466 0.190963 0.826403 0.652497 0.0422481 1.11022e-16
threshold=23.466762500000005 22.932548500000003 24.005838500000003 24.574516000000006 23.327724500000006 10.189021544061793 4.3980713374313565 23.944154000000005 22.930337500000004 22.916744000000005 23.017872000000004 23.100862500000002 23.490343500000005 54.500000000000007
decision_type=2 2 2 2 2 10 8 2 2 2 2 2 2 2
left_child=3 -2 4 6 -3 7 -1 -6 13 10 12 -12 -10 -8
right_child=1 2 -4 -5 5 -7 8 -9 9 -11 11 -13 -14 -15
leaf_value=0.0027710650045388364 0.021914016633840638 -0.00076065617638452706 0.012079835833425225 0.034782908792158264 -0.00080854626199646071 0.0050265889492452113 -0.025904548892745332 0.011531636148362386 -0.010800552129400402 -0.011189326407965224 -0.0092401933509393096 0.0058955892492189386 -0.0092054429709906519 -0.027437823029431461
leaf_weight=25 24 58 24 20 39 34 1473 20 109 175 21 20 20 119
leaf_count=25 24 58 24 20 39 34 1473 20 109 175 21 20 20 119
internal_value=-0.000158527 0.00347111 0.00250714 -0.000522956 0.00163411 0.00312097 -0.000581804 0.000775424 -0.000626096 -5.43471e-05 0.000661765 0.00437195 -0.000517441 -0.000749999
internal_weight=2181 199 175 1982 151 93 1962 59 1937 345 170 41 129 1592
internal_count=2181 199 175 1982 151 93 1962 59 1937 345 170 41 129 1592
is_linear=0
shrinkage=0.03


Tree=8
num_leaves=16
num_cat=0
split_feature=48 29 50 33 53 15 43 9 15 47 22 56 35 14 14
split_gain=2.99855 1.45949 0.959622 0.747522 0.661535 0.682142 0.948148 0.296463 0.304762 0.57619 0.0864253 0.215608 0.0494128 0.0403846 0.0380952
threshold=23.431300700000005 22.757242000000002 24.005838500000003 24.574516000000006 0.74799741437701817 10.743205002421639 23.348825500000004 23.335625500000003 4.3980713374313565 22.813212500000002 23.327724500000006 0.05685849999999882 24.150353500000005 5.9785072111818831 11.133193345682846
decision_type=2 2 2 2 2 10 2 2 10 2 2 2 2 8 10
left_child=3 -2 4 7 5 13 -7 10 9 -9 12 -12 -1 -3 -10
right_child=1 2 -4 -5 -6 6 -8 8 14 -11 11 -13 -14 -15 -16
leaf_value=-0.024969019872220832 0.021258887026613153 -0.0048773260255587109 0.011717440758422459 0.03373942152839348 0.010545376459195462 -0.0014800244306686625 0.0066528586895873362 0.0037015927807103255 -0.0072252428817397088 0.00013167754343193096 -0.0090028973530633261 0.001629021951230845 -0.0093749040974934663 -0.00089503776914884976 -0.0031502492403104533
leaf_weight=1683 21 20 24 20 20 24 30 21 64 35 66 29 20 84 20
leaf_count=1683 21 20 24 20 20 24 30 21 64 35 66 29 20 84 20
internal_value=-0.000144772 0.00315135 0.00236881 -0.000520173 0.00160955 0.000958861 0.00369445 -0.000579721 0.000750001 0.00246429 -0.000683258 0.000197369 -0.000732383 -0.000461538 -0.000392856
internal_weight=2181 223 202 1958 178 158 54 1938 140 56 1798 95 1703 104 84
internal_count=2181 223 202 1958 178 158 54 1938 140 56 1798 95 1703 104 84
is_linear=0
shrinkage=0.03


Tree=9
num_leaves=18
num_cat=0
split_feature=8 50 48 53 7 55 31 7 23 32 9 7 41 9 37 53 6
split_gain=2.36592 1.82276 1.09719 0.617192 0.809482 1.08791 1.75104 0.32967 0.225 0.146523 0.0874431 0.189643 0.509091 0.0446237 0.00723748 0.042126 1.11022e-16
threshold=2.5000000000000004 24.005838500000003 23.142409700000005 0.74799741437701817 21.500000000000004 0.46215290742637599 23.319668500000002 14.500000000000002 23.506946000000003 24.155096000000004 23.021845000000003 41.500000000000007 22.887470500000003 22.809436500000004 23.118578000000003 0.14946538641266491 20.500000000000004
decision_type=2 2 2 2 2 2 2 2 2 2 2 2 2 2 2 2 2
left_child=1 2 9 4 5 6 8 -7 -4 10 14 -12 -13 -6 16 -16 -1
right_child=-2 -3 3 -5 13 7 -8 -9 -10 -11 11 12 -14 -15 15 -17 -18
leaf_value=-0.026251901147132842 0.032727238882541629 0.011365917535669835 0.003376503245985386 0.020608138695684456 -0.00022653151586159571 -0.00055589154316223999 0.0056494024416852357 0.007414658140027011 -0.0012450917322541675 0.00010478124575335156 -0.011284819429903708 0.0016261153028552266 -0.01159193424209623 -0.010566679190633 -0.013369676164294261 -0.022746227054847547 -0.099009829738187061
leaf_weight=1311 24 24 20 38 20 70 24 21 20 25 103 20 35 166 20 107 133
leaf_count=1311 24 24 20 38 20 70 24 21 20 25 103 20 35 166 20 107 133
internal_value=-0.000117262 -0.000221487 -0.000313994 0.00114974 0.000745602 0.00234677 0.00534375 0.000239012 0.0015 -0.000630273 -0.000663244 9.49439e-06 0.00143182 -0.000588709 -0.000730903 -0.000513779 -0.000749999
internal_weight=2181 2157 2133 379 341 155 64 91 40 1754 1729 158 55 186 1571 127 1444
internal_count=2181 2157 2133 379 341 155 64 91 40 1754 1729 158 55 186 1571 127 1444
is_linear=0
shrinkage=0.03


Tree=10
num_leaves=16
num_cat=0
split_feature=8 48 51 46 52 43 20 16 43 16 7 20 7 23 7
split_gain=2.35897 1.87988 1.00163 0.531657 1.01507 0.452163 0.442193 0.425037 0.50431 0.209174 0.15122 0.105833 0.236951 0.642857 1.11022e-16
threshold=2.5000000000000004 23.170151900000004 23.954751283333334 23.209284000000004 0.24762646580445227 22.989121500000003 23.371391500000005 -9.9880329999999979 23.348825500000004 -2.9855339999999999 7.5000000000000009 22.903078000000004 39.500000000000007 22.607949000000001 58.500000000000007
decision_type=2 2 2 2 2 2 2 8 2 10 2 2 2 2 2
left_child=1 9 3 4 -3 10 -7 8 -5 11 -6 14 -13 -14 -1
right_child=-2 2 -4 7 5 6 -8 -9 -10 -11 -12 12 13 -15 -16
leaf_value=-0.025264792605871441 0.031745421716065425 0.019992949057197507 0.0055891610301754832 -0.010500656170680172 0.00052373172436928454 0.0054684532525520043 0.0027524030444810495 -0.012986269059920227 0.00593717805954722 0.00044307377493095582 -0.0012715778764293946 -0.011999983470782105 0.0012074570189327927 -0.01042577983841512 -0.024217761871902412
leaf_weight=1511 24 34 20 26 20 25 32 126 32 39 62 138 25 45 22
leaf_count=1511 24 34 20 26 20 25 32 126 32 39 62 138 25 45 22
internal_value=-0.000103507 -0.000207579 0.00171684 0.00135084 0.0025448 0.00140827 0.00346053 0.000228262 0.00235345 -0.000615168 -1.8292e-05 -0.000663842 -2.88454e-05 0.00139286 -0.000749999
internal_weight=2181 2157 377 357 173 139 57 184 58 1780 82 1741 208 70 1533
internal_count=2181 2157 377 357 173 139 57 184 58 1780 82 1741 208 70 1533
is_linear=0
shrinkage=0.03


Tree=11
num_leaves=16
num_cat=0
split_feature=8 9 50 6 6 7 53 32 40 32 24 21 37 53 7
split_gain=2.38681 1.57701 0.831581 0.498273 0.850067 1.14286 1.76085 0.64 0.306973 0.183475 0.146702 0.0245501 0.00576263 0.0436306 1.11022e-16
threshold=2.5000000000000004 23.047974000000004 24.005838500000003 10.500000000000002 12.500000000000002 21.500000000000004 0.74799741437701817 23.133786500000003 24.253066000000004 24.119670750000001 22.684411000000004 23.759070000000005 23.118578000000003 0.14946538641266491 54.500000000000007
decision_type=2 2 2 2 2 2 2 2 2 2 2 2 2 2 2
left_child=1 9 3 -3 5 7 -7 -5 10 11 -6 12 14 -14 -1
right_child=-2 2 -4 4 8 6 -8 -9 -10 -11 -12 -13 13 -15 -16
leaf_value=-0.024297932047652644 0.030793059064583517 -0.012913379488163826 0.010425151537883804 0.0053043996549754857 0.00036025176804141488 -0.01230676532701299 0.019398505999652899 0.0081963293478803066 0.00098657795336854794 7.855990470358141e-05 -0.0091127144957309485 -5.2959337182210835e-05 -0.012627580392534067 -0.01038913910656732 -0.027682660750641134
leaf_weight=1375 24 108 24 25 23 78 27 20 21 21 124 38 20 137 116
leaf_count=1375 24 108 24 25 23 78 27 20 21 21 124 38 20 137 116
internal_value=-0.000158527 -0.000263212 0.00131667 0.00101056 0.00160849 0.00325 0.00153572 0.00725 0.000142858 -0.000679701 -0.000341836 -0.000714412 -0.000731795 -0.000558916 -0.000749999
internal_weight=2181 2157 450 426 318 150 105 45 168 1707 147 1686 1648 157 1491
internal_count=2181 2157 450 426 318 150 105 45 168 1707 147 1686 1648 157 1491
is_linear=0
shrinkage=0.03


Tree=12
num_leaves=17
num_cat=0
split_feature=8 48 51 52 21 16 19 14 47 37 27 9 22 25 29 29
split_gain=2.36592 1.61946 0.868901 1.07494 0.426667 0.476374 0.405007 0.548372 0.302944 0.760543 0.889155 0.0406542 0.0403763 0.04 0.0146196 0.149499
threshold=2.5000000000000004 23.440228600000005 23.954751283333334 0.16241297219829984 23.632246000000006 -9.9880329999999979 22.914944000000002 4.1995658108012419 22.916744000000005 22.883429500000002 23.100862500000002 23.462636000000003 23.812039000000002 24.232467000000003 22.847987000000003 22.890969000000002
decision_type=2 2 2 2 2 8 2 8 2 2 2 2 2 2 2 2
left_child=1 6 3 -3 5 -5 12 -8 9 11 -11 -9 14 -6 -1 -16
right_child=-2 2 -4 4 13 -7 7 8 -10 10 -12 -13 -14 -15 15 -17
leaf_value=-0.025985684727732147 0.029869267292645958 0.018817314450259196 0.0048608975348766762 0.007339444537186747 -0.00068528824834994059 0.0027960797094468011 0.00057871886144935986 -0.012612160130938046 -0.010277200332225529 -0.013909581788923207 0.0049300991000296663 -0.0032705919019937989 -0.0064220382248160847 -0.0033895726335937135 0.00036954441821040009 -0.014101422121747795
leaf_weight=1337 24 26 20 21 80 39 20 87 171 31 29 20 23 20 24 209
leaf_count=1337 24 26 20 21 80 39 20 87 171 31 29 20 23 20 24 209
internal_value=-0.000117262 -0.000221487 0.00230825 0.00166936 0.000750001 0.00275 -0.000488595 0.000423185 0.000137575 0.00104641 0.00375 -0.000469625 -0.000693502 -0.000449999 -0.000711783 -0.000492489
internal_weight=2181 2157 206 186 160 60 1951 358 338 167 60 107 1593 100 1570 233
internal_count=2181 2157 206 186 160 60 1951 358 338 167 60 107 1593 100 1570 233
is_linear=0
shrinkage=0.03


Tree=13
num_leaves=19
num_cat=0
split_feature=48 53 55 34 7 55 6 31 22 9 20 23 47 35 7 23 24 6
split_gain=2.24823 1.31516 1.91453 1.13146 0.87969 0.975418 1.63277 0.931038 0.844035 0.175758 0.148649 0.331545 0.685714 0.0435259 0.039011 0.012678 0.0366667 1.11022e-16
threshold=23.142409700000005 0.71359129869032145 0.86289541772524891 24.510877000000004 28.500000000000004 0.46215290742637599 11.500000000000002 23.319668500000002 24.155096000000004 22.809436500000004 22.903078000000004 22.607949000000001 22.741893000000005 24.018405000000005 17.500000000000004 23.230037500000005 22.595327500000003 7.5000000000000009
decision_type=2 2 2 2 2 2 2 2 2 2 2 2 2 2 2 2 2 2
left_child=3 4 -3 10 5 6 -2 -8 14 -6 13 12 -12 15 -7 17 -17 -1
right_child=1 2 -4 -5 9 8 7 -9 -10 -11 11 -13 -14 -15 -16 16 -18 -19
leaf_value=-0.047135814872517348 -0.020062731931596325 0.018242867819004662 -0.02113611823468085 0.028973189273866565 0.00040117682536309059 -0.00079983043050956991 0.002712937435442968 0.0047895176783407378 0.0095147430243870419 -0.011774392864949804 -0.0062493473906801216 -0.011282280489430078 0.0013141418417555578 -0.0076631718224350149 0.0040908509238873946 -0.0089020689259319292 -0.013792732748141478 -0.024415522236235849
leaf_weight=76 24 39 24 21 20 71 22 21 29 145 40 127 30 22 20 20 55 1375
leaf_count=76 24 39 24 21 20 71 22 21 29 145 40 127 30 22 20 20 55 1375
internal_value=-6.22414e-05 0.0019247 0.00591667 -0.000529161 0.00121023 0.00261898 0.00551866 0.00901744 0.001 -0.000386363 -0.000612463 0.000163706 0.00182143 -0.00071124 -0.000420329 -0.00073034 -0.000349999 -0.000749999
internal_weight=2181 415 63 1766 352 187 67 43 120 165 1745 197 70 1548 91 1526 75 1451
internal_count=2181 415 63 1766 352 187 67 43 120 165 1745 197 70 1548 91 1526 75 1451
is_linear=0
shrinkage=0.03


Tree=14
num_leaves=17
num_cat=0
split_feature=48 53 54 33 50 27 20 47 35 43 18 21 35 14 23 22
split_gain=1.87972 1.29683 1.10592 0.723893 0.71649 0.534676 0.407128 0.503202 0.609803 0.850024 0.485173 0.169173 0.0975232 0.0406542 0.0118519 0.0375
threshold=23.431300700000005 0.74799741437701817 0.91402674878392653 24.574516000000006 24.005838500000003 23.074112000000003 22.903078000000004 22.930337500000004 23.017872000000004 22.925438000000003 22.684411000000004 23.515272500000005 23.819225000000003 8.8165719562158831 23.230037500000005 22.563698500000005
decision_type=2 2 2 2 2 2 2 2 2 2 2 2 2 8 2 2
left_child=3 4 -3 6 5 -2 12 8 10 -10 -8 -7 14 -12 -1 -16
right_child=1 2 -4 -5 -6 11 7 -9 9 -11 13 -13 -14 -15 15 -17
leaf_value=-0.023596974890629549 0.0068185681514039004 0.0093583599131377461 0.017710090765756668 0.028103993595650571 0.0092889428945898463 0.0005358690357479246 0.00090675904109468715 -0.0094190908711403471 0.0040346761311316056 -0.0069596128286174841 -0.013026505187448962 -0.00097657251264096807 0.00038195527802448051 -0.0069187727221183765 -0.011830838198053433 -0.011641497744854288
leaf_weight=1463 29 21 20 20 20 38 24 170 28 27 20 95 39 87 20 60
leaf_count=1463 29 21 20 20 20 38 24 170 28 27 20 95 39 87 20 60
internal_value=-0.000131017 0.0024787 0.00729878 -0.000428242 0.00139286 0.000731482 -0.000486841 0.000429776 0.00150807 0.00415909 0.000395039 -7.33076e-05 -0.000693109 -0.000469625 -0.000730557 -0.000374999
internal_weight=2181 223 41 1958 182 162 1938 356 186 55 131 133 1582 107 1543 80
internal_count=2181 223 41 1958 182 162 1938 356 186 55 131 133 1582 107 1543 80
is_linear=0
shrinkage=0.03


Tree=15
num_leaves=18
num_cat=0
split_feature=48 52 18 33 9 26 20 20 26 40 38 18 35 54 32 23 22
split_gain=1.89958 0.768661 0.936045 0.727805 0.451765 0.432 0.348313 0.275281 0.185391 0.552792 0.168 0.12875 0.0975232 0.0484798 0.134426 0.0118519 0.0375
threshold=23.431300700000005 0.16241297219829984 24.614164500000005 24.574516000000006 24.532660500000002 24.443772500000005 22.903078000000004 22.934739500000003 23.407789500000003 23.134649500000005 22.947572000000005 23.620943000000004 23.819225000000003 0.3327713078875546 22.993013500000004 23.230037500000005 22.563698500000005
decision_type=2 2 2 2 2 2 2 2 2 2 2 2 2 2 2 2 2
left_child=3 -2 4 6 5 10 12 -8 11 -10 -3 13 15 14 -9 -1 -17
right_child=1 2 -4 -5 -6 -7 7 8 9 -11 -12 -13 -14 -15 -16 16 -18
leaf_value=-0.022889065643910651 0.017174206259208544 0.0044137248065055455 0.0094419145517621976 0.027260873787781071 0.0086507871636389549 0.0032378253142408124 0.00081383421416876675 -0.016283292824981269 0.0046457232311629595 -0.01973747717258522 -0.00078177476287816206 0.00095872179528144969 0.00037049661968379435 -0.00015865981672731557 0.0020633942772698426 -0.01147591305211179 -0.01129225281250866
leaf_weight=1463 26 20 27 20 20 25 32 41 27 40 105 23 39 173 20 20 60
leaf_count=1463 26 20 27 20 20 25 32 41 27 40 105 23 39 173 20 20 60
internal_value=-0.000144772 0.0024787 0.00183883 -0.000443564 0.00101471 0.000450001 -0.000502321 0.000345506 8.3334e-05 0.00148881 -0.000269999 -0.000283073 -0.000693109 -0.000493589 0.000233607 -0.000730557 -0.000374999
internal_weight=2181 223 197 1958 170 150 1938 356 324 67 125 257 1582 234 61 1543 80
internal_count=2181 223 197 1958 170 150 1938 356 324 67 125 257 1582 234 61 1543 80
is_linear=0
shrinkage=0.03


Tree=16
num_leaves=16
num_cat=0
split_feature=8 50 48 53 46 37 26 24 39 39 26 38 38 28 56
split_gain=2.40779 1.34219 0.574445 0.514775 0.394533 0.542775 0.328378 0.133387 0.0865889 0.144592 0.323502 0.408671 0.0500797 0.139394 0.0453052
threshold=2.5000000000000004 24.005838500000003 23.142409700000005 0.74799741437701817 22.928821500000002 23.103193000000005 23.378006000000003 24.443772500000005 22.644201500000005 22.830088500000006 22.695873000000002 22.847987000000003 22.723639500000001 22.917600500000002 0.80282900000000101
decision_type=2 2 2 2 2 2 2 2 2 2 2 2 2 2 2
left_child=1 2 8 4 5 6 -4 14 -1 10 11 -10 13 -11 -6
right_child=-2 -3 3 -5 7 -7 -8 -9 9 12 -12 -13 -14 -15 -16
leaf_value=-0.024519894672120832 0.026443047574147619 0.0084685407928939433 -0.00010006838759426447 0.016649816504281427 -0.00032703774226235371 0.0047754051009033724 0.0025410533441537113 0.0061937077490531586 0.00015312813732356193 -0.02462075848286575 -0.010775805596701979 0.00095862636071562075 -0.010353520917106831 0.00056857360553109082 0.00034522289195386993
leaf_weight=1234 24 24 54 38 193 30 20 24 36 46 78 26 314 20 20
leaf_count=1234 24 24 54 38 193 30 20 24 36 46 78 26 314 20 20
internal_value=-0.000199793 -0.000304937 -0.000384317 0.000674803 0.000305719 0.00184615 0.000466217 -0.000370252 -0.000613169 -0.000288461 0.000535715 0.00215323 -0.000592105 0.000159092 -0.000609154
internal_weight=2181 2157 2133 379 341 104 74 237 1754 520 140 62 380 66 213
internal_count=2181 2157 2133 379 341 104 74 237 1754 520 140 62 380 66 213
is_linear=0
shrinkage=0.03


Tree=17
num_leaves=17
num_cat=0
split_feature=8 50 9 53 46 7 6 31 54 7 45 44 6 14 20 7
split_gain=2.40079 1.3369 0.672785 0.513528 1.18692 0.33148 0.605908 1.21969 0.168096 0.102439 0.0698249 0.322654 0.300259 0.045614 0.0366667 0.0303922
threshold=2.5000000000000004 24.005838500000003 23.021845000000003 0.74799741437701817 22.541388500000004 20.500000000000004 12.500000000000002 23.307216500000003 0.20490938141471307 10.500000000000002 22.830088500000006 22.827061500000003 13.500000000000002 5.9533875028592673 23.620943000000004 39.500000000000007
decision_type=2 2 2 2 2 2 2 2 2 2 2 2 2 8 2 2
left_child=1 2 10 5 -5 6 7 9 -7 -4 -1 12 15 -10 -8 -12
right_child=-2 -3 3 4 -6 8 14 -9 13 -11 11 -13 -14 -15 -16 -17
leaf_value=-0.025563028885650922 0.025649756146923188 0.0082144845691071323 -3.3642989925994361e-05 -0.0086316214166175156 0.016162540098687461 0.00063015550981300407 -0.00031141626464491407 0.0072257886999822652 -0.0058872538479890534 0.0034122497050425023 -0.016615946152623524 -0.017347936260301365 0.00035046412132826892 -0.0084097387915174661 -0.0080213143259121461 -0.008924392864833949
leaf_weight=1294 24 24 21 38 22 20 55 20 20 20 31 308 36 208 20 20
leaf_count=1294 24 24 21 38 22 20 55 20 20 20 31 308 36 208 20 20
internal_value=-0.000186038 -0.000291028 -0.000370252 0.00066892 0.00325 0.000265626 0.00145588 0.00367623 -0.000387096 0.000713415 -0.000643427 -0.000294303 0.00131897 -0.00061842 -0.000349999 -0.000161764
internal_weight=2181 2157 2133 444 60 384 136 61 248 41 1689 395 87 228 75 51
internal_count=2181 2157 2133 444 60 384 136 61 248 41 1689 395 87 228 75 51
is_linear=0
shrinkage=0.03


Tree=18
num_leaves=18
num_cat=0
split_feature=8 50 19 10 38 28 59 47 31 45 42 35 33 33 47 35 7
split_gain=2.36592 1.31063 0.801327 0.471573 0.631257 0.436276 0.289286 0.208671 0.575475 0.294421 0.183193 0.0711936 0.165243 0.266637 0.14937 0.225 0.0423077
threshold=2.5000000000000004 24.005838500000003 22.914944000000002 1.5000000000000002 23.117617000000006 24.412075000000005 5.991666666666668 22.916744000000005 23.342038000000002 23.127130500000003 24.569889000000003 22.680735500000001 22.786926000000005 22.735928500000004 22.916744000000005 23.008921000000004 47.500000000000007
decision_type=2 2 2 2 2 2 2 2 2 2 2 2 2 2 2 2 2
left_child=1 2 11 5 -5 7 -6 8 9 16 -9 -1 13 14 -13 -16 -4
right_child=-2 -3 3 4 6 -7 -8 10 -10 -11 -12 12 -14 -15 15 -17 -18
leaf_value=-0.025516184894876188 0.024880263462515515 0.0079680500320339683 -0.0044654121912332178 0.0077498277314274507 0.0029248186556280818 0.0043147274098945965 -0.0010869334516670826 -0.0049307599290136983 0.0041389927634026876 0.0010527896395093671 0.00086002634239175152 -0.019145588383974226 -0.017869114350970886 0.00061060083229762393 0.00062078227377015591 -0.020943345043289943 0.0037984310738722726
leaf_weight=1212 24 24 110 30 20 24 36 218 36 23 20 79 245 20 20 20 20
leaf_count=1212 24 24 110 30 20 24 36 218 36 23 20 79 245 20 20 20 20
internal_value=-0.000117262 -0.000221487 -0.000299929 0.000702515 0.00273837 0.000314302 0.000857144 9.30921e-05 0.000837302 3.43144e-05 -0.000497898 -0.000637217 -0.000281249 0.000544965 6.30324e-06 0.0015 -0.00051923
internal_weight=2181 2157 2133 537 86 451 56 427 189 153 238 1596 384 139 119 40 130
internal_count=2181 2157 2133 537 86 451 56 427 189 153 238 1596 384 139 119 40 130
is_linear=0
shrinkage=0.03


Tree=19
num_leaves=19
num_cat=0
split_feature=8 20 51 6 6 39 7 37 46 32 28 23 16 21 7 23 22 6
split_gain=2.35897 1.44283 0.739616 0.562295 1.14906 0.674269 1.53814 0.589967 0.719528 0.246043 0.179027 0.191616 0.140616 0.0480816 0.0267442 0.0126827 0.0366667 1.11022e-16
threshold=2.5000000000000004 22.903078000000004 23.954751283333334 10.500000000000002 12.500000000000002 22.644201500000005 13.500000000000002 23.134649500000005 22.974663500000002 23.518835000000003 24.129075000000004 22.686062500000002 -2.9855339999999999 23.718801500000001 45.500000000000007 23.230037500000005 22.547263000000004 20.500000000000004
decision_type=2 2 2 2 2 2 2 2 2 2 2 2 10 2 2 2 2 2
left_child=1 12 3 -3 5 14 -7 8 -8 -9 11 -6 13 15 -5 17 -17 -1
right_child=-2 2 -4 4 10 6 7 9 -10 -11 -12 -13 -14 -15 -16 16 -18 -19
leaf_value=-0.020171996859245145 0.024133855558639998 -0.01084572781894674 0.0027883415363415247 -0.0005578627033219661 0.00021266351373649953 0.0043511497892859442 0.0012466158252510239 -0.0016420843819476929 0.012579498383702963 0.0026155828697113402 0.00034773395941375853 -0.0049819364046714545 0.00055120235327406212 -0.0042729900171117651 0.0075820028866378127 -0.010193715565938241 -0.010657971727293601 -0.089378062427901167
leaf_weight=1329 24 142 20 23 38 22 29 34 20 33 31 161 27 20 20 20 55 133
leaf_count=1329 24 142 20 23 38 22 29 34 20 33 31 161 27 20 20 20 55 133
internal_value=-0.000103507 -0.000207579 0.00108246 0.000877487 0.00143978 0.0032279 0.00425 0.00287069 0.00537245 0.00104105 3.26094e-05 -0.000297738 -0.000674242 -0.000711464 -5.23249e-05 -0.000730481 -0.000349999 -0.000749999
internal_weight=2181 2157 573 553 411 181 138 116 49 67 230 199 1584 1557 43 1537 75 1462
internal_count=2181 2157 573 553 411 181 138 116 49 67 230 199 1584 1557 43 1537 75 1462
is_linear=0
shrinkage=0.03


Tree=20
num_leaves=19
num_cat=0
split_feature=8 20 50 30 31 55 49 16 34 42 26 37 36 7 23 45 26 7
split_gain=2.37983 1.37327 0.817191 0.563615 0.703455 0.873248 0.62616 0.424935 0.271813 0.58072 0.328734 0.0667009 0.0938326 0.276023 0.0471229 0.140299 0.0424242 1.11022e-16
threshold=2.5000000000000004 23.168822000000002 24.005838500000003 23.378006000000003 23.307216500000003 0.48305565971574949 23.730657500000003 -2.5460534999999997 22.498142500000004 22.501090000000001 23.620943000000004 22.788285500000004 22.759910500000004 39.500000000000007 23.230037500000005 23.016987000000004 24.266702500000005 56.500000000000007
decision_type=2 2 2 2 2 2 2 10 2 2 2 2 2 2 2 2 2 2
left_child=1 7 3 4 8 -6 -7 11 9 -3 -10 17 13 -13 -14 -16 -5 -1
right_child=-2 2 -4 16 5 6 -8 -9 10 -11 -12 12 14 -15 15 -17 -18 -19
leaf_value=-0.018708279798163099 0.023409839891880748 -0.0028088770289668797 0.0074786636662804249 -0.0023853191897012312 0.0034180199182850691 -0.0031860577076664853 0.0062485914802067688 0.0024729045965089153 -0.0016413302190192915 0.015202781140152674 0.00097186385586345303 -0.005372775496169077 -0.01282923803506367 0.00084428348301592796 0.0027328515460743009 -0.012571195647101614 -0.0064524356849077497 -0.023798506883895457
leaf_weight=1289 24 20 24 112 20 27 22 20 90 21 22 59 251 36 20 47 20 57
leaf_count=1289 24 20 24 112 20 27 22 20 90 21 22 59 251 36 20 47 20 57
internal_value=-0.000144772 -0.000249304 0.00139286 0.00102966 0.0019527 0.00446739 0.00231123 -0.000598229 0.000818628 0.00290854 5.35721e-05 -0.000647668 -0.000314164 0.000513159 -0.00056132 0.000145523 -0.000522727 -0.000749999
internal_weight=2181 2157 378 354 222 69 49 1779 153 41 112 1759 413 95 318 67 132 1346
internal_count=2181 2157 378 354 222 69 49 1779 153 41 112 1759 413 95 318 67 132 1346
is_linear=0
shrinkage=0.03


Tree=21
num_leaves=22
num_cat=0
split_feature=9 38 50 46 6 52 51 15 43 22 24 24 9 9 16 25 23 19 31 20 7
split_gain=1.88848 1.52783 1.3123 0.882258 1.97256 0.935876 0.44416 0.298965 0.382321 0.155044 0.27 0.124528 0.0704612 0.217778 0.044186 0.0433333 0.0218684 0.0261905 0.0119866 0.0373418 1.11022e-16
threshold=24.450071500000004 23.117617000000006 23.199651012500002 23.040879500000006 12.500000000000002 0.31946001671850616 23.924529850000003 10.002353626459991 23.974935500000004 23.504514000000004 23.106484500000004 23.824110000000001 23.021845000000003 23.107102500000003 -3.9862034999999993 21.911941500000001 23.230037500000005 22.589922500000004 23.019835500000003 22.929324000000005 57.500000000000007
decision_type=2 2 2 2 2 2 2 10 2 2 2 2 2 2 10 2 2 2 2 2 2
left_child=2 -2 9 4 5 -4 7 14 11 12 -11 -9 16 -14 -5 -15 18 -18 20 -20 -1
right_child=1 -3 3 6 -6 -7 -8 8 -10 10 -12 -13 13 15 -16 -17 17 -19 19 -21 -22
leaf_value=-0.023264484019317688 0.011603873909542669 0.0024155760049037163 0.02270754469512436 -0.010401654159206105 -0.013950610650249991 0.0093616582002878489 0.0023189766730453204 -0.0017617435724442249 0.012095951015734489 -0.0039810140987724812 0.0079879564929789624 0.0014983769368903518 0.00063910250284383147 -0.00055410801870359693 -0.0078619184834696487 -0.0078110486348122949 -0.018024233812942179 -0.0034121655757550539 -0.018005268281480382 -0.0071201553168572865 -0.023103398242572317
leaf_weight=1369 22 31 23 152 46 30 23 33 20 30 20 20 30 20 20 130 22 20 59 20 41
leaf_count=1369 22 31 23 152 46 30 23 33 20 30 20 20 30 20 20 130 22 20 59 20 41
internal_value=-0.000117262 0.00547642 -0.000256578 0.00137534 0.00379546 0.00774057 0.000481344 0.000107144 0.00171575 -0.000596677 0.00105 0.000382076 -0.000644798 -8.33326e-05 -0.000575581 -0.000549999 -0.000710809 -3.57136e-05 -0.000729852 -0.000370252 -0.000749999
internal_weight=2181 53 2128 367 99 53 268 245 73 1761 50 53 1711 180 172 150 1531 42 1489 79 1410
internal_count=2181 53 2128 367 99 53 268 245 73 1761 50 53 1711 180 172 150 1531 42 1489 79 1410
is_linear=0
shrinkage=0.03


Tree=22
num_leaves=18
num_cat=0
split_feature=8 50 48 10 29 25 19 50 28 23 56 55 6 17 34 29 29
split_gain=2.38681 1.32636 0.654416 0.420195 0.558069 0.842491 1.35087 0.466333 0.240521 0.143547 0.082498 0.152515 0.52987 0.779221 0.0467427 0.0240601 0.147067
threshold=2.5000000000000004 24.005838500000003 22.771206900000006 1.5000000000000002 23.473780000000001 23.047974000000004 23.748268500000005 22.671222625000006 24.412075000000005 24.574516000000006 0.05685849999999882 0.43729900438807462 11.500000000000002 -3.2041584999999997 22.480958000000005 22.847987000000003 22.890969000000002
decision_type=2 2 2 2 2 2 2 2 2 2 2 2 2 10 2 2 2
left_child=1 2 15 7 5 -5 -7 -4 9 10 14 12 -12 -14 -9 -1 -17
right_child=-2 -3 3 4 -6 6 -8 8 -10 -11 11 -13 13 -15 -16 16 -18
leaf_value=-0.021455144089426888 0.022379528443030813 0.0067592805141807556 0.0023335879133608455 -0.0022330451132116505 -0.0017270168955936982 0.0089637823549876781 -0.00025209141803353826 -0.0069660144449868334 0.0034354638761445533 0.00049202682064264965 -0.013694634323005049 -0.0075970844439361496 0.0033796308291440436 -0.001096634379977305 -0.0050957252662407505 0.0011656849110590062 -0.01222625709513577
leaf_weight=1287 24 24 36 23 37 22 20 20 26 20 68 96 22 20 287 23 126
leaf_count=1287 24 24 36 23 37 22 20 20 26 20 68 96 22 20 287 23 126
internal_value=-0.000158527 -0.000263212 -0.000342123 0.000412124 0.00219118 0.00386539 0.00639286 0.000107144 -0.000105992 -0.000243433 -0.000340643 0.000123787 0.000886364 0.00353572 -0.000652279 -0.000708217 -0.000347315
internal_weight=2181 2157 2133 697 102 65 42 595 559 533 513 206 110 42 307 1436 149
internal_count=2181 2157 2133 697 102 65 42 595 559 533 513 206 110 42 307 1436 149
is_linear=0
shrinkage=0.03


Tree=23
num_leaves=16
num_cat=0
split_feature=8 50 20 20 42 27 50 34 6 16 27 26 23 23 23
split_gain=2.39379 1.33163 0.776558 0.416511 0.321252 0.25637 0.68183 0.240535 0.718778 0.143109 0.121355 0.0880218 0.0432886 0.0112625 0.0380952
threshold=2.5000000000000004 24.005838500000003 22.903078000000004 22.934739500000003 24.526632000000003 23.173590000000001 23.320003462500004 22.480958000000005 10.500000000000002 -2.9855339999999999 23.074112000000003 22.997230000000005 22.686062500000002 23.230037500000005 23.319314000000002
decision_type=2 2 2 2 2 2 2 2 2 10 2 2 2 2 2
left_child=1 2 9 -4 5 6 7 8 -5 13 12 -7 -9 -1 -15
right_child=-2 -3 3 4 -6 11 -8 10 -10 -11 -12 -13 -14 14 -16
leaf_value=-0.019282003857720251 0.021708142589739843 0.0065565020987553135 0.0006123158713098616 -0.022409770814541874 0.0016753560309379816 0.00024318026902192714 0.0048825281177917014 -0.0011542373304455537 0.014283359783397408 0.00038888568771520423 0.0024406546678059928 -0.00043153413202870282 -0.0079709004219041951 -0.0033806437471743207 -0.010460487621168251
leaf_weight=1473 24 24 32 32 28 38 31 20 21 27 24 194 129 20 64
leaf_count=1473 24 24 32 32 28 38 31 20 21 27 24 194 129 20 64
internal_value=-0.000172283 -0.00027712 -0.000356188 0.000616121 0.000410542 0.000231596 0.000884242 0.000311948 0.00208019 -0.000693181 -0.000229768 -0.000491379 -0.000548657 -0.000730731 -0.000392856
internal_weight=2181 2157 2133 549 517 489 257 226 53 1584 173 232 149 1557 84
internal_count=2181 2157 2133 549 517 489 257 226 53 1584 173 232 149 1557 84
is_linear=0
shrinkage=0.03


Tree=24
num_leaves=19
num_cat=0
split_feature=8 22 10 29 24 34 55 35 29 29 20 20 20 21 6 23 9 6
split_gain=2.40079 1.20785 0.510837 0.982651 0.461981 0.265338 0.173857 0.385714 0.15402 0.408598 0.0538471 0.345967 0.0453271 0.0401961 0.0333333 0.018929 0.0303922 1.11022e-16
threshold=2.5000000000000004 23.280032000000002 1.5000000000000002 23.517505000000003 24.155096000000004 24.221713000000005 0.45230623838435885 23.355533500000003 23.364829000000004 23.473780000000001 22.903078000000004 22.934739500000003 23.8287145 23.515272500000005 12.500000000000002 23.230037500000005 22.747846000000003 20.500000000000004
decision_type=2 2 2 2 2 2 2 2 2 2 2 2 2 2 2 2 2 2
left_child=1 8 4 -4 5 6 7 14 10 -10 15 -12 -13 -11 -3 17 -17 -1
right_child=-2 2 3 -5 -6 -7 -8 -9 9 13 11 12 -14 -15 -16 16 -18 -19
leaf_value=-0.019096162455256662 0.021056898312047607 -0.0091008718726325929 0.0071483119398675138 -0.00099191881088782504 0.0084268399287504795 0.0021557773970420141 -0.0025506735283860513 0.0011178372693702112 0.00041004210489849934 -0.0003306811608801473 0.00073579407048415606 -0.0026888780825197502 -0.0006100878530020821 -0.0057137609107669463 -0.0051893690801193392 -0.0030532391544737239 -0.016208649549231589 -0.0842154232021253
leaf_weight=1289 24 40 27 30 39 21 118 24 27 82 22 194 20 20 20 20 31 133
leaf_count=1289 24 40 27 30 39 21 118 24 27 82 22 194 20 20 20 20 31 133
internal_value=-0.000186038 -0.000291028 0.00141301 0.00398684 0.000853054 0.000326234 -7.42503e-06 0.00103572 -0.000586778 0.000412791 -0.000662229 -0.000241525 -0.000609812 -0.000455882 -0.000249999 -0.000729633 -0.000161764 -0.000749999
internal_weight=2181 2157 319 57 262 223 202 84 1838 129 1709 236 214 102 60 1473 51 1422
internal_count=2181 2157 319 57 262 223 202 84 1838 129 1709 236 214 102 60 1473 51 1422
is_linear=0
shrinkage=0.03


Tree=25
num_leaves=19
num_cat=0
split_feature=8 22 50 9 55 6 41 34 20 23 52 7 53 25 29 23 9 7
split_gain=2.40779 1.09691 0.592186 0.426318 0.316344 0.622829 0.724638 0.782609 0.150753 0.438016 0.625541 0.128571 0.0977891 0.0456572 0.0392942 0.0171909 0.0321429 1.11022e-16
threshold=2.5000000000000004 23.280032000000002 24.005838500000003 24.516727500000005 0.4875283835932418 11.500000000000002 22.966249500000004 23.442177000000004 22.903078000000004 22.686062500000002 0.30325596408367517 38.500000000000007 0.79674018860134888 23.812039000000002 23.988453000000003 23.230037500000005 22.747846000000003 55.500000000000007
decision_type=2 2 2 2 2 2 2 2 2 2 2 2 2 2 2 2 2 2
left_child=1 8 3 4 5 -3 -7 -8 13 10 -10 -12 -6 15 -11 17 -17 -1
right_child=-2 2 -4 -5 12 6 7 -9 9 14 11 -13 -14 -15 -16 16 -18 -19
leaf_value=-0.020391770894877006 0.020425191362686206 -0.011167673675363365 0.0061190099366849179 0.0095726275698086154 -0.0011832672639526655 -0.0056500191563804104 0.0025930295210816702 0.0015473132781704875 0.00072790501590103477 -0.00021240778693361049 -0.021686868661754424 0.00023654887602274767 0.0054449556875849616 -0.0090476107391784799 0.001196414966364771 -0.0029616419798394644 -0.017028540683423882 -0.018026310501709625
leaf_weight=1353 24 52 22 29 115 23 23 23 21 216 36 20 32 21 23 20 36 92
leaf_count=1353 24 52 22 29 115 23 23 23 21 216 36 20 32 21 23 20 36 92
internal_value=-0.000199793 -0.000304937 0.00131897 0.000967172 0.000593284 0.00172934 0.00359783 0.00577174 -0.000586778 9.49439e-06 0.00197727 0.000321429 -0.000341836 -0.000710577 -0.000624476 -0.000730013 -0.000214285 -0.000749999
internal_weight=2181 2157 319 297 268 121 69 46 1838 316 77 56 147 1522 239 1501 56 1445
internal_count=2181 2157 319 297 268 121 69 46 1838 316 77 56 147 1522 239 1501 56 1445
is_linear=0
shrinkage=0.03


Tree=26
num_leaves=16
num_cat=0
split_feature=8 20 50 20 6 26 52 27 7 35 33 51 35 23 9
split_gain=2.41481 0.928393 0.636999 0.444372 0.228189 0.49108 0.251237 0.794752 1.45455 0.114344 0.477237 0.166667 0.0975295 0.0118528 0.0375
threshold=2.5000000000000004 22.903078000000004 24.005838500000003 22.934739500000003 10.500000000000002 22.388050750000005 0.55378518002496224 23.316094000000003 47.500000000000007 23.017872000000004 22.973090000000003 23.160639475000004 23.819225000000003 23.230037500000005 22.508850000000002
decision_type=2 2 2 2 2 2 2 2 2 2 2 2 2 2 2
left_child=1 12 3 -3 -5 -6 9 8 -8 -7 -11 -12 13 -1 -15
right_child=-2 2 -4 4 5 6 7 -9 -10 10 11 -13 -14 14 -16
leaf_value=-0.017814921243139957 0.019812435621805596 0.00055003542257903008 0.0059234315398295542 -0.0091875188911759598 0.013404241232232463 -0.0019186928704062673 0.0053717036915031501 -0.0004555555910750259 -0.0073370464430724137 0.00086222597327171658 0.0024779128736549453 -0.00015441581055688391 0.00039245272458085582 -0.0028727927204442397 -0.010078280009724161
leaf_weight=1465 24 32 24 138 20 119 22 53 22 23 20 100 39 20 60
leaf_count=1465 24 32 24 138 20 119 22 53 22 23 20 100 39 20 60
internal_value=-0.000213548 -0.000318845 0.000715969 0.000506831 0.000294488 0.000674803 0.000419917 0.00172423 0.00470455 -6.29764e-05 0.000508742 -0.000249999 -0.000693181 -0.000730582 -0.000374999
internal_weight=2181 2157 573 549 517 379 359 97 44 262 143 120 1584 1545 80
internal_count=2181 2157 573 549 517 379 359 97 44 262 143 120 1584 1545 80
is_linear=0
shrinkage=0.03


Tree=27
num_leaves=15
num_cat=0
split_feature=8 50 16 22 30 24 35 28 38 43 26 26 22 18
split_gain=1.84347 0.926206 0.650274 0.385048 0.430588 0.512783 0.20891 0.148506 0.062446 0.134653 0.197625 0.643747 0.0424242 0.034127
threshold=2.5000000000000004 24.005838500000003 -2.5222724999999993 23.327724500000006 23.355817500000004 23.768675500000004 23.355533500000003 23.017872000000004 22.714352000000002 22.890969000000002 22.695873000000002 22.563813000000003 23.028585500000002 22.655635
decision_type=2 2 10 2 2 2 2 2 2 2 2 2 2 2
left_child=1 2 3 8 5 6 7 -5 -1 10 11 13 -12 -10
right_child=-2 -3 -4 4 -6 -7 -8 -9 9 -11 12 -13 -14 -15
leaf_value=-0.019043902341053617 0.019218062553151439 0.0057457285936346348 0.0016734775425984079 0.0041621806991987004 -0.00086362151559733042 0.010010145471697459 0.00068232791787640361 -0.00094646023289180197 -0.020164672788865533 -0.0044235119645102692 -0.0051814814362961302 0.0012374657039944058 0.0015479891890690393 -0.0016724648302987289
leaf_weight=1289 24 24 22 37 122 23 32 58 43 331 112 24 20 20
leaf_count=1289 24 24 22 37 122 23 32 58 43 331 112 24 20 20
internal_value=-0.000268569 -0.00036057 -0.000426511 -0.000479985 0.00057353 0.00165 0.000903544 0.000197369 -0.000635807 -0.000368181 0.000208905 0.00131897 -0.000522727 -0.000273809
internal_weight=2181 2157 2133 2111 272 150 127 95 1839 550 219 87 132 63
internal_count=2181 2157 2133 2111 272 150 127 95 1839 550 219 87 132 63
is_linear=0
shrinkage=0.03


Tree=28
num_leaves=18
num_cat=0
split_feature=8 51 19 52 36 15 32 16 15 21 35 33 45 36 47 21 30
split_gain=1.81293 1.112 0.655876 0.874872 1.19965 0.194471 0.340097 0.174134 0.240698 0.172603 0.0955103 0.129825 0.372994 0.712644 0.125802 0.0676638 0.123077
threshold=2.5000000000000004 23.954751283333334 23.407789500000003 0.24762646580445227 23.226900000000004 10.743205002421639 23.096831500000004 -2.9855339999999999 5.02233887357088 22.824906500000001 22.584704500000004 22.786926000000005 23.024813000000005 22.941027000000002 23.067977000000003 23.521014000000005 23.256292500000004
decision_type=2 2 2 2 2 10 2 10 10 2 2 2 2 2 2 2 2
left_child=1 2 7 4 -4 9 -7 10 -9 -5 -1 12 14 -14 -12 -13 -17
right_child=-2 -3 3 5 -6 6 -8 8 -10 -11 11 15 13 -15 -16 16 -18
leaf_value=-0.019182985654157811 0.01864152067655692 0.0014141923443173625 0.012773481272429756 0.00027891553864248611 -0.008650256733467275 -0.0022843387867471521 0.0049008823011054128 0.0019700616922719715 -0.019024941076381557 -0.0017270477257886043 -0.012522116062190298 -0.0067560514401732233 0.00062407781774247845 -0.020298867065514769 0.00063151430665947777 0.001690648700391615 -0.0065194857576398851
leaf_weight=1184 24 20 23 20 27 22 23 20 23 126 152 380 27 31 27 20 32
leaf_count=1184 24 20 23 20 27 22 23 20 23 126 152 380 27 31 27 20 32
internal_value=-0.000199793 -0.000291028 -0.000356925 0.00111722 0.00465 0.000192409 0.00191667 -0.000544303 0.00134302 -0.00033904 -0.0005881 -0.000301569 0.000262659 0.00235345 -0.000414804 -0.00061111 0.000403847
internal_weight=2181 2157 2137 241 50 191 45 1896 43 146 1853 669 237 58 179 432 52
internal_count=2181 2157 2137 241 50 191 45 1896 43 146 1853 669 237 58 179 432 52
is_linear=0
shrinkage=0.03


Tree=29
num_leaves=15
num_cat=0
split_feature=8 51 9 38 48 29 45 45 32 28 46 38 39 55
split_gain=1.30748 1.112 0.564704 0.426811 0.560747 0.517041 0.301603 0.199027 0.176109 0.156915 0.0983333 0.0245869 0.0930863 0.222866
threshold=2.5000000000000004 23.954751283333334 22.982037500000004 23.106484500000004 23.585460000000005 23.364829000000004 23.127130500000003 22.984347500000002 24.119670750000001 24.129075000000004 22.907172000000003 22.847987000000003 22.830088500000006 0.32021527725178067
decision_type=2 2 2 2 2 2 2 2 2 2 2 2 2 2
left_child=1 2 8 4 5 6 10 -5 9 11 -4 -1 13 -13
right_child=-2 -3 3 7 -6 -7 -8 -9 -10 -11 -12 12 -14 -15
leaf_value=-0.01842880593648789 0.018082275056260221 0.0013717665739878542 -0.0072917961788066801 0.0030894245197940059 0.012363066020743762 0.00088246338348386489 0.00031544299995111701 -0.00039640266351991535 0.00013985589423616272 9.7865732963383549e-05 0.00077230488221311487 0.0011504530367955569 -0.018829518635580883 -0.012898232922662154
leaf_weight=1305 24 20 118 38 30 37 34 200 21 24 32 26 225 47
leaf_count=1305 24 20 118 38 30 37 34 200 21 24 32 26 225 47
internal_value=-0.000213548 -0.000291028 -0.000356925 0.000538344 0.0014014 0.00087896 0.000228262 -0.000371848 -0.000622572 -0.000657805 -0.000349999 -0.000693855 -0.000447986 0.000482877
internal_weight=2181 2157 2137 489 251 221 184 238 1648 1627 150 1603 298 73
internal_count=2181 2157 2137 489 251 221 184 238 1648 1627 150 1603 298 73
is_linear=0
shrinkage=0.03


Tree=30
num_leaves=18
num_cat=0
split_feature=31 45 29 46 53 48 20 20 59 14 35 33 24 53 31 46 43
split_gain=1.13978 0.796575 1.17257 1.39148 0.538322 0.376376 0.35457 0.380689 0.236632 0.4 0.185159 0.161032 0.407895 0.160389 0.240698 0.0118248 0.0375
threshold=23.307216500000003 23.180268000000002 23.460748500000005 23.234713500000002 0.74799741437701817 23.170151900000004 22.903078000000004 22.934739500000003 10.991666666666669 5.9533875028592673 23.819225000000003 22.759910500000004 22.966423000000002 0.55432831403180527 23.812039000000002 23.361741000000006 22.736630500000004
decision_type=2 2 2 2 2 2 2 2 2 10 2 2 2 2 2 2 2
left_child=6 2 5 -4 13 -2 10 -8 11 -10 15 12 -9 -3 -15 -1 -17
right_child=1 4 3 -5 -6 -7 7 8 9 -11 -12 -13 -14 14 -16 16 -18
leaf_value=-0.014978900353291377 -0.018487668379048781 -0.0039517948543016188 0.017533654651604762 0.00017096716984534035 0.0012251263466369156 0.0018329316690098277 0.00059850063707795882 -0.0031721442242943986 0.0077882975037676175 -0.0011468583562373742 0.00045810150427058556 -0.0011980550545976759 0.0009897210467518533 0.0035950255530077628 -0.0131489300376313 -0.0067567785499855889 -0.01161698806575342
leaf_weight=1401 47 141 27 25 22 27 26 62 20 20 21 181 38 20 23 20 60
leaf_count=1401 47 141 27 25 22 27 26 62 20 20 21 181 38 20 23 20 60
internal_value=-0.000199793 0.00141868 0.00329762 0.00675 0.000269418 0.000871622 -0.0004904 0.00037392 9.11222e-05 0.00225 -0.000690079 -0.000216191 0.000750001 -0.000260869 0.00134302 -0.000729743 -0.000374999
internal_weight=2181 332 126 52 206 74 1849 347 321 40 1502 281 100 184 43 1481 80
internal_count=2181 332 126 52 206 74 1849 347 321 40 1502 281 100 184 43 1481 80
is_linear=0
shrinkage=0.03


Tree=31
num_leaves=17
num_cat=0
split_feature=35 32 36 20 24 20 39 10 46 23 31 39 7 23 24 7
split_gain=0.916241 0.743615 0.685244 0.589355 0.28799 0.312116 0.164286 0.145645 0.358974 0.167215 0.15651 0.259752 0.0324561 0.0111183 0.0382353 1.11022e-16
threshold=23.718801500000001 24.412075000000005 23.061843000000003 22.903078000000004 24.443772500000005 22.934739500000003 24.266702500000005 1.5000000000000002 23.021550500000004 22.498142500000004 23.515272500000005 23.059240500000005 32.500000000000007 23.230037500000005 22.595327500000003 58.500000000000007
decision_type=2 2 2 2 2 2 2 2 2 2 2 2 2 2 2 2
left_child=3 2 -2 13 5 -5 -4 9 -9 -7 -11 -12 -13 15 -15 -1
right_child=1 -3 6 4 -6 7 -8 8 -10 10 11 12 -14 14 -16 -17
leaf_value=-0.015794808187611521 0.0044389532503691376 0.016999442141433167 -0.0064593593122964053 0.00053504135883919955 0.0081166170301308696 8.4848204216965548e-05 0.0012158585210366619 0.0066664876089528122 -0.00062365338588161957 -0.00020510708357043952 0.0025562020309013744 -0.00026417174161436654 -6.5384761294987726e-05 -0.0048694538044024155 -0.0065004297123312862 -0.017961046628919525
leaf_weight=1441 33 31 92 30 29 35 20 24 28 235 20 37 20 20 65 21
leaf_count=1441 33 31 92 30 29 35 20 24 28 235 20 37 20 20 65 21
internal_value=-0.000268569 0.00180682 0.000905173 -0.000450747 0.000494542 0.000298952 -0.000214285 7.70684e-05 0.00155769 -0.000144812 -0.000365384 0.000808442 -0.000223683 -0.000730607 -0.000397058 -0.000749999
internal_weight=2181 176 145 2005 458 429 112 399 52 347 312 77 57 1547 85 1462
internal_count=2181 176 145 2005 458 429 112 399 52 347 312 77 57 1547 85 1462
is_linear=0
shrinkage=0.03


end of trees

feature_importances:
minute=26
temp_lag_3=24
temp_roll_mean_5=22
temp_roll_mean_20=21
source_temp=20
temp_lag_6=20
hour=18
day_of_week=17
temp_roll_std_10=17
temp_lag_18=15
temp_lag_29=15
temp_lag_16=14
temp_lag_30=14
temp_lag_9=13
temp_lag_12=13
temp_lag_5=11
temp_roll_std_30=11
nearest_person_dx=10
temp_lag_2=10
temp_lag_4=10
temp_lag_7=10
temp_lag_14=10
temp_lag_15=10
temp_lag_20=10
temp_roll_mean_30=10
nearest_person_distance=9
temp_lag_1=9
temp_lag_26=9
temp_lag_21=8
mean_person_distance=7
temp_lag_10=7
temp_lag_28=7
temp_roll_std_5=7
temp_lag_8=6
temp_lag_11=6
temp_lag_17=6
temp_lag_22=6
target_minutes_ahead=6
temp_delta_1=5
people_count_total=4
temp_lag_13=4
temp_lag_19=4
temp_lag_25=4
temp_roll_std_20=4
nearest_person_dy=2
temp_lag_23=2
temp_lag_24=2
temp_roll_mean_10=2
temp_lag_27=1
seconds_since_previous=1

parameters:
[boosting: gbdt]
[objective: quantile]
[metric: quantile]
[tree_learner: serial]
[device_type: cpu]
[data_sample_strategy: bagging]
[data: ]
[valid: ]
[num_iterations: 1200]
[learning_rate: 0.03]
[num_leaves: 31]
[num_threads: 8]
[seed: 42]
[deterministic: 0]
[force_col_wise: 0]
[force_row_wise: 0]
[histogram_pool_size: -1]
[max_depth: -1]
[min_data_in_leaf: 20]
[min_sum_hessian_in_leaf: 0.001]
[bagging_fraction: 0.85]
[pos_bagging_fraction: 1]
[neg_bagging_fraction: 1]
[bagging_freq: 0]
[bagging_seed: 400]
[bagging_by_query: 0]
[feature_fraction: 0.85]
[feature_fraction_bynode: 1]
[feature_fraction_seed: 30056]
[extra_trees: 0]
[extra_seed: 12879]
[early_stopping_round: 0]
[early_stopping_min_delta: 0]
[first_metric_only: 0]
[max_delta_step: 0]
[lambda_l1: 0]
[lambda_l2: 0]
[linear_lambda: 0]
[min_gain_to_split: 0]
[drop_rate: 0.1]
[max_drop: 50]
[skip_drop: 0.5]
[xgboost_dart_mode: 0]
[uniform_drop: 0]
[drop_seed: 17869]
[top_rate: 0.2]
[other_rate: 0.1]
[min_data_per_group: 100]
[max_cat_threshold: 32]
[cat_l2: 10]
[cat_smooth: 10]
[max_cat_to_onehot: 4]
[top_k: 20]
[monotone_constraints: ]
[monotone_constraints_method: basic]
[monotone_penalty: 0]
[feature_contri: ]
[forcedsplits_filename: ]
[refit_decay_rate: 0.9]
[cegb_tradeoff: 1]
[cegb_penalty_split: 0]
[cegb_penalty_feature_lazy: ]
[cegb_penalty_feature_coupled: ]
[path_smooth: 0]
[interaction_constraints: ]
[verbosity: -1]
[saved_feature_importance_type: 0]
[use_quantized_grad: 0]
[num_grad_quant_bins: 4]
[quant_train_renew_leaf: 0]
[stochastic_rounding: 1]
[linear_tree: 0]
[max_bin: 255]
[max_bin_by_feature: ]
[min_data_in_bin: 3]
[bin_construct_sample_cnt: 200000]
[data_random_seed: 175]
[is_enable_sparse: 1]
[enable_bundle: 1]
[use_missing: 1]
[zero_as_missing: 0]
[feature_pre_filter: 1]
[pre_partition: 0]
[two_round: 0]
[header: 0]
[label_column: ]
[weight_column: ]
[group_column: ]
[ignore_column: ]
[categorical_feature: 0,1]
[forcedbins_filename: ]
[precise_float_parser: 0]
[parser_config_file: ]
[objective_seed: 16083]
[num_class: 1]
[is_unbalance: 0]
[scale_pos_weight: 1]
[sigmoid: 1]
[boost_from_average: 1]
[reg_sqrt: 0]
[alpha: 0.975]
[fair_c: 1]
[poisson_max_delta_step: 0.7]
[tweedie_variance_power: 1.5]
[lambdarank_truncation_level: 30]
[lambdarank_norm: 1]
[label_gain: ]
[lambdarank_position_bias_regularization: 0]
[eval_at: ]
[multi_error_top_k: 1]
[auc_mu_weights: ]
[num_machines: 1]
[local_listen_port: 12400]
[time_out: 120]
[machine_list_filename: ]
[machines: ]
[gpu_platform_id: -1]
[gpu_device_id: -1]
[gpu_use_dp: 0]
[num_gpu: 1]

end of parameters

pandas_categorical:[["cableduct_1", "cableduct_2", "cableduct_3", "cableduct_4", "chair_1", "machine_1", "machine_2", "machine_3", "machine_4", "machine_5", "machine_6", "screen_1", "screen_2", "window_1"], ["Cableduct", "Chair", "Machine", "Screen", "Window"]]
