tree
version=v4
num_class=1
num_tree_per_iteration=1
label_index=0
max_feature_idx=60
objective=quantile
feature_names=object_id canonical_label display_x display_y anchor_x anchor_y hour minute day_of_week source_temp people_count_total people_count_within_1m people_count_within_2m people_count_within_3m nearest_person_distance mean_person_distance nearest_person_dx nearest_person_dy temp_lag_1 temp_lag_2 temp_lag_3 temp_lag_4 temp_lag_5 temp_lag_6 temp_lag_7 temp_lag_8 temp_lag_9 temp_lag_10 temp_lag_11 temp_lag_12 temp_lag_13 temp_lag_14 temp_lag_15 temp_lag_16 temp_lag_17 temp_lag_18 temp_lag_19 temp_lag_20 temp_lag_21 temp_lag_22 temp_lag_23 temp_lag_24 temp_lag_25 temp_lag_26 temp_lag_27 temp_lag_28 temp_lag_29 temp_lag_30 temp_roll_mean_5 temp_roll_mean_10 temp_roll_mean_20 temp_roll_mean_30 temp_roll_std_5 temp_roll_std_10 temp_roll_std_20 temp_roll_std_30 temp_delta_1 seconds_since_previous observations_in_frame target_minutes_ahead requested_horizon_min
feature_infos=none none none none none none [6:21] [0:59] [1:4] [19.771936:26.416235] [0:4] [0:1] [0:2] [0:2] [0.77149305198815643:7.1928876916398456] [0.97885696711782044:7.1928876916398456] [-6.2637770000000002:3.4155670000000002] [-4.9358110000000002:-0.51526800000000006] [19.771936:26.416235] [19.771936:26.416235] [19.771936:26.416235] [19.771936:26.416235] [19.771936:26.416235] [19.771936:26.416235] [19.771936:26.416235] [19.771936:26.416235] [19.771936:26.416235] [19.771936:26.416235] [19.771936:26.416235] [19.771936:26.416235] [19.771936:26.416235] [19.771936:26.416235] [19.771936:26.416235] [19.771936:26.416235] [19.771936:26.416235] [19.771936:26.416235] [19.771936:26.416235] [19.771936:26.416235] [19.771936:26.416235] [19.771936:26.416235] [19.771936:26.416235] [19.771936:26.416235] [19.771936:26.416235] [19.771936:26.416235] [19.771936:26.416235] [19.771936:26.416235] [19.771936:26.416235] [19.771936:26.416235] [19.828292800000003:25.603733999999996] [19.858890649999999:25.270159200000002] [19.898925075000001:25.063119550000003] [19.921196116666668:24.984232966666671] [0.0071769036038385027:2.1599952154086801] [0.014011008175609864:2.3858775221660626] [0.023123111523675795:2.3166302568294417] [0.038639859688367056:2.3785894178161895] [-3.7895469999999989:2.6918390000000016] [28:314134] [1:2] [5:163] [5:120]
tree_sizes=2620 2865 2856 2838 2843 2867 2830 2862 2853 2861 2853 2859 2868 2877 2902 2879 2865 2861 2875 2878 2893 2858 2851 2871 2887 2894 2881 2887 2872 2889 2866 2903 2879 2879 2888 2883 2866 2872 2878 2888 2848 2869 2874 2883 2884 2864 2910 2882 2909 2881 2905 2886 2881 2883 2903 2897 2889 2888 2881 2900 2907 2902 2883 2874 2898 2923 2886 2910 2911 2894 2920 2924 2923 2916 2949 2925 2917 2914 2920 2956 2917 2929 2936 2920 2954 2902 2921 2931 2930 2918 2937 2939 2922 2930 2945 2932 2925 2944 2934 2951 2917 2926 2961 2930 2945 2936 2934 2966 2963 2935 2898 2927 2945 2959 2952 2934 2951 2933 2951 2958 2958 2963 2959 2937 2954 2968 2925 2976 2946 2951 2970 2951 2964 2931 2935 2949 2950 2958 2972 2950 2941 2939 2949 2924 2941 2938 2926 2934 2920 2925 2947 2954 2946 2957 2942 2944 2965 2948 2957 2950 2937 2931 2964 2966 2945 2964 2951 2976 2969 2951 2951 2927 2954 2964 2961 2947 2959 2950 2925 2955 2964 2953 2954 2945 2957 2958 2982 2928 2961 2962 2946 2893 2942 2913 2925 2953 2963 2939 2921 2950 2922 2944 2950 2978 2950 2947 2957 2928 2940 2945 2938 2927 2932 2941 2954 2982 2958 2963 2965 2943 2935 2959 2963 2950 2987 2950 2974 2952 2927 2947 2958 2957 2953 2974 2951 2959 2943 2962 2936 2944 2940 2943 2962 2955 2928 2968 2922 2969 2969 2937 2959 2955 2962 2960 2987 2962 2940 2921 2957 2944 2938 2970 2963 2933 2943 2945 2941 2937 2932 2925 2957 2961

Tree=0
num_leaves=31
num_cat=0
split_feature=9 59 51 6 59 59 45 59 41 51 43 6 59 43 59 7 59 53 59 30 59 59 48 30 37 56 21 23 14 32
split_gain=238.606 87.9797 18.689 17.6422 6.9012 4.7606 8.23184 4.15174 4.10232 2.57583 2.41288 2.3323 2.82789 2.27577 2.05352 3.85424 1.87034 1.66684 1.55769 1.48478 2.08286 1.41677 1.17734 1.13669 1.11364 0.885819 0.803571 0.786395 0.753846 0.705996
threshold=20.124303000000001 42.500000000000007 20.226332216666673 7.5000000000000009 15.491666666666669 60.491666666666674 23.529140250000005 20.008333333333336 20.045967000000001 20.64732986666667 19.992898000000004 9.5000000000000018 30.991666666666671 20.446851000000006 27.508333333333336 45.500000000000007 89.250000000000014 0.060795119139878305 14.741666666666669 20.407656500000005 10.008333333333335 59.750000000000007 19.965090500000002 20.239272500000002 20.085677000000004 0.11625350000000091 20.124303000000001 20.085677000000004 6.6787648872323295 19.929055000000002
decision_type=2 2 2 2 2 2 2 2 2 2 2 2 2 2 2 2 2 2 2 2 2 2 2 2 2 2 2 2 8 2
left_child=1 3 4 14 8 6 22 10 26 11 18 12 13 -4 -1 -16 17 25 -5 20 -15 -8 -3 -10 -12 -6 -2 -19 -21 -7
right_child=2 5 9 7 16 29 21 -9 23 -11 24 -13 -14 19 15 -17 -18 27 -20 28 -22 -23 -24 -25 -26 -27 -28 -29 -30 -31
leaf_value=20.211162633901061 20.214633283619676 20.217782538898049 20.218676086431216 20.212871365566262 20.219363683233567 20.218412803656104 20.214103589541672 20.219106224065975 20.218192077160413 20.230566520690918 20.218113998422886 20.224471569061279 20.221584851303486 20.218792610170453 20.211614589691163 20.2185156416942 20.223955085806249 20.217591867451272 20.217456226348876 20.21880939865337 20.22077444076659 20.21766520262311 20.218696418286022 20.218450124280924 20.216761920463554 20.218673717499001 20.215320751673456 20.217951595312332 20.218661872864288 20.219934970910646
leaf_weight=284 21 34 463 26 78 49 28 29 48 22103 22 1029 482 25 43 28 82 21 26 20 45 26 94 26 22 20 24 49 45 153
leaf_count=284 21 34 463 26 78 49 28 29 48 22103 22 1029 482 25 43 28 82 21 26 20 45 26 94 26 22 20 24 49 45 153
internal_value=20.2204 20.2049 20.221 20.1964 20.2143 20.2156 20.2121 20.2061 20.2083 20.2211 20.2031 20.2201 20.2191 20.2177 20.193 20.1975 20.2171 20.2153 20.1987 20.2143 20.2173 20.2023 20.2163 20.2127 20.2082 20.2178 20.2012 20.2118 20.211 20.2188
internal_weight=25445 864 24581 480 369 384 182 125 119 24212 96 2109 1080 598 355 71 250 168 52 135 70 54 128 74 44 98 45 70 65 202
internal_count=25445 864 24581 480 369 384 182 125 119 24212 96 2109 1080 598 355 71 250 168 52 135 70 54 128 74 44 98 45 70 65 202
is_linear=0
shrinkage=1


Tree=1
num_leaves=31
num_cat=0
split_feature=9 59 6 51 59 59 42 59 42 43 45 59 7 59 59 48 59 48 30 59 53 55 29 56 59 31 9 59 56 29
split_gain=235.878 90.1333 17.6422 16.1302 5.74575 4.95061 7.77853 4.15174 3.32908 2.41288 2.24894 2.05352 3.85424 1.6469 1.63643 1.68117 1.55769 1.20471 1.17284 1.13163 1.06236 0.885866 1.11861 1.03236 1.03052 0.857566 0.835368 0.861253 1.04918 0.814777
threshold=20.124303000000001 42.500000000000007 7.5000000000000009 20.226332216666673 15.491666666666669 60.491666666666674 23.707018500000004 20.008333333333336 19.992898000000004 19.992898000000004 20.324142500000004 27.508333333333336 45.500000000000007 59.750000000000007 89.250000000000014 20.198841100000006 14.741666666666669 19.965090500000002 20.239272500000002 30.491666666666671 0.30320634397341301 0.25139588286711184 20.762119000000002 -0.066503499999999591 14.741666666666669 20.124303000000001 20.274310000000003 20.491666666666671 -0.036166999999998943 20.085677000000004
decision_type=2 2 2 2 2 2 2 2 2 2 2 2 2 2 2 2 2 2 2 2 2 2 2 2 2 2 2 2 2 2
left_child=1 2 11 4 8 6 17 9 -2 16 19 -1 -13 -8 15 29 -4 -3 -10 20 21 23 24 -5 -23 -11 27 28 -12 -6
right_child=3 5 7 10 14 -7 13 -9 18 25 26 12 -14 -15 -16 -17 -18 -19 -20 -21 -22 22 -24 -25 -26 -27 -28 -29 -30 -31
leaf_value=-0.0090008088061554036 -0.0055887385496462142 -0.0025501668903406128 -0.0073433390909119463 -0.0023903759750378128 -0.0030588721332461479 -0.0013775290993561029 -0.0062168093290736332 -0.0012955263461889642 -0.0027143615841653613 -0.0035552677110372347 -0.00069839055374043113 -0.0085624116897583136 -0.0018683912468102904 -0.0023194286476140745 0.0034078695418753211 -0.0013785844415870972 -0.0028960241317748723 -0.0019313214750275945 -0.0023747917454046345 0.0004550326378037894 -0.0012613733237402157 -0.0018413356521339707 -0.00050440965796717308 -0.0018247173900066114 -0.0018793154747869987 -0.0012601188891119364 0.0077905557663498952 0.0034612709424535816 -0.0017298015232524438 -0.0015002491965539191
leaf_weight=284 27 36 26 25 37 202 24 29 63 23 66 43 28 22 82 99 26 100 29 400 204 22 24 149 31 21 23132 127 32 32
leaf_count=284 27 36 26 25 37 202 24 29 63 23 66 43 28 22 82 99 26 100 29 400 204 22 24 149 31 21 23132 127 32 32
internal_value=1.07585e-05 -0.0153958 -0.0240625 0.000552286 -0.00567276 -0.0045625 -0.0081511 -0.01437 -0.0110987 -0.017375 0.000647158 -0.0274754 -0.022912 -0.0188152 -0.00309 -0.00478571 -0.02175 -0.00454412 -0.00838043 -0.000864035 -0.00188736 -0.00319422 -0.00587338 -0.00200862 -0.0083066 -0.0122045 0.000702477 -0.00111667 -0.00322959 -0.00838043
internal_weight=25445 864 480 24581 369 384 182 125 119 96 24212 355 71 46 250 168 52 136 92 855 455 251 77 174 53 44 23357 225 98 69
internal_count=25445 864 480 24581 369 384 182 125 119 96 24212 355 71 46 250 168 52 136 92 855 455 251 77 174 53 44 23357 225 98 69
is_linear=0
shrinkage=0.03


Tree=2
num_leaves=31
num_cat=0
split_feature=9 59 7 51 59 59 42 59 20 55 7 59 51 59 7 59 46 19 55 27 31 47 55 59 43 59 23 59 50 59
split_gain=226.072 90.857 16.9 13.3732 5.88403 4.66814 7.55022 4.5125 3.7553 2.18409 2.13301 2.06588 1.99861 1.74545 3.72352 1.66234 1.40365 1.31217 1.31701 1.14512 1.14218 0.984909 0.945441 1.48393 0.829382 0.803368 1.27936 0.796225 0.716432 1.48912
threshold=20.124303000000001 42.500000000000007 23.500000000000004 20.226332216666673 15.491666666666669 60.491666666666674 23.707018500000004 14.741666666666669 20.085677000000004 0.053715408113221952 9.5000000000000018 59.750000000000007 20.64732986666667 27.508333333333336 45.500000000000007 20.008333333333336 21.163213500000001 20.019625500000004 0.057149406644082308 20.045967000000001 20.045967000000001 20.085677000000004 0.23754768761954992 30.008333333333336 20.446851000000006 10.008333333333335 20.386491500000002 45.00833333333334 20.282977025000005 5.491666666666668
decision_type=2 2 2 2 2 2 2 2 2 2 2 2 2 2 2 2 2 2 2 2 2 2 2 2 2 2 2 2 2 2
left_child=1 2 7 4 8 6 17 10 -2 -4 -1 -8 16 -11 -15 19 22 18 -3 -9 27 -10 28 24 -24 -26 -27 -6 29 -5
right_child=3 5 9 12 20 -7 11 15 21 13 -12 -13 -14 14 -16 -17 -18 -19 -20 -21 -22 -23 23 -25 25 26 -28 -29 -30 -31
leaf_value=-0.0071230389181845761 -0.0055022771072775947 -0.00012615679281662294 -0.0066013780821050361 -0.0026130222047468605 -0.0026332715254887042 -0.0013362032263753675 -0.0060303050492013805 -0.0028091434078216081 -0.0031919766850871758 -0.0087344752667631552 -0.0027878040344873011 -0.0022498457881856737 0.0095872447070144418 -0.0083055393390655402 -0.0018732435363450505 -0.0012708426467738577 -0.0013566439234030257 -0.0011001054284212536 -0.0023996227028214062 -0.0018349937002119531 -0.0013885221893686717 -0.0022892354511542686 -0.0016794025567073521 0.0016753665921129012 -0.0019318365580459366 8.9668421757139056e-05 -0.001677769784570859 -0.0016225345178302122 0.0028297085949439706 -0.00062657094468989447
leaf_weight=26 21 21 30 29 24 202 24 23 51 264 22 22 22103 43 23 28 27 66 49 21 201 47 192 274 41 40 29 25 1209 268
leaf_count=26 21 21 30 29 24 202 24 23 51 264 22 22 22103 43 23 28 27 66 49 21 201 47 192 274 41 40 29 25 1209 268
internal_value=3.43388e-05 -0.0150486 -0.02375 0.000564491 -0.00510366 -0.00417188 -0.00765659 -0.014 -0.0105945 -0.027 -0.021125 -0.018163 0.000650876 -0.0277045 -0.0233409 -0.00925 -0.000231508 -0.00410294 -0.00696429 -0.0128864 -0.00249 -0.00812755 -0.000143372 -0.00117708 -0.00262748 -0.00470455 -0.00272826 -0.00659694 0.000251992 -0.00106818
internal_weight=25445 864 480 24581 369 384 182 120 119 360 48 46 24212 330 66 72 2109 136 70 44 250 98 2082 576 302 110 69 49 1506 297
internal_count=25445 864 480 24581 369 384 182 120 119 360 48 46 24212 330 66 72 2109 136 70 44 250 98 2082 576 302 110 69 49 1506 297
is_linear=0
shrinkage=0.03


Tree=3
num_leaves=31
num_cat=0
split_feature=9 59 6 51 59 59 42 59 20 7 59 7 43 51 48 6 59 43 50 30 59 31 30 59 15 43 59 30 59 45
split_gain=221.107 90.5672 19.3565 12.998 5.52366 4.37587 8.36262 4.332 3.92157 3 2.97535 5.7813 2.16392 1.99861 1.81129 1.67012 1.98372 1.53839 1.34127 1.24644 1.26 1.14218 0.89955 0.796225 0.718376 0.635582 0.624783 0.748823 0.998484 0.619226
threshold=20.124303000000001 42.500000000000007 7.5000000000000009 20.226332216666673 15.491666666666669 59.750000000000007 23.739924500000004 14.741666666666669 20.085677000000004 10.500000000000002 27.508333333333336 45.500000000000007 20.085677000000004 20.64732986666667 19.990029100000005 9.5000000000000018 30.991666666666671 20.446851000000006 19.953337250000004 20.407656500000005 10.008333333333335 20.045967000000001 20.239272500000002 45.00833333333334 6.6841676483375654 24.284388500000002 60.00833333333334 20.180731500000004 30.491666666666671 19.929055000000002
decision_type=2 2 2 2 2 2 2 2 2 2 2 2 2 2 2 2 2 2 2 2 2 2 2 2 8 2 2 2 2 2
left_child=1 2 10 4 8 6 14 9 -2 -4 -1 -12 -9 15 -3 16 17 -5 -7 20 -19 23 -10 -6 -21 29 27 -23 -29 -20
right_child=3 5 7 13 21 18 -8 12 22 -11 11 -13 -14 -15 -16 -17 -18 19 25 24 -22 26 -24 -25 -26 -27 -28 28 -30 -31
leaf_value=-0.0084687502839678064 -0.0053372087940592181 -0.0024896754087520988 -0.0067044641721465932 -0.0016301850935684079 -0.002554273379724018 -0.0023995800459888231 -0.0058665777713029143 -0.0024969436314371345 -0.0029345192831910023 -0.0014960185071090748 -0.0080563731588935636 -0.001756142203315676 -0.00067437943964267861 0.0092996273658040342 -0.00050236947687440695 0.0035902503684165765 0.0011138882234013536 -0.0015931313139201768 -0.0018482583744951959 -0.0015336920742624164 0.00016525087309441952 -0.001493481691384893 -0.0022267462586849918 -0.0015738584822953586 -0.0018492411583189781 -0.001601471181333732 0.0014196661460247383 -0.0006256667289260264 -0.0016298874867297062 9.5710222441728357e-05
leaf_weight=284 21 30 30 463 24 36 23 54 69 20 43 28 21 22103 43 1029 482 25 57 20 45 68 29 25 45 36 72 30 31 159
leaf_count=284 21 30 30 463 24 36 23 54 69 20 43 28 21 22103 43 1029 482 25 57 20 45 68 29 25 45 36 72 30 31 159
internal_value=4.14128e-05 -0.014875 -0.0235625 0.000565711 -0.00502236 -0.00401563 -0.0095625 -0.01341 -0.0103424 -0.02025 -0.0271373 -0.0216444 -0.00885 0.000650876 -0.00459247 -0.000231508 -0.00105556 -0.00220987 -0.00216667 -0.00502778 -0.00225 -0.00249 -0.00782143 -0.00659694 -0.00801923 -0.00139286 -0.00148881 -0.00273837 -0.00515164 -0.000777778
internal_weight=25445 864 480 24581 369 384 96 125 119 50 355 71 75 24212 73 2109 1080 598 288 135 70 250 98 49 65 252 201 129 61 216
internal_count=25445 864 480 24581 369 384 96 125 119 50 355 71 75 24212 73 2109 1080 598 288 135 70 250 98 49 65 252 201 129 61 216
is_linear=0
shrinkage=0.03


Tree=4
num_leaves=31
num_cat=0
split_feature=9 59 6 51 59 59 50 47 59 7 7 59 27 51 6 59 59 33 52 59 45 37 59 54 33 9 59 42 19 59
split_gain=217.251 89.5565 19.5572 12.2691 5.33938 4.64133 4.09342 4.03712 7.225 3 2.98233 4.46429 2.13556 1.94022 1.61563 2.05 1.60053 1.50553 1.13419 1.22021 1.03034 0.927536 0.886427 1.41429 0.737241 0.710357 0.648473 0.634921 0.63176 0.757895
threshold=20.124303000000001 42.500000000000007 7.5000000000000009 20.226332216666673 15.491666666666669 14.741666666666669 20.093910675000004 23.499103500000004 59.750000000000007 10.500000000000002 50.500000000000007 20.491666666666671 20.085677000000004 20.64732986666667 9.5000000000000018 30.491666666666671 60.00833333333334 20.349679000000002 0.059920938476217801 89.250000000000014 19.929055000000002 20.204535500000002 5.491666666666668 0.065949893611385313 20.957842500000002 20.958860500000004 20.491666666666671 19.949709000000002 20.274310000000003 14.741666666666669
decision_type=2 2 2 2 2 2 2 2 2 2 2 2 2 2 2 2 2 2 2 2 2 2 2 2 2 2 2 2 2 2
left_child=1 2 10 4 6 9 -2 20 -9 -4 -1 -12 27 14 15 17 -10 22 -6 -20 -3 -8 23 -5 25 26 28 -7 -19 -30
right_child=3 7 5 13 18 12 21 8 16 -11 11 -13 -14 -15 -16 -17 -18 24 19 -21 -22 -23 -24 -25 -26 -27 -28 -29 29 -31
leaf_value=-0.0082183785002412427 -0.0050958918161166039 -0.0018804370267429442 -0.0065033302469822375 -0.0026064562122999277 -0.0012546317974058932 -0.0026499607966438531 -0.0021825518777323014 -0.0055703073231208574 -0.0024621644312691746 -0.0014511379518958277 -0.0072259087315534841 -0.0035482978356499114 -0.0010675967966550103 0.0090206385448299634 0.0034825428573641301 0.0010024486036921232 -0.00096181360706839756 -0.001818768507333801 -0.0022477064906313679 0.0023059151193091762 -0.00088844392760310299 -0.0015068032377861427 -0.001116439648968921 -0.0010953870700673577 -0.00023568968642422838 -0.0017413919975704372 -0.00019850253787919166 -0.0014558275630255314 -0.00020670094338454912 -0.0019396519948036311
leaf_weight=265 27 84 30 21 147 21 69 30 27 20 70 20 30 22103 1029 497 63 40 69 34 180 23 308 45 33 30 30 24 40 36
leaf_count=265 27 84 30 21 147 21 69 30 27 20 70 20 30 22103 1029 497 63 40 69 34 180 23 308 45 33 30 30 24 40 36
internal_value=4.96659e-05 -0.0147361 -0.023375 0.000569373 -0.00485976 -0.01317 -0.0100903 -0.0039375 -0.0085 -0.02025 -0.0269683 -0.02225 -0.00845 0.000652115 -0.000217283 -0.00102778 -0.00425 -0.00223456 -0.00237 -0.00478398 -0.00186364 -0.00707609 -0.00109492 -0.00425 -0.00427392 -0.00504545 -0.00418151 -0.0125833 -0.00519828 -0.00359211
internal_weight=25445 864 480 24581 369 125 119 384 120 50 355 90 75 24212 2109 1080 90 583 250 103 264 92 374 66 209 176 146 45 116 76
internal_count=25445 864 480 24581 369 125 119 384 120 50 355 90 75 24212 2109 1080 90 583 250 103 264 92 374 66 209 176 146 45 116 76
is_linear=0
shrinkage=0.03


Tree=5
num_leaves=31
num_cat=0
split_feature=9 59 6 51 59 38 59 27 7 7 59 50 51 56 53 59 52 6 59 33 52 59 50 22 37 43 9 30 43 33
split_gain=207.641 86.5247 15.5653 11.5666 5.12858 9.31374 4.88475 3.9482 3.85155 3.74003 3.37608 2.29091 1.82603 1.6 1.59201 3.82399 1.53165 1.50937 1.89225 1.66131 1.1197 1.18683 1.00446 1.00087 0.988625 0.799954 0.913346 0.657596 0.635582 0.541444
threshold=20.124303000000001 30.008333333333336 7.5000000000000009 20.226332216666673 59.750000000000007 23.696849500000003 15.008333333333335 20.162974000000002 12.500000000000002 55.500000000000007 14.741666666666669 19.997686950000006 20.64732986666667 -0.0020810000000004432 0.047321901688955802 20.491666666666671 0.043366015669824162 9.5000000000000018 30.491666666666671 20.349679000000002 0.059920938476217801 89.250000000000014 19.953337250000004 20.085677000000004 20.204535500000002 20.446851000000006 20.958860500000004 20.180731500000004 24.284388500000002 20.162974000000002
decision_type=2 2 2 2 2 2 2 2 2 2 2 2 2 2 2 2 2 2 2 2 2 2 2 2 2 2 2 2 2 2
left_child=1 2 9 6 5 11 8 10 -2 14 13 16 17 -4 15 -1 -3 18 19 29 -8 -22 -6 -12 27 -21 -27 -10 -24 -5
right_child=3 4 7 12 22 -7 20 -9 24 -11 23 -13 -14 -15 -16 -17 -18 -19 -20 25 21 -23 28 -25 -26 26 -28 -29 -30 -31
leaf_value=-0.0075697012122855753 -0.005037749228107429 -0.0032342716376948743 -0.0068204392858039137 -0.0021567440535538037 -0.002253727711671121 -0.0066514686008915273 -0.0012153259934228381 -0.00080994416674822769 -0.00215250983848284 -0.0068351615640674839 -0.0018494590286942908 0.00057495262214740152 0.0087500193884850926 -0.0044714822381792625 -0.0079718271452339801 -0.0055213417939693 -0.0015556851614415199 0.0033780665716432521 0.00097237514558134563 -0.0017873730361497261 -0.0021782763442184856 0.0022367376657299329 -0.0012129411660034451 -0.0021291211888457904 -0.0014615991406526007 -0.0014833724712172303 -0.0017618702244137597 -0.0018152583109912928 -0.0014851884279595169 -0.001212821158069029
leaf_weight=81 20 32 20 34 36 23 148 24 45 39 27 35 22103 20 204 20 23 1029 497 116 70 34 216 28 23 68 25 29 36 340
leaf_count=81 20 32 20 34 36 23 148 24 45 39 27 35 22103 20 204 20 23 1029 497 116 70 34 216 28 23 68 25 29 36 340
internal_value=6.61721e-05 -0.0143889 -0.0232241 0.000574255 -0.00418766 -0.00960398 -0.00469715 -0.0138718 -0.00976282 -0.0264593 -0.0166184 -0.00525 0.000654593 -0.02325 -0.0275779 -0.0244975 -0.00906818 -0.000188834 -0.000972222 -0.00213165 -0.00234524 -0.00473077 -0.0020625 -0.0117955 -0.00729124 -0.00427392 -0.00634677 -0.00897973 -0.00139286 -0.000934492
internal_weight=25445 864 463 24581 401 113 369 119 117 344 95 90 24212 40 305 101 55 2109 1080 583 252 104 288 55 97 209 93 74 252 374
internal_count=25445 864 463 24581 401 113 369 119 117 344 95 90 24212 40 305 101 55 2109 1080 583 252 104 288 55 97 209 93 74 252 374
is_linear=0
shrinkage=0.03


Tree=6
num_leaves=31
num_cat=0
split_feature=18 60 7 51 60 7 7 60 53 60 42 38 7 45 42 29 60 18 33 60 31 50 55 46 30 60 53 18 29 38
split_gain=193.144 83.0558 18.6949 12.564 4.5125 4.8 4.24011 3.60533 3.25711 4.80909 3.0767 2.25566 1.92 1.84733 1.61639 1.5928 1.51515 2.03887 1.41324 1.2 1.28582 1.04762 1.04167 0.948148 0.833584 0.76 0.792345 0.917675 1.11535 0.720238
threshold=20.124303000000001 37.500000000000007 24.500000000000004 20.226332216666673 17.500000000000004 15.500000000000002 55.500000000000007 12.500000000000002 0.047321901688955802 25.000000000000004 25.170361500000002 19.949709000000002 10.500000000000002 20.324142500000004 25.494727000000001 19.992898000000004 52.500000000000007 19.992898000000004 19.992898000000004 75.000000000000014 20.045967000000001 19.953337250000004 0.083390081027694921 19.992898000000004 20.180731500000004 37.500000000000007 0.2938160814507173 20.258158000000005 20.431399000000003 20.274310000000003
decision_type=2 2 2 2 2 2 2 2 2 2 2 2 2 2 2 2 2 2 2 2 2 2 2 2 2 2 2 2 2 2
left_child=1 2 7 4 5 -2 8 12 9 15 16 -9 -1 25 -15 -4 17 18 -3 20 -6 -18 -7 -13 -22 26 27 -5 29 -29
right_child=3 10 6 13 19 22 -8 11 -10 -11 -12 23 -14 14 -16 -17 21 -19 -20 -21 24 -23 -24 -25 -26 -27 -28 28 -30 -31
leaf_value=-0.0061036171609986662 -0.0053122372195784527 -0.0011977919251913219 -0.0073621541391524709 4.7080626659550264e-05 -0.0022851183722167011 -0.0020422614744430153 -0.0066107767263609519 -0.0025107832694189554 -0.0077326723308769729 -0.004451593966663529 -0.0047337696427992172 -0.0022576551998544523 -0.0010045744918410814 0.0061813054279242505 -0.0070889264228172523 -0.0067719310856720226 -0.002230973142540968 -0.00066005125342190308 -0.004051833387970021 0.0032199169959089245 -0.00085983515376323975 -0.0011993078472340368 -0.0019970856562013342 -0.00051674870649371729 -0.0014644304029151341 0.00046572205530289064 -0.0006638165150366171 -0.0020680578622833696 -0.00078738274166077814 -0.0020501514404567467
leaf_weight=30 24 20 64 80 28 48 40 21 205 22 32 24 20 23344 22 24 33 47 21 80 68 231 48 30 64 380 220 70 55 50
leaf_count=30 24 20 64 80 28 48 40 21 205 22 32 24 20 23344 22 24 33 47 21 80 68 231 48 30 64 380 220 70 55 50
internal_value=7.32462e-05 -0.0138681 -0.0221875 0.00056327 -0.005 -0.00975 -0.0257007 -0.01221 -0.026869 -0.0227045 -0.00346875 -0.00805 -0.01845 0.000645958 0.000696076 -0.0258409 -0.00265909 -0.00606818 -0.0109573 -0.002625 -0.004125 -0.00152273 -0.00675 -0.00480556 -0.00288636 -0.000723684 -0.00152368 -0.00266176 -0.00387857 -0.0055
internal_weight=25445 864 480 24581 360 120 355 125 315 110 384 75 50 24221 23366 88 352 88 41 240 160 264 96 54 132 855 475 255 175 120
internal_count=25445 864 480 24581 360 120 355 125 315 110 384 75 50 24221 23366 88 352 88 41 240 160 264 96 54 132 855 475 255 175 120
is_linear=0
shrinkage=0.03


Tree=7
num_leaves=31
num_cat=0
split_feature=9 59 6 51 7 59 59 59 41 59 45 32 43 55 30 51 6 59 7 18 59 52 59 19 55 37 43 59 30 31
split_gain=196.945 84.0292 18.4987 10.1484 5.31339 6.87619 4.27701 3.6273 3.55275 3.35877 5.12045 2.64652 2.57459 1.95822 1.91761 1.86566 1.83588 2.1749 2.4706 1.45875 1.23077 1.1197 1.18683 0.945313 0.915352 0.679764 0.644797 0.917574 0.591498 0.556928
threshold=20.124303000000001 42.500000000000007 7.5000000000000009 20.226332216666673 45.500000000000007 19.750000000000004 20.008333333333336 15.008333333333335 19.992898000000004 60.491666666666674 23.529140250000005 19.949709000000002 19.992898000000004 0.074984487214563605 19.929055000000002 20.679974383333334 9.5000000000000018 30.491666666666671 51.500000000000007 20.619577500000002 14.741666666666669 0.059920938476217801 89.250000000000014 20.019625500000004 0.057149406644082308 20.204535500000002 20.446851000000006 8.7500000000000018 20.180731500000004 20.349679000000002
decision_type=2 2 2 2 2 2 2 2 2 2 2 2 2 2 2 2 2 2 2 2 2 2 2 2 2 2 2 2 2 2
left_child=1 2 4 7 -1 -6 12 8 -2 10 23 -7 20 -14 -12 16 17 18 26 -20 -4 -9 -23 24 -3 28 -5 -28 -10 -29
right_child=3 9 6 15 5 11 -8 21 25 -11 14 -13 13 -15 -16 -17 -18 -19 19 -21 -22 22 -24 -25 -26 -27 27 29 -30 -31
leaf_value=-0.0076663882847323346 -0.0046933719842420984 0.00014433046522636112 -0.0061402305987839165 -0.0015341330096074219 -0.0070450456460580567 -0.00409225849004651 -0.00096799078555953643 -0.0011349333015326416 -0.0025086536457825936 -0.0011119263064194636 -0.0023285205764047323 -0.0045216820483927117 -0.0007657634829808937 -0.0025389428680315375 -0.0049725198130099258 0.0086016859672350069 0.0031241886469513956 0.00095344792815780003 -0.0019185635631350068 -0.0020527104888429415 -0.0024344110382202061 -0.0020561330881785837 0.0020730380258807556 -0.00094005336839775256 -0.0020080568008945731 -0.0013564833221996707 -0.0017477158762032332 6.3588008614338425e-05 -0.0017004814096255175 -0.0016647873548719784
leaf_weight=215 20 21 26 412 84 26 29 148 45 202 22 30 21 23 32 21696 1418 505 39 40 26 70 34 64 43 23 21 44 29 37
leaf_count=215 20 21 26 412 84 26 29 148 45 202 22 30 21 23 32 21696 1418 505 39 40 26 70 34 64 43 23 21 44 29 37
internal_value=7.08882e-05 -0.0140069 -0.022375 0.000565711 -0.0258697 -0.0213214 -0.01245 -0.00437195 -0.00873718 -0.00354688 -0.00650275 -0.0131786 -0.0155 -0.0101591 -0.01425 0.000640963 -0.000132353 -0.00105328 -0.00228541 -0.00722468 -0.0200192 -0.00234524 -0.00473077 -0.00323438 -0.0058125 -0.0063634 -0.00152626 -0.00366176 -0.00776351 -0.00221296
internal_weight=25445 864 480 24581 355 140 125 369 117 384 182 56 96 44 54 24212 2516 1098 593 79 52 252 104 128 64 97 514 102 74 81
internal_count=25445 864 480 24581 355 140 125 369 117 384 182 56 96 44 54 24212 2516 1098 593 79 52 252 104 128 64 97 514 102 74 81
is_linear=0
shrinkage=0.03


Tree=8
num_leaves=31
num_cat=0
split_feature=9 59 6 50 7 59 59 27 59 42 59 41 48 53 59 9 7 50 52 59 59 7 7 45 19 47 7 59 29 53
split_gain=190.56 81.4002 17.9989 8.19331 6.31129 4.81667 4.0761 3.67667 3.33681 6.92149 2.82201 4.75054 1.42392 1.39844 3.025 1.36515 1.10455 1.09573 0.901622 1.09681 0.86916 0.860671 1.12471 0.832245 0.714827 0.713608 0.999122 1.35387 0.675 0.590191
threshold=20.124303000000001 42.500000000000007 7.5000000000000009 20.256585400000002 50.500000000000007 19.750000000000004 20.008333333333336 20.085677000000004 59.750000000000007 23.966127500000002 15.008333333333335 19.992898000000004 19.965090500000002 0.047321901688955802 19.750000000000004 20.407656500000005 32.500000000000007 19.953337250000004 0.05766045761590121 89.250000000000014 20.491666666666671 14.500000000000002 54.500000000000007 20.162974000000002 20.324142500000004 20.324142500000004 51.500000000000007 30.491666666666671 19.949709000000002 0.054421453378662936
decision_type=2 2 2 2 2 2 2 2 2 2 2 2 2 2 2 2 2 2 2 2 2 2 2 2 2 2 2 2 2 2
left_child=1 2 4 10 13 28 7 29 9 12 11 -2 -3 14 -1 20 -13 -10 -12 23 21 24 -23 -20 -5 26 -17 -28 -6 -4
right_child=3 8 6 15 5 -7 -8 -9 17 -11 18 16 -14 -15 -16 25 -18 -19 19 -21 -22 22 -24 -25 -26 -27 27 -29 -30 -31
leaf_value=-0.0071384261332698169 -0.0045525708247148343 -0.0022415102831742219 -0.0049947074025793372 -0.0016070241814114964 -0.0063821431477621348 -0.0031093497736041993 -0.00093895106199269704 -0.0031629185535448287 -0.0020493310687525537 -0.0050317748716975121 -0.00060443237657118766 -0.0025811278133956285 -0.0010445033036925752 -0.0072707005124086517 -0.0066907497187026132 0.00021975190974910799 0.00040581535082974792 -0.0011150932852596986 -0.0019944490955332342 0.0030043084286370458 0.0009448866888177893 -0.00046736206142047621 -0.0021704176400077334 -0.0013285519358705758 -0.0003587347768686318 0.0069546659668312215 -0.0019840581723295217 0.002364356590149266 -0.0064907278000132605 -0.0051764331273166158
leaf_weight=36 20 21 23 71 30 36 29 38 36 21 167 99 54 205 24 360 36 252 70 56 537 264 23 47 32 22736 34 29 24 35
leaf_count=36 20 21 23 71 30 36 29 38 36 21 167 99 54 205 24 360 36 252 70 56 537 264 23 47 32 22736 34 29 24 35
internal_value=8.38573e-05 -0.0137639 -0.022 0.000570593 -0.0254472 -0.0185833 -0.01221 -0.0151875 -0.00346875 -0.0083125 -0.00325 -0.00660484 -0.00405 -0.0277783 -0.02375 0.000649112 -0.00458333 -0.00185417 -0.00172059 -0.00323844 -0.000479773 -0.00155769 -0.000713415 -0.00489103 -0.00391019 0.000694298 -0.000526596 -0.0040119 -0.02425 -0.0199397
internal_weight=25445 864 480 24581 355 90 125 96 384 96 495 155 75 265 60 24086 135 288 340 173 927 390 287 117 103 23159 423 63 54 58
internal_count=25445 864 480 24581 355 90 125 96 384 96 495 155 75 265 60 24086 135 288 340 173 927 390 287 117 103 23159 423 63 54 58
is_linear=0
shrinkage=0.03


Tree=9
num_leaves=31
num_cat=0
split_feature=9 59 6 51 7 59 32 59 59 36 59 47 42 54 51 27 6 52 59 44 59 45 50 47 40 25 45 37 45 31
split_gain=178.811 79.8222 15.8566 7.97046 7.01811 6.59947 4.51616 3.55441 3.53492 6.90735 2.57518 2.5108 2.09468 1.85716 1.74658 1.73824 1.72133 1.63593 1.62904 2.22465 1.37777 1.30273 1.14286 0.952381 0.931038 0.666667 0.606122 0.533931 0.481232 0.70259
threshold=20.124303000000001 30.008333333333336 7.5000000000000009 20.226332216666673 45.500000000000007 19.750000000000004 19.992898000000004 14.741666666666669 59.750000000000007 23.716440000000002 10.008333333333335 20.019625500000004 20.045967000000001 0.060768036312872926 20.679974383333334 20.085677000000004 8.5000000000000018 0.05766045761590121 30.491666666666671 20.446851000000006 89.250000000000014 20.085677000000004 19.953337250000004 19.949709000000002 19.949709000000002 19.949709000000002 20.162974000000002 20.274310000000003 19.929055000000002 20.019625500000004
decision_type=2 2 2 2 2 2 2 2 2 2 2 2 2 2 2 2 2 2 2 2 2 2 2 2 2 2 2 2 2 2
left_child=1 2 4 10 -1 23 -7 12 9 13 11 -2 -4 24 16 -9 18 -12 19 26 -19 -13 -10 -6 -3 -25 -5 -28 29 -24
right_child=3 8 7 14 5 6 -8 15 22 -11 17 21 -14 -15 -16 -17 -18 20 -20 -21 -22 -23 28 25 -26 -27 27 -29 -30 -31
leaf_value=-0.0072628861218185748 -0.0044674313253462552 -0.002616635217553699 -0.0057012477934457852 -0.0018047437739359248 -0.0066439963329476383 -0.003596816538043726 -0.0043225474337668145 -0.0022031492605287259 -0.001987851136689929 -0.0059741400726436517 -0.0010710843807631323 0.0002391831941821529 -0.0022514935775830576 -0.00018720518382675912 0.0082166490041837292 -0.00076111122695173841 0.00043212829980212783 -0.0018634899559554286 0.00015566701499827843 -0.0020035435054247056 0.0024681171612761688 -0.0020552309900381486 -0.00095084348779160034 -0.004276987472616684 -0.0011768609795733205 -0.0065958775418626225 -0.00066291064857972265 -0.0019809174973607307 -0.0001530670756037463 -0.0016715371402092453
leaf_weight=208 24 21 28 24 30 31 21 40 36 21 155 21 22 49 21696 29 2048 100 213 35 38 31 36 27 22 27 122 74 195 21
leaf_count=208 24 21 28 24 30 31 21 40 36 21 155 21 22 49 21696 29 2048 100 213 35 38 31 36 27 22 27 122 74 195 21
internal_value=0.000101543 -0.0133125 -0.0217986 0.000573034 -0.025064 -0.0197647 -0.0113654 -0.0123592 -0.00351434 -0.00801106 -0.00380285 -0.00872368 -0.01845 -0.00446739 0.000639724 -0.00794565 -0.000108506 -0.00252645 -0.00175 -0.00336765 -0.00490217 -0.00501923 -0.00175 -0.0249643 -0.00901744 -0.0225833 -0.00225 -0.00169898 -0.00103571 -0.00346053
internal_weight=25445 864 463 24581 344 136 52 119 401 113 369 76 50 92 24212 69 2516 293 468 255 138 52 288 84 43 54 220 196 252 57
internal_count=25445 864 463 24581 344 136 52 119 401 113 369 76 50 92 24212 69 2516 293 468 255 138 52 288 84 43 54 220 196 252 57
is_linear=0
shrinkage=0.03


Tree=10
num_leaves=31
num_cat=0
split_feature=19 59 6 7 51 40 37 59 53 59 41 59 7 59 51 54 6 59 7 50 46 52 7 59 56 23 7 59 31 26
split_gain=163.781 74.646 21.2816 6.80159 6.52598 3.79833 3.30286 2.78062 5.09102 2.48643 4.73672 2.41187 1.97485 1.90938 1.73911 1.72101 1.58942 1.91847 1.91878 1.14286 1.06018 1.00833 0.909836 1.04167 1.0006 0.900968 0.88658 0.831033 1.013 0.62374
threshold=20.124303000000001 30.008333333333336 7.5000000000000009 55.500000000000007 20.226332216666673 25.436144000000002 19.949709000000002 27.508333333333336 0.048862840902973083 59.750000000000007 23.801840000000002 15.008333333333335 13.500000000000002 14.741666666666669 20.679974383333334 0.06371783435363286 9.5000000000000018 30.491666666666671 51.500000000000007 19.953337250000004 19.992898000000004 0.045370630958762641 43.500000000000007 14.741666666666669 -0.013709999999999665 20.619577500000002 11.500000000000002 89.250000000000014 20.045967000000001 20.180731500000004
decision_type=2 2 2 2 2 2 2 2 2 2 2 2 2 2 2 2 2 2 2 2 2 2 2 2 2 2 2 2 2 2
left_child=1 2 3 7 11 14 -4 22 -9 10 15 12 -2 26 16 21 17 18 -6 -11 -15 -3 -1 -24 -25 -20 -8 28 -13 -14
right_child=4 9 6 -5 5 -7 13 8 -10 19 -12 27 29 20 -16 -17 -18 -19 25 -21 -22 -23 23 24 -26 -27 -28 -29 -30 -31
leaf_value=-0.0073691591695386905 -0.0044380526717556637 -0.0024710728590443911 -0.0055141849155898037 -0.0058295571627855758 -0.0015714017475643258 -0.006833277128303495 -0.0043542410481752728 -0.0049108090846588367 -0.0058040890192929242 -0.0019282156025892364 -0.0044871746345432582 -0.0017269824366587016 -0.0015453045251252471 -0.0022591217750899156 0.0079626076578232716 0.00032311216687117071 0.002857241882573156 0.0009039357285001514 -0.0019008025623281309 -0.0010838601833421 -0.00047735684480971146 -0.0013309426499984157 -0.0064144929730399116 -0.0044895950330208932 -0.0065522363815305575 -0.001340236508046578 -0.00073100994665600849 0.0043182394926448387 -0.0009979937201296126 -0.002237099702343974
leaf_weight=148 20 30 28 39 519 37 22 20 33 36 20 26 38 24 21677 38 1418 509 45 252 34 24 48 20 28 34 20 76 131 51
leaf_count=148 20 30 28 39 519 37 22 20 33 36 20 26 38 24 21677 38 1418 509 45 252 34 24 48 20 28 34 20 76 131 51
internal_value=0.000115691 -0.0127222 -0.0209095 -0.024875 0.000566932 0.000624995 -0.0105 -0.0264217 -0.0201934 -0.003225 -0.00701786 -0.00354825 -0.00723165 -0.00795 0.000639679 -0.0041413 -0.000105446 -0.000957317 -0.00210953 -0.00175 -0.00442241 -0.00758333 -0.0277746 -0.0255 -0.022375 -0.00646519 -0.0128214 -0.00182511 -0.00307166 -0.00531742
internal_weight=25445 864 464 336 24581 24239 128 297 53 400 112 342 109 100 24202 92 2525 1107 598 288 58 54 244 96 48 79 42 233 157 89
internal_count=25445 864 464 336 24581 24239 128 297 53 400 112 342 109 100 24202 92 2525 1107 598 288 58 54 244 96 48 79 42 233 157 89
is_linear=0
shrinkage=0.03


Tree=11
num_leaves=31
num_cat=0
split_feature=9 59 7 7 59 51 59 36 37 7 59 59 47 50 55 51 55 59 7 53 24 59 45 29 46 30 40 59 19 34
split_gain=163.226 73.4292 16.7966 7.9073 9.02118 6.91276 3.47068 7.14561 3.17784 2.32232 2.30181 2.04034 1.76535 1.57221 1.55825 1.43589 1.51911 1.78389 1.22099 1.11415 1.09755 1.09609 1.03469 1.03214 0.979592 0.875 0.800128 0.8 0.503328 0.498405
threshold=20.124303000000001 30.008333333333336 23.500000000000004 45.500000000000007 27.508333333333336 20.235529383333336 59.750000000000007 23.716440000000002 19.949709000000002 55.500000000000007 10.008333333333335 14.741666666666669 20.019625500000004 19.997686950000006 0.058883947224358621 20.679974383333334 0.23754768761954992 30.008333333333336 51.500000000000007 0.060382986285516999 20.487412500000005 89.250000000000014 20.085677000000004 19.992898000000004 20.162974000000002 19.911833000000005 20.045967000000001 14.741666666666669 20.274310000000003 20.631561000000001
decision_type=2 2 2 2 2 2 2 2 2 2 2 2 2 2 2 2 2 2 2 2 2 2 2 2 2 2 2 2 2 2
left_child=1 2 8 14 9 10 7 13 -1 27 12 -10 -2 23 -4 16 -7 18 28 -12 -20 -21 -14 -3 -24 -8 -13 -5 -18 -22
right_child=5 6 3 4 -6 15 25 -9 11 -11 19 26 22 -15 -16 -17 17 -19 20 21 29 -23 24 -25 -26 -27 -28 -29 -30 -31
leaf_value=-0.0053865764904370656 -0.0042027811541406109 -0.001368608474893309 -0.0061981493199890856 -0.0062238185821244579 -0.00053544863579791269 0.0013241807614598458 -0.0020178928494743588 -0.0056251090945459575 -0.0027914780092369216 -0.0057896629376179868 -0.00064069840706613122 -7.3983182700760716e-05 0.0002887437619233985 0.00034765905950543812 -0.0069450029489430947 0.0077312713043235348 -0.0014995480616208146 0.0018502789190323258 -0.0019729041385159155 -0.0018195350523126149 -0.00021331589513394087 0.0026916485039543401 -0.0021018130607097906 -0.0022674632006331689 -0.0020754179712218043 -0.001021405773409917 -0.001144853367334817 -0.0063255526283997054 -0.0013895109833072525 -0.0017558441163343025
leaf_weight=28 24 36 24 40 24 1769 36 21 36 32 200 26 21 36 189 21696 62 309 29 126 33 48 21 20 28 252 24 40 191 24
leaf_count=28 24 36 24 40 24 1769 36 21 36 32 200 26 21 36 189 21696 62 309 29 126 33 48 21 20 28 252 24 40 191 24
internal_value=0.00012866 -0.0126875 -0.0208267 -0.0240924 -0.0184412 0.000579136 -0.0032899 -0.00774558 -0.0108289 -0.0220179 -0.00303205 -0.00797093 -0.00722872 -0.0041413 -0.0277007 0.000649224 -4.43732e-05 -0.00128704 -0.00278982 -0.00197727 -0.00587791 -0.00373276 -0.00482143 -0.00728571 -0.00720918 -0.00154167 -0.00405 -0.02475 -0.00174012 -0.00346053
internal_weight=25445 864 463 349 136 24581 401 113 114 112 468 86 94 92 213 24113 2417 648 339 374 86 174 70 56 49 288 50 80 253 57
internal_count=25445 864 463 349 136 24581 401 113 114 112 468 86 94 92 213 24113 2417 648 339 374 86 174 70 56 49 288 50 80 253 57
is_linear=0
shrinkage=0.03


Tree=12
num_leaves=31
num_cat=0
split_feature=9 59 50 47 49 59 59 41 59 31 9 59 54 59 50 52 59 54 50 25 35 54 52 59 21 59 47 19 45 59
split_gain=158.075 72.5978 11.2328 9.78145 9.50589 5.56591 4.84331 4.09502 3.88653 6.12915 2.01613 1.64103 1.63187 1.42857 1.40718 1.40468 1.14529 1.54495 0.955027 0.952747 0.93561 0.910377 0.903093 0.987729 0.798901 0.790306 0.677879 0.670516 0.665319 0.631254
threshold=20.085677000000004 30.008333333333336 20.221775075 23.499103500000004 20.060169850000005 15.008333333333335 27.508333333333336 20.019625500000004 59.750000000000007 20.162974000000002 20.407656500000005 14.741666666666669 0.058807157237017925 14.741666666666669 19.997686950000006 0.043366015669824162 5.491666666666668 0.06517607567439436 19.953337250000004 19.949709000000002 20.085677000000004 0.0706665873376318 0.059920938476217801 89.250000000000014 20.274310000000003 27.508333333333336 20.324142500000004 20.239272500000002 20.019625500000004 45.00833333333334
decision_type=2 2 2 2 2 2 2 2 2 2 2 2 2 2 2 2 2 2 2 2 2 2 2 2 2 2 2 2 2 2
left_child=1 3 5 4 6 7 11 20 9 14 16 -1 19 -6 15 -3 17 -4 -10 -13 -2 -9 28 27 -19 -5 -12 -24 -7 -18
right_child=2 8 10 25 13 22 -8 21 18 -11 26 12 -14 -15 -16 -17 29 24 -20 -21 -22 -23 23 -25 -26 -27 -28 -29 -30 -31
leaf_value=-0.0060614780848408743 -0.005708739095646535 -0.0023525835665549658 -0.0020605128041203298 -0.0070703428724736735 -0.0034784567543598042 -0.0013777346313738994 -0.0034907962733998587 -0.0029557716784380629 -0.0018098323490273629 -0.0054903139270434873 -0.00075469494375198615 -0.004552554825357674 -0.0057160487287518033 -0.0014131129223648501 0.00015707383620459651 -0.0010290071806596524 -0.0013259534326902154 -0.0014417273901513345 -0.0009105896415231231 -0.0059496215349348703 -0.0027372576665469169 -0.001341684004712057 -0.0018300212788489019 -0.00032701036971181295 0.00014842392236139463 -0.006138482487408543 0.0062617118578208062 -0.0016441831991148702 0.00024916291206802916 0.0027718963708968964
leaf_weight=78 31 28 25 120 30 37 32 26 36 20 441 30 22 42 28 22 594 27 216 26 20 45 53 36 62 26 22736 21 118 417
leaf_count=78 31 28 25 120 30 37 32 26 36 20 441 30 22 42 28 22 594 27 216 26 20 45 53 36 62 26 22736 21 118 417
internal_value=0.000135734 -0.013377 0.000549506 -0.0220086 -0.0185192 -0.00452132 -0.0220691 -0.00982377 -0.00336429 -0.00843367 0.000630257 -0.02425 -0.0211731 -0.00925 -0.00463462 -0.00765 -0.00061 -0.00346053 -0.00139286 -0.0238929 -0.0163088 -0.00516549 -0.00208019 -0.00415909 -0.00160955 -0.0282226 0.000690458 -0.00614189 -0.000604839 -0.000288576
internal_weight=25445 756 24689 406 260 387 188 122 350 98 24302 156 78 72 78 50 1125 114 252 56 51 71 265 110 89 146 23177 74 155 1011
internal_count=25445 756 24689 406 260 387 188 122 350 98 24302 156 78 72 78 50 1125 114 252 56 51 71 265 110 89 146 23177 74 155 1011
is_linear=0
shrinkage=0.03


Tree=13
num_leaves=31
num_cat=0
split_feature=9 59 27 59 6 7 59 55 45 59 59 30 59 35 59 59 6 43 59 35 50 50 16 28 59 9 9 9 20 18
split_gain=151.01 70.3723 16.8096 9.0055 8.19527 6.3492 7.64545 4.30763 2.95862 2.20909 2.14005 7.76081 1.53453 1.43442 1.42377 1.04693 1.20512 1.00938 1.00513 0.897846 0.889815 0.596337 1.15407 0.84599 0.58848 0.729167 0.544689 0.694481 0.713507 0.405839
threshold=20.045967000000001 42.500000000000007 20.124303000000001 20.008333333333336 7.5000000000000009 43.500000000000007 27.508333333333336 0.069206053242144364 20.324142500000004 14.741666666666669 59.750000000000007 20.045967000000001 8.7500000000000018 19.949709000000002 10.008333333333335 45.00833333333334 8.5000000000000018 19.929055000000002 27.508333333333336 20.431399000000003 19.953337250000004 20.755203275000003 -5.3997879999999991 21.038198000000005 19.750000000000004 20.180731500000004 20.630236500000006 20.204535500000002 20.162974000000002 19.949709000000002
decision_type=2 2 2 2 2 2 2 2 2 2 2 2 2 2 2 2 2 2 2 2 2 2 8 2 2 2 2 2 2 2
left_child=1 4 3 7 5 18 14 13 15 -6 11 -3 -9 -2 -7 16 19 -5 -1 26 -12 22 -10 -24 25 -14 27 -4 -29 -16
right_child=2 10 8 17 9 6 -8 12 21 -11 20 -13 24 -15 29 -17 -18 -19 -20 -21 -22 -23 23 -25 -26 -27 -28 28 -30 -31
leaf_value=-0.0066893664203630009 -0.0058345473663288273 -0.00030345629871826292 -0.00032757568125896464 -0.001646015942839896 -0.0053541434509372455 -0.005852590672379655 -0.001278467446316907 -0.0039529242353014849 -0.0016937982585111591 -0.0014626730888094607 -0.0017555373785565068 -0.0041776201376670158 -0.0015900834562250878 -0.0058386308924009951 -0.0060228933053644695 0.00079068590746351455 -0.00059834465519697534 -0.0012305160262953067 -0.0059774810565275862 -0.0012246236309659034 -0.00095315521373989342 0.0086922114847521915 0.00086034038406854305 -0.0015458141111475128 -0.0021168529094564188 0.00040031642011456099 0.00041778954427219991 -0.0017371022783295956 -0.0016296743948055635 -0.0039877780688720773
leaf_weight=156 35 50 104 20 22 42 22 24 27 33 36 22 28 20 25 402 295 175 39 33 180 20695 2599 36 20 20 47 22 195 21
leaf_count=156 35 50 104 20 22 42 22 24 27 33 36 22 28 20 25 402 295 175 39 33 180 20695 2599 36 20 20 47 22 195 21
internal_value=0.000139271 -0.0141574 0.000512875 -0.00609211 -0.023 -0.0249221 -0.0191591 -0.011699 0.000605244 -0.0123409 -0.00310417 -0.00758333 -0.00772826 -0.0183409 -0.0231136 -0.000916667 -0.00162069 -0.00186538 -0.0281731 -0.0026914 -0.00161111 0.000676789 0.000254132 0.000317362 -0.00542647 -0.003625 -0.0022663 -0.00270794 -0.00367396 -0.0194674
internal_weight=25445 648 24797 342 360 305 110 147 24455 55 288 72 92 55 88 1098 696 195 195 401 216 23357 2662 2635 68 48 368 321 217 46
internal_count=25445 648 24797 342 360 305 110 147 24455 55 288 72 92 55 88 1098 696 195 195 401 216 23357 2662 2635 68 48 368 321 217 46
is_linear=0
shrinkage=0.03


Tree=14
num_leaves=31
num_cat=0
split_feature=18 6 7 51 7 45 42 31 51 55 34 7 31 50 31 31 26 55 24 39 36 37 26 54 28 24 23 25 7 19
split_gain=142.256 17.1165 7.28995 6.51715 1.88929 1.79458 1.59139 1.56353 1.3999 1.51911 1.17246 0.850842 0.604938 0.560224 0.468865 0.381013 0.368042 0.365405 0.362963 0.353364 0.3256 0.276907 0.263973 0.247934 0.280093 0.299323 0.249288 0.223545 0.222222 0.203814
threshold=20.124303000000001 7.5000000000000009 45.500000000000007 20.235529383333336 55.500000000000007 19.992898000000004 25.494727000000001 19.949709000000002 20.679974383333334 0.23754768761954992 20.019625500000004 10.500000000000002 20.487412500000005 20.620426025000004 20.045967000000001 19.949709000000002 20.162974000000002 0.27693730378754267 20.085677000000004 19.949709000000002 20.225196500000003 20.925560500000007 20.085677000000004 0.052416692571745159 20.162974000000002 20.304999000000002 20.225196500000003 20.431399000000003 6.5000000000000009 19.992898000000004
decision_type=2 2 2 2 2 2 2 2 2 2 2 2 2 2 2 2 2 2 2 2 2 2 2 2 2 2 2 2 2 2
left_child=1 2 10 5 15 28 8 -3 9 16 19 22 17 -14 -7 -4 -5 20 -13 29 -11 -19 -9 -16 -25 26 -26 -15 -2 -1
right_child=3 7 4 6 -6 14 -8 11 -10 12 -12 18 13 27 23 -17 -18 21 -20 -21 -22 -23 -24 24 25 -27 -28 -29 -30 -31
leaf_value=-0.0054274782773671894 -0.0040987516122327266 -0.0029311280057126719 -0.0052080273040082583 -0.001246343338074695 -0.005057512581714157 -0.0024006386046543683 -0.0053841197014614295 -0.0023545810961557107 0.0071067915147213154 -0.00019853193100799924 -0.0063037311781449154 -0.00039582736508759928 -0.0015767586720490197 -0.0015782578850680861 -0.0011573826375655097 -0.0056796819619440693 0.0013685430696177884 0.00023011663740707974 0.0002468646749917126 -0.0056813935838285262 -0.0010308207299073956 -0.0011622981785653565 -0.003124934679873642 -0.000413953449023494 -0.00076821255377133521 -0.00060229518100736012 -0.0015920157210621041 -0.0019342923898699167 -0.0019824695862374559 -0.0056648874641974335
leaf_weight=81 27 45 63 54 72 27 22 45 21683 54 153 54 153 36 135 117 1715 279 36 81 63 36 54 72 63 27 54 27 54 63
leaf_count=81 27 45 63 54 72 27 22 45 21683 54 153 54 153 36 135 117 1715 279 36 81 63 36 54 72 63 27 54 27 54 63
internal_value=0.000145166 -0.0118194 -0.0143929 0.000565711 -0.0104405 -0.00297549 0.000633094 -0.00489103 0.000640456 -4.43732e-05 -0.0170278 -0.00369444 -0.00128704 -0.00258333 -0.00210714 -0.0120833 0.000410825 -0.000638889 -0.00158333 -0.01565 -0.00207051 -0.000107143 -0.00561364 -0.0018141 -0.00244444 -0.00320833 -0.00386538 -0.00496429 -0.00702778 -0.0165417
internal_weight=25445 864 630 24581 252 459 24122 234 24100 2417 378 189 648 216 378 180 1769 432 90 225 117 315 99 351 216 144 117 63 81 144
internal_count=25445 864 630 24581 252 459 24122 234 24100 2417 378 189 648 216 378 180 1769 432 90 225 117 315 99 351 216 144 117 63 81 144
is_linear=0
shrinkage=0.03


Tree=15
num_leaves=31
num_cat=0
split_feature=9 59 27 59 6 59 49 7 9 59 55 18 59 59 30 59 59 48 42 59 35 50 41 55 45 59 59 47 20 42
split_gain=137.123 64.4596 15.0886 8.39761 7.18085 7.08403 5.43844 4.21335 2.75646 2.27273 2.18746 1.92157 1.59783 1.58449 7.21636 1.19961 1.15351 1.08421 1.13267 0.936225 0.891434 0.889815 0.877207 0.791703 0.713042 0.803864 0.699543 0.642743 0.619048 0.567166
threshold=20.045967000000001 27.508333333333336 20.124303000000001 15.008333333333335 7.5000000000000009 42.500000000000007 20.060169850000005 45.500000000000007 20.407656500000005 14.741666666666669 0.05955419274781127 19.949709000000002 8.7500000000000018 59.750000000000007 20.045967000000001 10.475000000000001 8.7500000000000018 20.324160800000005 20.498989500000004 20.008333333333336 19.949709000000002 19.953337250000004 20.204535500000002 0.089504452606374227 19.992898000000004 89.250000000000014 10.008333333333335 20.407656500000005 20.918138500000001 20.045967000000001
decision_type=2 2 2 2 2 2 2 2 2 2 2 2 2 2 2 2 2 2 2 2 2 2 2 2 2 2 2 2 2 2
left_child=1 4 3 6 10 7 26 11 15 -6 12 -3 -1 14 -7 17 -8 18 22 -5 -14 -15 23 -4 25 -21 -2 -10 -19 -17
right_child=2 5 8 19 9 13 16 -9 27 -11 -12 -13 20 21 -16 29 -18 28 -20 24 -22 -23 -24 -25 -26 -27 -28 -29 -30 -31
leaf_value=-0.0055092915030857626 -0.0054543286252510667 -0.0055411695066115291 -0.0022171777799987842 -0.0020578300521332392 -0.0051028235621764298 -0.00012406201376635232 -0.0032399983241783955 -0.00055853639200511554 -0.00046430185156952223 -0.0014354503947458411 -0.0063187022921312062 -0.0050893756012885876 -0.0032047432653280763 -0.0015338149176316615 -0.0038776634791662184 -0.001446273928522986 -0.00069823563874488442 0.00083599127560411615 -0.0015887068232018485 -0.0016647093861103708 -0.0055115502681061732 -0.00074527739589010859 -0.0010975986304444748 -0.00065949286763436813 4.7829872479784948e-06 0.0021934421726754641 -0.0056129272585657437 0.0062521682188345197 -0.0018732079559998388 -0.00058892587460212815
leaf_weight=23 29 24 41 40 22 50 21 21 727 22 152 27 21 36 22 51 37 91 25 53 48 180 65 20 108 34 20 22450 21 964
leaf_count=23 29 24 41 40 22 50 21 21 727 22 152 27 21 36 22 51 37 91 25 53 48 180 65 20 108 34 20 22450 21 964
internal_value=0.000160493 -0.013463 0.000516504 -0.00574123 -0.0240417 -0.005 -0.0127079 -0.0134167 0.000604018 -0.0128864 -0.0260533 -0.0180735 -0.0224022 -0.00289583 -0.00675 -0.000752347 -0.00649138 -0.00255798 -0.00421689 -0.00256915 -0.0201196 -0.00161111 -0.00305952 -0.00564344 -0.00171154 -0.00373276 -0.0200663 0.000678809 -0.000321429 -0.000284483
internal_weight=25445 648 24797 342 288 360 107 72 24455 44 244 51 92 288 72 1278 58 263 151 235 69 216 126 61 195 87 49 23177 112 1015
internal_count=25445 648 24797 342 288 360 107 72 24455 44 244 51 92 288 72 1278 58 263 151 235 69 216 126 61 195 87 49 23177 112 1015
is_linear=0
shrinkage=0.03


Tree=16
num_leaves=31
num_cat=0
split_feature=9 59 27 59 6 7 59 24 45 59 59 53 59 30 59 50 59 6 41 45 59 50 50 16 59 55 35 53 28 40
split_gain=128.145 58.8063 14.657 7.93958 7.76991 6.38502 6.4381 5.44005 2.73161 2.37576 1.72973 1.92063 1.58449 7.21636 0.936225 0.889815 0.836638 1.00049 0.775088 0.713042 0.803864 0.669083 0.646644 0.621049 0.64 0.607422 0.576191 0.9 0.560425 0.542444
threshold=20.045967000000001 42.500000000000007 20.124303000000001 15.008333333333335 7.5000000000000009 45.500000000000007 27.508333333333336 20.045967000000001 20.324142500000004 14.741666666666669 15.491666666666669 0.049473746576228252 59.750000000000007 20.045967000000001 20.008333333333336 19.953337250000004 45.00833333333334 8.5000000000000018 20.019625500000004 19.992898000000004 89.250000000000014 20.584389975000004 20.765010525000005 -5.3997879999999991 42.500000000000007 0.061000211185141776 19.949709000000002 0.034052755733077388 21.038198000000005 20.258158000000005
decision_type=2 2 2 2 2 2 2 2 2 2 2 2 2 2 2 2 2 2 2 2 2 2 2 8 2 2 2 2 2 2
left_child=1 4 3 7 5 10 26 25 16 -6 -1 -12 13 -3 -5 -14 17 21 -9 20 -16 29 23 24 -10 -2 -7 -28 -25 -4
right_child=2 12 8 14 9 6 -8 18 22 -11 11 -13 15 -15 19 -17 -18 -19 -20 -21 -22 -23 -24 28 -26 -27 27 -29 -30 -31
leaf_value=-0.0062848352394492581 -0.005316743012704613 -0.00012034015335331498 -0.00140864826443384 -0.0019960951505692093 -0.0049497388553111582 -0.0051019619823045705 -0.00054178030024492946 -0.0027422089161025006 -0.0016681435766907821 -0.0012831441838822607 -0.0051986554654503336 -0.0052900789560664492 -0.0014878004701026934 -0.0037613335747912393 -0.001614768104527105 -0.00072291907401342097 0.00081390343692435937 -0.00052557449148467642 -0.00053928010253005221 4.6394976305638786e-06 0.0021276389074951999 -0.0016448854740541757 0.0081748146843844786 0.00086669263683193025 0.0063271968290144198 -0.0049749670633128934 -0.004744965307462534 -0.0054297553222594904 -0.001428312342808746 3.2683966530635778e-05
leaf_weight=116 21 50 292 40 22 24 21 25 25 33 21 63 36 22 53 180 402 295 32 108 34 27 20497 2779 20 29 36 24 36 82
leaf_count=116 21 50 292 40 22 24 21 25 25 33 21 63 36 22 53 180 402 295 32 108 34 27 20497 2779 20 29 36 24 36 82
internal_value=0.000169925 -0.013 0.000514084 -0.00565351 -0.0210833 -0.0229549 -0.0169643 -0.0124276 0.000600337 -0.0107045 -0.0261 -0.0228214 -0.00289583 -0.00675 -0.00256915 -0.00161111 -0.000862022 -0.00149138 -0.00609211 -0.00171154 -0.00373276 -0.00246696 0.000669082 0.000246503 -0.00325 -0.01965 -0.0206786 -0.02225 0.000302398 -0.0021377
internal_weight=25445 648 24797 342 360 305 105 107 24455 55 200 84 288 72 235 216 1098 696 57 195 87 401 23357 2860 45 50 84 60 2815 374
internal_count=25445 648 24797 342 360 305 105 107 24455 55 200 84 288 72 235 216 1098 696 57 195 87 401 23357 2860 45 50 84 60 2815 374
is_linear=0
shrinkage=0.03


Tree=17
num_leaves=31
num_cat=0
split_feature=9 60 27 42 60 53 60 51 41 51 53 60 30 52 60 6 60 60 54 47 43 60 36 20 21 55 30 40 47 29
split_gain=116.92 54.3149 13.8183 8.5179 7.61926 5.05923 5.20083 4.00417 3.97264 2.78313 1.9422 1.76042 7.21636 1.73611 1.46957 1.38836 1.68056 1.36466 1.29181 1.03712 0.675819 0.963333 0.853333 0.808421 0.613099 0.778451 0.593817 0.592402 0.654784 0.555556
threshold=20.045967000000001 37.500000000000007 20.124303000000001 23.739924500000004 12.500000000000002 0.068465975882187807 17.500000000000004 19.970179783333336 20.019625500000004 20.635057350000004 0.034052755733077388 52.500000000000007 20.045967000000001 0.035173787947560244 25.000000000000004 9.5000000000000018 52.500000000000007 37.500000000000007 0.059793989972652832 19.949709000000002 20.446851000000006 12.500000000000002 20.588713500000001 20.498989500000004 19.949709000000002 0.069206053242144364 19.911833000000005 20.225196500000003 20.760032500000005 20.019625500000004
decision_type=2 2 2 2 2 2 2 2 2 2 2 2 2 2 2 2 2 2 2 2 2 2 2 2 2 2 2 2 2 2
left_child=1 3 4 5 8 6 10 -8 19 15 -1 12 -3 -9 -5 16 20 18 -6 -2 27 22 -22 -23 -12 -26 -13 -4 -29 -20
right_child=2 11 9 14 17 -7 7 13 -10 -11 24 26 -14 -15 -16 -17 -18 -19 29 -21 21 23 -24 -25 25 -27 -28 28 -30 -31
leaf_value=-0.0047916962196259925 -0.0051585317696831775 -0.00011672994875276681 -0.0013528597821866415 -0.0061320300814800173 -0.0031723771170852912 -0.0037472570186040757 -0.0042578300967776699 -0.0042078102610770742 -0.001607828438011151 0.0059502697087487474 -0.0051310638813826118 -0.0017130856095564607 -0.0036484935675475424 -0.0050637177940885663 -0.0052188930369453544 0.0021346879623539293 0.001398409348938438 -0.00078780046515389496 -0.0017237524630880779 -0.0049260458925673069 -0.0015521461637053085 -0.00080161362192288533 -0.0013119267080295785 -0.001801352769783521 -0.0050148174072201894 -0.0053676348440644785 -0.00069070525621166962 -0.00031938107239026038 -0.0015402225515416745 -0.0012803897074106319
leaf_weight=27 20 50 300 92 24 45 20 24 32 22307 33 30 22 36 23 852 432 152 30 24 30 76 20 24 33 27 186 372 42 60
leaf_count=27 20 50 300 92 24 45 20 24 32 22307 33 30 22 36 23 852 432 152 30 24 30 76 20 24 33 27 186 372 42 60
internal_value=0.000181715 -0.0123981 0.000510455 -0.0201667 -0.00547807 -0.0170051 -0.01905 -0.013125 -0.0138553 0.000594204 -0.023 -0.0026875 -0.00675 -0.00925 -0.0269022 -0.000437151 -0.00105556 -0.00308459 -0.00556579 -0.0197045 -0.00181944 -0.00365 -0.00705 -0.00195 -0.0250565 -0.02325 -0.00133333 -0.00143487 -0.000699275 -0.00391667
internal_weight=25445 648 24797 360 342 245 200 80 76 24455 120 288 72 60 115 2148 1296 266 114 44 864 150 50 100 93 60 216 714 414 90
internal_count=25445 648 24797 360 342 245 200 80 76 24455 120 288 72 60 115 2148 1296 266 114 44 864 150 50 100 93 60 216 714 414 90
is_linear=0
shrinkage=0.03


Tree=18
num_leaves=31
num_cat=0
split_feature=9 59 6 51 59 36 45 44 59 51 59 41 51 6 59 33 21 33 7 59 52 59 52 19 19 52 59 28 44 33
split_gain=111.398 56.4667 13.4376 8.82776 5.43214 7.56704 4.63427 3.91583 3.13515 4.4989 2.34722 1.63333 1.59344 1.24905 1.78084 1.78815 1.33538 0.948151 0.859524 1.44643 0.8333 0.938341 0.808358 0.763543 0.625 0.494506 0.500687 0.786681 0.436403 0.449889
threshold=20.085677000000004 27.508333333333336 7.5000000000000009 20.226332216666673 59.750000000000007 23.634032500000004 23.689455000000006 19.911833000000005 15.008333333333335 20.066746550000005 14.741666666666669 19.911833000000005 20.693796766666669 9.5000000000000018 30.491666666666671 20.349679000000002 20.697524000000005 20.619577500000002 48.500000000000007 14.741666666666669 0.059920938476217801 89.250000000000014 0.032142279446672743 20.239272500000002 19.992898000000004 0.42276812261466618 19.750000000000004 20.631561000000001 20.019625500000004 20.239272500000002
decision_type=2 2 2 2 2 2 2 2 2 2 2 2 2 2 2 2 2 2 2 2 2 2 2 2 2 2 2 2 2 2
left_child=1 2 6 8 5 7 11 -3 9 -2 -4 24 13 14 15 -5 25 -18 19 -13 28 23 -9 -22 -1 26 27 -17 -10 -30
right_child=3 4 10 12 -6 -7 -8 22 20 -11 -12 18 -14 -15 -16 16 17 -19 -20 -21 21 -23 -24 -25 -26 -27 -28 -29 29 -31
leaf_value=-0.0049551788095598837 -0.0046181464606052953 -0.0027287062370179526 -0.0039503736939513548 -0.0011490740449347401 -0.0008971895791438331 -0.005022411482625464 -0.0059301992294284742 -0.0027002991451946065 -0.0015574179507219096 -0.0013793257878597517 -0.0010963622682265922 -0.0053048815515242603 0.0063415505864283968 0.0021956082020477296 0.00086486931756515439 -0.0015882217017129836 -0.0015638386513656159 -0.0019856752284776471 -0.0051276831362217215 -0.0050064367937033959 -0.0015160701999682726 2.5419618078677047e-05 -0.00016184481453648908 -0.0013809376188260573 -0.0049707745400821282 0.00069587172169585383 -0.0010937910116962538 -0.00018019071678644042 0.00040390951648991392 -0.000982319110904184
leaf_weight=20 40 24 36 384 252 38 104 30 32 108 36 28 21588 1526 509 54 33 25 64 28 57 38 76 21 20 30 48 24 130 42
leaf_count=20 40 24 36 384 252 38 104 30 32 108 36 28 21588 1526 509 54 33 25 64 28 57 38 76 21 20 30 48 24 130 42
internal_value=0.00018879 -0.0111548 -0.0203214 0.00053614 -0.00382143 -0.008 -0.0234545 -0.00455769 -0.00354487 -0.00715541 -0.00883333 -0.02025 0.000614993 -8.17509e-05 -0.000848916 -0.00195903 -0.00415654 -0.0080431 -0.0185 -0.0212143 -0.001875 -0.00390517 -0.00208019 -0.00578846 -0.0255 -0.00271154 -0.00353571 -0.00501923 -0.000720588 -0.000122093
internal_weight=25445 756 336 24689 420 168 264 130 468 148 72 160 24221 2633 1107 598 214 58 120 56 320 116 106 78 40 156 126 78 204 172
internal_count=25445 756 336 24689 420 168 264 130 468 148 72 160 24221 2633 1107 598 214 58 120 56 320 116 106 78 40 156 126 78 204 172
is_linear=0
shrinkage=0.03


Tree=19
num_leaves=31
num_cat=0
split_feature=18 59 7 33 59 45 59 54 7 7 49 59 59 52 42 34 59 44 41 45 59 59 40 52 7 7 31 19 52 24
split_gain=102.241 51.45 12.3467 8.37986 4.60952 4.50412 3.02094 4.1907 2.73385 3.61048 2.06853 2 1.82927 2.69317 1.61709 1.39296 1.82788 1.37724 1.22136 1.21266 1.36172 0.803488 1.10467 1.06854 1.25149 0.836093 0.662701 0.587057 0.608816 0.48796
threshold=20.085677000000004 27.508333333333336 24.500000000000004 20.162974000000002 42.500000000000007 23.713759500000005 10.008333333333335 0.0706665873376318 45.500000000000007 29.500000000000004 20.730245100000005 14.741666666666669 19.750000000000004 0.039707053384485047 25.494727000000001 23.710834500000001 60.491666666666674 19.949709000000002 19.949709000000002 20.085677000000004 89.250000000000014 45.00833333333334 20.239272500000002 0.17791371817432236 56.500000000000007 29.500000000000004 20.608747500000003 20.239272500000002 0.053487158138632397 20.431399000000003
decision_type=2 2 2 2 2 2 2 2 2 2 2 2 2 2 2 2 2 2 2 2 2 2 2 2 2 2 2 2 2 2
left_child=1 2 11 6 8 12 7 -2 9 -3 21 -1 13 18 -12 -6 -17 -14 -4 20 27 22 29 25 26 -24 -25 28 -8 -5
right_child=3 4 5 10 15 -7 19 -9 -10 -11 14 -13 17 -15 -16 16 -18 -19 -20 -21 -22 -23 23 24 -26 -27 -28 -29 -30 -31
leaf_value=-0.002871412497996776 -0.0043856259284808631 -0.0048983489802877271 -0.0048413321747989048 -0.0012131260017133711 -0.00098560762699753755 -0.0057582499024146474 -0.0016729349927605312 -0.001176216059353726 -0.00030202889124699258 -0.0043940354965188626 0.0072071877790111927 -0.00081638393328813878 -0.0045357211504762603 -0.0050669083703627016 -0.0044826231051429489 -0.0029342807594495922 -0.00073789327624695033 -0.0027326722226909119 -0.0049478336694276908 -0.00054065234445376757 0.0017216195069775487 0.0013448936938245748 -0.001218072641410575 -0.00093411310140025178 -0.0016433604996042323 0.0011534121950684177 -0.001476233169115575 -0.0013395094902612684 -0.0016032657269987483 -0.0015562595956170023
leaf_weight=36 28 28 30 238 276 100 20 46 25 31 21093 36 21 60 22 29 31 20 33 138 44 1065 587 146 32 1052 22 21 72 63
leaf_count=36 28 28 30 238 276 100 20 46 25 31 21093 36 21 60 22 29 31 20 33 138 44 1065 587 146 32 1052 22 21 72 63
internal_value=0.00018879 -0.0106786 -0.0194286 0.000521558 -0.00367857 -0.0224318 -0.00396545 -0.00938514 -0.00996429 -0.0134873 0.000589638 -0.00841667 -0.019372 -0.0212012 0.000697431 -0.00210714 -0.00625 -0.0138841 -0.016869 -0.00260593 -0.00440924 -0.000120515 -0.000455607 -0.000179853 -0.00225 7.27578e-05 -0.00121429 -0.00615266 -0.00511957 -0.00214037
internal_weight=25445 756 336 24689 420 264 369 74 84 59 24320 72 164 123 21115 336 60 41 63 295 157 3205 2140 1839 200 1639 168 113 92 301
internal_count=25445 756 336 24689 420 264 369 74 84 59 24320 72 164 123 21115 336 60 41 63 295 157 3205 2140 1839 200 1639 168 113 92 301
is_linear=0
shrinkage=0.03


Tree=20
num_leaves=31
num_cat=0
split_feature=9 59 51 59 45 59 40 45 6 44 59 41 59 52 8 6 59 6 52 47 52 59 52 40 43 44 59 53 20 38
split_gain=103.783 52.7723 11.916 10.4257 7.15609 5.20185 5.89591 3.61304 3.00001 2.94156 1.84091 1.49087 1.4632 1.24372 1.00753 0.992495 0.966406 0.99995 0.851418 0.818182 0.619048 1.33333 0.579495 0.550149 0.537202 0.515363 0.458089 0.51962 0.424477 0.432897
threshold=20.045967000000001 27.508333333333336 20.066746550000005 14.741666666666669 23.689455000000006 59.750000000000007 24.170107000000005 20.324142500000004 7.5000000000000009 19.911833000000005 14.741666666666669 19.911833000000005 42.500000000000007 0.056898446322924935 3.5000000000000004 11.500000000000002 45.00833333333334 8.5000000000000018 0.032142279446672743 19.949709000000002 0.041892722845442786 14.741666666666669 0.056098781860999057 20.304999000000002 19.949709000000002 20.045967000000001 14.741666666666669 0.060795119139878305 20.788522000000004 20.045967000000001
decision_type=2 2 2 2 2 2 2 2 2 2 2 2 2 2 2 2 2 2 2 2 2 2 2 2 2 2 2 2 2 2
left_child=1 4 3 19 8 6 9 16 11 -3 -10 -1 13 -5 -9 -16 17 22 -11 -2 24 -22 -4 26 -13 -18 27 -24 29 -28
right_child=2 5 7 12 -6 -7 -8 14 10 18 -12 20 -14 -15 15 -17 25 -19 -20 -21 21 -23 23 -25 -26 -27 28 -29 -30 -31
leaf_value=-0.0046722131019178428 -0.0047122530121809095 -0.0025837514793221315 -0.00081541087112034234 -0.0026846614086317917 -0.0055795457554732048 -0.0009360269550992465 -0.0047460765424509133 0.011180774012857881 -0.0044117151966859757 -0.0033814028048244006 -0.0011487962247544558 -0.0044087064526634875 -0.00055436374226974945 -0.0010438519331449432 -0.00022761221761086856 0.0033800232804360062 -0.00076501661806456815 -0.00052016442641301486 -0.00066073563585252501 -0.0045125579070542108 -0.0050244552408001296 -0.0047442711475362094 -0.0017703347658557446 -0.0003344669341995078 -0.0045811721184757515 0.00076706488128629744 -0.00054892745038559042 -0.00063271683951522716 -0.00027850652472675817 -0.0014871161930584658
leaf_weight=36 22 20 198 27 104 216 30 18363 22 30 22 24 88 39 2745 2249 37 295 64 22 24 24 22 50 32 417 24 62 20 117
leaf_count=36 22 20 198 27 104 216 30 18363 22 30 22 24 88 39 2745 2249 37 295 64 22 24 24 22 50 32 417 24 62 20 117
internal_value=0.000194685 -0.0116574 0.000504406 -0.00682576 -0.0212292 -0.004 -0.00841667 0.000563407 -0.0176739 -0.00530263 -0.0108409 -0.0198214 -0.0031461 -0.00652273 0.000647247 0.000269423 -0.00101329 -0.00164848 -0.00307979 -0.0197045 -0.018 -0.0205 -0.00247515 -0.0033178 -0.0158571 8.9207e-05 -0.00390306 -0.00210714 -0.00484006 -0.00542021
internal_weight=25445 648 24797 198 288 360 144 24599 184 114 44 140 154 66 23357 4994 1242 788 94 44 104 48 493 295 56 454 245 84 161 141
internal_count=25445 648 24797 198 288 360 144 24599 184 114 44 140 154 66 23357 4994 1242 788 94 44 104 48 493 295 56 454 245 84 161 141
is_linear=0
shrinkage=0.03


Tree=21
num_leaves=31
num_cat=0
split_feature=9 59 44 46 59 51 59 32 44 50 8 6 59 59 59 53 18 50 59 59 34 6 35 46 46 9 52 26 21 52
split_gain=95.9723 48.7674 11.9124 7.13713 4.67222 5.60409 4.62963 6.20813 3.138 2.8101 2.35602 1.80135 1.72856 1.58503 1.5625 2.26688 2.04352 1.10085 0.946521 0.84375 0.979604 0.804893 0.692308 0.684076 0.625199 0.522173 0.513986 0.467884 0.456938 0.441264
threshold=20.045967000000001 27.508333333333336 20.085677000000004 23.499103500000004 19.750000000000004 20.066746550000005 59.750000000000007 23.703843000000003 19.911833000000005 20.042649125000001 3.5000000000000004 8.5000000000000018 45.00833333333334 10.008333333333335 14.741666666666669 0.03477974234944662 19.949709000000002 20.584389975000004 60.491666666666674 42.500000000000007 19.949709000000002 11.500000000000002 19.949709000000002 19.929055000000002 20.045967000000001 20.630236500000006 0.27616573378505055 20.019625500000004 19.929055000000002 0.056098781860999057
decision_type=2 2 2 2 2 2 2 2 2 2 2 2 2 2 2 2 2 2 2 2 2 2 2 2 2 2 2 2 2 2
left_child=1 3 4 9 5 13 7 8 -3 14 -4 12 17 -2 15 -1 -16 25 23 20 -10 -13 -17 -6 -7 -12 -19 -25 -5 -29
right_child=2 6 10 28 18 24 -8 -9 19 -11 11 21 -14 -15 16 22 -18 26 -20 -21 -22 -23 -24 27 -26 -27 -28 29 -30 -31
leaf_value=-0.003642502608436413 -0.004540911554507027 -0.0025062389349425019 0.010845350792472175 -0.0056357940911956911 -0.0012555426133599753 0.00030265793221195115 -0.00090794614644628053 -0.0046090162146056228 -0.0043927993461088449 -0.0021342657162367446 -0.0014340923445483697 -0.00018822908533740957 0.0011927469262822702 -0.0041967422031191194 -0.0047671242422521005 -0.0044814979675642554 -0.0037678943659160535 -0.0016738075993789829 5.6864013319359433e-05 6.1471004907117879e-05 -0.00057881276777561126 0.0032786225820229473 -0.004872445978212285 0.00039203216229315185 -0.0010970217285620819 0.00028231909929675138 -0.0014006182955962035 -0.00050734088064335924 -0.0051556389444418456 -0.0014017270074981544
leaf_weight=20 38 20 18363 64 22 24 216 28 22 28 320 3114 249 25 34 26 38 27 85 48 26 2267 26 35 33 58 39 38 52 60
leaf_count=20 38 20 18363 64 22 24 216 28 22 28 320 3114 249 25 34 26 38 27 85 48 26 2267 26 35 33 58 39 38 52 60
internal_value=0.000202938 -0.0111944 0.000500776 -0.0203958 -0.00491667 -0.00975 -0.00383333 -0.008 -0.00493966 -0.0165174 0.000580585 6.84063e-05 -0.00137121 -0.0159167 -0.0182083 -0.0213333 -0.0150833 -0.00249324 -0.0025 -0.0026875 -0.0055 0.00025381 -0.0246346 -0.00389516 -0.00293421 -0.00186905 -0.00606818 -0.00308459 -0.0261466 -0.00414796
internal_weight=25445 648 24797 288 360 120 360 144 116 172 24437 6074 693 63 144 72 72 444 240 96 48 5381 52 155 57 378 66 133 116 98
internal_count=25445 648 24797 288 360 120 360 144 116 172 24437 6074 693 63 144 72 72 444 240 96 48 5381 52 155 57 378 66 133 116 98
is_linear=0
shrinkage=0.03


Tree=22
num_leaves=31
num_cat=0
split_feature=9 59 47 44 6 59 32 44 59 49 59 8 6 59 47 59 34 24 6 38 59 26 31 59 31 34 27 7 59 49
split_gain=89.7202 47.3357 11.3357 8.27149 4.6875 3.81111 7.24286 3.40493 2.67407 4.35556 2.34722 2.22966 1.50704 1.46498 1.17361 0.9 0.869468 0.811844 0.804893 0.802778 0.9 0.762085 0.625 0.610501 0.641296 0.568083 0.457143 0.428543 0.48446 0.926897
threshold=20.085677000000004 27.508333333333336 23.499103500000004 20.085677000000004 7.5000000000000009 59.750000000000007 23.703843000000003 19.911833000000005 19.750000000000004 20.060169850000005 14.741666666666669 3.5000000000000004 8.5000000000000018 45.00833333333334 19.929055000000002 19.750000000000004 20.407656500000005 19.929055000000002 11.500000000000002 19.949709000000002 14.741666666666669 19.992898000000004 20.162974000000002 60.491666666666674 19.992898000000004 20.085677000000004 19.929055000000002 19.500000000000004 30.491666666666671 20.730245100000005
decision_type=2 2 2 2 2 2 2 2 2 2 2 2 2 2 2 2 2 2 2 2 2 2 2 2 2 2 2 2 2 2
left_child=1 2 4 8 14 6 7 -3 9 -2 -6 -5 13 16 19 26 -13 -9 27 -1 -21 -16 -11 24 -10 -26 -4 28 29 -14
right_child=3 5 15 11 10 -7 -8 17 23 22 -12 12 18 -15 21 -17 -18 -19 -20 20 -22 -23 -24 -25 25 -27 -28 -29 -30 -31
leaf_value=-0.0044170385301330189 -0.0041615805566956685 -0.0023623242725840043 -0.0045854832479031195 0.01051999026869801 -0.0034924270858336447 -0.00078538646991324038 -0.0044707457281674698 -0.0042026304416845706 0.0013937773339163994 -0.0021194380898245974 -0.00093114985101612924 -0.0010879529004834876 -0.001575976151295727 0.0011328898210206189 -0.0043453300173618608 -0.0042029595745552168 -0.001412822959374493 -0.00031337601300708074 0.0031802639045622528 -0.0044568887296491163 -0.0041333741529586939 -0.0044274902790171593 -0.00038148861174064483 -0.00027965098958238082 -0.0013742528658074338 -0.00092002780309481604 -0.0052787960000668542 0.00038313089874934125 0.00064422622086093828 0.00010356383143051317
leaf_weight=32 30 24 42 18363 36 252 28 24 22 36 36 344 293 241 44 30 90 92 2267 20 20 28 24 63 44 51 48 2115 453 253
leaf_count=32 30 24 42 18363 36 252 28 24 22 36 36 344 293 241 44 30 90 92 2267 20 20 28 24 63 44 51 48 2115 453 253
internal_value=0.000215907 -0.00996429 -0.0183571 0.000527634 -0.01425 -0.00325 -0.00675 -0.00396429 -0.00469444 -0.00891667 -0.008 0.000585374 8.61955e-05 -0.00125 -0.017375 -0.02575 -0.00229147 -0.00183621 0.00025381 -0.0200833 -0.01725 -0.0146667 -0.00425 -0.00258333 -0.00386538 -0.00493421 -0.02725 -5.92486e-05 -0.000571321 -0.00117308
internal_weight=25445 756 336 24689 216 420 168 140 270 90 72 24419 6056 675 144 120 434 116 5381 72 40 72 60 180 117 95 90 3114 999 546
internal_count=25445 756 336 24689 216 420 168 140 270 90 72 24419 6056 675 144 120 434 116 5381 72 40 72 60 180 117 95 90 3114 999 546
is_linear=0
shrinkage=0.03


Tree=23
num_leaves=31
num_cat=0
split_feature=9 59 47 45 50 59 32 43 59 59 50 7 9 59 24 48 31 9 59 34 59 19 59 6 59 54 34 55 32 19
split_gain=85.0323 46.4447 12.4574 6.9605 4.64671 3.14325 6.69643 3.3293 2.89286 2.23203 3.80034 1.95482 1.78192 1.71429 1.49113 1.06061 0.964286 0.905357 0.9 0.840816 1.00553 0.669048 0.690182 0.660029 0.618689 0.615832 0.489721 0.988839 0.719091 0.567128
threshold=20.085677000000004 27.508333333333336 23.499103500000004 20.162974000000002 19.997686950000006 59.750000000000007 23.703843000000003 19.911833000000005 8.7500000000000018 10.008333333333335 20.081608500000005 51.500000000000007 20.668649000000006 14.741666666666669 19.992898000000004 19.965090500000002 19.992898000000004 19.949709000000002 19.750000000000004 20.085677000000004 60.491666666666674 20.239272500000002 42.500000000000007 10.500000000000002 20.475000000000005 0.05824809657001468 20.813461500000003 0.23754768761954992 20.619577500000002 20.371000000000006
decision_type=2 2 2 2 2 2 2 2 2 2 2 2 2 2 2 2 2 2 2 2 2 2 2 2 2 2 2 2 2 2
left_child=1 2 4 9 11 6 7 -3 -6 10 -2 13 23 15 -15 -1 -10 -13 -4 20 21 22 -11 24 26 -9 27 -5 29 -29
right_child=3 5 18 12 8 -7 -8 25 16 19 -12 17 -14 14 -16 -17 -18 -19 -20 -21 -22 -23 -24 -25 -26 -27 -28 28 -30 -31
leaf_value=-0.0043411568713635704 -0.0032252454369109144 -0.0033049550215874498 -0.0051167335612972258 -0.0010682006914115303 -0.0045895716832513277 -0.00076182487581581053 -0.0043366233563224676 -0.0016458867930092996 -0.0027129372350114317 -0.0017599890107489521 -0.0012464517769830859 -0.0041048815813557486 0.0062534417772727568 -0.0038600756175132139 -0.0043336978177986527 -0.0042733903261737913 -0.00066849775034162888 -0.0040834050896006776 -0.004076870787318534 -0.00072591223700694087 0.00029022509615801587 -0.0011682435635400844 -0.0002095844967512192 0.0009654542069503267 2.5427074185272158e-05 -6.1361051891553523e-06 0.00033874682507544499 -0.001244980654450902 -0.0019299876517739727 -0.0010880851991467403
leaf_weight=22 25 22 90 297 21 252 28 30 27 47 69 20 21266 20 22 20 36 28 30 231 42 26 28 1353 922 88 147 59 71 106
leaf_count=22 25 22 90 297 21 252 28 30 27 47 69 20 21266 20 22 20 36 28 30 231 42 26 28 1353 922 88 147 59 71 106
internal_value=0.00022416 -0.00968651 -0.018 0.000527634 -0.0136944 -0.00303571 -0.00621429 -0.00353571 -0.00817857 -0.00309615 -0.00722872 -0.0172045 0.000597653 -0.0199643 -0.0156786 -0.02425 -0.00496429 -0.012375 -0.02575 -0.00205749 -0.00386538 -0.00548762 -0.00405 -9.26396e-05 -0.000504682 -0.00153814 -0.00119118 -0.00161398 -0.00306356 -0.00197727
internal_weight=25445 756 336 24689 216 420 168 140 84 468 94 132 24221 84 42 42 63 48 120 374 143 101 75 2955 1602 118 680 533 236 165
internal_count=25445 756 336 24689 216 420 168 140 84 468 94 132 24221 84 42 42 63 48 120 374 143 101 75 2955 1602 118 680 533 236 165
is_linear=0
shrinkage=0.03


Tree=24
num_leaves=31
num_cat=0
split_feature=9 59 47 51 59 59 28 46 43 59 56 39 54 47 56 59 6 59 9 16 59 28 35 44 59 47 31 59 27 55
split_gain=82.0602 43.867 10.2861 10.0126 9.39298 3.11296 5.80645 3.01133 2.60701 2.57143 3.33399 2.38667 1.52381 1.27499 0.980392 0.9 0.872489 1.04106 0.841814 0.832877 0.778846 1.25357 0.727513 0.65163 0.687013 0.604514 0.545455 0.457989 0.457143 0.435817
threshold=20.045967000000001 27.508333333333336 23.499103500000004 20.066746550000005 10.491666666666669 59.750000000000007 23.700642500000004 20.446851000000006 19.911833000000005 8.7500000000000018 -0.022129000000001394 20.019625500000004 0.057156104011495866 19.911833000000005 0.0039119999999996944 19.750000000000004 8.5000000000000018 60.491666666666674 20.668649000000006 -5.2762629999999984 42.500000000000007 19.929055000000002 20.019625500000004 20.045967000000001 42.500000000000007 20.656529500000001 20.851324500000004 30.491666666666671 19.929055000000002 0.15581522223469416
decision_type=2 2 2 2 2 2 2 2 2 2 2 2 2 2 2 2 2 2 2 8 2 2 2 2 2 2 2 2 2 2
left_child=1 2 9 4 -2 6 8 16 -3 12 22 14 -1 -6 -12 28 17 19 29 -5 21 -10 -11 24 -21 -18 -27 -15 -4 -9
right_child=3 5 15 7 13 -7 -8 18 20 10 11 -13 -14 27 -16 -17 25 -19 -20 23 -22 -23 -24 -25 -26 26 -28 -29 -30 -31
leaf_value=-0.0040546640843582499 -0.0041476407956406438 -0.0033432371455415152 -0.0042944167436270459 -0.0011206287107173273 -0.0037665775935528936 -0.0008342914216810253 -0.0042278125293455614 0.0020622550420885807 -0.003005438121977158 -0.0030960232428034638 -0.0043809738383781766 -0.0010597897448491891 -0.0045948971942207251 -0.0011584563806559184 -0.0036302145075249896 -0.0039545646636989611 0.00036805542371885324 0.0022938318565343748 0.0070292565182869639 -0.0010381835041330806 2.6015743518256126e-05 -0.00090587491642954323 -0.0014323533832142361 -0.0010557834653866817 -0.00098991795420958905 -0.00087104630780980715 -0.0016255526614549337 -2.9834675259557625e-06 -0.0049669301132259204 -0.00031055889548418139
leaf_weight=21 41 20 42 21 29 216 20 809 21 33 24 21 21 54 27 30 996 190 20693 55 52 31 21 513 22 72 27 74 48 1201
leaf_count=21 41 20 42 21 29 216 20 809 21 33 24 21 21 54 27 30 996 190 20693 55 52 31 21 513 22 72 27 74 48 1201
internal_value=0.00022416 -0.0103148 -0.0190417 0.000499566 -0.0062197 -0.00333333 -0.00675 0.000553651 -0.00433065 -0.01425 -0.0121071 -0.0163333 -0.0206786 -0.00288057 -0.0198382 -0.02575 -0.000594937 -0.00134738 0.000649573 -0.00195049 -0.00242308 -0.00501923 -0.00647222 -0.00174153 -0.00431494 -4.45206e-05 -0.0022803 -0.00159375 -0.02725 6.34328e-05
internal_weight=25445 648 288 24797 198 360 144 24599 124 168 126 72 42 157 51 120 1896 801 22703 611 104 52 54 590 77 1095 99 128 90 2010
internal_count=25445 648 288 24797 198 360 144 24599 124 168 126 72 42 157 51 120 1896 801 22703 611 104 52 54 590 77 1095 99 128 90 2010
is_linear=0
shrinkage=0.03


Tree=25
num_leaves=31
num_cat=0
split_feature=9 59 47 51 59 39 8 59 28 43 59 18 6 59 16 41 59 52 32 6 59 26 59 52 44 47 32 59 34 59
split_gain=78.5309 42.025 10.8036 9.11954 8.77372 3.41394 3.29865 2.88935 5.96886 2.73573 2.49138 4.13828 2.19481 1.24952 1.50058 1.21361 1.08183 1.74255 0.930769 0.901671 0.802778 0.626787 0.857143 0.53497 0.835693 0.5241 0.509236 0.493301 0.749143 0.650212
threshold=20.045967000000001 27.508333333333336 23.499103500000004 20.066746550000005 10.491666666666669 20.019625500000004 3.5000000000000004 59.750000000000007 23.700642500000004 19.911833000000005 14.741666666666669 19.949709000000002 8.5000000000000018 60.491666666666674 -5.2762629999999984 19.929055000000002 30.491666666666671 0.056898446322924935 20.045967000000001 11.500000000000002 19.750000000000004 19.949709000000002 42.500000000000007 0.061107362389661933 20.045967000000001 19.949709000000002 20.696406500000005 30.491666666666671 20.407656500000005 19.750000000000004
decision_type=2 2 2 2 2 2 2 2 2 2 2 2 2 2 8 2 2 2 2 2 2 2 2 2 2 2 2 2 2 2
left_child=1 2 5 4 25 10 -5 8 9 -3 15 -12 13 14 -8 -1 17 -6 -7 26 -4 22 -11 -16 -25 -2 -14 28 29 -26
right_child=3 7 20 6 16 18 12 -9 -10 21 11 -13 19 -15 23 -17 -18 -19 -20 -21 -22 -23 -24 24 27 -27 -28 -29 -30 -31
leaf_value=-0.0040154764372462987 -0.0040207593925194038 -0.0032429400311753229 -0.0048142236510614776 0.0098059096117703252 -0.0036914253925671614 -0.0036011717386556243 -0.0012141084198438888 -0.00080926267903054831 -0.0041009781534651476 -0.0034181857175946857 -0.0042508959012535485 -0.0033196374210412672 0.00033010640688417651 0.0024677509723622444 -0.00065213845814224237 -0.0042621038830146186 -0.00030083315326397369 -0.00088412022018037736 -0.00066877642473898091 0.002701416782986822 -0.0038359277237880402 -0.00052208446692547596 4.3871389638452685e-06 -0.0011219292600440432 -0.0010388059259101715 -0.0039769326906586785 -0.00063595780381908793 -0.00011541522638499975 -0.0014588915811774468 -0.0013475862748185685
leaf_weight=26 20 20 90 18363 27 32 28 216 20 21 22 36 1962 202 272 32 91 39 20 2267 30 62 21 35 105 21 1152 92 54 67
leaf_count=26 20 20 90 18363 27 32 28 216 20 21 22 36 1962 202 272 32 91 39 20 2267 30 62 21 35 105 21 1152 92 54 67
internal_value=0.000226518 -0.0100833 -0.018625 0.000495937 -0.00591667 -0.0137143 0.000547553 -0.00325 -0.00654167 -0.00408871 -0.0165776 -0.012181 -4.85888e-05 -0.00146053 -0.00209839 -0.0209741 -0.00268949 -0.00561364 -0.00732692 0.000175757 -0.0255 -0.00213462 -0.00496429 -0.001794 -0.00256445 -0.0182744 -0.000155588 -0.00208019 -0.00283407 -0.00186628
internal_weight=25445 648 288 24797 198 168 24599 360 144 124 116 58 6236 855 653 58 157 66 52 5381 120 104 42 625 353 41 3114 318 226 172
internal_count=25445 648 288 24797 198 168 24599 360 144 124 116 58 6236 855 653 58 157 66 52 5381 120 104 42 625 353 41 3114 318 226 172
is_linear=0
shrinkage=0.03


Tree=26
num_leaves=31
num_cat=0
split_feature=18 59 46 31 59 28 39 8 59 33 43 59 18 6 27 7 47 59 34 33 6 59 21 30 45 54 7 59 7 39
split_gain=72.3633 39.0063 10.96 8.33489 6.02488 4.24771 3.22165 3.15541 2.46713 4.5125 2.85208 2.40833 4.44444 1.98712 2.51207 1.86834 1.6 0.936559 1.16949 0.93006 0.896242 0.669643 0.688095 0.576261 0.489648 0.583333 0.482108 0.569403 0.548313 0.470634
threshold=20.045967000000001 27.508333333333336 23.499103500000004 20.124303000000001 15.008333333333335 19.949709000000002 20.019625500000004 3.5000000000000004 59.750000000000007 23.788395000000005 19.911833000000005 14.741666666666669 19.949709000000002 8.5000000000000018 20.960150000000002 12.500000000000002 19.949709000000002 45.00833333333334 20.407656500000005 19.992898000000004 12.500000000000002 8.7500000000000018 19.949709000000002 19.911833000000005 19.929055000000002 0.053118191189590956 49.500000000000007 30.491666666666671 48.500000000000007 21.884487000000004
decision_type=2 2 2 2 2 2 2 2 2 2 2 2 2 2 2 2 2 2 2 2 2 2 2 2 2 2 2 2 2 2
left_child=1 2 6 4 5 -2 11 -5 9 10 -3 16 -13 14 17 -7 -1 18 -9 -8 26 -4 -23 -10 25 -25 27 -15 29 -29
right_child=3 8 21 7 -6 15 19 13 23 -11 -12 12 -14 20 -16 -17 -18 -19 -20 -21 -22 22 -24 24 -26 -27 -28 28 -30 -31
leaf_value=-0.0039869804419152242 -0.004080762429658373 -0.0028707902810367193 -0.0048809812719373359 0.0095117323234171994 -0.0010650883811003542 -0.0029666646157237284 -0.0035043179635471109 -0.0009204951210471311 -0.001433252020367247 -0.0039673048720047441 -0.0010469367240222205 -0.0041220177461892523 -0.0032200482984100732 -0.0007611187283586673 -0.0030244308289995559 -0.0012276279281388557 -0.0036962420195566347 0.00085067393689802588 -0.0013729199432749967 -0.0011052807646437087 0.0037806239472006789 -0.0038828739791193379 -0.0037861303570523525 0.00079677585357369176 0.00040374530420590673 -0.00098467527899224398 0.0017585996177677137 0.0012676056675330139 -0.0014365775577820381 -0.00083973991497132293
leaf_weight=36 21 24 28 18363 233 37 24 360 33 24 96 24 36 1614 36 51 24 242 73 32 1616 54 30 21 135 27 693 1306 35 117
leaf_count=36 21 24 28 18363 233 37 24 360 33 24 96 24 36 1614 36 51 24 242 73 32 1616 54 30 21 135 27 693 1306 35 117
internal_value=0.000230055 -0.00966667 -0.0178958 0.000488678 -0.00416228 -0.00998395 -0.0132273 0.000553721 -0.00308333 -0.006125 -0.00375 -0.016 -0.01175 -3.79186e-05 -0.00152848 -0.00709091 -0.02025 -0.00111667 -0.00195208 -0.00728571 0.000159032 -0.0252321 -0.0238929 -0.00105556 -0.000397541 -0.003 -9.46215e-05 -0.000255859 0.000173868 0.000265109
internal_weight=25445 648 288 24797 342 109 176 24455 360 144 120 120 60 6092 711 88 60 675 433 56 5381 112 84 216 183 48 3765 3072 1458 1423
internal_count=25445 648 288 24797 342 109 176 24455 360 144 120 120 60 6092 711 88 60 675 433 56 5381 112 84 216 183 48 3765 3072 1458 1423
is_linear=0
shrinkage=0.03


Tree=27
num_leaves=31
num_cat=0
split_feature=9 59 46 51 59 32 8 59 32 43 6 59 37 52 47 30 6 59 52 45 44 59 59 52 21 51 30 45 54 19
split_gain=74.5136 39.6674 11.3955 7.88212 8.38458 3.33563 3.29865 2.67407 5.33889 2.94 1.81813 1.78676 2.23676 1.00833 0.768002 0.746531 0.699938 1.08521 0.93161 0.731396 0.714419 0.668798 0.646552 0.560977 0.535005 0.520088 0.395012 0.4349 0.477513 0.365801
threshold=20.045967000000001 27.508333333333336 23.499103500000004 20.066746550000005 10.491666666666669 20.045967000000001 3.5000000000000004 59.750000000000007 23.788395000000005 19.911833000000005 10.500000000000002 8.7500000000000018 19.929055000000002 0.049077766037310851 19.949709000000002 19.929055000000002 8.5000000000000018 60.491666666666674 0.061107362389661933 20.162974000000002 20.760032500000005 30.491666666666671 8.7500000000000018 0.056898446322924935 19.949709000000002 19.983628733333337 19.911833000000005 19.929055000000002 0.054668236202988503 20.762417500000002
decision_type=2 2 2 2 2 2 2 2 2 2 2 2 2 2 2 2 2 2 2 2 2 2 2 2 2 2 2 2 2 2
left_child=1 2 5 4 14 11 -5 8 9 -3 16 -1 -13 -14 -2 -6 17 18 -8 29 -21 23 -4 -17 -24 -11 -9 28 -28 -20
right_child=3 7 22 6 15 -7 10 26 -10 25 -12 12 13 -15 -16 21 -18 -19 19 20 -22 -23 24 -25 -26 -27 27 -29 -30 -31
leaf_value=-0.0039845432118180138 -0.0037790501311992619 -0.0030595281218089741 -0.0047195871547308331 0.0092263803537146662 -0.0025362487838669831 -0.0032758403203561352 -0.00062704482287624761 -0.0014165571952439809 -0.0038482857258445601 -0.0016746041705927776 0.0018370937019309141 -0.0038333281347952214 -0.0030794468115162808 -0.0019029055786678659 -0.0037352018370491471 -0.0023989741474727097 -0.00035664318786536185 0.0024166413274679848 -0.0010433587294066968 -0.0011252858958310885 -0.0014884485985877938 0.00025918970284451295 -0.0037663877597457606 -0.00084480633115791763 -0.0036521640151128288 -0.0010560451345498808 0.00025357078201510312 0.00038254069438382329 -0.00093842141469904132 -0.00082087430721369868
leaf_weight=34 20 20 29 18363 22 36 272 30 24 24 3347 30 45 27 21 21 2034 202 56 270 34 77 54 37 33 76 27 138 21 21
leaf_count=34 20 20 29 18363 22 36 272 30 24 24 3347 30 45 27 21 21 2034 202 56 270 34 77 54 37 33 76 27 138 21 21
internal_value=0.000237129 -0.00980556 -0.0181042 0.000499566 -0.00546212 -0.0132035 0.000547553 -0.00316667 -0.00633333 -0.00375 -4.85888e-05 -0.0153529 -0.0133676 -0.0105 -0.0175427 -0.00230732 -0.000599948 -0.00132018 -0.00191462 -0.00287205 -0.00221053 -0.00147222 -0.0253707 -0.00390517 -0.0240776 -0.00165 -0.00105556 -0.000540323 -0.003 -0.00548377
internal_weight=25445 648 288 24797 198 172 24599 360 144 120 6236 136 102 72 41 157 2889 855 653 381 304 135 116 58 87 100 216 186 48 77
internal_count=25445 648 288 24797 198 172 24599 360 144 120 6236 136 102 72 41 157 2889 855 653 381 304 135 116 58 87 100 216 186 48 77
is_linear=0
shrinkage=0.03


Tree=28
num_leaves=31
num_cat=0
split_feature=9 59 46 51 59 8 39 59 32 43 59 19 6 47 59 6 50 59 47 30 7 32 59 16 24 59 48 51 55 44
split_gain=71.8252 37.4853 11.0822 7.87572 8.38458 3.37861 3.08624 2.67407 5.33889 2.94 2.40833 3.47143 1.58311 1.34444 1.05237 1.15217 1.13252 0.83046 0.768002 0.746531 0.742079 0.73125 0.668798 0.636449 0.763711 0.771541 0.615871 0.520088 0.497085 0.425809
threshold=20.045967000000001 27.508333333333336 23.499103500000004 20.066746550000005 10.491666666666669 3.5000000000000004 20.019625500000004 59.750000000000007 23.788395000000005 19.911833000000005 14.741666666666669 19.992898000000004 12.500000000000002 19.949709000000002 45.00833333333334 8.5000000000000018 20.584389975000004 8.7500000000000018 19.949709000000002 19.929055000000002 42.500000000000007 20.045967000000001 30.491666666666671 -2.55566 21.332596000000006 20.491666666666671 19.965090500000002 19.983628733333337 0.51150761586104032 19.949709000000002
decision_type=2 2 2 2 2 2 2 2 2 2 2 2 2 2 2 2 2 2 2 2 2 2 2 10 2 2 2 2 2 2
left_child=1 2 6 4 18 -5 10 8 9 -3 13 -12 14 -1 15 16 -7 -4 -2 -6 23 -8 29 -17 -25 -26 -19 -11 -16 -21
right_child=3 7 17 5 19 12 21 -9 -10 27 11 -13 -14 -15 28 20 -18 26 -20 22 -22 -23 -24 24 25 -27 -28 -29 -30 -31
leaf_value=-0.0038280316425414783 -0.0036656786272632534 -0.0029677422781546814 -0.0045779995400888835 0.0089495889431032791 -0.002460161320351015 -0.00099518884323373364 -0.0032684707512350441 -0.00070991604028960542 -0.0037328371540692284 -0.0016243660454750123 -0.00389091384953186 -0.0029516690948554951 0.0036120924177267689 -0.0034684269227328608 0.0012209826123022072 -0.00082801532994049233 -0.0013094373581316896 -0.0036533961269533594 -0.0036231457819376734 -0.0022475679496525114 0.0016924924519054268 -0.00051727949944680926 0.00025141401175915635 0.0022506818308716346 -0.00079339797756578173 0.0024229012459572336 -0.0035425990946594847 -0.0010243637805133663 -0.0011593634771859534 -0.00036415778540747044
leaf_weight=36 20 20 29 18363 22 483 32 216 24 24 32 28 1616 24 1328 1467 66 54 21 23 740 20 77 52 59 28 33 76 397 35
leaf_count=36 20 20 29 18363 22 483 32 216 24 24 32 28 1616 24 1328 1467 66 54 21 23 740 20 77 52 59 28 33 76 397 35
internal_value=0.000239487 -0.00962037 -0.0176875 0.000497147 -0.00546212 0.000545114 -0.0128547 -0.00316667 -0.00633333 -0.00375 -0.0155 -0.01125 -5.82104e-05 -0.01975 -0.000340909 -0.000690415 -0.0019276 -0.0248534 -0.0175427 -0.00230732 -0.000400895 -0.00675 -0.00147222 -0.000763076 -0.00270324 -0.00442241 -0.0233879 -0.00165 0.000245652 -0.00390517
internal_weight=25445 648 288 24797 198 24599 172 360 144 120 120 60 6236 60 4620 2895 549 116 41 157 2346 52 135 1606 139 87 87 100 1725 58
internal_count=25445 648 288 24797 198 24599 172 360 144 120 120 60 6236 60 4620 2895 549 116 41 157 2346 52 135 1606 139 87 87 100 1725 58
is_linear=0
shrinkage=0.03


Tree=29
num_leaves=31
num_cat=0
split_feature=9 59 46 51 59 8 32 59 32 43 37 59 6 59 6 44 30 59 22 7 16 24 59 52 44 55 51 35 59 48
split_gain=69.9007 35.8892 9.69537 7.48656 7.59855 3.33851 3.05519 2.67407 5.33889 2.94 1.83025 2.01667 1.56432 0.968406 1.08986 0.963171 0.746531 0.668798 0.659341 0.644802 0.661196 0.763711 0.771541 0.560977 0.524197 0.566945 0.520088 0.513124 0.446429 0.426724
threshold=20.045967000000001 27.508333333333336 23.499103500000004 20.066746550000005 10.491666666666669 3.5000000000000004 20.045967000000001 59.750000000000007 23.788395000000005 19.911833000000005 19.949709000000002 8.7500000000000018 12.500000000000002 45.00833333333334 8.5000000000000018 20.446851000000006 19.929055000000002 30.491666666666671 19.949709000000002 42.500000000000007 -2.55566 21.332596000000006 20.491666666666671 0.056898446322924935 20.045967000000001 0.51150761586104032 19.983628733333337 19.949709000000002 14.741666666666669 19.965090500000002
decision_type=2 2 2 2 2 2 2 2 2 2 2 2 2 2 2 2 2 2 2 2 10 2 2 2 2 2 2 2 2 2
left_child=1 2 6 4 27 -5 10 8 9 -3 28 -12 13 14 15 -7 -6 23 -13 20 -16 -22 -23 -18 -15 -26 -11 -2 -1 -4
right_child=3 7 29 5 16 12 -8 -9 -10 26 11 18 -14 24 19 -17 17 -19 -20 -21 21 22 -24 -25 25 -27 -28 -29 -30 -31
leaf_value=-0.0038610917849532496 -0.0037351188995257433 -0.0028787100098100213 -0.0043383219511165623 0.0086811012748101747 -0.0023863564807405121 -0.00097258065282054883 -0.0030624883532176005 -0.00068861855908092131 -0.0036208520394471842 -0.0015756350641107256 -0.0034604329143394638 -0.003142656363706291 0.0035037296451950065 -0.00068823483636750761 -0.00080317487004228456 -0.0013678115889753282 -0.0022595778845589964 0.00024387159140634344 -0.0016740170399527324 0.0016417176783482684 0.0021831613759454526 -0.00076959603823876675 0.0023502142085785201 -0.00075203510273357779 0.0014615873204251242 -0.0011245825728703855 -0.00099363286709799078 -0.0034032200275297742 -0.0036140538943216058 -0.0039993425519100449
leaf_weight=28 21 20 72 18363 22 512 36 216 24 24 20 21 1616 37 1467 37 21 77 39 740 52 59 28 37 1291 397 76 20 28 44
leaf_count=28 21 20 72 18363 22 512 36 216 24 24 20 21 1616 37 1467 37 21 77 39 740 52 59 28 37 1291 397 76 20 28 44
internal_value=0.000245382 -0.00948148 -0.017375 0.000499566 -0.00531061 0.000546333 -0.0128547 -0.00316667 -0.00633333 -0.00375 -0.0149118 -0.012 -5.33996e-05 -0.000334416 -0.000669689 -0.00187295 -0.00230732 -0.00147222 -0.00925 -0.000388107 -0.000725716 -0.00270324 -0.00442241 -0.00390517 0.000228261 0.000305687 -0.00165 -0.016811 -0.0190714 -0.0240776
internal_weight=25445 648 288 24797 198 24599 172 360 144 120 136 80 6236 4620 2895 549 157 135 60 2346 1606 139 87 58 1725 1688 100 41 56 116
internal_count=25445 648 288 24797 198 24599 172 360 144 120 136 80 6236 4620 2895 549 157 135 60 2346 1606 139 87 58 1725 1688 100 41 56 116
is_linear=0
shrinkage=0.03


Tree=30
num_leaves=31
num_cat=0
split_feature=9 59 46 44 59 54 39 8 59 19 59 28 44 47 31 59 59 27 33 34 9 59 39 40 19 7 30 45 54 7
split_gain=62.4639 31.6049 7.59908 7.46434 3.95639 4.2449 3.75677 2.83809 2.7 3.03601 2.26852 5.30179 2.21594 1.34444 0.887336 1.11243 0.834737 0.66163 0.661172 0.613176 0.610922 0.819425 0.58132 0.513136 0.44329 0.400758 0.395012 0.4349 0.477513 0.383706
threshold=20.045967000000001 27.508333333333336 23.499103500000004 20.045967000000001 10.008333333333335 0.067608796857399719 20.019625500000004 3.5000000000000004 14.741666666666669 19.992898000000004 59.750000000000007 23.700642500000004 19.911833000000005 19.949709000000002 20.019625500000004 20.008333333333336 60.491666666666674 19.911833000000005 19.992898000000004 20.085677000000004 20.446851000000006 45.00833333333334 19.992898000000004 25.158269500000007 19.929055000000002 34.500000000000007 19.911833000000005 19.929055000000002 0.054668236202988503 10.500000000000002
decision_type=2 2 2 2 2 2 2 2 2 2 2 2 2 2 2 2 2 2 2 2 2 2 2 2 2 2 2 2 2 2
left_child=1 2 6 4 5 -2 8 -5 13 -10 11 12 -3 -1 15 -9 19 -14 -8 22 21 29 -6 24 -4 -26 -12 28 -28 -16
right_child=3 10 23 7 16 -7 18 14 9 -11 26 -13 17 -15 20 -17 -18 -19 -20 -21 -22 -23 -24 -25 25 -27 27 -29 -30 -31
leaf_value=-0.0035973579397166832 -0.0034473438599440091 -0.0018766689359704138 -0.003894416492008826 0.0084206682365658737 -0.0012924379839741472 -0.0010636200325170875 -0.0030726766178216939 -0.0032820044321092202 -0.0036751533937991227 -0.0027642432053173824 -0.0013321044414054898 -0.0035228704151201791 -0.003041309177383586 -0.0032485413615023057 -0.0010139787463008644 -0.00020607285213897873 0.00092458596868532012 -0.00052399962439674691 -0.00061545175500276532 -0.00068414445369960482 0.00031499469768042577 0.00091970997071521394 -0.00095903841105787432 -0.0038341984343527868 -0.0047292762060078533 -0.0032438440427066382 0.00028791969653580189 0.00041302051153339236 -0.00086831273427696051 -0.00076368924930365586
leaf_weight=36 25 20 40 18363 54 27 24 27 32 28 30 20 20 24 115 36 61 84 28 48 4598 561 46 32 20 24 27 138 21 836
leaf_count=36 25 20 40 18363 54 27 24 27 32 28 30 20 20 24 115 36 61 84 28 48 4598 561 46 32 20 24 27 138 21 836
internal_value=0.000268962 -0.00892593 -0.0163333 0.000509245 -0.00453736 -0.0119423 -0.0123314 0.000562928 -0.01525 -0.01075 -0.003 -0.00591667 -0.00360484 -0.01975 6.43933e-06 -0.00353571 -0.00269498 -0.00184615 -0.00559615 -0.00391216 4.29624e-05 -0.000480159 -0.00525 -0.0222672 -0.0210357 -0.0231136 -0.00105556 -0.000540323 -0.003 -0.00101656
internal_weight=25445 648 288 24797 261 52 172 24536 120 60 360 144 124 60 6173 63 209 104 52 148 6110 1512 100 116 84 44 216 186 48 951
internal_count=25445 648 288 24797 261 52 172 24536 120 60 360 144 124 60 6173 63 209 104 52 148 6110 1512 100 116 84 44 216 186 48 951
is_linear=0
shrinkage=0.03


Tree=31
num_leaves=31
num_cat=0
split_feature=9 59 51 51 59 8 32 59 59 7 19 42 9 6 38 59 6 44 43 7 35 43 59 59 55 44 59 52 40 20
split_gain=58.8556 30.4309 8.00927 7.12855 7.80008 3.02632 2.88988 2.38235 2.25625 2.28758 1.86275 1.78514 1.4521 1.41804 0.833829 0.797848 0.948011 1.03191 0.756534 0.537176 0.513124 0.494626 0.742424 0.662879 0.478695 0.518781 0.571841 0.429293 0.571939 0.48689
threshold=20.045967000000001 27.508333333333336 20.129386066666672 20.066746550000005 10.491666666666669 3.5000000000000004 20.045967000000001 14.741666666666669 42.500000000000007 45.500000000000007 19.992898000000004 19.929055000000002 19.992898000000004 12.500000000000002 24.568366000000001 45.00833333333334 8.5000000000000018 20.446851000000006 19.929055000000002 42.500000000000007 19.949709000000002 23.816171000000004 8.7500000000000018 15.008333333333335 0.51150761586104032 20.085677000000004 60.491666666666674 0.061107362389661933 20.239272500000002 20.304999000000002
decision_type=2 2 2 2 2 2 2 2 2 2 2 2 2 2 2 2 2 2 2 2 2 2 2 2 2 2 2 2 2 2
left_child=1 2 6 4 20 -5 7 11 9 12 -9 -1 -3 15 -10 16 17 27 -6 -18 -2 -4 -23 -24 25 26 -17 -7 29 -29
right_child=3 8 21 5 18 13 -8 10 14 -11 -12 -13 -14 -15 -16 24 19 -19 -20 -21 -22 22 23 -25 -26 -27 -28 28 -30 -31
leaf_value=-0.0032160348451711362 -0.0035221251081221979 -0.003636724467206484 -0.0031307909851409511 0.0081680481894688475 -0.0018067228820721236 -0.00053555395280453701 -0.0028624012315071113 -0.0033331125803969584 -0.00063367298455635653 0.0001190584806191787 -0.0026801410459059271 -0.0034524619286031418 -0.00044449409302212682 0.0033891679149086664 -0.0013418877172129368 -0.00070489471097794033 -0.00075595799802204763 -0.001332991030829599 -0.00064653547092796801 0.0015830163070673147 -0.0031977031109056185 -0.0042928207632416619 -0.0034167037023975027 -0.0031618219534866364 -0.0011021090797575701 0.0015862124703530254 0.0009969879623506336 -0.0010338311534439358 -0.00083308649179223045 -0.0010250331771435482
leaf_weight=30 21 30 28 18363 29 233 36 38 252 21 30 38 21 1616 36 22 1606 37 128 740 20 22 42 24 397 1267 39 71 116 92
leaf_count=30 21 30 28 18363 29 233 36 38 252 21 30 38 21 1616 36 22 1606 37 128 740 20 22 42 24 397 1267 39 71 116 92
internal_value=0.000277216 -0.00864815 -0.0159167 0.000510455 -0.00515909 0.00055609 -0.0118081 -0.0138088 -0.00283333 -0.00758333 -0.00983824 -0.0177794 -0.0110147 -1.49134e-05 -0.00164583 -0.000282468 -0.000586788 -0.00170902 -0.00211624 -0.000324169 -0.016811 -0.0220086 -0.0231136 -0.0215227 0.000228261 0.000501506 -0.00220082 -0.00135938 -0.00215323 -0.00329908
internal_weight=25445 648 288 24797 198 24599 172 136 360 72 68 68 51 6236 288 4620 2895 549 157 2346 41 116 88 66 1725 1328 61 512 279 163
internal_count=25445 648 288 24797 198 24599 172 136 360 72 68 68 51 6236 288 4620 2895 549 157 2346 41 116 88 66 1725 1328 61 512 279 163
is_linear=0
shrinkage=0.03


Tree=32
num_leaves=31
num_cat=0
split_feature=9 59 46 51 59 32 8 59 59 7 37 9 52 6 29 59 21 59 36 39 38 41 9 59 6 52 45 7 59 22
split_gain=57.176 29.8522 8.56644 6.40418 7.27417 3.27225 2.87596 2.35539 2.33611 2.28758 1.85294 1.4521 1.40076 1.37605 0.847059 0.861006 0.789141 0.5888 0.762698 0.4689 0.441379 0.609524 0.482143 0.439717 0.567049 0.745877 0.683454 0.534412 0.753667 0.471497
threshold=20.045967000000001 27.508333333333336 23.499103500000004 20.066746550000005 14.741666666666669 20.045967000000001 3.5000000000000004 8.7500000000000018 42.500000000000007 45.500000000000007 19.911833000000005 19.992898000000004 0.065717157418237457 10.500000000000002 20.019625500000004 15.008333333333335 20.204535500000002 30.491666666666671 19.949709000000002 24.280723500000004 23.696849500000003 25.436144000000002 19.911833000000005 90.475000000000009 8.5000000000000018 0.061107362389661933 20.162974000000002 56.500000000000007 20.491666666666671 22.497466000000003
decision_type=2 2 2 2 2 2 2 2 2 2 2 2 2 2 2 2 2 2 2 2 2 2 2 2 2 2 2 2 2 2
left_child=1 2 5 4 12 7 -5 -1 9 11 -9 -3 -2 23 15 -12 19 18 -6 -10 -4 22 -22 24 25 -8 -27 -28 -29 -26
right_child=3 8 20 6 17 -7 13 10 16 -11 14 -13 -14 -15 -16 -17 -18 -19 -20 -21 21 -23 -24 -25 29 26 27 28 -30 -31
leaf_value=-0.0034228386165890538 -0.0036204182712144726 -0.0035276227331902917 -0.0030430223701011614 0.0079230067437848096 -0.0001036526411928368 -0.0027765291945618998 -0.00041647290294612437 -0.0033389698649628043 -0.0004665904759554476 0.00011548672620065552 -0.0029729190686906444 -0.00043115927023150853 -0.0017800630804752622 0.0016346395146462456 -0.0026070771699437216 -0.0020708893391961922 -0.0018663154368252332 -0.00015709033078103746 -0.0015775625306028178 -0.0011042780041015349 -0.0041469094158199339 -0.0037154849585474157 -0.003546694848749486 0.0010854303052692271 -0.00040951492523500291 -0.001100622314625819 -0.00089865769887502748 -0.0014529437958765734 4.9361857368866662e-05 -0.0025492781599895336
leaf_weight=34 24 30 36 18363 28 36 313 21 228 21 31 21 20 3347 30 20 24 91 35 36 24 24 32 399 1719 85 296 23 22 32
leaf_count=34 24 30 36 18363 28 36 313 21 228 21 31 21 20 3347 30 20 24 91 35 36 24 24 32 399 1719 85 296 23 22 32
internal_value=0.000287827 -0.00850926 -0.0157083 0.000517714 -0.00485606 -0.0114593 0.000560968 -0.0135882 -0.00275 -0.00758333 -0.0113088 -0.0110147 -0.0156136 4.32969e-06 -0.00925 -0.0116029 -0.00154167 -0.00178247 -0.0040119 -0.00106818 -0.0220086 -0.02325 -0.0249643 -0.000475338 -0.000623494 -0.00132037 -0.00213732 -0.00153739 -0.00458333 -0.000329383
internal_weight=25445 648 288 24797 198 172 24599 136 360 72 102 51 44 6236 81 51 288 154 63 264 116 80 56 2889 2490 739 426 341 45 1751
internal_count=25445 648 288 24797 198 172 24599 136 360 72 102 51 44 6236 81 51 288 154 63 264 116 80 56 2889 2490 739 426 341 45 1751
is_linear=0
shrinkage=0.03


Tree=33
num_leaves=31
num_cat=0
split_feature=9 59 51 43 59 52 32 8 59 59 7 37 9 6 59 39 21 53 16 49 6 7 7 49 29 59 52 43 59 59
split_gain=56.5148 29.3742 8.85205 5.81435 3.8912 3.36111 3.13186 3.07562 2.5098 2.33611 2.28758 1.99274 1.4521 1.44572 1.05512 0.987654 0.789141 0.75 0.64707 1.25202 0.622759 1.3729 0.641957 0.774812 0.732774 0.859524 0.56745 0.494626 0.742424 0.662879
threshold=20.045967000000001 27.508333333333336 20.129386066666672 20.019625500000004 19.750000000000004 0.047639743863172081 20.045967000000001 3.5000000000000004 8.7500000000000018 42.500000000000007 45.500000000000007 19.911833000000005 19.992898000000004 12.500000000000002 30.025000000000002 19.949709000000002 20.204535500000002 0.062126438116778655 -2.55566 21.471737800000003 8.5000000000000018 56.500000000000007 22.500000000000004 20.730245100000005 20.810678500000005 14.741666666666669 0.061107362389661933 23.816171000000004 8.7500000000000018 15.008333333333335
decision_type=2 2 2 2 2 2 2 2 2 2 2 2 2 2 2 2 2 2 10 2 2 2 2 2 2 2 2 2 2 2
left_child=1 2 6 4 5 -2 8 -5 -1 10 12 -10 -3 14 18 -13 -11 -7 20 -20 21 26 23 24 -22 -26 -9 -4 -29 -30
right_child=3 9 27 7 -6 17 -8 13 11 16 -12 15 -14 -15 -16 -17 -18 -19 19 -21 22 -23 -24 -25 25 -27 -28 28 29 -31
