tree
version=v4
num_class=1
num_tree_per_iteration=1
label_index=0
max_feature_idx=60
objective=quantile
feature_names=object_id canonical_label display_x display_y anchor_x anchor_y hour minute day_of_week source_temp people_count_total people_count_within_1m people_count_within_2m people_count_within_3m nearest_person_distance mean_person_distance nearest_person_dx nearest_person_dy temp_lag_1 temp_lag_2 temp_lag_3 temp_lag_4 temp_lag_5 temp_lag_6 temp_lag_7 temp_lag_8 temp_lag_9 temp_lag_10 temp_lag_11 temp_lag_12 temp_lag_13 temp_lag_14 temp_lag_15 temp_lag_16 temp_lag_17 temp_lag_18 temp_lag_19 temp_lag_20 temp_lag_21 temp_lag_22 temp_lag_23 temp_lag_24 temp_lag_25 temp_lag_26 temp_lag_27 temp_lag_28 temp_lag_29 temp_lag_30 temp_roll_mean_5 temp_roll_mean_10 temp_roll_mean_20 temp_roll_mean_30 temp_roll_std_5 temp_roll_std_10 temp_roll_std_20 temp_roll_std_30 temp_delta_1 seconds_since_previous observations_in_frame target_minutes_ahead requested_horizon_min
feature_infos=none none none none none none [6:21] [0:59] [1:4] [19.847033:25.833684999999999] [0:5] [0:1] [0:2] [0:3] [0.41547317451912574:8.6911427944155299] [0.44333283605548507:8.6911427944155299] [-1.590955000000001:8.0883889999999994] [-0.55690799999999996:3.8977049999999998] [19.847033:25.833684999999999] [19.847033:25.833684999999999] [19.847033:25.833684999999999] [19.847033:25.833684999999999] [19.847033:25.833684999999999] [19.847033:25.833684999999999] [19.847033:25.833684999999999] [19.847033:25.833684999999999] [19.847033:25.833684999999999] [19.847033:25.833684999999999] [19.847033:25.833684999999999] [19.847033:25.833684999999999] [19.847033:25.833684999999999] [19.847033:25.833684999999999] [19.847033:25.833684999999999] [19.847033:25.833684999999999] [19.847033:25.833684999999999] [19.847033:25.833684999999999] [19.847033:25.833684999999999] [19.847033:25.833684999999999] [19.847033:25.833684999999999] [19.847033:25.833684999999999] [19.847033:25.833684999999999] [19.847033:25.833684999999999] [19.847033:25.833684999999999] [19.847033:25.833684999999999] [19.847033:25.833684999999999] [19.847033:25.833684999999999] [19.847033:25.833684999999999] [19.847033:25.833684999999999] [19.884947599999997:24.372919599999999] [19.917217700000002:23.874700799999999] [20.009607699999997:23.852658049999999] [20.012997333333331:23.825626799999998] [0.0043474990034362317:2.0027162480204104] [0.010912508349323334:1.6186674704378319] [0.018109256235069492:1.4111217051474902] [0.031096792374050167:1.3629691079752138] [-4.199075999999998:4.1921389999999974] [27:314103] [1:2] [5:128.98333333333332] [5:120]
tree_sizes=2644 2876 2868 2854 2864 2871 2878 2872 2886 2889 2881 2882 2889 2880 2912 2883 2892 2885 2884 2880 2877 2901 2882 2877 2875 2895 2904 2880 2899 2887 2865 2891 2878 2864 2868 2910 2903 2861 2894 2888 2904 2901 2899 2894 2885 2913 2895 2912 2910 2907 2918 2928 2898 2915 2913 2930 2920 2906 2916 2927 2935 2926 2917 2930 2910 2931 2925 2952 2965 2940 2931 2930 2964 2940 3011 2955 2927 2964 2930 2931 2941 2934 2956 2947 2940 2945 2948 2956 2950 2947 2958 2974 2923 2930 2957 2949 2960 2938 2959 2947 2930 2902 2950 2954 2934 2947 2952 2960 2955 2946 2946 2941 2960 2959 2917 2956 2983 2976 2949 2929 2959 2967 2990 2943 2919 2934 2937 2931 2964 2914 2954 2955 2944 2916 2917 2974 2927 2955 2955 2931 2977 2955 2955 2958 2988 2975 2960 2963 2962 2935 2951 2961 2980 2949 2936 2954 2970 2916 2967 2942 2967 2961 2953 2960 2952 2938 2960 2931 2966 2984 3004 2973 2974 2994 2978 2981 2965 2974 2939 2992 2965 2990 2951 2947 2979 2988 2963 2927 2960 2987 2954 2995 2989 2978 2985 2989 2992 2967 2974 2945 2988 2954 2943 3024 2976 2961 2943 2956 2987 2931 2950 2916 2972 2936 2960 2930 2971 2958 2953 2947 2952 2941 2955 3005 2945 2940 2939 2964 2975 2945 2960 2975 2978 2988 2964 2971 2980 2976 2899 2932 2945 2918 3010 2927 2949 2956 2956 2948 2945 2961 2965 2988 2979 2973 2930 2956 2968 3003 2980 2970 2941 2963 2956 2981 2966 2965 2961 2957 2948 2944 2952 2975 2911 2968 2922 2968 2947 2994 2915 2941 2958 2933 2914 2929 2979 2933 2968 2952 2955 2934 2958 2954 2935 2926 3022 2922 2944 2952 2946 2945 2961 3039 2935 2946 2940 2886 2934 2941 2952 2947 2919 2920 2970 2929 2962 2967 2961 2919 2932 2969 2893 2971 2945 2998 2926 2924 2990 2911 2920 2942 2911 2917 2924 2916 2934 2951 2917 2968 2979 2933 2994 2923 2940 2899 2928 2932 2946 2938 2946 2919 2989 2971 2944 2971 2947 2997 2944 2938 2911 2984 3027 2990 2982 2961 2928 2916 2988 2901 2984 3004 2930 2934 2959 2926 2935 2925 2937 2964 2951 2924 2959 2975 2930 2943 2993 2923 2937 2922 2957 2955 2927 2989 2931 2934 2950 2946 2942 2981 2958 2929 2931 2948 2959 2975 2949 2944 2953 2917 2983 2914 2980 2990 2960 2959 2959 2917 2964 2982 2938 2975 2943 2925 2964 2966 2978 2930 2929 2958 2934 2964 2938 2942 2958 2929 2941 2964 2973 2951 2928 2897 2916 2934 2975 2903 2954 2929 2931 2960 2945 2912 2979 2944 2944 2921 2925 2950 2978 2922 2914 2942 2988 2944 2983 2947 2976 2988 2960 2954 2955 2997 2940 2917 2954 2945 2933 2985 2947 2928 2949 2923 2952 2951 2920 2946 2976 2925 2951 2974 2914 2932 2956 2973 2962 2927 2950 2938 2954 2961 2938 2943 2950 2969 2959 2970 2955 2974 2969 2930 2978 2968 2929 2939 2960 2979 2975 2953 2961 2979 2975 2984 2969 2947 2958 2944 2956 2974 2978 2956 2972 2962 2957 2975 2921 2940 2988 2971 2966 2955 2984 2963 2988 2922 2948 2957 2967 2926 2934 2951 2982 2945 2985 2979 2930 2922 2947 2928 2923 2971 2951 3003 2959 2978 2967 3017 2951 2957 2958 2956 3013 2951 2967 2962 2947 2971 2959 2962 2910 2946 2955 2946 2934 2959 2923 2970 2956 2969 2912 2933 2943 2949 2977 2955 2975 2930 2952 2932 2979 2915 2957 2919 2948 2990 3002 2961 2937 3002 2997 2955 2961 2984 2997 3001 2961 2966 2948 2941 2938 2956 2976 2933 3002 2970 2973 2966 2937 2939 2933 2920 2930 2950 2942 2938 2958 2955 2917 2915 2954 2945 2921 2975 2963 2950 2926 2987 2940 2944 2938 2956 2931 2934 2956 2923 2964 2955 2952 2972 2954 2943 2953 2927 2922 2919 2941 2947 2959 2967 2924 2957 2917 2965 2966 2959 2934 2991 2953 2968 2955 2923 2955 2957 2933 2966 2967 2965 2949 2969 2971 2946 2991 2974 2984 2982 2964 2978 2964 2975 2937 2959 3007 2979 2948 2938 2962 2988 2970 2994 3004 2993 2963 2934 2977 2877 2932 2953 2951 2948 2960 2939 2936 2951 2934 2949 2953 2960 2940 2929 2941 2952 2938 2950 2937 2950 2950 2971 2916 2955 2961 2960 2921 2978 2934 2920 2923 2959 2936 2955 2955 2944 2937 2956 2959 2938 2935 2971 2915 2932 3004 2932 2936 2959 2913 2917 2948 2941 2947 2921 2973 2955 2927 2954 3002 2939 2920 2942 2931 2958 2939 2953 2971 2989 2951 2951 2985 3001 2940 2942 2942 2930 2972 2943 2960 2937 2951 2957 2974 2949 2975 2995 2987 2950 2976 2939 2929 3007 2941 2952 2956 2995 2962 2973 2955 2967 2982 2922 2968 2958 2985 2960 2994 2967 2948 2948 2959 2951 2974 2951 2974 2970 2933 2928 2976 2945 2946 2949 2923 2975 2950 2951 2919 2942 2960 2929 2948 2977 2950 2966 2975 2972 2944 2960 2983 2942 2954 2954 2978 2952 2950 2995 2956 2934 2929 2901 2922 2969 2940 2928 2950 2879 2913 2933 2931 2936 2922 2905 2923 2896 2922 2945 2923 2921 2915 2935 2926 2899 2921 2960 2923 2947 2922 2951 2926 2928 2946 2917 2913 2968 2942 2929 2966 2929 2942 2947 2913 2940 2931 2980 2909 2949 2974 2905 2979 2924 2935 2972 2939 2966 2940 2950 2912 2921 2969 2954 2964 2934 2935 2972 2953 2952 2953 2954 2914 2961 2964 2983 2937 2942 2963 2930 2947 2952 2949 2948 2962 2977 2937 2955 2932 2920 2953 2944 2935 2942 2948 2951 2972 2918 2946 2959 2941 2925 2933 2946 2961 2933 2934 2947 2936 2944 2944 2982 2935 2918 2928 2937 2983 2963 2983 2942 2965 2970 2945 2972 2946 2972 2962 2983 2917 2964 2941 2945 2939 2963 2935 2918 2959 2934 2928 2962 2926 2948 2941 2933 2921 2955 2953 2955 2943 2941 2945 2936 2918 2927 2909 2930 2958 2941 2948 2948 2969 2944 2951 2930 2948 2927 2969 2945 2949 2981 2984 2944 2945 2964 2945 2942 2960 2927 2988 2965 2975 2955 2952 2954 2947 2965 2920 2935 2901 2931 2943 2937 2954 2944 2958 2960 2980 2932 2958 2966 2946 2988 2939 2953 2950 2947 2980 2971 2923 2921 2946 2940 2978 2970 2966 2964 2980 2954 2941 2932 2970 2948 2947 2941 2948 2951 2958 2975 2944 2955 2942 2956 2920 2921 2934 2931 2990 2978 2955 2939 2958 2959 2943 2981 2932 2982 2940 2955 2952 2947 2976 2988 2972 2994 2966 2965 2936 2941 2960 2961 2949 2946 2936 2967 2927 2983 2954 2931 2962 2919 2924 2980 2969 2949 2957 2955 2957 2954 2930 2944 2949 2936 2924 2956 2965 2951 2954 2921 2967 2940 2963 2959 2939 2934 2958 2956 2959 2920 2980 2933 2963 2959 2946 2946 2944 2957 2939 2925 2982 2958 2963 2975 2931 2942 2958 2920 2953 2942 2961 2934 2952 2958 2959 2974 2951 2927 2954 2960 2963 2951 2911 2969 2956 2945 2950 2980 2950 2945 2914 2947 2925 2940

Tree=0
num_leaves=31
num_cat=0
split_feature=9 6 59 45 9 6 26 59 59 48 24 59 54 7 6 7 21 35 59 6 7 19 59 59 55 59 59 40 35 27
split_gain=351.793 65.3338 48.7248 34.7316 25.0254 9.51883 8.01058 5.34446 4.99314 4.90707 4.81405 5.54137 4.67186 4.19101 3.97846 3.90515 3.66526 3.43974 3.36493 3.85609 4.75917 2.91406 3.12111 2.87928 2.67524 2.62891 2.2522 2.3498 2.08292 2.02973
threshold=20.379052500000004 8.5000000000000018 45.00833333333334 20.398256500000006 20.179449000000002 8.5000000000000018 20.379052500000004 90.491666666666688 20.991666666666671 20.134969600000005 20.125021000000004 29.958333333333339 0.080395020767189962 7.5000000000000009 7.5000000000000009 31.500000000000004 20.741415000000003 20.379052500000004 30.508333333333336 9.5000000000000018 16.500000000000004 20.488293500000005 29.958333333333339 45.00833333333334 0.093402460075243235 30.008333333333336 20.491666666666671 20.179449000000002 20.533751500000005 20.326224000000003
decision_type=2 2 2 2 2 2 2 2 2 2 2 2 2 2 2 2 2 2 2 2 2 2 2 2 2 2 2 2 2 2
left_child=1 2 4 5 14 23 13 9 15 -4 11 -6 -9 -5 -1 16 28 21 19 20 -7 22 -8 -2 25 -12 29 -28 -3 -26
right_child=3 8 7 6 10 18 17 12 -10 -11 24 -13 -14 -15 -16 -17 -18 -19 -20 -21 -22 -23 -24 -25 26 -27 27 -29 -30 -31
leaf_value=20.371999168395995 20.37872601987355 20.37943169689763 20.378972700123192 20.37702827456037 20.372687416076658 20.379740753173827 20.377522624979683 20.376342630391377 20.378676590144018 20.378595547215593 20.379840236668411 20.377884870557612 20.380587444319954 20.376655464658047 20.374698400502215 20.378635409895384 20.378317086698381 20.388645172119141 20.381882852601017 20.38079306324558 20.378283162121821 20.380756702423096 20.377917263050762 20.37667312288669 20.3775574536512 20.378833126552017 20.379811935437576 20.379998408320805 20.376110059286031 20.378645725250244
leaf_weight=318 206 92 115 45 64 20 20 21 332 154 100 29 141 270 102 78 60 42111 278 150 163 162 25 118 44 22 26 22 32 48
leaf_count=318 206 92 115 45 64 20 20 21 332 154 100 29 141 270 102 78 60 42111 278 150 163 162 25 118 44 22 26 22 32 48
internal_value=20.3843 20.3713 20.3673 20.3848 20.3628 20.3791 20.3849 20.3754 20.3794 20.3728 20.3686 20.3628 20.3797 20.3802 20.3578 20.3763 20.3739 20.385 20.3813 20.3793 20.3763 20.3811 20.3744 20.3749 20.3707 20.374 20.3679 20.3732 20.371 20.3651
internal_weight=45368 1800 1206 43568 775 935 42633 431 594 269 355 93 162 315 420 262 184 42318 611 333 183 207 45 324 262 122 140 48 124 92
internal_count=45368 1800 1206 43568 775 935 42633 431 594 269 355 93 162 315 420 262 184 42318 611 333 183 207 45 324 262 122 140 48 124 92
is_linear=0
shrinkage=1


Tree=1
num_leaves=31
num_cat=0
split_feature=9 6 59 45 9 6 26 47 59 59 54 59 46 6 31 7 33 7 59 24 59 54 40 29 6 59 9 27 46 41
split_gain=330.708 64.3248 48.3624 30.9994 26.8636 8.47427 6.77473 5.62953 9.96222 4.94389 5.59302 4.31182 4.17205 3.99144 3.85598 3.30212 3.23545 3.14087 3.12497 3.90868 2.8534 2.61572 2.12862 2.10997 1.98065 2.76566 3.10303 1.87309 1.77941 1.69423
threshold=20.379052500000004 8.5000000000000018 45.00833333333334 20.398256500000006 20.179449000000002 8.5000000000000018 20.379052500000004 20.226969500000006 15.991666666666669 60.50833333333334 0.080395020767189962 20.991666666666671 21.486426500000004 7.5000000000000009 20.352018500000003 7.5000000000000009 20.398256500000006 31.500000000000004 30.508333333333336 20.326224000000003 59.958333333333336 0.13905232686452942 20.398256500000006 20.352018500000003 9.5000000000000018 29.958333333333339 21.018161000000003 20.179449000000002 20.326224000000003 20.009928500000004
decision_type=2 2 2 2 2 2 2 2 2 2 2 2 2 2 2 2 2 2 2 2 2 2 2 2 2 2 2 2 2 2
left_child=1 2 4 5 13 20 15 8 -6 12 -11 14 17 -1 -3 -5 24 27 19 28 -2 -9 -21 -13 25 26 -8 -4 -7 -12
right_child=3 11 9 6 7 18 16 21 -10 10 29 23 -14 -15 -16 -17 -18 -19 -20 22 -22 -23 -24 -25 -26 -27 -28 -29 -30 -31
leaf_value=-0.011911680221557574 -0.0053400282237921811 -0.0051710858331639221 -0.0030210079310717597 -0.007033447242116359 -0.011244079971313424 -0.0037715991413945814 -0.0065539273353821415 -0.005272370900296721 -0.0051910451733622673 -0.0073614077569561683 -0.0043998893836351173 -0.0043868403678947489 -0.0051743882553559216 -0.0092934250785242159 -0.0058999226336516955 -0.0073950728473671035 0.004292793273925781 -0.0040992509115598706 -0.0023245065426893774 -0.0073005173450782562 -0.0074000171579653795 -0.0093408473783613034 -0.0033232038614468707 -0.0056098102409984562 -0.0021871243200171264 -0.0067235489978894943 -0.0025107347421897412 -0.0071986599937011774 -0.0049084909781514337 -0.0038256655994075217
leaf_weight=318 216 64 24 45 80 34 20 150 78 43 24 85 24 102 198 270 42030 61 278 79 108 47 186 247 189 55 24 49 34 206
leaf_count=318 216 64 24 45 80 34 20 150 78 43 24 85 24 102 198 270 42030 61 278 79 108 47 186 247 189 55 24 49 34 206
internal_value=1.79862e-05 -0.0125833 -0.0165634 0.000538606 -0.0210435 -0.00486497 0.000657114 -0.0149683 -0.0191867 -0.00850754 -0.00606319 -0.00450253 -0.012731 -0.0261786 -0.00737977 -0.00372619 0.000689742 -0.0106679 -0.00278519 -0.0047455 -0.00878704 -0.011585 -0.00309906 -0.00223193 -0.00247917 -0.00591667 -0.0115227 -0.0148664 -0.0111618 -0.00420652
internal_weight=45368 1800 1206 43568 775 935 42633 355 158 431 273 594 158 420 262 315 42318 134 611 333 324 197 265 332 288 99 44 73 68 230
internal_count=45368 1800 1206 43568 775 935 42633 355 158 431 273 594 158 420 262 315 42318 134 611 333 324 197 265 332 288 99 44 73 68 230
is_linear=0
shrinkage=0.03


Tree=2
num_leaves=31
num_cat=0
split_feature=9 18 59 45 59 47 59 21 21 25 59 24 59 31 47 35 7 7 46 35 42 59 7 59 7 9 36 59 35 29
split_gain=320.15 51.7052 43.1782 29.2474 13.6807 16.5963 8.46098 7.77943 6.4 6.12688 6.00579 5.22013 4.69001 3.49785 3.26412 3.12873 2.98801 2.96734 2.80158 3.03824 2.75917 2.80498 2.68736 2.67879 2.02422 1.92943 1.90476 1.89093 1.88929 1.87848
threshold=20.379052500000004 20.179449000000002 31.508333333333336 20.398256500000006 45.00833333333334 20.179449000000002 19.241666666666671 20.448393000000006 21.186409000000001 20.379052500000004 90.491666666666688 20.379052500000004 5.991666666666668 20.398256500000006 20.819315000000003 20.398256500000006 7.5000000000000009 52.500000000000007 21.189230000000006 20.226969500000006 20.398256500000006 43.158333333333339 16.500000000000004 59.958333333333336 5.5000000000000009 20.472588000000005 20.289100000000001 59.958333333333336 20.072931500000003 20.418125500000006
decision_type=2 2 2 2 2 2 2 2 2 2 2 2 2 2 2 2 2 2 2 2 2 2 2 2 2 2 2 2 2 2
left_child=1 2 7 11 5 6 -3 -1 -9 16 18 12 -2 14 -7 24 -5 -15 19 28 21 25 -14 -20 -11 -13 -24 -28 -4 -6
right_child=3 4 10 9 29 13 -8 8 -10 15 -12 20 22 17 -16 -17 -18 -19 23 -21 -22 -23 26 -25 -26 -27 27 -29 -30 -31
leaf_value=-0.01154932588497502 -0.0062859159850930622 -0.010541636672576118 -0.0044248455596850129 -0.0068224438248529039 -0.0064199399685405433 -0.0053063489459281143 -0.0048411931057267812 -0.00474697671387343 -0.01179964536327951 -0.0054452252881486626 -0.0042947641901018713 -0.0046903492807427579 -0.0052171122398199897 -0.0073599039579214142 -0.010650790143340102 0.0041488460540771398 -0.0071940631966051424 -0.0034762975933963838 -0.0093205425941880887 -0.0053315337531365543 -0.0035846890515030027 -0.0046016175439631182 -0.0044245754859164599 -0.0041320234859065505 -0.0045064657643963824 -0.0054538750372719836 -0.0046567537127997129 -0.0010658829551348959 -0.0053535919604594433 -0.0044141568231220313
leaf_weight=354 35 75 70 45 254 264 69 20 20 27 97 35 48 238 21 42039 288 23 26 26 288 140 40 42 234 139 132 78 56 145
leaf_count=354 35 75 70 45 254 264 69 20 20 27 97 35 48 238 21 42039 288 23 26 26 288 140 40 42 234 139 132 78 56 145
internal_value=3.18727e-05 -0.0123667 -0.0186593 0.000544115 -0.00825826 -0.0108152 -0.019875 -0.0252906 -0.01275 0.000659225 -0.0104172 -0.00470455 -0.00771847 -0.00842582 -0.0107237 0.000691135 -0.00339414 -0.00591667 -0.0131591 -0.0108947 -0.00303738 -0.00498248 -0.00649832 -0.0182206 -0.00258333 -0.00752586 -0.00525 -0.00410714 -0.0128214 -0.00383647
internal_weight=45368 1800 711 43568 1089 690 144 394 40 42633 317 935 333 546 285 42300 333 261 220 152 602 314 298 68 261 174 250 210 126 399
internal_count=45368 1800 711 43568 1089 690 144 394 40 42633 317 935 333 546 285 42300 333 261 220 152 602 314 298 68 261 174 250 210 126 399
is_linear=0
shrinkage=0.03


Tree=3
num_leaves=31
num_cat=0
split_feature=9 6 59 45 6 59 6 7 59 26 59 45 31 41 34 59 24 59 7 33 44 59 7 19 59 19 59 59 28 37
split_gain=289.803 66.3322 41.6681 27.902 17.0725 11.9313 7.36061 6.06932 9.07598 5.39823 4.17193 4.16875 3.9712 3.96878 4.10023 3.06134 2.85964 2.8534 2.76989 2.44433 2.2088 2.15111 2.1 1.8206 2.5037 1.63399 2.50694 3.14816 1.55299 1.53132
threshold=20.379052500000004 7.5000000000000009 45.991666666666674 20.398256500000006 8.5000000000000018 79.658333333333346 8.5000000000000018 19.500000000000004 29.958333333333339 20.379052500000004 29.958333333333339 20.125021000000004 20.398256500000006 20.072931500000003 22.324231500000003 29.958333333333339 20.255118500000005 59.958333333333336 18.500000000000004 20.398256500000006 21.033697000000004 29.958333333333339 7.5000000000000009 20.379052500000004 29.958333333333339 20.255118500000005 59.958333333333336 30.991666666666671 20.289100000000001 20.255118500000005
decision_type=2 2 2 2 2 2 2 2 2 2 2 2 2 2 2 2 2 2 2 2 2 2 2 2 2 2 2 2 2 2
left_child=1 2 10 6 5 7 17 8 28 22 -1 -12 15 -4 -15 18 21 -2 -6 23 -18 -8 -5 24 -11 26 27 -10 29 -3
right_child=3 4 13 9 12 -7 16 -9 25 19 11 -13 -14 14 -16 -17 20 -19 -20 -21 -22 -23 -24 -25 -26 -27 -28 -29 -30 -31
leaf_value=-0.011247445463018049 -0.0050032739422281192 -0.0087348329993450595 -0.0053943194234664892 -0.0066177705101073412 -0.0042723489035471768 -0.0068325808284476252 -0.004836543661015969 -0.0048948356974857282 -0.0049315421519108681 -0.006078011536335204 -0.0085753083818674372 -0.0092476467881606357 -0.005178972863059168 -0.0034052167698530272 -0.004267021111958264 -0.0069664529130076518 -0.0040819457687967476 -0.0071053434408336917 -0.0040530515134917034 0.0040395440940857339 -0.0045832022946534837 -0.0022520446256718016 -0.007090708776656989 -0.0025676917740227894 -0.0055580176513753089 -0.0042184335431657422 -0.0043238133077640678 -0.0018290015813438741 -0.0047208178015911524 -0.0076291819594083814
leaf_weight=248 216 96 63 45 44 144 20 266 22 24 58 64 378 104 21 120 530 108 52 42030 36 25 270 234 30 30 24 26 20 20
leaf_count=248 216 96 63 45 44 144 20 266 22 24 58 64 378 104 21 120 530 108 52 42030 36 25 270 234 30 30 24 26 20 20
internal_value=6.29519e-05 -0.0117333 -0.0203253 0.000550312 -0.00787319 -0.0112407 -0.0045762 -0.0134167 -0.0168971 0.000662744 -0.0261689 -0.021627 -0.0041995 -0.00882447 -0.00573 -0.00744444 -0.00263789 -0.00823148 -0.0114375 0.000691869 -0.00205919 -0.00991667 -0.00325 -0.0020625 -0.00702778 -0.0101324 -0.0125833 -0.008625 -0.0219706 -0.0233017
internal_weight=45368 1800 558 43568 1242 648 935 504 238 42633 370 122 594 188 125 216 611 324 96 42318 566 45 315 288 54 102 72 48 136 116
internal_count=45368 1800 558 43568 1242 648 935 504 238 42633 370 122 594 188 125 216 611 324 96 42318 566 45 315 288 54 102 72 48 136 116
is_linear=0
shrinkage=0.03


Tree=4
num_leaves=31
num_cat=0
split_feature=9 6 59 45 51 59 6 26 31 7 59 45 9 41 34 59 35 59 28 24 59 9 6 19 59 59 7 59 59 6
split_gain=267.664 63.0451 39.1506 24.8967 16.6075 17.1758 6.32537 5.39435 4.68443 4.54753 3.85802 3.40909 3.26247 3.00893 3.0559 2.81042 2.70136 2.66615 2.66184 2.46611 2.45336 2.44475 2.3131 2.19023 3.00444 2.17658 2.1 1.69 1.6559 1.76566
threshold=20.379052500000004 7.5000000000000009 43.158333333333339 20.398256500000006 20.253555300000006 20.991666666666671 8.5000000000000018 20.379052500000004 20.398256500000006 55.500000000000007 59.958333333333336 20.125021000000004 20.179449000000002 20.009928500000004 22.324231500000003 109.25000000000001 20.379052500000004 45.00833333333334 20.289100000000001 20.255118500000005 5.991666666666668 20.179449000000002 8.5000000000000018 20.488293500000005 29.958333333333339 60.491666666666674 7.5000000000000009 29.958333333333339 30.508333333333336 10.500000000000002
decision_type=2 2 2 2 2 2 2 2 2 2 2 2 2 2 2 2 2 2 2 2 2 2 2 2 2 2 2 2 2 2
left_child=1 2 12 6 5 18 20 26 25 10 11 -4 -1 -12 -15 21 23 22 -3 27 -2 -7 -10 24 -9 -6 -5 -8 29 -21
right_child=3 4 9 7 8 15 19 16 17 -11 13 -13 -14 14 -16 -17 -18 -19 -20 28 -22 -23 -24 -25 -26 -27 -28 -29 -30 -31
leaf_value=-0.010908754112158525 -0.0063042787905185091 -0.0084857215974007798 -0.0048567355216398841 -0.0064192373948041134 -0.0043834859162199613 -0.0046726883244637913 -0.0046914473511854415 -0.0060397751962987202 -0.003731090459896638 -0.00020144704226555013 -0.005247198217629442 -0.0087397079260331991 -0.010351787650415601 -0.0035085858171405131 -0.0041390104785995517 0.00030523772004630956 0.0038776885984310281 -0.00015277915839277632 -0.0049931894585267499 -0.0053161974662048004 -0.0047420543084374127 -0.0046135911072526774 -0.0067739472915023143 -0.0035218329747349385 -0.0056674874340248843 -0.0070801042093272667 -0.0068779875133572338 -0.0021844832869016826 -0.0011722925573059582 0.00083861473674954961
leaf_weight=275 31 112 22 45 322 72 20 20 53 32 45 32 35 96 21 40 42111 167 46 238 293 90 239 162 25 101 270 25 258 70
leaf_count=275 31 112 22 45 322 72 20 20 53 32 45 32 35 96 21 40 42111 167 46 238 293 90 239 162 25 101 270 25 258 70
internal_value=8.67572e-05 -0.01125 -0.0196263 0.000555132 -0.00748672 -0.0129167 -0.00428743 0.000661336 -0.00527041 -0.0107419 -0.0123056 -0.01925 -0.0267339 -0.00999074 -0.00745513 -0.00712129 0.000690451 -0.00317157 -0.0203259 -0.00249059 -0.00767593 -0.00887963 -0.00490069 -0.00272826 -0.00858333 -0.00754787 -0.00325 -0.00925 -0.00195318 -0.00343831
internal_weight=45368 1800 558 43568 1242 360 935 42633 882 248 216 54 310 162 117 202 42318 459 158 611 324 162 292 207 45 423 315 45 566 308
internal_count=45368 1800 558 43568 1242 360 935 42633 882 248 216 54 310 162 117 202 42318 459 158 611 324 162 292 207 45 423 315 45 566 308
is_linear=0
shrinkage=0.03


Tree=5
num_leaves=31
num_cat=0
split_feature=9 6 59 43 51 59 24 59 6 7 41 31 34 7 59 59 9 59 6 7 55 59 6 53 59 59 27 33 54 59
split_gain=249.682 60.1969 40.4218 22.9377 15.0009 14.6952 8.21865 6.96479 5.62412 5.11043 4.42992 3.81774 3.47299 3.27788 3.15795 2.69442 2.66944 2.66615 2.40622 2.68777 2.37207 2.31596 2.3131 2.04271 1.81707 1.72118 1.56958 1.53126 1.47184 1.32463
threshold=20.379052500000004 7.5000000000000009 45.991666666666674 20.398256500000006 20.253555300000006 20.991666666666671 20.398256500000006 29.958333333333339 8.5000000000000018 49.500000000000007 20.009928500000004 20.398256500000006 22.324231500000003 8.5000000000000018 30.508333333333336 109.25000000000001 20.179449000000002 45.00833333333334 10.500000000000002 43.500000000000007 0.089968913438161921 20.491666666666671 8.5000000000000018 0.076241998223385815 5.991666666666668 60.491666666666674 20.379052500000004 20.448393000000006 0.088724673571652937 19.241666666666671
decision_type=2 2 2 2 2 2 2 2 2 2 2 2 2 2 2 2 2 2 2 2 2 2 2 2 2 2 2 2 2 2
left_child=1 2 7 8 5 20 13 -1 24 23 -4 25 -12 21 18 16 -7 22 19 -10 -3 -5 29 -9 -2 27 -22 -6 -27 -13
right_child=3 4 10 6 11 15 -8 9 14 -11 12 17 -14 -15 -16 -17 -18 -19 -20 -21 26 -23 -24 -25 -26 28 -28 -29 -30 -31
leaf_value=-0.010596544394153494 -0.006293669678425466 -0.0081324715023769652 -0.0050897822711006057 -0.0041298974078885177 -0.004516481003787454 -0.0045325076747298352 0.0035971206496871844 -0.0084264273106205313 -0.0074642157304143728 -0.0030901717669976846 -0.0033722642739019313 -0.0026526031740784768 -0.0040148401642415617 -0.0066941043630953751 -0.00044822331569621758 0.00029608058844494679 -0.0044751833740351438 -0.00014819578364104423 0.00059445391834935044 -0.003888559890298098 -0.0082340240807245273 -0.0064146895857797046 -0.0065707288727572264 -0.0085885319570828209 -0.0045604533495712668 -0.0077126373445306198 -0.0048234467233209694 -0.0039626904120359709 -0.0019012805273347054 -0.0040371112732227842
leaf_weight=248 29 28 45 29 280 72 42255 46 177 32 122 27 21 378 256 40 90 167 70 63 110 43 239 44 268 35 20 42 66 26
leaf_count=248 29 28 45 29 280 72 42255 46 177 32 122 27 21 378 256 40 90 167 70 63 110 43 239 44 268 35 20 42 66 26
internal_value=9.93211e-05 -0.01085 -0.0190349 0.000551689 -0.00717271 -0.0123333 0.000649543 -0.0247905 -0.00429056 -0.0189221 -0.00770745 -0.00506633 -0.00512413 -0.00338333 -0.00253622 -0.00697277 -0.00869444 -0.00317157 -0.00457258 -0.006 -0.0191867 -0.00925 -0.00490069 -0.0225833 -0.00763384 -0.00712234 -0.0174808 -0.0081941 -0.00370545 -0.0105708
internal_weight=45368 1800 558 43568 1242 360 42705 370 863 122 188 882 143 450 566 202 162 459 310 240 158 72 292 90 297 423 130 322 101 53
internal_count=45368 1800 558 43568 1242 360 42705 370 863 122 188 882 143 450 566 202 162 459 310 240 158 72 292 90 297 423 130 322 101 53
is_linear=0
shrinkage=0.03


Tree=6
num_leaves=31
num_cat=0
split_feature=18 48 60 47 60 31 36 60 26 7 60 51 43 57 60 47 7 55 54 60 34 32 7 7 53 54 18 56 60 22
split_gain=222.506 51.4872 34.4537 24.3443 10.4512 15.7537 13.3415 6.75 5.79517 4.47671 3.452 3.78857 3.30286 2.95868 2.93889 2.75537 2.75004 2.59286 2.55961 2.37037 2.25347 2.24663 2.00623 1.98529 1.76538 1.73571 1.70539 1.65035 1.5873 1.92857
threshold=20.379052500000004 20.134969600000005 37.500000000000007 20.398256500000006 52.500000000000007 20.072931500000003 22.185545000000005 17.500000000000004 20.379052500000004 26.500000000000004 52.500000000000007 20.339837800000002 20.072931500000003 55139.500000000007 105.00000000000001 20.179449000000002 49.500000000000007 0.13368101780444402 0.20575824578680668 17.500000000000004 20.326224000000003 20.816230000000004 32.500000000000007 7.5000000000000009 0.068052305642430352 0.11464987785409116 21.230817500000004 0.1334675000000001 75.000000000000014 20.072931500000003
decision_type=2 2 2 2 2 2 2 2 2 2 2 2 2 2 2 2 2 2 2 2 2 2 2 2 2 2 2 2 2 2
left_child=1 2 9 10 5 7 15 -3 23 12 11 -2 -1 20 25 19 -11 22 -13 -7 21 -10 -6 -5 -16 28 -20 -17 -4 -30
right_child=3 4 14 8 17 6 -8 -9 13 16 -12 18 -14 -15 24 27 -18 -19 26 -21 -22 -23 -24 -25 -26 -27 -28 -29 29 -31
leaf_value=-0.0072399694977289394 -0.0046474141242249158 -0.0097146654620634647 -0.0035512508730631627 -0.0063976289017573457 -0.00644098311731454 -0.0076119774987924715 -0.010415191602509637 -0.0048898955937263528 -0.0027479313640498305 -0.010285810723163381 -0.0065749690580333879 -0.0032360597314559868 -0.0076037475805952838 -0.010268286835500859 -0.0054807473328750333 -0.0049694742124939762 -0.0099256076621957109 -0.00094141643466075827 -0.0042549978508937122 -0.0041344492601760206 0.0037381160267786128 -0.0041666619361018656 -0.0012841558026976125 -0.0068035495000428438 0.00091297213979050877 -0.006180888240195922 -0.0066986787866591341 -0.0036355151275820619 -0.0043950339505279242 -0.0036490358207615738
leaf_weight=25 90 54 84 36 138 54 24 54 171 170 309 156 45 27 26 492 60 210 252 54 42102 36 72 270 34 54 120 107 21 21
leaf_count=25 90 54 84 36 138 54 24 54 171 170 309 156 45 27 26 492 60 210 252 54 42102 36 72 270 34 54 120 107 21 21
internal_value=0.000116514 -0.0102228 -0.0179722 0.000543431 -0.00689893 -0.00883284 -0.00725274 -0.0195278 0.000647988 -0.02475 -0.00426618 -0.00556068 -0.0181071 0.000677721 -0.0095 -0.00650601 -0.0267717 -0.00303571 -0.00459091 -0.0109167 0.000684057 -0.00243841 -0.00539286 -0.00346569 -0.00375 -0.0114167 -0.00594355 -0.00571077 -0.0094881 -0.01425
internal_weight=45368 1799 540 43569 1259 839 731 108 42642 300 927 618 70 42336 240 707 230 420 528 108 42309 207 210 306 60 180 372 599 126 42
internal_count=45368 1799 540 43569 1259 839 731 108 42642 300 927 618 70 42336 240 707 230 420 528 108 42309 207 210 306 60 180 372 599 126 42
is_linear=0
shrinkage=0.03


Tree=7
num_leaves=31
num_cat=0
split_feature=9 6 59 45 51 59 6 26 7 59 6 7 59 43 32 59 59 9 35 24 9 41 59 59 7 19 59 56 55 52
split_gain=220.911 63.7268 44.1581 22.8208 9.46961 6.90947 5.35596 4.84063 3.47342 5.202 3.33462 3.29335 2.8534 4.53704 3.64824 2.60648 2.58086 2.90401 2.55096 2.52812 2.4231 2.32076 2.31304 2.15445 2.08074 1.79649 2.45444 1.63627 1.45402 1.39612
threshold=20.379052500000004 7.5000000000000009 43.158333333333339 20.398256500000006 20.253555300000006 20.991666666666671 8.5000000000000018 20.352018500000003 45.500000000000007 29.958333333333339 9.5000000000000018 55.500000000000007 59.958333333333336 20.125021000000004 20.009928500000004 60.491666666666674 109.25000000000001 20.179449000000002 20.379052500000004 20.352018500000003 20.009928500000004 20.009928500000004 30.491666666666671 5.991666666666668 7.5000000000000009 20.472588000000005 29.958333333333339 -0.075683500000000223 0.12870406230722511 0.044172139209511734
decision_type=2 2 2 2 2 2 2 2 2 2 2 2 2 2 2 2 2 2 2 2 2 2 2 2 2 2 2 2 2 2
left_child=1 2 8 6 5 21 23 24 -1 -10 15 12 13 -4 -14 -6 17 -7 25 22 -16 -3 -8 -2 -5 26 -9 -23 29 -17
right_child=3 4 11 7 10 16 19 18 9 -11 -12 -13 14 -15 20 28 -18 -19 -20 -21 -22 27 -24 -25 -26 -27 -28 -29 -30 -31
leaf_value=-0.010157362774686122 -0.0056979810114863834 -0.0077194239547397087 -0.0041862766611645667 -0.0058443569118588447 -0.0037438044819672017 -0.004195196356543386 -0.0035652296373385171 -0.0055172282281845241 -0.0096876632968224425 -0.0027237109500924104 -0.0064211116737851529 1.2874899604966957e-05 -0.0011621750412677666 -0.0079502676450593241 -0.0032985871968572739 0.0018531260681721139 0.00048052815370819291 -0.0042013252891790051 0.003545577801102233 -0.0033516552553562585 -0.0047758551956798706 -0.0073643374917520526 -0.0043024888310222642 -0.0042420979676942826 -0.0063335342498678652 -0.0034992514308476632 -0.0054058056770626972 -0.0067023271361372908 -0.0016976950065843701 -0.007218451541370274
leaf_weight=185 31 20 24 45 532 72 76 20 100 25 180 32 45 30 48 24 40 90 42147 467 69 20 68 293 225 171 25 118 109 37
leaf_count=185 31 20 24 45 532 72 76 20 100 25 180 32 45 30 48 24 40 90 42147 467 69 20 68 293 225 171 25 118 109 37
internal_value=0.000115853 -0.0101833 -0.0186048 0.000541361 -0.00639976 -0.0105 -0.00409492 0.000643041 -0.0261532 -0.02229 -0.00472619 -0.00916936 -0.0105 -0.0164722 -0.00850926 -0.00566026 -0.00682426 -0.00850926 0.000668561 -0.00244149 -0.0113013 -0.0151994 -0.00591667 -0.00721296 -0.00336111 -0.00258333 -0.00791667 -0.0138152 -0.00242647 -0.00613525
internal_weight=45368 1800 558 43568 1242 360 935 42633 310 125 882 248 216 54 162 702 202 162 42363 611 117 158 144 324 270 216 45 138 170 61
internal_count=45368 1800 558 43568 1242 360 935 42633 310 125 882 248 216 54 162 702 202 162 42363 611 117 158 144 324 270 216 45 138 170 61
is_linear=0
shrinkage=0.03


Tree=8
num_leaves=31
num_cat=0
split_feature=9 6 59 45 47 59 26 6 7 59 59 47 59 59 42 41 34 7 18 8 6 31 7 59 54 33 33 59 7 7
split_gain=209.758 60.482 43.0331 20.2934 9.01927 5.81198 4.55443 4.46031 4.18907 4.418 4.11909 3.84351 3.45092 3.10666 4.28923 3.87087 2.99783 2.87186 2.86794 2.7029 5.03134 2.5503 2.42112 2.51557 2.34284 2.20971 2.01061 1.93391 2.47594 1.8418
threshold=20.379052500000004 7.5000000000000009 43.158333333333339 20.398256500000006 20.289100000000001 10.991666666666669 20.379052500000004 9.5000000000000018 45.500000000000007 29.958333333333339 5.991666666666668 20.226969500000006 90.991666666666688 45.991666666666674 20.125021000000004 20.009928500000004 22.324231500000003 9.5000000000000018 20.179449000000002 3.5000000000000004 10.500000000000002 20.398256500000006 33.500000000000007 45.491666666666674 0.39370771001762733 20.379052500000004 21.160173500000003 45.00833333333334 52.500000000000007 7.5000000000000009
decision_type=2 2 2 2 2 2 2 2 2 2 2 2 2 2 2 2 2 2 2 2 2 2 2 2 2 2 2 2 2 2
left_child=1 2 8 7 5 17 29 10 -1 -10 11 -2 18 14 -4 -15 -17 -3 -7 -8 22 -6 23 26 -12 -13 -21 28 -23 -5
right_child=3 4 13 6 21 12 19 -9 9 -11 24 25 -14 15 -16 16 -18 -19 -20 20 -22 27 -24 -25 -26 -27 -28 -29 -30 -31
leaf_value=-0.0098526418914455863 -0.0065631204775822658 -0.0080423816880622247 -0.0028628236902783241 -0.0056690262045031043 -0.0048030036434982305 -0.0039750188464215755 0.0071714149043250325 -0.002010938854903885 -0.0093970333979177447 -0.0026419996215896191 -0.0042046114562847309 -0.0014113913997943748 -0.0040169973425065253 -0.0046326478677919574 -0.0077189001743906182 -0.0029779259751195413 -0.003565692656238113 -0.0030845415875995381 -0.0035165678748211343 -0.0086161522997060206 0.00018651347610237678 -0.0061728996523501781 -0.002251208932395876 -0.0011600683245976385 -0.0024580971933132914 -0.0039057059187629578 -0.0083832950783049223 0.00057018266289196682 -0.0027425080419845064 -0.00610099230697724
leaf_weight=185 20 38 31 45 315 114 37689 278 100 25 429 22 57 45 29 122 21 71 215 153 4026 251 270 118 161 25 62 158 23 270
leaf_count=185 20 38 31 45 315 114 37689 278 100 25 429 22 57 45 29 122 21 71 215 153 4026 251 270 118 161 25 62 158 23 270
internal_value=0.000119159 -0.00991667 -0.018121 0.000533786 -0.00623068 -0.00937121 0.000629671 -0.00383824 -0.0255726 -0.02133 -0.00518607 -0.0122351 -0.00764378 -0.00880645 -0.01475 -0.00690957 -0.00449476 -0.0154885 -0.00882447 0.000656423 -2.77058e-05 -0.0041496 -0.00258333 -0.00429505 -0.00438559 -0.00754787 -0.00622674 -0.00265278 -0.00417701 -0.00296429
internal_weight=45368 1800 558 43568 1242 495 42633 935 310 125 657 67 386 248 60 188 143 109 329 42318 4629 747 603 333 590 47 215 432 274 315
internal_count=45368 1800 558 43568 1242 495 42633 935 310 125 657 67 386 248 60 188 143 109 329 42318 4629 747 603 333 590 47 215 432 274 315
is_linear=0
shrinkage=0.03


Tree=9
num_leaves=31
num_cat=0
split_feature=9 6 59 45 51 59 26 6 59 16 6 7 7 59 47 8 6 59 9 59 54 59 49 32 9 7 59 33 54 7
split_gain=196.403 52.2239 38.0918 19.658 9.05038 6.77366 4.30064 4.28241 3.71305 3.42914 3.26647 2.78259 2.63958 4.30959 4.49309 2.49732 4.53319 2.36108 2.33611 2.27341 2.26627 2.11265 5.1265 3.11121 2.28995 2.09088 2.51735 2.25327 2.06123 1.90476
threshold=20.379052500000004 7.5000000000000009 43.158333333333339 20.398256500000006 20.253555300000006 20.991666666666671 20.379052500000004 9.5000000000000018 5.991666666666668 -0.98328800000000072 9.5000000000000018 55.500000000000007 45.500000000000007 15.491666666666669 20.009928500000004 3.5000000000000004 10.500000000000002 109.25000000000001 20.179449000000002 60.491666666666674 0.39370771001762733 59.958333333333336 20.104903850000003 20.009928500000004 20.009928500000004 33.500000000000007 30.491666666666671 21.160173500000003 0.088724673571652937 7.5000000000000009
decision_type=2 2 2 2 2 2 2 2 2 10 2 2 2 2 2 2 2 2 2 2 2 2 2 2 2 2 2 2 2 2
left_child=1 2 12 7 5 -3 29 8 9 -2 19 21 -1 -14 -15 -8 25 18 -7 -6 -10 22 -4 -23 -25 26 27 -17 -21 -5
right_child=3 4 11 6 10 17 15 -9 20 -11 -12 -13 13 14 -16 16 -18 -19 -20 28 -22 23 -24 24 -26 -27 -28 -29 -30 -31
leaf_value=-0.0095570626347022281 -0.0048973285514515496 -0.0072266112676599931 -0.0039103931014277688 -0.0054989554183679694 -0.0034606753501118331 -0.0039500899004543955 0.0069562724571953184 -0.0019506106892567283 -0.0040784731125962006 -0.0032990668466687792 -0.0060432913340011654 9.8373363325237437e-05 -0.0093549585885735805 -0.0043027114118889273 -0.0068649171875212796 -0.0086058994526009257 0.00018091807181932039 0.00058662222937214679 -0.003969788494258923 -0.006789862245103701 -0.0023843542775139337 -0.0010379720107760813 -0.0075444576386239299 -0.0030606501449178909 -0.0044936001037758078 -0.0021836726644239943 -0.0035740293423075723 -0.0078277947431987308 -0.0013803207394021994 -0.0059179625377679557
leaf_weight=185 37 158 33 45 532 72 37689 278 429 30 180 32 73 21 31 124 4026 40 90 39 161 45 21 48 69 270 160 49 131 270
leaf_count=185 37 158 33 45 532 72 37689 278 429 30 180 32 73 21 31 124 4026 40 90 39 161 45 21 48 69 270 160 49 131 270
internal_value=0.000127755 -0.00958333 -0.017207 0.000528966 -0.00615821 -0.0101667 0.000623338 -0.00377406 -0.00509475 -0.0117873 -0.00452211 -0.00844355 -0.0242177 -0.02085 -0.01425 0.000649334 -8.26313e-06 -0.00652723 -0.00813889 -0.00544658 -0.00433475 -0.00966667 -0.0148056 -0.0079537 -0.0105321 -0.00243408 -0.00402477 -0.00653324 -0.00242647 -0.00286905
internal_weight=45368 1800 558 43568 1242 360 42633 935 657 67 882 248 310 125 52 42318 4629 202 162 702 590 216 54 162 117 603 333 173 170 315
internal_count=45368 1800 558 43568 1242 360 42633 935 657 67 882 248 310 125 52 42318 4629 202 162 702 590 216 54 162 117 603 333 173 170 315
is_linear=0
shrinkage=0.03


Tree=10
num_leaves=31
num_cat=0
split_feature=19 6 59 47 51 27 59 6 59 47 7 59 57 59 7 7 55 8 6 7 59 34 6 59 59 43 59 43 49 59
split_gain=175.052 43.1057 34.4537 24.2031 8.16606 6.34936 4.87091 4.5878 3.42095 3.15104 3.08571 4.05 2.93465 2.76602 2.58689 2.50401 2.41975 2.36326 4.8712 2.594 3.67964 2.19111 2.18583 2.10637 2.85888 2.00275 1.96314 3.79167 2.92628 1.95407
threshold=20.352018500000003 7.5000000000000009 43.158333333333339 20.398256500000006 20.253555300000006 20.379052500000004 30.008333333333336 9.5000000000000018 5.491666666666668 20.255118500000005 45.500000000000007 29.958333333333339 55139.500000000007 45.50833333333334 10.500000000000002 55.500000000000007 0.089968913438161921 3.5000000000000004 10.500000000000002 27.500000000000004 45.491666666666674 20.289100000000001 9.5000000000000018 109.25000000000001 59.958333333333336 20.125021000000004 59.958333333333336 20.125021000000004 20.043159700000004 60.00833333333334
decision_type=2 2 2 2 2 2 2 2 2 2 2 2 2 2 2 2 2 2 2 2 2 2 2 2 2 2 2 2 2 2
left_child=1 2 10 7 6 14 16 8 9 -2 -1 -12 17 22 -5 26 -3 -7 19 20 -19 -15 -6 24 -8 -26 27 -4 -28 -10
right_child=3 4 15 5 13 12 23 -9 29 -11 11 -13 -14 21 -16 -17 -18 18 -20 -21 -22 -23 -24 -25 25 -27 28 -29 -30 -31
leaf_value=-0.0091325057348812209 -0.0050228365822819043 -0.006951463402833734 -0.0037955768836542081 -0.0043965170524625768 -0.0043992084527837072 0.0067475842834794613 -0.0034454979582473613 -0.0036808777680444166 -0.0035243302661629554 -0.0025762027242515854 -0.0088344736383230114 -0.0023567921173163597 -0.0090732262114108769 -0.005201678498250639 -0.004034009899889307 9.542216242547179e-05 -0.0070906243128424735 -0.0080552761351516296 0.00024848738629651261 -0.0028503908842970977 -1.7961379568534484e-05 -0.0007499629163512868 -0.0052731658012300309 0.00052608846022032731 -0.0030993449023165192 -0.0047138347207609666 -0.0043588262646537829 -0.0072681399986833772 -0.0022074555164436822 -0.0060797102471547128
leaf_weight=175 24 34 24 72 382 37689 49 297 492 40 100 25 27 54 297 32 151 209 4026 270 115 192 100 39 42 36 57 28 99 191
leaf_count=175 24 34 24 72 382 37689 49 297 492 40 100 25 27 54 297 32 151 209 4026 270 115 192 100 39 42 36 57 28 99 191
internal_value=0.000134368 -0.00955266 -0.0164722 0.000492851 -0.00608967 0.000603179 -0.00984829 -0.00402012 -0.0052741 -0.0119063 -0.02325 -0.01965 0.00063733 -0.00427747 -0.00331504 -0.008 -0.0131959 0.00064364 3.24675e-06 -0.00253283 -0.00434259 -0.00168902 -0.00559855 -0.00611747 -0.00799016 -0.0115577 -0.00920192 -0.01425 -0.00751923 -0.00465264
internal_weight=45368 1619 540 43749 1079 42705 351 1044 747 64 300 125 42336 728 369 240 185 42309 4620 594 324 246 482 166 127 78 208 52 156 683
internal_count=45368 1619 540 43749 1079 42705 351 1044 747 64 300 125 42336 728 369 240 185 42309 4620 594 324 246 482 166 127 78 208 52 156 683
is_linear=0
shrinkage=0.03


Tree=11
num_leaves=31
num_cat=0
split_feature=9 21 59 45 28 59 35 9 26 59 31 59 18 50 59 24 59 7 8 44 41 42 43 43 7 59 59 38 53 46
split_gain=176.232 36.3194 26.4044 18.5029 8.82068 13.4924 7.31142 4.64021 4.06254 2.96859 2.82823 2.41967 2.48644 2.37206 2.33666 2.29869 2.30339 2.24046 2.23174 2.20077 1.99679 1.93137 1.72663 1.54364 1.54286 1.43759 1.26251 1.54063 1.30812 1.12994
threshold=20.379052500000004 20.125021000000004 30.991666666666671 20.398256500000006 20.179449000000002 15.491666666666669 22.201063000000001 20.226969500000006 20.379052500000004 45.991666666666674 20.398256500000006 45.50833333333334 20.255118500000005 20.092961000000003 45.00833333333334 20.352018500000003 5.991666666666668 52.500000000000007 3.5000000000000004 21.189332000000004 20.072931500000003 20.428453500000003 20.398256500000006 20.255118500000005 7.5000000000000009 10.491666666666669 90.991666666666688 20.179449000000002 0.068052305642430352 20.072931500000003
decision_type=2 2 2 2 2 2 2 2 2 2 2 2 2 2 2 2 2 2 2 2 2 2 2 2 2 2 2 2 2 2
left_child=1 2 7 9 5 13 10 19 24 15 -6 12 -7 -3 17 16 -2 23 -10 20 -1 -17 25 -12 -5 -20 27 -4 -28 -15
right_child=3 4 26 8 6 11 -8 -9 18 -11 14 -13 -14 29 -16 21 -18 -19 22 -21 -22 -23 -24 -25 -26 -27 28 -29 -30 -31
leaf_value=-0.0081606383888949557 -0.0051183073025253068 -0.0079211469832653862 -0.0031994161779662594 -0.0051566450288141 -0.0043978584286966469 -0.0038671078978802283 -0.0091772067188286757 -0.0082470154385086876 0.006545156754975032 -0.0045936070774355011 -0.0042797661270764708 -0.001915004340380264 -0.0015103056739862097 -0.0063012391539570252 -0.00073878015288081323 -0.0036706871073238704 -0.003520593713442397 -0.0024506826322367409 -0.0083518057163328597 -0.0088585305647312894 -0.0086045704547409139 -0.002563317903823515 8.5579092102377511e-05 -0.0050217693554876338 -0.0056194033646382027 -0.006336828535375501 -0.0047324710284184944 -0.006617986553639094 0.00025328116877629546 -0.0088706546400276459
leaf_weight=104 30 24 131 45 513 59 36 39 37689 313 71 87 23 27 177 257 156 23 37 95 45 179 4458 215 270 134 27 41 31 32
leaf_count=104 30 24 131 45 513 59 36 39 37689 313 71 87 23 27 177 257 156 23 37 95 45 179 4458 215 270 134 27 41 31 32
internal_value=0.000148916 -0.00905 -0.0157997 0.000528966 -0.00635956 -0.0113929 -0.00513406 -0.0219355 0.000620523 -0.00364572 -0.00465541 -0.00652811 -0.0102256 -0.0212982 -0.00301543 -0.00484486 -0.0076371 -0.00458981 0.000645789 -0.0234713 -0.0211963 -0.00365367 2.41413e-05 -0.00386538 -0.00277381 -0.00293421 -0.00825 -0.0095407 -0.00442241 -0.0180636
internal_weight=45368 1800 513 43568 1287 252 1035 283 42633 935 999 169 82 83 486 622 186 309 42318 244 149 436 4629 286 315 171 230 172 58 59
internal_count=45368 1800 513 43568 1287 252 1035 283 42633 935 999 169 82 83 486 622 186 309 42318 244 149 436 4629 286 315 171 230 172 58 59
is_linear=0
shrinkage=0.03


Tree=12
num_leaves=31
num_cat=0
split_feature=9 48 59 45 59 9 47 59 26 59 47 54 43 22 50 31 41 59 24 25 22 59 53 59 29 28 32 53 54 47
split_gain=169.576 38.6688 28.5571 17.3886 7.92574 11.4842 7.01257 5.69799 4.05749 3.09285 3.05534 4.16946 2.19665 1.87929 1.83197 1.81644 1.78507 1.75513 1.75361 1.72295 1.55556 1.54712 1.76538 1.51105 2.22824 1.48001 1.35667 1.2931 1.2675 1.22241
threshold=20.379052500000004 20.134969600000005 30.991666666666671 20.398256500000006 45.50833333333334 20.072931500000003 20.179449000000002 15.491666666666669 20.379052500000004 45.00833333333334 21.184257500000005 0.092140357290465408 20.398256500000006 21.186409000000001 20.353618024999999 20.072931500000003 20.398256500000006 14.008333333333335 20.448393000000006 20.352018500000003 20.448393000000006 109.25000000000001 0.068052305642430352 5.991666666666668 20.352018500000003 20.913008500000004 21.153946000000001 0.076241998223385815 0.085996169045242279 20.501415000000005
decision_type=2 2 2 2 2 2 2 2 2 2 2 2 2 2 2 2 2 2 2 2 2 2 2 2 2 2 2 2 2 2
left_child=1 2 10 9 5 13 7 15 29 16 11 17 20 -3 19 -7 23 -1 25 -6 -10 -4 -23 24 -2 -18 -20 -9 -21 -5
right_child=3 4 21 8 14 6 -8 27 12 -11 -12 -13 -14 -15 -16 -17 18 -19 26 28 -22 22 -24 -25 -26 -27 -28 -29 -30 -31
leaf_value=-0.0083911631164948208 -0.0057292042946198891 -0.0080594572009218268 -0.0036933985893023236 -0.0051499442708946496 -0.0022321155655430874 -0.0079675608457019809 -0.0040617195420402539 -0.0037295901216346078 -0.0048304355132670965 -0.0037799836570228443 -0.0086237301028571842 -0.0065874270767926554 0.0033599352490872089 -0.0089087243302500268 -0.0012805628694244828 -0.0064808517746402028 -0.0032510516831664379 -0.0067558039376589456 0.0010008813614949916 -0.0055893864772315009 -0.0075317806867542404 -0.0046265228990793258 0.0012274088803926747 -0.0039344901284074233 -0.0027736714541314756 -0.0031078037317155117 -0.0049192924052774674 -0.0032922948434466813 -0.0064011559686135543 -0.0056464864562596204
leaf_weight=52 22 36 182 108 152 41 590 29 27 344 120 48 42129 30 219 47 101 78 130 21 162 26 34 258 25 22 33 58 37 207
leaf_count=52 22 36 182 108 152 41 590 29 27 344 120 48 42129 30 219 47 101 78 130 21 162 26 34 258 25 22 33 58 37 207
internal_value=0.000156851 -0.00886667 -0.0155833 0.000529655 -0.0059881 -0.00769765 -0.00666176 -0.0119357 0.000618412 -0.00351738 -0.0218003 -0.0193062 0.000643662 -0.0197045 -0.00267657 -0.0173182 -0.00483376 -0.0220962 -0.00313112 -0.00467857 -0.00258333 -0.00792769 -0.00375 -0.00643033 -0.0113777 -0.00583537 -0.00109049 -0.00649138 -0.00907759 -0.00277381
internal_weight=45368 1800 540 43568 1260 831 765 175 42633 935 298 178 42318 66 429 88 591 130 286 210 189 242 60 305 47 123 163 87 58 315
internal_count=45368 1800 540 43568 1260 831 765 175 42633 935 298 178 42318 66 429 88 591 130 286 210 189 242 60 305 47 123 163 87 58 315
is_linear=0
shrinkage=0.03


Tree=13
num_leaves=31
num_cat=0
split_feature=9 6 59 42 50 24 59 7 59 9 59 59 49 41 31 55 6 7 6 59 31 59 7 59 59 26 32 49 30 29
split_gain=161.948 45.8395 33.4517 15.2184 7.12806 5.74243 4.27053 4.04509 3.88654 5.46564 3.44143 3.32972 4.38169 3.81384 2.75389 2.55566 2.24149 2.28158 2.10893 1.85748 2.44192 1.74934 1.89578 1.55274 1.39522 1.64462 1.34993 1.25329 1.23494 1.14028
threshold=20.379052500000004 7.5000000000000009 43.158333333333339 20.418125500000006 20.223030775000002 20.418125500000006 30.008333333333336 45.500000000000007 15.491666666666669 20.072931500000003 45.00833333333334 45.991666666666674 20.104903850000003 20.009928500000004 20.398256500000006 0.089968913438161921 10.500000000000002 26.500000000000004 9.5000000000000018 15.491666666666669 20.398256500000006 45.00833333333334 52.500000000000007 5.491666666666668 109.25000000000001 20.179449000000002 20.488293500000005 20.43325535 20.428453500000003 20.418125500000006
decision_type=2 2 2 2 2 2 2 2 2 2 2 2 2 2 2 2 2 2 2 2 2 2 2 2 2 2 2 2 2 2
left_child=1 2 7 10 6 18 15 -1 -9 -10 16 12 -4 -13 28 -3 17 23 19 20 -5 22 27 -2 25 -8 -7 -16 29 -6
right_child=3 4 11 5 14 26 24 8 9 -11 -12 13 -14 -15 21 -17 -18 -19 -20 -21 -22 -23 -24 -25 -26 -27 -28 -29 -30 -31
leaf_value=-0.0084653750744103015 -0.0053163283379278658 -0.00624437932646482 -0.0034725237253692876 -0.0041267643024800625 -0.0041673147248930936 -0.00026422554023312726 -0.0025273738953007726 -0.0082994036146295958 -0.0060713349754871106 -0.0027808841428453085 -0.0027304546427269773 -0.0040138215550224376 -0.0066481770284874788 -0.0024533013898661274 -0.0028364158799516386 -0.0064184240087859909 -0.00017977532294107589 -0.0033595100153503026 -0.002256635363553475 -0.0060033878605027513 -0.0027072882452775192 -0.00067819986221167661 -0.0022553105670084354 -0.0071710856402459576 0.00024245216074278441 -0.0033401940222993823 0.0038590032736103125 -0.005586948956529802 -0.0041260141626555443 -0.0019483616016796367
leaf_weight=185 24 34 37 39 369 910 63 73 25 27 361 45 23 143 122 112 148 324 297 156 30 177 23 132 31 39 41147 164 45 63
leaf_count=185 24 34 37 39 369 910 63 73 25 27 361 45 23 143 122 112 148 324 297 156 30 177 23 132 31 39 41147 164 45 63
internal_value=0.000151561 -0.00866667 -0.0158091 0.000515883 -0.00545773 0.000601335 -0.00968011 -0.022379 -0.01821 -0.0119423 -0.00316304 -0.00759677 -0.01375 -0.00563298 -0.00423442 -0.0132226 -0.00450478 -0.0055 -0.00252586 -0.00471667 -0.00881522 -0.00264506 -0.00400728 -0.00848077 -0.00579135 -0.00748529 0.000640149 -0.00334091 -0.00585377 -0.00536111
internal_weight=45368 1800 558 43568 1242 42579 279 310 125 52 989 248 60 188 963 146 628 480 522 225 69 486 309 156 133 102 42057 286 477 432
internal_count=45368 1800 558 43568 1242 42579 279 310 125 52 989 248 60 188 963 146 628 480 522 225 69 486 309 156 133 102 42057 286 477 432
is_linear=0
shrinkage=0.03


Tree=14
num_leaves=31
num_cat=0
split_feature=18 27 6 8 6 6 21 6 48 7 55 7 6 6 54 54 7 52 33 41 42 31 38 45 39 6 41 35 43 49
split_gain=143.53 41.0778 10.9918 9.74173 10.2186 6.08824 3.70096 3.37446 2.873 2.44862 2.14888 1.84346 1.7693 1.76554 1.69463 1.91486 1.26667 1.12037 0.963131 0.937059 0.899551 0.867009 0.859865 0.817274 1.04367 0.740741 0.7061 0.699735 0.680556 0.622593
threshold=20.179449000000002 20.418125500000006 8.5000000000000018 3.5000000000000004 10.500000000000002 9.5000000000000018 20.125021000000004 7.5000000000000009 22.362987100000002 32.500000000000007 0.089968913438161921 1.5000000000000002 12.500000000000002 7.5000000000000009 0.37717413508828057 0.27236505887603846 21.500000000000004 0.059123131977967806 20.522881500000004 20.428453500000003 21.318693000000003 20.448393000000006 21.334136500000003 20.769281500000002 20.418125500000006 7.5000000000000009 20.398256500000006 20.795165000000001 20.179449000000002 21.931160150000007
decision_type=2 2 2 2 2 2 2 2 2 2 2 2 2 2 2 2 2 2 2 2 2 2 2 2 2 2 2 2 2 2
left_child=2 5 6 -3 8 7 10 -2 14 11 -1 -9 18 -12 15 16 -5 28 -6 -18 -17 -13 -7 24 -11 -19 -20 -26 -8 -16
right_child=1 3 -4 4 12 22 17 9 -10 23 13 21 -14 -15 29 20 19 25 26 -21 -22 -23 -24 -25 27 -27 -28 -29 -30 -31
leaf_value=-0.0073864504084576333 -0.0075241748606302561 0.0061322338966448694 -0.005413312073637367 -0.0066764408430156309 7.1069208069338119e-05 0.00022109264002511753 -0.0032828008729996775 -0.0040833224933679545 -0.0080044902413638746 -0.0030977322585452353 -0.0076951230510033846 -0.004905093782796111 0.0017463753658072177 -0.0029660472183637345 -0.0043895962206566266 -0.0074882726317401687 -0.003653334297463953 -0.0079979618994280247 -0.00052892287833156354 0.00047629991315152235 -0.0022054897763411898 -0.0022462796548929883 -0.003480362096116301 -0.0054764164574314829 -0.0043253986155409241 -0.005358639018862992 -0.00027425941040721825 -0.0054414501731060586 -0.0055157903694165672 -0.0030119794837700138
leaf_weight=153 63 37725 63 117 954 225 36 27 27 261 243 594 1992 45 450 333 179 90 27 162 54 144 72 99 36 54 1044 27 36 36
leaf_count=153 63 37725 63 117 954 225 36 27 27 261 243 594 1992 45 450 333 179 90 27 162 54 144 72 99 36 54 1044 27 36 36
internal_value=0.000162802 0.000377083 -0.013125 0.000549536 -0.000645349 -0.00442442 -0.0142728 -0.00534113 -0.00289507 -0.00498232 -0.0158486 -0.0059951 0.000115198 -0.017375 -0.00269854 -0.00351036 -0.0021976 -0.0110556 -0.000509259 -0.00127346 -0.00506395 -0.00571341 -0.000563131 -0.00315071 -0.00387963 -0.0125833 -0.00112675 -0.00734524 -0.008 -0.00128704
internal_weight=45368 44648 720 43100 5375 1548 657 1251 1358 1188 441 765 4017 288 1331 845 458 216 2025 341 387 738 297 423 324 144 1071 63 72 486
internal_count=45368 44648 720 43100 5375 1548 657 1251 1358 1188 441 765 4017 288 1331 845 458 216 2025 341 387 738 297 423 324 144 1071 63 72 486
is_linear=0
shrinkage=0.03


Tree=15
num_leaves=31
num_cat=0
split_feature=9 6 59 42 47 59 26 8 6 41 59 59 7 18 59 6 7 59 30 31 7 59 6 7 59 7 7 33 50 39
split_gain=145.997 42.2417 33.014 13.0647 5.9681 5.06241 4.49729 4.43215 4.02696 3.97531 3.35388 2.90422 2.69091 2.5164 3.25047 2.27389 2.15279 1.954 1.90385 1.80726 1.78271 1.52535 1.50035 1.38906 1.31473 1.48643 1.30975 0.966705 0.936119 0.900658
threshold=20.379052500000004 7.5000000000000009 20.991666666666671 20.418125500000006 20.289100000000001 45.991666666666674 20.125021000000004 3.5000000000000004 10.500000000000002 20.009928500000004 90.991666666666688 45.00833333333334 50.500000000000007 20.179449000000002 5.491666666666668 10.500000000000002 1.5000000000000002 20.991666666666671 20.448393000000006 20.398256500000006 32.500000000000007 8.7500000000000018 12.500000000000002 49.500000000000007 45.50833333333334 52.500000000000007 36.500000000000007 22.084372500000004 21.367702050000002 20.072931500000003
decision_type=2 2 2 2 2 2 2 2 2 2 2 2 2 2 2 2 2 2 2 2 2 2 2 2 2 2 2 2 2 2
left_child=1 2 12 11 10 6 23 -5 16 -7 13 15 -1 29 -15 20 -9 26 -16 -6 21 -2 -10 -4 25 -21 28 -11 -18 -3
right_child=3 4 5 7 19 9 -8 8 22 27 -12 -13 -14 14 18 -17 17 -19 -20 24 -22 -23 -24 -25 -26 -27 -28 -29 -30 -31
leaf_value=-0.0080100603302307189 -0.004050033971558533 -0.0059375405010307159 -0.0059344211100503747 0.005948266879745567 -0.0038971574257536199 -0.0036708873780385769 -0.0060544980169574972 -0.0052001284266820743 -0.00013545454069266327 -0.0017695432790408644 -0.0032293967610306489 -0.0025013881795683673 -0.0075342630960680461 -0.0054510206649472344 -0.002474049552259537 -0.00016436429875960791 -0.0075831699641986825 -0.0017712942313888099 -0.0028237616494646771 -0.0051485320564469408 -0.0030733481371045244 -0.0061889037887284115 0.0016560555230299911 -0.001242116076321221 0.0010390151041519912 -0.0019582028407779447 -0.0022226498810815221 -0.0027049804604001798 0.010425411914167629 -0.0029476659282233089
leaf_weight=186 35 80 63 37707 315 45 35 27 1944 116 57 361 60 30 234 148 201 513 22 261 278 167 1983 26 147 24 180 27 24 72
leaf_count=186 35 80 63 37707 315 45 35 27 1944 116 57 361 60 30 234 148 201 513 22 261 278 167 1983 26 147 24 180 27 24 72
internal_value=0.000172721 -0.0082 -0.0150565 0.000518638 -0.00511957 -0.00857692 -0.0132823 0.000597812 -0.000253695 -0.0054734 -0.00767424 -0.00289004 -0.0232744 -0.00856507 -0.00690734 -0.00412261 -0.0020119 -0.00176634 -0.0058125 -0.00342671 -0.005125 -0.0072698 0.000169404 -0.00969944 -0.00216667 -0.00335526 -0.00332407 -0.00302622 -0.00485 -0.0116842
internal_weight=45368 1800 558 43568 1242 312 124 42579 4872 188 495 989 246 438 286 628 945 918 256 747 480 202 3927 89 432 285 405 143 225 152
internal_count=45368 1800 558 43568 1242 312 124 42579 4872 188 495 989 246 438 286 628 945 918 256 747 480 202 3927 89 432 285 405 143 225 152
is_linear=0
shrinkage=0.03


Tree=16
num_leaves=31
num_cat=0
split_feature=9 6 59 42 51 59 8 27 41 6 59 59 7 7 6 59 59 7 59 59 9 7 6 30 9 59 48 40 7 52
split_gain=140.057 41.8518 31.8135 12.1817 6.13216 4.75358 4.31934 3.99395 3.97531 3.79594 3.49397 3.02705 2.82318 2.18565 2.1422 2.00562 1.90408 1.88803 1.91171 1.76042 1.73611 1.69604 1.50035 1.30677 1.29133 2.09591 1.29121 1.16936 1.03916 1.20591
threshold=20.379052500000004 7.5000000000000009 20.991666666666671 20.418125500000006 20.253555300000006 45.991666666666674 3.5000000000000004 21.186666500000005 20.009928500000004 10.500000000000002 20.991666666666671 45.00833333333334 50.500000000000007 1.5000000000000002 10.500000000000002 20.008333333333336 45.00833333333334 26.500000000000004 5.491666666666668 109.25000000000001 20.179449000000002 49.500000000000007 12.500000000000002 20.379052500000004 20.326224000000003 30.508333333333336 20.086912000000005 20.179449000000002 36.500000000000007 0.26947466811378745
decision_type=2 2 2 2 2 2 2 2 2 2 2 2 2 2 2 2 2 2 2 2 2 2 2 2 2 2 2 2 2 2
left_child=1 2 12 11 10 7 -5 21 -7 13 26 14 -1 -8 17 28 24 18 -2 20 -12 27 -11 -18 -6 -26 -3 -4 29 -15
right_child=3 4 5 6 16 8 9 -9 -10 22 19 -13 -14 15 -16 -17 23 -19 -20 -21 -22 -23 -24 -25 25 -27 -28 -29 -30 -31
leaf_value=-0.0077697585203237596 -0.0048881846551594296 -0.0060136659337494828 -0.0051566903826212821 0.0057698188733532165 -0.0036874634386872222 -0.0035607607566974036 -0.005044124573881586 -0.0060576434391991585 -0.0020924752906849309 -0.00013139090447186419 -0.003024530682723459 -0.0024263465341813504 -0.0073082352031859747 -0.0075269877312921542 -0.00015943336979686487 -0.0026381965442712858 -0.0050426342880181474 -0.0030581743484459308 -0.0065411076596164812 0.00085099330526673884 -0.003223755798698593 -0.0013401301145354618 0.001606373857339136 -0.00017510891718649157 -0.0024550077908383808 -0.0049664595060534269 -0.0055394227939219451 -0.0064234349518792946 -0.0021769267156835992 -0.0069868235700098107
leaf_weight=186 24 24 42 37707 370 45 27 21 143 1944 72 361 60 120 148 540 141 324 132 40 90 32 1983 181 162 28 134 29 166 92
leaf_count=186 24 24 42 37707 370 45 27 21 143 1944 72 361 60 120 148 540 141 324 132 40 90 32 1983 181 162 28 134 29 166 92
internal_value=0.000183962 -0.00801667 -0.0148414 0.000522769 -0.00495048 -0.00848077 0.000599221 -0.0130403 -0.0054734 -0.000241379 -0.00825 -0.00276871 -0.0229085 -0.00194841 -0.00402707 -0.00170098 -0.00360374 -0.005 -0.00771154 -0.00563614 -0.00702778 -0.0106092 0.000169404 -0.00176553 -0.00466071 -0.00667105 -0.0115918 -0.0131937 -0.00337698 -0.00476887
internal_weight=45368 1800 558 43568 1242 312 42579 124 188 4872 360 989 246 945 628 918 882 480 156 202 162 103 3927 322 560 190 158 71 378 212
internal_count=45368 1800 558 43568 1242 312 42579 124 188 4872 360 989 246 945 628 918 882 480 156 202 162 103 3927 322 560 190 158 71 378 212
is_linear=0
shrinkage=0.03


Tree=17
num_leaves=31
num_cat=0
split_feature=9 6 60 42 51 8 7 6 60 27 41 60 60 7 29 60 6 60 7 18 60 7 7 60 7 6 24 21 21 31
split_gain=133.508 40.3618 31.4036 11.2854 5.74783 4.72053 3.97824 3.60666 3.52742 5.32562 3.92045 3.45714 2.48402 2.18565 2.16819 2.14286 1.94004 1.88431 1.78821 1.55593 1.51235 1.38544 1.35 1.2267 1.16464 1.10345 1.03219 1.02194 1.13219 1.45185
threshold=20.379052500000004 7.5000000000000009 25.000000000000004 20.418125500000006 20.253555300000006 3.5000000000000004 50.500000000000007 10.500000000000002 52.500000000000007 21.186666500000005 20.009928500000004 12.500000000000002 52.500000000000007 1.5000000000000002 20.352018500000003 105.00000000000001 10.500000000000002 25.000000000000004 26.500000000000004 20.179449000000002 7.5000000000000009 53.500000000000007 4.5000000000000009 52.500000000000007 36.500000000000007 12.500000000000002 21.407910500000003 20.448393000000006 20.289100000000001 20.352018500000003
decision_type=2 2 2 2 2 2 2 2 2 2 2 2 2 2 2 2 2 2 2 2 2 2 2 2 2 2 2 2 2 2
left_child=1 2 6 12 11 -5 -1 13 9 21 -10 22 16 -7 -6 19 18 24 20 -13 -2 -4 -3 27 26 -9 -15 28 -16 -30
right_child=3 4 8 5 14 7 -8 25 10 -11 -12 15 -14 17 23 -17 -18 -19 -20 -21 -22 -23 -24 -25 -26 -27 -28 -29 29 -31
leaf_value=-0.0075266835533318987 -0.0044798159238462311 -0.0060342233319347106 -0.0054639251738295511 0.0055967243071525985 -0.0036525706888076372 -0.0048928008366651348 -0.0070889881470903703 -0.00012744917733773065 -0.0034539379339964408 -0.0058891127333625028 -0.0020438503971551589 -0.0027466954062382149 -0.0027627081127565346 -0.0071314985822089928 -0.0032446788959786432 0.00082546350610872385 -0.00015105041613096637 -0.0017217203660600813 -0.0029279157889149513 -0.0028579057738402315 -0.0063074400508377846 -0.00121190659261997 -0.005296242875628283 -0.00047269656402996563 -0.002090662583178591 0.0015581826416189769 0.0021892209699513254 -0.0051004358900932426 -0.0018275448015501307 -0.0033060757034499531
leaf_weight=188 27 20 84 37707 324 27 60 1944 45 20 141 114 330 200 132 40 156 510 341 126 135 20 60 186 180 1983 28 150 36 54
leaf_count=188 27 20 84 37707 324 27 60 1944 45 20 141 114 330 200 132 40 156 510 341 126 135 20 60 186 180 1983 28 150 36 54
internal_value=0.000189914 -0.00781667 -0.0145188 0.000520703 -0.00480556 0.000594289 -0.0224758 -0.000284483 -0.00815323 -0.0120726 -0.00554032 -0.008 -0.00264737 -0.00194841 -0.0035017 -0.00642857 -0.00371131 -0.00170098 -0.00461779 -0.0075 -0.00721296 -0.00934615 -0.0135 -0.00236828 -0.00322059 0.000115928 -0.00464474 -0.0033629 -0.00465541 -0.00725
internal_weight=45368 1800 558 43568 1242 42579 248 4872 310 124 186 360 989 945 882 280 659 918 503 240 162 104 80 558 408 3927 228 372 222 90
internal_count=45368 1800 558 43568 1242 42579 248 4872 310 124 186 360 989 945 882 280 659 918 503 240 162 104 80 558 408 3927 228 372 222 90
is_linear=0
shrinkage=0.03


Tree=18
num_leaves=31
num_cat=0
split_feature=9 6 59 42 47 59 27 41 7 25 59 59 18 59 28 59 31 7 30 47 16 56 41 35 26 7 35 6 28 46
split_gain=127.916 39.9807 32.2077 10.2775 5.68027 3.9736 4.66855 4.3083 3.92354 3.30182 2.84068 2.31911 2.24495 2.928 1.8958 4.0274 1.73597 1.5641 1.52142 1.49927 1.48044 1.47946 1.05465 1.0284 0.993782 0.891358 0.888262 0.863079 1.12597 0.858413
threshold=20.379052500000004 7.5000000000000009 20.991666666666671 20.418125500000006 20.289100000000001 45.991666666666674 21.186666500000005 20.009928500000004 50.500000000000007 20.398256500000006 90.991666666666688 45.00833333333334 20.179449000000002 5.491666666666668 20.352018500000003 6.0083333333333337 20.398256500000006 49.500000000000007 20.448393000000006 20.510449500000004 -0.86634900000000037 -0.089594499999998675 21.184329000000002 20.522881500000004 20.009928500000004 53.500000000000007 20.125021000000004 8.5000000000000018 20.472588000000005 21.901981500000002
decision_type=2 2 2 2 2 2 2 2 2 2 2 2 2 2 2 2 2 2 2 2 8 2 2 2 2 2 2 2 2 2
left_child=1 2 8 11 10 6 17 -7 26 21 12 14 -3 -14 15 -2 -6 22 -15 -11 -16 -5 -4 -17 -9 -18 29 28 -13 -1
right_child=3 4 5 9 16 7 -8 24 -10 19 -12 27 13 18 20 23 25 -19 -20 -21 -22 -23 -24 -25 -26 -27 -28 -29 -30 -31
leaf_value=-0.0067470272617495388 -0.0043522264140810098 -0.0048642018034669426 -0.0048380719159278451 -0.0058207026422517931 -0.0035600416791561436 -0.0033503197959765156 -0.0056992407540222747 -0.002185633525145256 -0.0068763185026777 -0.0001527930547831749 -0.0029961186568444294 -0.0020890604075492572 -0.0049624200749123562 -0.0021479082086588693 -0.0045039612930662725 -0.0027223786782305877 -0.0029268550409734641 -0.0011647095798346092 -0.002556190761511464 0.0035611139330467977 -0.0033037773184215334 -0.0043963194312818914 -0.0060668141481080374 -0.0046892875685892671 -0.00041696900724173542 -0.0013787858574150068 -0.0074756781883091568 0.00040830814639085709 -0.0060777975053390772 -0.0068323058751635409
leaf_weight=72 30 152 42 45 315 45 21 48 60 1352 57 77 30 234 22 124 405 32 22 40831 430 351 29 22 95 27 86 251 33 28
leaf_count=72 30 152 42 45 315 45 21 48 60 1352 57 77 30 234 22 124 405 32 22 40831 430 351 29 22 95 27 86 251 33 28
internal_value=0.0002038 -0.00763333 -0.0143038 0.000527589 -0.00463647 -0.00790385 -0.0120726 -0.00515426 -0.0224207 0.000597812 -0.00712879 -0.0024957 -0.00794863 -0.00638287 -0.00359713 -0.00623864 -0.00298494 -0.00944417 -0.00534375 0.000623409 -0.00256858 -0.00212879 -0.0119261 -0.00418151 -0.00260664 -0.00175 -0.0245726 -0.00057964 -0.00279545 -0.02265
internal_weight=45368 1800 558 43568 1242 312 124 188 246 42579 495 989 438 286 628 176 747 103 256 42183 452 396 71 146 143 432 186 361 110 100
internal_count=45368 1800 558 43568 1242 312 124 188 246 42579 495 989 438 286 628 176 747 103 256 42183 452 396 71 146 143 432 186 361 110 100
is_linear=0
shrinkage=0.03


Tree=19
num_leaves=31
num_cat=0
split_feature=18 27 59 22 47 59 31 39 31 47 47 59 21 7 59 56 57 22 22 59 48 7 59 59 53 7 26 26 59 7
split_gain=124.384 31.5336 25.3922 11.0464 5.7319 4.58752 8.72641 4.192 4.00593 2.89223 2.82649 2.66667 2.55683 2.52675 1.83291 1.99451 1.76256 1.73488 1.7176 1.35547 1.42558 1.3435 1.83453 1.18685 1.82707 1.19992 1.5928 1.51852 1.17556 1.12604
threshold=20.179449000000002 20.418125500000006 31.508333333333336 20.125021000000004 20.398256500000006 15.991666666666669 20.072931500000003 21.229045000000003 20.125021000000004 21.184257500000005 20.179449000000002 8.7500000000000018 20.488293500000005 3.5000000000000004 14.008333333333335 0.0027749999999997503 55139.500000000007 20.009928500000004 20.448393000000006 45.00833333333334 20.329245300000004 48.500000000000007 15.008333333333335 90.991666666666688 0.068052305642430352 28.500000000000004 20.179449000000002 20.179449000000002 14.008333333333335 39.500000000000007
decision_type=2 2 2 2 2 2 2 2 2 2 2 2 2 2 2 2 2 2 2 2 2 2 2 2 2 2 2 2 2 2
left_child=2 5 3 9 19 6 -2 8 28 14 11 -8 -6 -7 15 -1 -14 -16 -15 20 -3 -22 -23 25 -25 27 -27 -4 -5 -12
right_child=1 4 23 7 12 13 10 -9 -10 -11 29 -13 16 18 17 -17 -18 -19 -20 -21 21 22 -24 24 -26 26 -28 -29 -30 -31
leaf_value=-0.0065878542716715401 -0.006539015596056021 -0.0031492055216252668 -0.0015697817397776919 -0.0055528126241290148 -0.00058070860466456569 -0.0029230584951125357 -0.0062182687244977239 -0.0072643929542441539 -0.0048308400982721737 -0.007017536393731756 -0.0029890630053838263 -0.0026354639748306695 0.0034296265940298044 -0.0041568310168847685 -0.005478573995114748 -0.0065460016353104866 -0.0068408901163568812 -0.0049591681505663839 -0.0021651826321667372 -0.0010290957416992086 -0.0034639013721922607 -0.0011883771179690161 -0.0050195201362134229 -0.0036825967591283515 0.00088421537578348684 -0.0022283545210248492 0.00059931203240661619 -0.0051692590119091861 -0.0050530676211733346 -0.0013533703242812525
leaf_weight=24 33 38 22 30 1033 30 25 35 60 100 281 50 41348 665 30 28 27 47 349 256 307 43 48 27 57 129 30 56 45 115
leaf_count=24 33 38 22 30 1033 30 25 35 60 100 281 50 41348 665 30 28 27 47 349 256 307 43 48 27 57 129 30 56 45 115
internal_value=0.000203139 0.000402616 -0.0121667 -0.0172199 0.000553712 -0.00380426 -0.00615476 -0.0114265 -0.00902778 -0.0215207 -0.00510987 -0.01045 0.000597906 -0.00266954 -0.0185523 -0.0229038 0.000634713 -0.0156136 -0.00241568 -0.00215462 -0.00317202 -0.00264196 -0.00584341 -0.00588551 -0.00282143 -0.00697152 -0.00547642 -0.0100192 -0.01365 -0.00409848
internal_weight=45368 44648 720 399 43100 1548 504 170 135 229 471 75 42408 1044 129 52 41375 77 1014 692 436 398 91 321 84 237 159 78 75 396
internal_count=45368 44648 720 399 43100 1548 504 170 135 229 471 75 42408 1044 129 52 41375 77 1014 692 436 398 91 321 84 237 159 78 75 396
is_linear=0
shrinkage=0.03


Tree=20
num_leaves=31
num_cat=0
split_feature=9 29 59 6 8 6 55 49 59 59 59 7 6 59 46 59 7 30 25 6 7 59 53 9 31 7 6 6 7 30
split_gain=121.133 29.1465 24.5025 15.7156 8.98961 6.39655 5.29922 4.53953 4.50667 3.67007 3.56507 3.25356 2.70583 3.13716 6.72615 1.73754 1.84043 1.58791 1.54337 1.50969 1.43023 1.40833 1.30261 1.30137 1.18347 1.16502 1.13028 1.04261 1.81191 1.42245
threshold=20.179449000000002 20.398256500000006 43.158333333333339 7.5000000000000009 3.5000000000000004 10.500000000000002 0.089968913438161921 20.104903850000003 14.008333333333335 15.008333333333335 45.00833333333334 8.5000000000000018 9.5000000000000018 6.0083333333333337 20.255118500000005 90.991666666666688 28.500000000000004 20.009928500000004 20.125021000000004 12.500000000000002 4.5000000000000009 29.958333333333339 0.073556645809729634 20.379052500000004 20.289100000000001 8.5000000000000018 8.5000000000000018 8.5000000000000018 27.500000000000004 20.544959000000002
decision_type=2 2 2 2 2 2 2 2 2 2 2 2 2 2 2 2 2 2 2 2 2 2 2 2 2 2 2 2 2 2
left_child=2 7 3 6 -3 10 8 9 -1 -2 27 -5 13 14 24 16 25 -8 -18 -7 -15 -10 -17 -22 -9 -4 -12 29 -29 -6
right_child=1 4 15 11 5 19 17 12 21 -11 26 -13 -14 20 -16 22 18 -19 -20 -21 23 -23 -24 -25 -26 -27 -28 28 -30 -31
leaf_value=-0.0067669896067752301 -0.0064293362493223509 0.0052375825703776611 -0.0024562040583577835 -0.0052043624489095724 -0.0023443623951896917 -0.00021591110415926094 -0.0070419685698114628 -0.0060537917952836334 -0.0048867596263862641 -0.0029568054737391944 -0.0048480655561802481 -0.0023235075707934965 -0.00020394967781685774 -0.0035009502421485474 -0.0018953608949469351 -0.0034270888323595372 -0.0021474643083532101 -0.0068878707362613036 -0.0003140758048869966 0.0013775719845684974 -0.0027912273621386254 -0.00087571261004693089 0.00084455271658267139 -0.0030439039000210119 -0.0027306564837644774 -0.005052194272270695 0.00045515790372554127 -0.0068203717498249066 -0.0043283091828889937 -0.0023799950797783144
leaf_weight=40 26 37725 27 45 86 2097 45 23 40 55 84 80 207 40 80 31 114 130 45 2001 472 20 53 490 20 50 434 409 344 55
leaf_count=40 26 37725 27 45 86 2097 45 23 40 55 84 80 207 40 80 31 114 130 45 2001 472 20 53 490 20 50 434 409 344 55
internal_value=0.000207106 0.00040396 -0.012 -0.01695 0.000542529 -0.000589383 -0.0209591 -0.00383599 -0.01545 -0.0107315 -0.00233074 -0.00813 -0.00341667 -0.00399667 -0.00851829 -0.0058125 -0.00713136 -0.0241071 -0.00528774 1.06149e-05 -0.00344162 -0.01025 -0.00210714 -0.0032105 -0.0180872 -0.0109383 -0.000350386 -0.00347819 -0.00303486 -0.00584574
internal_weight=45368 44648 720 400 43235 5510 275 1413 100 81 1412 125 1332 1125 123 320 236 175 159 4098 1002 60 84 962 43 77 518 894 753 141
internal_count=45368 44648 720 400 43235 5510 275 1413 100 81 1412 125 1332 1125 123 320 236 175 159 4098 1002 60 84 962 43 77 518 894 753 141
is_linear=0
shrinkage=0.03


Tree=21
num_leaves=31
num_cat=0
split_feature=9 29 59 6 8 6 7 59 18 59 59 46 35 9 46 59 7 25 46 6 53 59 59 53 6 7 59 28 28 38
split_gain=114.749 27.7323 22.7656 15.5199 8.37314 5.60973 4.62964 4.84538 4.54237 3.44762 3.16819 10.2516 2.45941 2.41188 2.24101 1.87787 2.65083 1.64618 1.59049 1.50969 1.30261 1.0741 1.02981 1.04665 1.00337 1.65607 1.08043 1.05167 0.992821 0.997658
threshold=20.179449000000002 20.398256500000006 30.008333333333336 7.5000000000000009 3.5000000000000004 10.500000000000002 43.500000000000007 14.008333333333335 20.125021000000004 45.00833333333334 5.991666666666668 20.125021000000004 20.072931500000003 20.379052500000004 20.289100000000001 90.991666666666688 28.500000000000004 20.125021000000004 20.255118500000005 12.500000000000002 0.073556645809729634 20.991666666666671 60.991666666666674 0.40130512892980458 8.5000000000000018 37.500000000000007 5.0083333333333337 20.720426500000006 21.033402500000005 20.448393000000006
decision_type=2 2 2 2 2 2 2 2 2 2 2 2 2 2 2 2 2 2 2 2 2 2 2 2 2 2 2 2 2 2
left_child=2 8 3 6 -3 9 21 -8 -2 24 11 -10 -5 22 -13 16 18 -18 -4 -7 -17 -1 23 -12 27 -26 -27 -6 29 -15
right_child=1 4 15 12 5 19 7 -9 10 -11 13 14 -14 28 -16 20 17 -19 -20 -21 -22 -23 -24 -25 25 26 -28 -29 -30 -31
leaf_value=-0.0068218181638613111 -0.0061281434370934196 0.0050804550932663515 -0.0018884777490101453 -0.0050272979795395797 -0.0021103350430513846 -0.00020943377103446181 -0.0065511548762087202 -0.0045716536650878218 -0.0060310847188768278 -0.0010293213892983767 -0.0023580610350498257 -0.0027861929634608808 -0.0030411063186097718 -0.003343674922552671 -0.0016152506123697243 -0.0033242761673887241 -0.0021205825742836386 -0.00026370435716823918 -0.0050104423754472214 0.0013362448250314074 0.00081921613508519422 -0.0055709358420198939 -0.00416814502815819 -0.0036118051261815336 -0.0065241543933096417 -0.0066793864348237602 -0.00039945427357340063 -0.0024372777257670908 -0.0060796839281093539 -0.00022892800595374898
leaf_weight=134 27 37725 48 52 101 2097 42 60 22 518 383 37 66 369 92 31 120 49 37 2001 53 28 141 36 499 30 224 40 25 281
leaf_count=134 27 37725 48 52 101 2097 42 60 22 518 383 37 66 369 92 31 120 49 37 2001 53 28 141 36 499 30 224 40 25 281
internal_value=0.00021438 0.000405976 -0.0116667 -0.0166846 0.000541141 -0.00055127 -0.0207273 -0.0157206 -0.00372983 -0.00218201 -0.00349242 -0.00759437 -0.00763983 -0.00299089 -0.00436628 -0.00599556 -0.0072815 -0.00510799 -0.0116029 1.06149e-05 -0.00210714 -0.0238796 -0.00444643 -0.00519272 -0.0033104 -0.0028755 -0.000903543 -0.00563298 -0.00178333 -0.00155769
internal_weight=45368 44648 720 382 43235 5510 264 102 1413 1412 1386 151 118 1235 129 338 254 169 85 4098 84 162 560 419 894 753 254 141 675 650
internal_count=45368 44648 720 382 43235 5510 264 102 1413 1412 1386 151 118 1235 129 338 254 169 85 4098 84 162 560 419 894 753 254 141 675 650
is_linear=0
shrinkage=0.03


Tree=22
num_leaves=31
num_cat=0
split_feature=9 27 59 6 8 18 7 59 6 6 59 47 55 59 59 7 59 22 30 6 59 6 25 59 53 7 59 42 6 7
split_gain=104.853 26.7876 20.7025 15.4495 7.13899 4.74452 4.66437 4.29206 4.08078 3.61277 3.71409 4.68891 3.19501 2.90909 2.6782 2.2015 2.18182 1.6893 1.56928 1.52193 1.40364 1.39227 1.48856 1.34127 1.30261 1.05287 1.29463 1.47659 1.23735 1.36548
threshold=20.179449000000002 20.418125500000006 43.158333333333339 7.5000000000000009 3.5000000000000004 20.125021000000004 43.500000000000007 14.008333333333335 10.500000000000002 9.5000000000000018 15.991666666666669 20.179449000000002 0.10675912992440401 8.7500000000000018 45.00833333333334 3.5000000000000004 14.008333333333335 20.398256500000006 20.009928500000004 12.500000000000002 90.991666666666688 8.5000000000000018 20.326224000000003 29.958333333333339 0.073556645809729634 26.500000000000004 5.491666666666668 20.379052500000004 8.5000000000000018 50.500000000000007
decision_type=2 2 2 2 2 2 2 2 2 2 2 2 2 2 2 2 2 2 2 2 2 2 2 2 2 2 2 2 2 2
left_child=2 5 3 6 -3 -2 18 -8 14 10 11 13 -5 -7 25 -12 -15 -13 -1 -10 21 22 -4 -9 -22 -6 27 -27 29 -28
right_child=1 4 20 12 8 9 7 23 19 -11 15 17 -14 16 -16 -17 -18 -19 -20 -21 24 -23 -24 -25 -26 26 28 -29 -30 -31
leaf_value=-0.0066260549678012846 -0.0059442991339806626 0.0049095592322163737 -0.0020256003152498126 -0.0048675074990522961 -0.0064873074883575266 -0.0058062172447839481 -0.0063546202299224318 -0.0045925421011990932 -0.00023399317445943734 -0.00014631382827224522 -0.0032833432385869612 -0.0017958297816680871 -0.0026419145309240382 -0.00082655730705312078 -0.00019239929401991331 -0.0035369025124118701 -0.004784670040279433 -0.0031831198930567248 -0.0065417240094742786 0.001283297813602192 -0.0032245478823670127 0.0031025596859663323 -0.0049261220908803872 -0.00070920284195070005 0.00079463965103264899 -0.0073646017595180519 -0.00061810414047847723 -0.0024425651752978672 -0.0016355141573124118 -0.0022904839881514086
leaf_weight=45 27 37725 183 55 393 33 42 42 2025 297 24 174 70 33 499 805 33 131 125 1992 31 21 32 21 53 20 45 36 307 49
leaf_count=45 27 37725 183 55 393 33 42 42 2025 297 24 174 70 33 499 805 33 131 125 1992 31 21 32 21 53 20 45 36 307 49
internal_value=0.000232234 0.000415383 -0.011125 -0.015675 0.000555064 -0.00345039 -0.01965 -0.0146786 -0.000468785 -0.00323039 -0.00394586 -0.00630446 -0.00693 -0.0119773 -0.0018964 -0.00279644 -0.00834091 -0.00446311 -0.0227206 1.06423e-05 -0.0054375 -0.00662288 -0.00734302 -0.00972619 -0.00210714 -0.00292059 -0.00194147 -0.00621429 -0.00134476 -0.00435638
internal_weight=45368 44648 720 400 43091 1557 275 105 5366 1530 1233 404 125 99 1349 829 66 305 170 4017 320 236 215 63 84 850 457 56 401 94
internal_count=45368 44648 720 400 43091 1557 275 105 5366 1530 1233 404 125 99 1349 829 66 305 170 4017 320 236 215 63 84 850 457 56 401 94
is_linear=0
shrinkage=0.03


Tree=23
num_leaves=31
num_cat=0
split_feature=9 27 59 6 18 21 7 59 47 50 59 48 59 6 59 40 36 59 6 25 56 21 53 54 45 6 31 45 59 50
split_gain=96.7606 24.4916 17.5003 13.4516 4.87743 4.83434 3.80293 3.41213 4.90114 2.84447 2.51591 2.83697 2.22727 1.91151 1.83333 1.57081 1.47 1.40364 1.39227 1.48856 1.32323 1.92063 1.30261 1.1139 1.64565 1.09437 1.0582 1.00425 0.976293 0.947329
threshold=20.179449000000002 20.418125500000006 43.158333333333339 7.5000000000000009 20.125021000000004 20.488293500000005 51.500000000000007 15.991666666666669 20.179449000000002 20.179184050000003 20.491666666666671 20.086912000000005 8.7500000000000018 9.5000000000000018 14.008333333333335 20.398256500000006 22.443400500000003 90.991666666666688 8.5000000000000018 20.326224000000003 -0.12752800000000161 20.523285000000005 0.073556645809729634 0.20575824578680668 20.624511000000002 8.5000000000000018 20.418125500000006 20.501283500000003 60.00833333333334 20.299420000000005
decision_type=2 2 2 2 2 2 2 2 2 2 2 2 2 2 2 2 2 2 2 2 2 2 2 2 2 2 2 2 2 2
left_child=2 4 3 6 -2 13 10 8 12 -5 16 -12 -6 28 -14 -7 -1 18 19 -4 21 -9 -19 26 27 29 -10 -25 -3 -22
right_child=1 5 17 9 7 15 -8 20 23 -11 11 -13 14 -15 -16 -17 -18 22 -20 -21 25 -23 -24 24 -26 -27 -28 -29 -30 -31
leaf_value=-0.0060272752728277243 -0.0057659701599612834 -0.0023369521886593301 -0.0019648323057923226 -0.0047214822740806938 -0.0056320307274403836 -0.0042623600137473884 -0.004457420676888227 -0.0031525292635279801 -0.002438012030830672 -0.0025626570949963583 -0.005164342528029147 -0.0031413357158612586 -0.00080176058784150583 -0.00016820827633925902 -0.0046411299390710309 0.0031170438833732473 -0.0066289032346233496 -0.003127811445895965 0.0030094828953873202 -0.0047783384281540192 -0.0012877443435816659 -0.00089485525324166902 0.00077080046150164591 -0.0031092663014556723 -0.0020421504697808132 -0.0017979148527689738 0.00033176778847417729 -0.00198857447555733 -0.00079310879584625126 -0.0039257986965832809
leaf_weight=147 27 272 183 55 33 405 45 36 135 70 29 26 33 942 33 41375 28 31 21 32 222 48 53 90 78 528 75 21 97 198
leaf_count=147 27 272 183 55 33 405 45 36 135 70 29 26 33 942 33 41375 28 31 21 32 222 48 53 90 78 528 75 21 97 198
internal_value=0.000243476 0.000419414 -0.0106667 -0.01485 -0.00327698 0.000552975 -0.0185591 -0.00305392 -0.00509337 -0.00669 -0.0201196 -0.0145227 -0.0110682 -0.00124085 -0.00788636 0.000609263 -0.0218786 -0.0054375 -0.00662288 -0.00734302 -0.00206977 -0.00567857 -0.00210714 -0.0036109 -0.00528175 -0.00175 -0.00210714 -0.00762838 -0.00307114 -0.00289286
internal_weight=45368 44648 720 400 1557 43091 275 1530 498 125 230 55 99 1311 66 41780 175 320 236 215 1032 84 84 399 189 948 210 111 369 420
internal_count=45368 44648 720 400 1557 43091 275 1530 498 125 230 55 99 1311 66 41780 175 320 236 215 1032 84 84 399 189 948 210 111 369 420
is_linear=0
shrinkage=0.03


Tree=24
num_leaves=31
num_cat=0
split_feature=9 27 59 6 46 59 26 7 50 59 48 46 36 59 53 9 6 25 59 6 7 59 55 55 34 6 50 9 50 45
split_gain=90.0761 22.7942 16.8784 12.0089 4.55232 4.2007 7.51899 3.20436 2.84447 2.30722 2.42317 2.16308 1.50509 1.46834 1.45833 1.40594 1.29791 1.631 1.23369 1.22098 1.22119 1.2114 3.04899 1.65984 1.20098 1.1777 1.28273 1.00777 0.925891 1.64078
threshold=20.179449000000002 20.418125500000006 43.158333333333339 7.5000000000000009 20.521304500000003 15.991666666666669 20.072931500000003 51.500000000000007 20.179184050000003 20.491666666666671 20.086912000000005 20.326224000000003 22.474707000000006 90.991666666666688 0.068052305642430352 20.418125500000006 8.5000000000000018 20.326224000000003 10.491666666666669 9.5000000000000018 3.5000000000000004 6.0083333333333337 0.11972549382115601 0.11972549382115601 20.379052500000004 9.5000000000000018 20.700298700000005 20.289100000000001 20.521333575000003 20.624511000000002
decision_type=2 2 2 2 2 2 2 2 2 2 2 2 2 2 2 2 2 2 2 2 2 2 2 2 2 2 2 2 2 2
left_child=2 5 3 7 25 6 -2 9 -5 12 -11 21 -1 16 -15 18 17 -4 -6 20 -7 22 -8 -23 -25 26 -3 -22 -13 -30
right_child=1 4 13 8 15 19 11 -9 -10 10 -12 28 -14 14 -16 -17 -18 -19 -20 -21 27 23 -24 24 -26 -27 -28 -29 29 -31
leaf_value=-0.0058991399327824601 -0.0057190795820154603 -0.0021690181204948879 -0.0019058873366185783 -0.0045798378058582341 -0.0049323266370783691 -0.0030902670635235721 -0.0039213056763384106 -0.0043236980565815493 -0.0024857773821465208 -0.0050094122521882568 -0.0030470956443854635 -0.00056346755933938926 -0.0062137824235558962 -0.0032877796445103338 0.0004116891118543999 0.0030735691831822007 0.0029191984085257289 -0.0046349882753094285 -0.001990385145397692 0.00015717500166658637 -0.0029183051072783186 -0.00081702601891119097 -0.0031482264522926635 -0.0024483307763904839 -0.0022148797359543677 -0.00022257714316386665 -0.00011265337357475157 -0.0035633571411619117 -0.0019500058908082766 -0.0026448691763208956
leaf_weight=151 33 360 183 55 50 24 30 45 70 29 26 169 24 24 60 40757 21 32 202 203 198 61 32 34 30 1515 207 625 54 64
leaf_count=151 33 360 183 55 50 24 30 45 70 29 26 169 24 24 60 40757 21 32 202 203 198 61 32 34 30 1515 207 625 54 64
internal_value=0.000234879 0.000404632 -0.0102917 -0.0144 0.000533481 -0.00316137 -0.00540385 -0.0179045 -0.00669 -0.019337 -0.0139773 -0.00443987 -0.0210214 -0.00515625 -0.00175 0.000602959 -0.00636864 -0.00706395 -0.00163095 -0.00207857 -0.0025794 -0.00695053 -0.010379 -0.00525 -0.008625 -0.000835014 -0.00200132 -0.00238487 -0.00280401 -0.00484322
internal_weight=45368 44648 720 400 43091 1557 507 275 125 230 55 474 175 320 84 41009 236 215 252 1050 847 187 62 125 64 2082 567 823 287 118
internal_count=45368 44648 720 400 43091 1557 507 275 125 230 55 474 175 320 84 41009 236 215 252 1050 847 187 62 125 64 2082 567 823 287 118
is_linear=0
shrinkage=0.03


Tree=25
num_leaves=31
num_cat=0
split_feature=9 29 59 6 8 6 6 59 7 59 59 31 59 47 55 54 59 26 54 40 55 6 6 7 40 49 9 59 55 9
split_gain=84.3521 20.914 15.4562 12.8585 8.0643 4.71586 3.59349 4.96032 3.12129 2.99101 2.47745 2.06621 2.01612 6.29044 2.81061 1.98989 1.55247 2.40945 1.52489 1.35688 1.2 1.16707 1.05277 1.00233 1.00104 0.997312 0.969886 0.94743 0.862591 1.01016
threshold=20.179449000000002 20.398256500000006 30.008333333333336 7.5000000000000009 3.5000000000000004 12.500000000000002 7.5000000000000009 19.241666666666671 43.500000000000007 45.44166666666667 14.008333333333335 20.125021000000004 5.991666666666668 20.289100000000001 0.11972549382115601 0.25362920335128403 90.991666666666688 21.714592000000003 0.34785169306671598 21.443116000000007 0.084543326603139526 8.5000000000000018 9.5000000000000018 3.5000000000000004 22.443400500000003 20.104903850000003 20.352018500000003 60.991666666666674 0.08029153243276925 20.289100000000001
decision_type=2 2 2 2 2 2 2 2 2 2 2 2 2 2 2 2 2 2 2 2 2 2 2 2 2 2 2 2 2 2
left_child=2 6 3 8 -3 9 7 -2 24 15 -10 -5 13 14 -8 26 17 21 19 -17 -12 -4 23 -14 -1 -18 -6 28 -25 -30
right_child=1 4 16 11 5 -7 12 -9 10 -11 20 -13 22 -15 -16 18 25 -19 -20 -21 -22 -23 -24 27 -26 -27 -28 -29 29 -31
leaf_value=-0.005997684399334598 -0.0057116449847402738 0.004595036271505073 -0.0019680990376072377 -0.0044663667812854845 -0.0025042493547783127 0.0010719401538756656 -0.0051190038208173598 -0.002512923692957652 -0.0058061891668564772 -9.8655636950866206e-05 -0.0041738362495388143 -0.0043193753372704723 -0.0031217730942656235 -0.00039519288745295329 -0.0017171248341744064 -0.0063590538522386858 -0.0029353437131837976 -0.0046015274057646513 -0.0038470119127755544 -0.0012398332536038652 -0.001269594178239444 0.0028413014259369941 -0.00027298607672103086 -0.00024679759749721684 -0.0060714102925490164 0.00030047885286595377 -0.00028531037664249903 -0.0036827566707053568 -0.0020419866550262203 -0.002320613272287139
leaf_weight=123 21 37725 206 47 134 2001 32 42 42 1246 40 71 40 90 25 344 31 24 618 29 20 24 185 72 39 53 1138 249 108 549
leaf_count=123 21 37725 206 47 134 2001 32 42 42 1246 40 71 40 90 25 344 31 24 618 29 20 24 185 72 39 53 1138 249 108 549
internal_value=0.000228267 0.000392537 -0.00995833 -0.0140929 0.000509917 -0.00056216 -0.00319904 -0.0102024 -0.0177727 -0.00122492 -0.0136618 -0.00586017 -0.00287222 -0.00618878 -0.0139868 -0.00187483 -0.0052855 -0.00645472 -0.00288269 -0.00439745 -0.00975 -0.00551087 -0.00246696 -0.00284528 -0.0203611 -0.00175 -0.00108962 -0.00265491 -0.00320062 -0.00354224
internal_weight=45368 44648 720 382 43235 5510 1413 63 264 3509 102 118 1350 147 57 2263 338 254 991 373 60 230 1203 1018 162 84 1272 978 729 657
internal_count=45368 44648 720 382 43235 5510 1413 63 264 3509 102 118 1350 147 57 2263 338 254 991 373 60 230 1203 1018 162 84 1272 978 729 657
is_linear=0
shrinkage=0.03


Tree=26
num_leaves=31
num_cat=0
split_feature=18 40 59 6 8 6 34 59 45 6 7 59 59 59 55 20 28 40 6 35 53 7 59 55 31 59 24 7 23 55
split_gain=77.8029 18.4844 14.1001 12.4769 6.94975 5.52722 4.34002 3.41677 5.34091 3.09391 2.89938 2.59314 2.28724 1.65096 1.63624 1.36111 1.32993 1.28254 1.23278 1.12755 1.07559 1.01587 1.00543 0.989578 1.48384 1.23373 1.30496 0.957025 1.15434 1.38712
threshold=20.179449000000002 20.398256500000006 30.008333333333336 7.5000000000000009 3.5000000000000004 8.5000000000000018 21.431593000000003 15.991666666666669 20.179449000000002 12.500000000000002 51.500000000000007 8.7500000000000018 20.491666666666671 60.00833333333334 0.10549022125143469 20.072931500000003 20.352018500000003 20.772914000000004 8.5000000000000018 22.325332500000005 0.074851969374490415 41.500000000000007 19.241666666666671 0.091852182271519436 20.009928500000004 90.491666666666688 20.125021000000004 26.500000000000004 21.398296000000006 0.33954692890881938
decision_type=2 2 2 2 2 2 2 2 2 2 2 2 2 2 2 2 2 2 2 2 2 2 2 2 2 2 2 2 2 2
left_child=2 7 3 10 -3 6 -6 8 11 13 12 -2 19 17 -5 -14 20 -7 23 -1 -10 -22 -16 -4 -25 -26 -27 -19 -29 -30
right_child=1 4 18 14 5 9 -8 -9 16 -11 -12 -13 15 -15 22 -17 -18 27 -20 -21 21 -23 -24 24 25 26 -28 28 29 -31
leaf_value=-0.0055470422741409862 -0.0051562715077463012 0.0044405514556688525 -0.001671957410956493 -0.0043174232093449701 -0.0023234191827490969 -0.00035676373806505044 -0.0056300919677332688 -0.0023374073957000978 -0.00046795829442988291 0.001039781949259435 -0.0050121980035043043 -0.0033181757389709301 -0.0047384001826264047 0.00019667794414345623 0.0001562279843514718 -0.0024155207735744116 -0.0023396384076454506 -0.0060996494048991224 0.0029982793519212222 -0.0061592143652965566 -0.0028645745661235972 -0.0010519043938761981 -0.0050962657130301575 -0.00099879680829564562 -0.0037913455498713297 -0.0020792476179373643 0.0007591519015758306 -0.00052101307424382687 -0.00052240462845347217 -0.0025904785908052222
leaf_weight=150 34 37725 115 52 126 1414 27 1012 37 2001 44 68 25 838 45 20 277 406 30 22 63 21 26 43 101 24 23 488 87 24
leaf_count=150 34 37725 115 52 126 1414 27 1012 37 2001 44 68 25 838 45 20 277 406 30 22 63 21 26 43 101 24 23 488 87 24
internal_value=0.000241492 0.000399256 -0.00954167 -0.0134688 0.000513539 -0.000491915 -0.00611275 -0.00286111 -0.00489 -0.000328357 -0.017181 -0.0110147 -0.0186048 -0.000898757 -0.00559146 -0.0125833 -0.00332035 -0.0012963 -0.00505357 -0.0201802 -0.00594422 -0.00782143 -0.00263028 -0.00562255 -0.00694634 -0.00837162 -0.00435638 -0.00211567 -0.00135351 -0.00411486
internal_weight=45368 44648 720 384 43136 5411 153 1512 500 5258 261 102 217 3257 123 45 398 2419 336 172 121 84 71 306 191 148 47 1005 599 111
internal_count=45368 44648 720 384 43136 5411 153 1512 500 5258 261 102 217 3257 123 45 398 2419 336 172 121 84 71 306 191 148 47 1005 599 111
is_linear=0
shrinkage=0.03


Tree=27
num_leaves=31
num_cat=0
split_feature=9 40 59 6 8 6 7 59 45 59 59 6 19 31 7 6 59 7 59 25 55 59 21 36 40 59 28 24 49 46
split_gain=74.7512 17.943 16.024 12.7299 6.04301 3.69376 3.15181 3.06619 2.94069 4.54252 1.78838 1.72731 1.60702 1.46686 1.46445 1.38039 1.32548 1.31417 1.24768 1.90989 1.2 1.09767 3.51794 1.08876 0.996892 1.15238 1.0744 1.20417 0.993789 0.987588
threshold=20.179449000000002 20.398256500000006 30.008333333333336 7.5000000000000009 3.5000000000000004 10.500000000000002 43.500000000000007 30.008333333333336 20.179449000000002 8.7500000000000018 14.008333333333335 8.5000000000000018 20.326224000000003 20.125021000000004 47.500000000000007 12.500000000000002 45.00833333333334 36.500000000000007 90.991666666666688 21.715582000000001 0.084543326603139526 15.991666666666669 20.009928500000004 22.474707000000006 21.443116000000007 43.158333333333339 21.037764000000003 21.097700500000006 20.104903850000003 21.391906000000002
decision_type=2 2 2 2 2 2 2 2 2 2 2 2 2 2 2 2 2 2 2 2 2 2 2 2 2 2 2 2 2 2
left_child=2 7 3 6 -3 11 21 8 9 -2 -8 12 -6 -5 18 24 17 -13 19 -4 -12 23 -23 29 -7 26 -26 -28 -20 -1
right_child=1 4 14 13 5 15 10 -9 -10 -11 20 16 -14 -15 -16 -17 -18 -19 28 -21 -22 22 -24 -25 25 -27 27 -29 -30 -31
leaf_value=-0.0055120106760586348 -0.0049638125132572125 0.004307334911998772 -0.0021105374401699977 -0.0042028530815665707 -0.0034025650781933196 -0.00014588711210876466 -0.0054658853018803456 -0.0024873429072816622 -0.0022990657041204775 -0.0030779592504626388 -0.0038826110267982678 -0.0058845172863133746 -0.0023519506854888634 -0.0040544300627036907 -0.0015881068260276655 0.0010085884907816477 -0.00033826961462338559 -0.0013669728093939836 -0.0018414387342903906 -0.0044025356064528445 -0.0011001997321236476 -0.0054839934551756068 -0.0032981160091540007 -0.0056730775378552051 0.0028185913141522113 0.0033314436622557952 -0.00072726182866077237 -0.00055193173015877955 0.00065479739651588657 -0.0055961769247419137
leaf_weight=23 35 37725 166 47 27 1863 42 718 630 129 40 493 117 71 89 2001 452 269 23 20 20 27 35 21 25 84 20 60 40 56
leaf_count=23 35 37725 166 47 27 1863 42 718 630 129 40 493 117 71 89 2001 452 269 23 20 20 27 35 21 25 84 20 60 40 56
internal_value=0.000256039 0.000410679 -0.00933333 -0.0135432 0.000523275 -0.000414295 -0.0172045 -0.00280159 -0.00408627 -0.00766463 -0.0130735 -0.00176841 -0.004875 -0.0053517 -0.00457544 3.94152e-05 -0.00139992 -0.00216339 -0.00575602 -0.00699194 -0.00975 -0.0198056 -0.0166694 -0.02175 -0.00050731 -0.00258333 -0.00467857 -0.006375 -0.00210714 -0.0201361
internal_weight=45368 44648 720 382 43136 5411 264 1512 794 164 102 1358 144 118 338 4053 1214 762 249 186 60 162 62 100 2052 189 105 80 63 79
internal_count=45368 44648 720 382 43136 5411 264 1512 794 164 102 1358 144 118 338 4053 1214 762 249 186 60 162 62 100 2052 189 105 80 63 79
is_linear=0
shrinkage=0.03


Tree=28
num_leaves=31
num_cat=0
split_feature=9 29 59 6 8 6 59 6 7 37 59 30 54 42 59 59 47 59 55 22 59 53 6 40 59 55 7 23 45 46
split_gain=67.2765 16.0123 14.5034 13.8096 5.63129 4.08881 4.96032 3.37048 2.64005 2.61834 2.13354 2.94646 2.27101 2.05076 1.80808 1.54345 2.56645 2.9515 2.50213 1.70443 1.6364 2.13905 1.34834 1.55164 1.20714 0.974436 0.88996 0.821267 0.774815 0.772907
threshold=20.179449000000002 20.398256500000006 29.958333333333339 7.5000000000000009 3.5000000000000004 7.5000000000000009 19.241666666666671 12.500000000000002 43.500000000000007 20.179449000000002 45.991666666666674 21.392617500000004 0.11106793209310752 20.179449000000002 60.00833333333334 15.991666666666669 20.255118500000005 6.0083333333333337 0.11874697313251464 20.980543000000001 14.008333333333335 0.085199604461934003 10.500000000000002 21.443116000000007 14.008333333333335 0.086503208427597567 8.5000000000000018 20.009928500000004 21.038257500000004 21.344128500000004
decision_type=2 2 2 2 2 2 2 2 2 2 2 2 2 2 2 2 2 2 2 2 2 2 2 2 2 2 2 2 2 2
left_child=2 5 3 9 -3 6 -2 14 10 24 11 12 -4 26 22 16 17 18 -7 -18 -19 -22 29 -24 25 -1 -12 -15 -25 -6
right_child=1 4 8 -5 7 15 -8 -9 -10 -11 13 -13 -14 27 -16 -17 19 20 -20 -21 21 -23 23 28 -26 -27 -28 -29 -30 -31
leaf_value=-0.0053395327714940164 -0.0053149785879857414 0.0041947485923298083 -0.003438404529350085 -0.0041708834669164536 -0.0031929248371076512 -0.0047102673646182199 -0.0021957941870821705 0.000978330836058241 -0.0014939400518832967 -0.0056119932402264707 -0.0015884902825667358 -0.0049713339717164925 -0.0019626630769204044 -0.0018907997485286456 0.0002153241566781194 -0.0022217602581668795 -0.0008120581335998296 -6.8598525554170329e-05 -0.0015914240356947728 -0.0027671867479662359 -0.0011096356296685283 -0.0029821763745426638 -0.00019290112693639891 -0.00066858827561990354 -0.0045938555288851241 -0.0046788857641270106 -0.0022671585733571348 -0.00035006293899114092 -0.00043981957545867088 -0.0068036679646121673
leaf_weight=32 21 37725 38 100 937 27 42 2001 125 80 21 24 44 24 900 913 250 51 20 42 20 27 1412 26 70 38 46 78 112 122
leaf_count=32 21 37725 38 100 937 27 42 2001 125 80 21 24 44 24 900 913 250 51 20 42 20 27 1412 26 70 38 46 78 112 122
internal_value=0.000263975 0.000410679 -0.00883333 -0.0135938 0.000513386 -0.00273195 -0.0102024 -0.000382486 -0.005025 -0.0177955 -0.00666818 -0.0100047 -0.00729878 -0.00457544 -0.00094279 -0.00238333 -0.00384954 -0.00711207 -0.0132926 -0.00222945 -0.00414796 -0.00818617 -0.00134276 -0.000779032 -0.0153214 -0.0181071 -0.00865299 -0.00189706 -0.00381522 -0.00216785
internal_weight=45368 44648 720 320 43235 1413 63 5510 400 220 275 106 82 169 3509 1350 437 145 47 292 98 47 2609 1550 140 70 67 102 138 1059
internal_count=45368 44648 720 320 43235 1413 63 5510 400 220 275 106 82 169 3509 1350 437 145 47 292 98 47 2609 1550 140 70 67 102 138 1059
is_linear=0
shrinkage=0.03


Tree=29
num_leaves=31
num_cat=0
split_feature=9 29 59 6 8 6 59 6 7 7 59 59 38 59 6 59 45 6 40 22 7 59 34 28 31 49 7 59 19 46
split_gain=62.5498 15.3966 14.2506 12.7119 5.43638 4.15884 4.96032 3.25935 2.89516 2.55314 2.0948 1.84091 3.45544 1.76861 1.68016 1.61425 2.06144 1.57395 1.59894 1.2883 1.15034 0.988128 1.12629 0.97071 1.07002 0.766747 0.755872 1.30797 2.5536 0.732437
threshold=20.179449000000002 20.398256500000006 29.958333333333339 7.5000000000000009 3.5000000000000004 7.5000000000000009 19.241666666666671 12.500000000000002 39.500000000000007 43.500000000000007 15.991666666666669 43.158333333333339 20.072931500000003 45.00833333333334 9.5000000000000018 15.991666666666669 20.125021000000004 10.500000000000002 21.443116000000007 20.959494500000005 29.500000000000004 90.991666666666688 20.009928500000004 21.037764000000003 21.376823500000004 20.104903850000003 53.500000000000007 19.241666666666671 20.072931500000003 21.344128500000004
decision_type=2 2 2 2 2 2 2 2 2 2 2 2 2 2 2 2 2 2 2 2 2 2 2 2 2 2 2 2 2 2
left_child=2 5 3 8 -3 6 -2 13 10 11 -1 12 -4 17 15 16 -7 29 -19 20 -18 22 -13 -20 -25 -23 27 28 -10 -6
right_child=1 4 9 -5 7 14 -8 -9 26 -11 -12 21 -14 -15 -16 -17 19 18 23 -21 -22 25 -24 24 -26 -27 -28 -29 -30 -31
leaf_value=-0.005483491136648911 -0.0051555292303461613 0.0040689061345599237 -0.0034275280419273592 -0.0040457569629089784 -0.0033239885239430915 -0.0042893775214440611 -0.0021299203614697426 0.00094898091097647349 -0.004526703205506505 -0.0014491218503267943 -0.0042868792771960339 -0.00097525073715128065 -0.0041424690842990523 -3.5552067629606933e-05 5.0443246505552398e-05 -0.0026726326703165951 -0.0018140429760868052 -0.00016506345018180193 0.0028100131020010579 -0.0026713365060877701 -0.0009893407505128988 -0.0017709891969322411 -0.0029859173119061197 -0.00040221275380923751 -0.00074886994446867329 0.00062699363284179346 -0.0042537459919749837 -0.0047188935451715651 -0.0040508444519370941 -0.0068436940364973329
leaf_weight=77 21 37725 23 100 791 54 42 2001 42 125 27 42 32 1296 207 769 151 1202 28 48 121 21 119 55 34 38 24 23 27 103
leaf_count=77 21 37725 23 100 791 54 42 2001 42 125 27 42 32 1296 207 769 151 1202 28 48 121 21 119 55 34 38 24 23 27 103
internal_value=0.00027191 0.000413367 -0.0085 -0.0132188 0.00051408 -0.00266826 -0.0102024 -0.000366152 -0.01725 -0.004725 -0.0208846 -0.00634091 -0.01125 -0.000917142 -0.00231667 -0.00276706 -0.00438369 -0.00143256 -0.000773882 -0.00346875 -0.00266912 -0.00511364 -0.00633075 -0.00412179 -0.00565449 -0.00179237 -0.0139914 -0.0152283 -0.013163 -0.00240436
internal_weight=45368 44648 720 320 43235 1413 63 5510 220 400 104 275 55 3509 1350 1143 374 2213 1319 320 272 220 161 117 89 59 116 92 69 894
internal_count=45368 44648 720 320 43235 1413 63 5510 220 400 104 275 55 3509 1350 1143 374 2213 1319 320 272 220 161 117 89 59 116 92 69 894
is_linear=0
shrinkage=0.03


Tree=30
num_leaves=31
num_cat=0
split_feature=9 59 27 55 50 8 49 59 7 59 30 59 28 59 45 41 59 55 59 21 7 47 34 26 7 28 46 22 36 41
split_gain=59.1636 14.0625 14.0221 10.812 5.4766 5.44747 2.97458 3.01546 2.57473 2.0948 1.68091 2.40455 3.25471 1.63108 2.24101 1.32021 1.12667 1.08 0.8241 0.804496 0.808116 0.893142 0.892303 0.729167 0.697278 0.982651 0.798076 0.692366 0.686025 0.676407
threshold=20.179449000000002 29.958333333333339 20.398256500000006 0.70331893331508677 20.092961000000003 3.5000000000000004 20.104903850000003 15.008333333333335 43.500000000000007 15.991666666666669 20.009928500000004 43.158333333333339 20.226969500000006 15.991666666666669 20.179449000000002 20.398256500000006 8.7500000000000018 0.11739035200782647 90.991666666666688 20.255118500000005 36.500000000000007 20.352018500000003 20.488293500000005 20.179449000000002 28.500000000000004 20.125021000000004 20.179449000000002 20.289100000000001 20.125021000000004 22.184999500000004
decision_type=2 2 2 2 2 2 2 2 2 2 2 2 2 2 2 2 2 2 2 2 2 2 2 2 2 2 2 2 2 2
left_child=1 3 6 4 28 -4 7 -2 10 29 -3 12 -12 14 16 -7 -8 -18 24 -16 22 -22 -21 -20 26 -26 -13 -6 -1 -5
right_child=2 8 5 9 27 15 13 -9 -10 -11 11 18 -14 -15 19 -17 17 -19 23 20 21 -23 -24 -25 25 -27 -28 -29 -30 -31
leaf_value=-0.0045082848476269187 -0.0049408308571566627 -0.0012345531334815899 0.0039302052228321217 -0.0052593002587248338 -0.0037913915981198803 -0.0034768678314370588 -0.0044596524896584914 -0.0019291153201289458 -0.0014056481948169516 -0.0041582728988801684 -0.0044754703981324242 -0.0009086190231274682 -0.0015162030966402759 -0.0025371756984282961 0.00050237134286021498 -0.00018912723286439387 -0.0010197749765630713 -0.0017860691195377163 -0.0017442637119599175 -0.0019220428135239475 -0.0022352967940059984 0.00087121815209096796 -0.0023042310420471625 0.00051487517411492531 -0.0017005408282845559 -1.2981604809160026e-05 -0.0037545714597156583 -0.0036976476465446512 -0.0042194871491126251 -0.0050124455091714558
leaf_weight=92 26 55 37725 44 60 656 25 55 125 27 21 30 23 876 51 4890 30 20 20 118 44 70 62 28 30 27 41 44 20 33
leaf_count=92 26 55 37725 44 60 656 25 55 125 27 21 30 23 876 51 4890 30 20 20 118 44 70 62 28 30 27 41 44 20 33
internal_value=0.000281167 -0.00825 0.000418742 -0.0129375 -0.00911111 0.000513583 -0.00256155 -0.00813889 -0.0045 -0.0208846 -0.00612273 -0.00729545 -0.0135682 -0.00221296 -0.00375 -0.000364317 -0.00845 -0.00585 -0.00572727 -0.00272826 -0.00333163 -0.00135526 -0.00458333 -0.002375 -0.00698438 -0.00451316 -0.00896831 -0.00415385 -0.0137143 -0.0234058
internal_weight=45368 720 44648 320 216 43271 1377 81 400 104 275 220 44 1296 420 5546 75 50 176 345 294 114 180 48 128 57 71 104 112 77
internal_count=45368 720 44648 320 216 43271 1377 81 400 104 275 220 44 1296 420 5546 75 50 176 345 294 114 180 48 128 57 71 104 112 77
is_linear=0
shrinkage=0.03


Tree=31
num_leaves=31
num_cat=0
split_feature=9 29 59 6 8 6 59 6 7 7 59 43 59 33 59 6 40 59 47 59 54 22 59 53 19 38 45 28 31 22
split_gain=56.9555 13.6284 13.3834 12.8196 5.20419 3.85003 4.19841 3.11408 2.84524 2.46768 2.41762 1.65456 2.025 1.97285 1.63384 1.53247 1.64269 1.34244 2.14851 2.35828 2.20731 1.832 1.37826 1.78759 1.18224 0.986278 1.02103 0.97071 1.07002 0.858766
threshold=20.179449000000002 20.398256500000006 29.958333333333339 7.5000000000000009 3.5000000000000004 7.5000000000000009 19.241666666666671 12.500000000000002 39.500000000000007 43.500000000000007 15.991666666666669 20.009928500000004 79.658333333333346 21.189034500000002 45.00833333333334 10.500000000000002 21.443116000000007 15.991666666666669 20.255118500000005 6.0083333333333337 0.10647925772125012 20.980543000000001 14.008333333333335 0.085199604461934003 20.072931500000003 20.448393000000006 20.352018500000003 21.037764000000003 21.376823500000004 20.289100000000001
decision_type=2 2 2 2 2 2 2 2 2 2 2 2 2 2 2 2 2 2 2 2 2 2 2 2 2 2 2 2 2 2
left_child=2 5 3 8 -3 6 -2 14 10 11 -1 -4 13 24 15 -6 -17 18 19 20 -7 -20 -21 -24 -13 26 -19 -18 -29 -5
right_child=1 4 9 29 7 17 -8 -9 -10 -11 -12 12 -14 -15 -16 16 27 25 21 22 -22 -23 23 -25 -26 -27 -28 28 -30 -31
leaf_value=-0.0051612073947877261 -0.0048526384277211036 0.003828932793838149 -0.0031166175699592251 -0.0036896119049777834 -0.0043146548586521722 -0.0041431341350534751 -0.002008149291021858 0.00092618530063312218 -0.0044606404921899295 -0.001363478748972494 -0.0040335247119137468 -0.0019956036108005758 -0.0010691330633368376 -0.0041170838081818146 -2.8811688614777893e-05 -0.00015443772969036908 0.0027313865259270148 -0.0011455977888636846 -0.00067561381590344922 3.5715586580724754e-05 -0.0031121152527279522 -0.0025463697659388706 -0.0009499030959130776 -0.0027249821772648147 -0.0011270072392700946 -8.2049430831989238e-05 -0.0044504339450650602 -0.00038447255420903285 -0.00072073002914862659 -0.0035867182171483505
leaf_weight=77 21 37725 35 56 894 21 42 2001 116 125 27 27 96 45 1296 1202 28 373 250 51 26 42 20 27 72 296 244 55 34 44
leaf_count=77 21 37725 35 56 894 21 42 2001 116 125 27 27 96 45 1296 1202 28 373 250 51 26 42 20 27 72 296 244 55 34 44
