tree
version=v4
num_class=1
num_tree_per_iteration=1
label_index=0
max_feature_idx=60
objective=quantile
feature_names=object_id canonical_label display_x display_y anchor_x anchor_y hour minute day_of_week source_temp people_count_total people_count_within_1m people_count_within_2m people_count_within_3m nearest_person_distance mean_person_distance nearest_person_dx nearest_person_dy temp_lag_1 temp_lag_2 temp_lag_3 temp_lag_4 temp_lag_5 temp_lag_6 temp_lag_7 temp_lag_8 temp_lag_9 temp_lag_10 temp_lag_11 temp_lag_12 temp_lag_13 temp_lag_14 temp_lag_15 temp_lag_16 temp_lag_17 temp_lag_18 temp_lag_19 temp_lag_20 temp_lag_21 temp_lag_22 temp_lag_23 temp_lag_24 temp_lag_25 temp_lag_26 temp_lag_27 temp_lag_28 temp_lag_29 temp_lag_30 temp_roll_mean_5 temp_roll_mean_10 temp_roll_mean_20 temp_roll_mean_30 temp_roll_std_5 temp_roll_std_10 temp_roll_std_20 temp_roll_std_30 temp_delta_1 seconds_since_previous observations_in_frame target_minutes_ahead requested_horizon_min
feature_infos=-1:3:2:1:0 none [7.3449410000000004:11.689842000000001] [3.324211:5.1445800000000004] [7.3449410000000004:11.689842000000001] [3.324211:5.1445800000000004] [6:21] [0:59] [1:3] [20.469877:27.153057] [0:5] [0:2] [0:3] [0:4] [0.070291688982410477:8.7828476209601298] [0.13520276365518533:8.7828476209601298] [-5.2713369999999991:8.6284930000000006] [-2.0977819999999996:4.1759320000000004] [20.469877:27.153057] [20.469877:27.153057] [20.469877:27.153057] [20.469877:27.153057] [20.469877:27.153057] [20.469877:27.153057] [20.469877:27.153057] [20.469877:27.153057] [20.469877:27.153057] [20.469877:27.153057] [20.469877:27.153057] [20.469877:27.153057] [20.469877:27.153057] [20.469877:27.153057] [20.469877:27.153057] [20.469877:27.153057] [20.469877:27.153057] [20.469877:27.153057] [20.469877:27.153057] [20.469877:27.153057] [20.469877:27.153057] [20.469877:27.153057] [20.469877:27.153057] [20.469877:27.153057] [20.469877:27.153057] [20.469877:27.153057] [20.469877:27.153057] [20.469877:27.153057] [20.469877:27.153057] [20.469877:27.153057] [20.572794999999999:25.119928399999999] [20.600939399999998:24.981561249999999] [20.652165849999999:24.896437874999997] [20.679046000000003:24.869136649999998] [0.0043190245972026193:2.3336181592862935] [0.012673032114814605:1.8252943047361405] [0.029055885491722926:1.7833032743844845] [0.032262558512993318:1.7768388568086515] [-4.6128439999999991:4.6459690000000009] [28:329309] [1:3] [5:15] [5:10]
tree_sizes=2665 2828 2808 2800 2824 2813 2822 2828 2820 2830 2825 2836 2817 2826 2821 2848 2826 2842 2859 2848 2853 2859 2843 2865 2870 2865 2865 2894 2877 2863 2850 2874 2870 2869 2882 2877 2858 2872 2889 2889 2871 2857 2871 2884 2882 2878 2878 2891 2871 2892 2887 2872 2894 2903 2874 2864 2912 2901 2917 2911 2897 2894 2900 2892 2927 2917 2902 2898 2907 2936 2915 2909 2927 2938

Tree=0
num_leaves=31
num_cat=1
split_feature=48 47 4 50 9 54 28 51 6 59 39 31 9 17 34 15 49 8 0 54 28 16 28 38 54 18 32 42 34 52
split_gain=53.5475 17.2408 17.1053 10.0623 4.81641 4.09989 3.90179 2.60277 5.06978 2.87843 2.70577 2.26397 1.94076 3.09612 2.02915 1.90117 1.75138 1.69408 3.18734 2.57304 1.96817 1.69259 1.62969 1.52972 2.85814 5.08132 2.79905 1.9855 1.64274 1.98183
threshold=23.531127700000003 21.582351000000003 7.9570635000000012 23.184668775000002 23.464097000000006 0.20132461828591608 23.520942500000004 23.673183958333336 12.500000000000002 5.0083333333333337 23.947186500000004 24.088919000000004 23.821539000000005 -0.3818905000000003 22.543096500000004 1.4997623132155493 23.513491600000005 2.5000000000000004 0 0.39167163454861659 23.494190500000006 -1.0195819999999995 24.149175500000002 23.641263000000006 0.30058017517680508 23.699692750000004 24.527168500000005 24.535863000000003 23.787500000000005 0.41869025308217994
decision_type=2 2 2 2 2 2 2 2 2 2 2 2 2 10 2 8 2 2 1 2 2 8 2 2 2 2 2 2 2 2
left_child=3 2 -2 12 11 6 -6 17 -9 -10 16 -3 -1 14 -14 -7 -11 21 19 20 -19 -5 -13 24 25 -17 27 -26 29 -25
right_child=1 4 -4 7 5 15 -8 8 9 10 -12 22 13 -15 -16 23 -18 18 -20 -21 -22 -23 -24 28 26 -27 -28 -29 -30 -31
leaf_value=24.15383616974416 24.195641555786132 24.178436092103567 24.167308512339524 24.195690822601318 24.176306877136231 24.20499152611745 24.195641555786132 24.176887999306008 24.185938829913095 24.19689695051709 24.183654428367777 24.195331307087383 24.198966030809871 24.176403946896905 24.179012330684476 24.180368556976319 24.185411943075806 24.184823857824686 24.165226037887194 24.181277790069579 24.180368556976319 24.17385314567035 24.184389045226375 24.193589630126954 24.20238989484551 24.190733184814452 24.190385524745952 24.192274878451098 24.182609780632756 24.198417737008505
leaf_weight=23766 50 444 26 167 20 20 29 130 42 26 32 50 22 266 24 35 21 46 188 213 24 728 38 123 505 56 37 21 260 85
leaf_count=23766 50 444 26 167 20 20 29 130 42 26 32 50 22 266 24 35 21 46 188 213 24 728 38 123 505 56 37 21 260 85
internal_value=24.1714 24.1764 24.1904 24.1711 24.1758 24.1769 24.1854 24.1734 24.1762 24.1806 24.184 24.1735 24.1709 24.1733 24.1805 24.1765 24.1886 24.1729 24.1743 24.1762 24.1814 24.1721 24.1779 24.1764 24.1773 24.1822 24.1765 24.1759 24.1751 24.177
internal_weight=27494 1799 76 25695 1723 1191 49 1617 251 121 79 532 24078 312 46 1142 47 1366 471 283 70 895 88 1122 654 91 563 526 468 208
internal_count=27494 1799 76 25695 1723 1191 49 1617 251 121 79 532 24078 312 46 1142 47 1366 471 283 70 895 88 1122 654 91 563 526 468 208
cat_boundaries=0 1
cat_threshold=10
is_linear=0
shrinkage=1


Tree=1
num_leaves=31
num_cat=1
split_feature=48 55 48 50 54 6 7 7 54 51 2 51 45 56 49 6 51 39 53 37 32 0 47 55 40 37 35 16 6 38
split_gain=48.7499 19.0165 11.1375 8.23861 5.04186 6.807 4.32645 3.05849 4.39406 2.62049 3.33187 4.99625 2.89771 2.65547 2.17286 1.94212 2.55799 2.55011 2.5756 1.83825 1.83417 1.7291 1.68564 1.65038 1.46653 1.52426 1.39027 1.56418 1.36993 1.36098
threshold=23.531127700000003 1.101339853262193 24.509698850000003 23.184668775000002 0.26717658133878086 9.5000000000000018 15.500000000000002 36.500000000000007 0.83694392504347481 23.610532508333339 7.9570635000000012 23.739461466666672 23.609751000000003 -0.058787500000001096 23.672974200000002 10.500000000000002 23.673183958333336 23.947186500000004 0.35297401082028251 23.556929500000003 23.709066500000002 0 23.205446500000004 0.36925776101165969 24.154200500000005 23.527734000000006 24.224544500000004 0.74642000000000019 13.500000000000002 22.469739000000004
decision_type=2 2 2 2 2 2 2 2 2 2 2 2 2 2 2 2 2 2 2 2 2 1 2 2 2 2 2 8 2 2
left_child=3 4 -3 23 5 6 14 8 9 29 -11 12 19 -14 -2 -5 -17 18 -18 -12 -20 26 -7 -1 25 -13 -9 -28 -27 -6
right_child=1 2 -4 15 7 22 -8 21 -10 10 11 24 13 -15 -16 16 17 -19 20 -21 -22 -23 -24 -25 -26 28 27 -29 -30 -31
leaf_value=-0.023675963845986914 0.0051006842013335474 0.013987251613790547 0.023471688079834008 -0.0015428879482234591 0.033761687771566358 0.0086568792343139477 0.023471688079834008 0.016229057946004558 0.0274246867944586 -0.00054050755232740524 0.006944809105356449 0.040109333428072207 0.030053807346273002 0.039725517518214196 0.023471688079834008 0.012691732706447032 0.041292642631928445 0.010104537181924163 0.0026490700190954894 0.028445198717154303 0.015969048243639969 -0.004083335429434223 -0.0090469243236020024 -0.002565118027745754 0.0058190659593032644 0.018240652434636417 0.01807383886171033 0.0099569913629353121 0.016817982223385017 0.017911135721638331
leaf_weight=16252 20 20 44 302 31 20 41 510 33 62 29 43 22 25 50 1140 25 83 29 39 38 165 62 7826 92 124 38 43 49 237
leaf_count=16252 20 20 44 302 31 20 41 510 33 62 29 43 22 25 50 1140 25 83 29 39 38 165 62 7826 92 124 38 43 49 237
internal_value=-2.1113e-05 0.00475306 0.0208125 -0.00035537 0.00416066 0.00873187 0.0135743 0.00358852 0.00489886 0.00442928 0.00574485 0.00669681 0.0120326 0.0177606 0.0181071 0.00171753 0.00221578 0.00559286 0.00903261 0.00807353 0.00596642 0.00222619 0.00217683 -0.000494579 0.00470455 0.00605556 0.00295632 0.00665741 0.00479913 0.00204851
internal_weight=27494 1799 64 25695 1735 193 111 1542 786 753 485 423 115 47 70 1617 1315 175 92 68 67 756 82 24078 308 216 591 81 173 268
internal_count=27494 1799 64 25695 1735 193 111 1542 786 753 485 423 115 47 70 1617 1315 175 92 68 67 756 82 24078 308 216 591 81 173 268
cat_boundaries=0 1
cat_threshold=10
is_linear=0
shrinkage=0.03


Tree=2
num_leaves=31
num_cat=1
split_feature=48 55 50 54 24 7 54 9 53 33 48 21 8 0 7 55 59 44 16 52 20 53 42 53 17 59 34 8 54 7
split_gain=46.9542 19.7335 9.59135 7.5276 6.13587 3.1978 4.30851 2.86012 2.59652 3.76783 3.45538 2.68533 2.40412 4.29112 2.88454 4.63948 3.25 2.25 2.04564 2.3862 1.98707 1.86667 1.59877 1.52625 1.33421 1.70961 1.22817 1.67202 1.24219 1.21466
threshold=23.638247150000002 1.101339853262193 23.184668775000002 0.20621991745462609 24.525064500000003 35.500000000000007 0.83694392504347481 24.085761000000002 0.58187366253555473 23.887775500000004 23.950750600000003 24.297412000000005 2.5000000000000004 0 16.500000000000004 0.46293246917006475 8.7500000000000018 23.678235500000003 -2.3994169999999992 0.47660791534777608 22.923137500000006 0.29256249532791828 23.891281000000003 0.51417237508956315 -0.35699799999999987 7.491666666666668 23.607838000000005 1.5000000000000002 0.45326958906722908 45.500000000000007
decision_type=2 2 2 2 2 2 2 2 2 2 2 2 2 1 2 2 2 2 10 2 2 2 2 2 10 2 2 2 2 2
left_child=2 3 20 7 -3 6 8 -2 9 10 18 17 29 14 24 16 -16 21 -5 26 -1 -12 -17 -24 -14 -26 28 -28 -20 -4
right_child=1 4 12 5 -6 -7 -8 -9 -10 -11 11 -13 13 -15 15 22 -18 -19 19 -21 -22 -23 23 -25 25 -27 27 -29 -30 -31
leaf_value=-0.020329547719705302 0.012020907450577916 0.017544534209699036 0.018406425908520277 0.0061543668941237764 0.022767543466079197 0.012941997709225493 0.026601946190624871 0.022767537437438996 0.025722054497269324 0.0097388306114319974 0.01816334866426569 0.012983267711530017 -0.0010620525575976278 -0.0065096942201041579 0.0086544508557205666 0.0076735613794270919 0.037780587864586872 0.024724722350729342 0.03893177208235768 0.013429967662482252 0.003191608591329853 0.018085296945242413 0.0088283775790009011 0.013070594718154999 0.017457693841158316 0.0037194701567804188 0.040120664977476711 0.0057131665273032267 0.015160453343023007 -0.0023642034911112472
leaf_weight=21259 21 20 820 83 41 620 32 27 153 212 20 50 114 222 36 123 39 24 40 36 2871 28 39 24 37 39 20 28 26 390
leaf_count=21259 21 20 820 83 41 620 32 27 153 212 20 50 114 222 36 123 39 24 40 36 2871 28 39 24 37 39 20 28 26 390
internal_value=-3.09333e-05 0.00516492 -0.000326749 0.00444718 0.021873 0.00403863 0.00535372 0.016125 0.004875 0.00581085 0.0077007 0.011791 0.0017354 0.00317273 0.00479772 0.00695115 0.01325 0.0155 0.00555901 0.00765 -0.00048767 0.01175 0.00441129 0.00829762 0.00209211 0.00517105 0.00977632 0.006125 0.0124318 0.000935951
internal_weight=27494 1481 26013 1420 61 1372 752 48 720 567 355 122 1883 673 451 261 75 72 233 150 24130 48 186 63 190 76 114 48 66 1210
internal_count=27494 1481 26013 1420 61 1372 752 48 720 567 355 122 1883 673 451 261 75 72 233 150 24130 48 186 63 190 76 114 48 66 1210
cat_boundaries=0 1
cat_threshold=10
is_linear=0
shrinkage=0.03


Tree=3
num_leaves=31
num_cat=1
split_feature=48 55 49 54 49 7 54 8 0 9 6 53 33 48 21 43 16 38 6 50 29 53 34 6 7 29 35 20 15 31
split_gain=45.2382 19.9735 8.87268 7.6644 6.13587 3.14766 3.67909 3.10993 3.42126 2.86012 2.55381 2.47324 3.52006 3.74684 2.68533 2.25 2.15971 1.9438 1.90914 2.13019 2.06231 1.86667 1.67014 1.60346 2.60395 2.26188 1.46832 1.24745 1.1727 1.22824
threshold=23.638247150000002 1.101339853262193 23.087494500000002 0.20621991745462609 24.01533255 35.500000000000007 0.83694392504347481 2.5000000000000004 0 24.085761000000002 13.500000000000002 0.58187366253555473 23.887775500000004 23.950750600000003 24.297412000000005 23.675881500000006 -2.3994169999999992 23.239955000000005 10.500000000000002 23.939538250000005 24.225050000000003 0.29256249532791828 23.471403000000006 12.500000000000002 22.500000000000004 23.580271500000006 23.497566000000003 22.838808000000004 2.7865944720027738 23.498694500000003
decision_type=2 2 2 2 2 2 2 2 1 2 2 2 2 2 2 2 10 2 2 2 2 2 2 2 2 2 2 2 8 2
left_child=2 3 27 9 -3 6 11 -4 -9 -2 23 12 13 16 15 21 -5 -18 -7 -20 -21 -15 -19 28 -25 -26 -24 -1 -10 -30
right_child=1 4 7 5 -6 18 -8 8 10 -11 -12 -13 -14 14 -16 -17 17 22 19 20 -22 -23 26 24 25 -27 -28 -29 29 -31
leaf_value=-0.020078088674086274 0.011660280227060617 0.017018198183408103 0.0066242056650941267 0.0059697358873000974 0.022084517162096872 -0.0061580850017630695 0.025803887804906153 -0.0057167674015618881 0.0088628814438039411 0.022084511314315838 -0.013267464987663544 0.024950392862351255 0.0094466656930890219 0.017618448204337687 0.012593769680184129 0.024360103239619818 -0.0019968634679586911 0.034592505444126655 0.014607305825474658 0.016628432038616782 0.010179397285117752 0.017604351820650642 0.038655748224846569 0.011177137376046312 0.036610941819636526 0.011476899324241514 0.019877763881104033 0.0016035508459242363 0.0099275293894395857 0.00033048742947098549
leaf_weight=20621 21 20 1830 83 41 139 32 225 50 27 76 153 212 20 50 24 28 46 409 34 38 28 29 112 36 57 47 2812 95 99
leaf_count=20621 21 20 1830 83 41 139 32 225 50 27 76 153 212 20 50 24 28 46 409 34 38 28 29 112 36 57 47 2812 95 99
internal_value=-3.6389e-05 0.00506364 -0.000326749 0.00434155 0.021873 0.0039293 0.00523404 0.00134302 0.00297 0.016125 0.00425467 0.00479167 0.00570503 0.00753169 0.011791 0.0155 0.0053015 0.00745 0.00234677 0.00324168 0.008 0.01175 0.00908607 0.00519655 0.00715244 0.0108629 0.00635526 -0.000510593 0.00355328 0.00249742
internal_weight=27494 1481 26013 1420 61 1372 752 2580 750 48 525 720 567 355 122 72 233 150 620 481 72 48 122 449 205 93 76 23433 244 194
internal_count=27494 1481 26013 1420 61 1372 752 2580 750 48 525 720 567 355 122 72 233 150 620 481 72 48 122 449 205 93 76 23433 244 194
cat_boundaries=0 1
cat_threshold=4
is_linear=0
shrinkage=0.03


Tree=4
num_leaves=31
num_cat=1
split_feature=48 55 50 54 24 9 7 9 8 52 59 25 8 0 19 57 39 27 7 39 55 59 20 46 55 17 59 42 29 20
split_gain=42.5403 20.3605 8.3167 7.88584 6.13587 2.86012 2.85305 3.94175 3.92883 2.70213 2.74813 2.4619 2.19995 2.79765 2.03373 1.62928 1.99161 1.57341 1.53137 2.42438 1.7379 1.73907 1.522 1.76087 1.32247 1.29048 2.03736 1.08886 1.40833 1.06229
threshold=23.638247150000002 1.101339853262193 23.153929437500008 0.20621991745462609 24.525064500000003 24.085761000000002 18.500000000000004 23.659552500000004 2.5000000000000004 0.37625110596150896 8.7500000000000018 23.520942500000004 2.5000000000000004 0 23.828123000000001 59.500000000000007 22.267451750000003 23.521663500000006 17.500000000000004 23.454149500000003 0.62806939050280353 5.491666666666668 23.381598500000003 23.710698000000004 0.36925776101165969 -0.35699799999999987 7.491666666666668 23.259857000000004 23.162246500000006 22.974674500000003
decision_type=2 2 2 2 2 2 2 2 2 2 2 2 2 1 2 2 2 2 2 2 2 2 2 2 2 10 2 2 2 2
left_child=2 3 14 5 -3 -2 7 -5 9 10 -9 -10 -4 -14 24 -16 -17 -11 25 27 21 -21 23 -23 -1 -15 -27 -20 -29 -26
right_child=1 4 12 6 -6 -7 -8 8 11 17 -12 -13 13 18 15 16 -18 -19 19 20 -22 22 -24 -25 29 26 -28 28 -30 -31
leaf_value=-0.022323772153490785 0.011310471820248757 0.016507652237905873 0.011555177990852265 0.011176169486708571 0.021421981647233999 0.021421975974886393 0.019153322452936539 0.038443080306225473 0.018948254675175673 0.0053316980155528578 0.017751580780123705 -0.0056220327579572125 -0.0016411454588032015 0.0008168351669921365 0.0086674497309745229 0.030394811582658519 -0.014605128140341594 0.019175034316760039 0.0030835370856500863 0.0074656032654409317 0.0089060743007321544 0.008668015601821252 0.035916119335200607 0.020991983085733849 -0.011201356288503926 0.014655443274307853 0.0023538512538023629 -0.0023092402701156266 0.011359468752978248 0.0071341422687103383
leaf_weight=16172 21 20 1346 151 41 27 1021 38 30 26 39 47 236 134 182 31 25 20 79 25 56 23 20 23 6051 43 45 20 40 1462
leaf_count=16172 21 20 1346 151 41 27 1021 38 30 26 39 47 236 134 182 31 25 20 79 25 56 23 20 23 6051 43 45 20 40 1462
internal_value=-4.40271e-05 0.00490159 -0.000325596 0.00417254 0.021873 0.016125 0.00375437 0.00608761 0.00885 0.0121768 0.0156136 0.00353572 0.00148924 0.00279839 -0.000484146 0.00227521 0.00675 0.00642391 0.00401351 0.00554371 0.00822959 0.0107885 0.0133409 0.010337 -0.000511874 0.00222297 0.00504546 0.00270324 0.00575 -0.000182982
internal_weight=27494 1481 26013 1420 61 48 1372 351 200 123 77 77 2090 744 23923 238 56 46 508 286 147 91 66 46 23685 222 88 139 60 7513
internal_count=27494 1481 26013 1420 61 48 1372 351 200 123 77 77 2090 744 23923 238 56 46 508 286 147 91 66 46 23685 222 88 139 60 7513
cat_boundaries=0 1
cat_threshold=4
is_linear=0
shrinkage=0.03


Tree=5
num_leaves=31
num_cat=1
split_feature=48 55 54 49 24 9 8 0 7 9 52 48 59 39 7 47 51 51 55 59 55 23 35 7 51 33 52 53 53 17
split_gain=39.8061 20.8002 8.13873 7.78293 6.13587 2.86012 2.7981 3.00643 2.70911 3.40863 3.40152 4.04976 2.56272 1.90769 2.08684 1.6 1.33309 2.54741 1.2465 1.92095 1.21011 1.16228 1.06908 2.47338 1.04947 1.0287 0.997686 1.35185 1.72436 1.41841
threshold=23.638247150000002 1.101339853262193 0.20621991745462609 23.087494500000002 24.525064500000003 24.085761000000002 2.5000000000000004 0 18.500000000000004 23.659552500000004 0.33184086164204391 23.830428400000006 8.7500000000000018 23.500040000000002 15.500000000000002 23.476316500000003 23.844713375000005 23.503155141666671 0.46615296864693195 6.7500000000000009 0.35058247880652432 24.085761000000002 22.568399500000002 32.500000000000007 23.673183958333336 23.831733500000002 0.48223903309591931 0.27180721143673542 0.29256249532791828 1.6601850000000007
decision_type=2 2 2 2 2 2 2 1 2 2 2 2 2 2 2 2 2 2 2 2 2 2 2 2 2 2 2 2 2 8
left_child=3 2 5 20 -3 -2 -5 -8 9 -4 11 15 -13 21 -15 -11 17 -16 -12 -20 -1 24 23 -10 -9 -19 27 -24 -29 -30
right_child=1 4 8 6 -6 -7 7 13 22 10 18 12 -14 14 16 -17 -18 25 19 -21 -22 -23 26 -25 -26 -27 -28 28 29 -31
leaf_value=-0.022932858700680861 0.0109711576656413 0.016012422670768713 0.010840884402107275 0.0056690867708542531 0.020779322197817009 0.02077931669563984 -0.0052478351817003902 0.0045262287298539821 0.024455171497170906 0.038094264507949567 0.00756333339757708 0.015936602349020744 0.018383644202991992 0.0069774190183752079 0.011820121685120762 -0.0024066715811660931 0.0081907555365235713 0.026684937504311636 0.0089059697112481694 0.028020179707588164 -0.004634616673976512 0.0082651902602131205 0.0028933053095259015 0.015796178824015593 0.0099017795806549697 0.034788197533875416 0.013634291365583926 0.036767232635378802 0.036241253002516377 0.0082040363267917582
leaf_weight=15243 21 20 151 1830 41 27 225 229 21 20 59 26 29 102 64 20 23 28 22 24 8190 37 112 40 20 22 366 35 108 339
leaf_count=15243 21 20 151 1830 41 27 225 229 21 20 59 26 29 102 64 20 23 28 22 24 8190 37 112 40 20 22 366 35 108 339
internal_value=-6.47589e-05 0.00471928 0.0039824 -0.000337129 0.021873 0.016125 0.00122674 0.00277 0.00355758 0.0058312 0.0084 0.0125132 0.0177955 0.0039743 0.00602824 0.00525 0.00844708 0.00977632 0.00467857 0.00838044 -0.000509313 0.00239685 0.00277596 0.00662705 0.00165964 0.01485 0.00253125 0.0032904 0.00398029 0.00347819
internal_weight=27494 1481 1420 26013 61 48 2580 750 1372 351 200 95 55 525 239 40 137 114 105 46 23433 286 1021 61 249 50 960 594 482 447
internal_count=27494 1481 1420 26013 61 48 2580 750 1372 351 200 95 55 525 239 40 137 114 105 46 23433 286 1021 61 249 50 960 594 482 447
cat_boundaries=0 1
cat_threshold=4
is_linear=0
shrinkage=0.03


Tree=6
num_leaves=31
num_cat=0
split_feature=48 47 2 50 54 8 7 7 6 48 14 53 33 21 59 14 53 20 6 25 17 7 17 37 52 27 51 10 7 52
split_gain=36.9174 21.2705 14.2857 7.50881 7.20079 2.06047 2.15273 2.04594 7.59273 5.70217 1.92777 2.22621 2.16825 2.46136 1.8291 1.68878 1.55572 1.52569 1.38756 1.7269 2.24877 2.08822 1.78202 1.61987 1.28069 1.18656 1.15638 1.06547 1.58312 1.86546
threshold=23.638247150000002 21.582351000000003 7.9570635000000012 23.166597275000004 0.20132461828591608 2.5000000000000004 16.500000000000004 17.500000000000004 10.500000000000002 23.950750600000003 2.9549938998042173 0.35297401082028251 24.088919000000004 23.126208000000002 8.7500000000000018 2.0278207366006664 0.25776882479666557 22.923137500000006 9.5000000000000018 24.145378000000004 1.0668135000000003 30.500000000000004 1.4763400000000002 23.501614500000002 0.17537753676685761 23.256045500000003 23.964933833333337 1.5000000000000002 17.500000000000004 0.46267023719621769
decision_type=2 2 2 2 2 2 2 2 2 2 10 2 2 2 2 8 2 2 2 2 10 2 10 2 2 2 2 2 2 2
left_child=3 2 -2 17 -3 27 -7 8 9 -6 11 16 -13 -14 -11 -10 -8 -1 -9 20 -20 23 -22 -21 -23 -24 -26 -5 29 -29
right_child=1 4 -4 5 7 6 10 18 15 14 -12 12 13 -15 -16 -17 -18 -19 19 21 22 24 25 -25 26 -27 -28 28 -30 -31
leaf_value=-0.018472193309743295 0.020155937194770601 0.020155937194770601 -0.0067940632151019644 0.0030953993062438553 0.0098859457086038615 0.0061742139985025181 0.012192224865689869 0.00089071298564346603 0.023773985718753769 0.01545850427855008 0.0082694769933105931 0.0074639940538502054 0.01537332957911924 0.0064750868588000655 0.018077409494524802 0.010724361083612837 0.03334104583770605 0.0023614524779243112 0.0035566519970256037 0.024676471813244158 0.035396414624592407 0.017076897223238071 0.023207746314441766 0.024719372923236827 0.0086301942877778596 0.027965441367540214 0.0079535027240836258 0.030517364062450376 0.013168412023958386 0.0005727637416294613
leaf_weight=21212 50 38 20 1031 37 321 48 175 29 21 131 122 20 24 29 226 38 2815 272 30 39 25 98 26 108 226 32 31 197 23
leaf_count=21212 50 38 20 1031 37 321 48 175 29 21 131 122 20 24 29 226 38 2815 272 30 39 25 98 26 108 226 32 31 197 23
internal_value=-7.02146e-05 0.00453697 0.0206786 -0.000332516 0.00373618 0.00144033 0.00274432 0.00337964 0.00539035 0.0130431 0.00426306 0.00579762 0.00376807 0.00947727 0.01965 0.00277941 0.00971512 -0.000479054 0.00271266 0.00321028 0.00241536 0.00549434 0.00396074 0.0105 0.00379546 0.00323148 0.00267857 0.00072426 0.00247709 0.00702778
internal_weight=27494 1481 70 26013 1411 1986 704 1373 342 87 383 252 166 44 50 255 86 24027 1031 856 635 221 363 56 165 324 140 1282 251 54
internal_count=27494 1481 70 26013 1411 1986 704 1373 342 87 383 252 166 44 50 255 86 24027 1031 856 635 221 363 56 165 324 140 1282 251 54
is_linear=0
shrinkage=0.03


Tree=7
num_leaves=31
num_cat=1
split_feature=48 47 2 54 50 7 6 48 25 8 0 55 57 6 14 6 34 31 54 14 7 18 6 25 54 59 17 17 54 59
split_gain=34.7817 21.6458 14.2857 7.36814 7.10189 2.19136 6.44694 5.81677 2.23675 2.0091 2.40727 1.71929 1.53498 1.5043 1.47268 1.46944 2.37121 1.73084 2.00718 1.4564 1.75812 1.43149 1.39104 1.84751 1.93636 1.80087 1.72148 2.04496 1.61333 1.13412
threshold=23.638247150000002 21.582351000000003 7.9570635000000012 0.20132461828591608 23.153929437500008 18.500000000000004 10.500000000000002 23.950750600000003 23.999946000000005 2.5000000000000004 0 0.36925776101165969 405.50000000000006 13.500000000000002 2.0278207366006664 12.500000000000002 23.113132500000003 23.473374500000002 0.38711744356668554 5.0513933024951125 49.500000000000007 22.898743000000007 9.5000000000000018 24.145378000000004 0.74089703552645869 10.508333333333335 1.0668135000000003 1.4763400000000002 0.41051435844059553 8.7500000000000018
decision_type=2 2 2 2 2 2 2 2 2 2 1 2 2 2 8 2 2 2 2 8 2 2 2 2 2 2 10 10 2 2
left_child=4 2 -2 -3 11 6 7 -5 -9 -6 -11 -1 -13 15 -8 17 -17 18 -12 -18 29 -14 -7 26 25 28 -24 -28 -25 -21
right_child=1 3 -4 5 9 22 14 8 -10 10 13 12 21 -15 -16 16 19 -19 -20 20 -22 -23 23 24 -26 -27 27 -29 -30 -31
leaf_value=-0.020605999225448278 0.019551259078927428 0.019551259078927428 -0.0065902413186488575 0.0089771140874817697 0.010806603576008102 -0.00054070857992376872 0.022569565022025711 0.01743171210459725 0.014994749150193627 -0.0016422710118331552 0.010637411492636363 -0.002762567817753238 0.0099401302844206885 -0.029894336020717331 0.01197883423635591 -0.00050735815277213345 0.020577981721733734 0.004626210368999537 0.0066923707085439184 0.0092138663697119288 0.0065027643532752271 0.028956188493681409 0.0034710696273640451 0.0070843946559563283 0.017757893310903352 0.023899856873574609 0.034334522185854616 0.022893259003840111 0.017886584903264002 0.03261822467955517
leaf_weight=16190 50 38 20 40 1346 164 31 38 20 236 41 7661 47 58 232 42 81 144 65 29 21 25 270 28 23 23 39 318 147 27
leaf_count=16190 50 38 20 40 1346 164 31 38 20 236 41 7661 47 58 232 42 81 144 65 29 21 25 270 28 23 23 39 318 147 27
internal_value=-7.67615e-05 0.00439517 0.0206786 0.00358735 -0.000331362 0.00322669 0.00523338 0.011801 0.0178707 0.00134569 0.00259677 -0.000477876 -0.000109885 0.00372394 0.00278612 0.00438333 0.0063 0.00285 0.00575943 0.00798418 0.0109383 0.00425 0.00251087 0.003 0.0053586 0.00440152 0.00216866 0.00353572 0.00336429 0.0137143
internal_weight=27494 1481 70 1411 26013 1373 361 98 58 2090 744 23923 7733 508 263 450 200 250 106 158 77 72 1012 848 221 198 627 357 175 56
internal_count=27494 1481 70 1411 26013 1373 361 98 58 2090 744 23923 7733 508 263 450 200 250 106 158 77 72 1012 848 221 198 627 357 175 56
cat_boundaries=0 1
cat_threshold=4
is_linear=0
shrinkage=0.03


Tree=8
num_leaves=31
num_cat=0
split_feature=48 50 6 48 54 54 46 55 53 40 15 51 34 59 59 48 40 15 6 50 53 56 41 17 6 42 16 21 53 20
split_gain=32.1594 20.7843 17.2365 3.73566 3.85728 2.25868 2.22756 1.93686 1.5294 2.13023 2.19741 2.90546 2.31618 3.025 1.52801 1.44047 1.33822 1.26728 1.19619 2.22049 3.59112 2.25053 1.18968 1.14604 1.30909 1.10445 1.84835 1.48222 1.5938 1.45628
threshold=24.509698850000003 23.184668775000002 8.5000000000000018 23.739088700000003 0.23532802869600003 0.83694392504347481 23.835127000000004 0.36925776101165969 0.3560981359433279 23.610296500000004 2.8076173127910633 23.610532508333339 23.835127000000004 8.7500000000000018 11.491666666666669 23.188504350000006 22.187134000000004 2.6798940507779681 11.500000000000002 23.581622987500001 0.30014628652559411 0.071281500000001344 23.589687000000001 1.6734890000000007 8.5000000000000018 23.476800000000004 -1.6038779999999988 23.632590500000003 0.61882536786271147 23.491969000000001
decision_type=2 2 2 2 2 2 2 2 2 2 8 2 2 2 2 2 2 8 2 2 2 2 2 10 2 2 8 2 2 2
left_child=1 7 -2 18 -5 8 -4 -1 9 10 -6 -12 13 -13 17 -9 23 -10 -3 -20 21 -21 -11 24 -17 -22 -27 28 29 -28
right_child=2 3 6 4 5 -7 -8 15 14 22 11 12 -14 -15 -16 16 -18 -19 19 20 25 -23 -24 -25 -26 26 27 -29 -30 -31
leaf_value=-0.019987819248684813 0.018964721306559618 0.0017938229850742902 -0.0060588409800809463 0.010639496315869775 0.006742619688191908 0.022376449508430749 0.018964721306559618 -0.0058806485623090071 0.025881518354080549 0.018632516352601054 0.0022181687402700145 0.034498883469878699 0.020255733171998185 0.015306231837535961 0.03465540396363085 0.021151355201981758 0.00488223769783963 0.010919818084100039 0.015594034141334727 0.023222617177709137 0.0076473902246170294 0.0090389691740811167 0.0057181062487835447 0.029799839555091877 0.0057699218230715509 -0.00075718977834135395 0.011024386739706047 0.00067335081267646971 0.0039288284500370637 0.0050457076006501849
leaf_weight=16253 50 625 34 24 35 37 20 7210 99 33 39 20 28 20 37 22 575 525 1205 27 116 34 120 36 88 52 42 31 22 35
leaf_count=16253 50 625 34 24 35 37 20 7210 99 33 39 20 28 20 37 22 575 525 1205 27 116 34 120 36 88 52 42 31 22 35
internal_value=-9.31287e-05 -0.000156352 0.0165577 0.00211338 0.00361578 0.00332855 0.00480556 -0.000457244 0.00304707 0.00484322 0.00748944 0.00962383 0.0133676 0.018 0.00224546 -7.29094e-05 0.00120562 0.00189423 0.00141537 0.0018587 0.00392967 0.0105615 0.00238726 0.00377055 0.00225 0.00257215 0.00403022 0.00594231 0.00773485 0.00976948
internal_weight=27494 27390 104 3206 1017 993 54 24184 956 295 142 107 68 40 661 7931 721 624 2189 1564 359 61 153 146 110 298 182 130 99 77
internal_count=27494 27390 104 3206 1017 993 54 24184 956 295 142 107 68 40 661 7931 721 624 2189 1564 359 61 153 146 110 298 182 130 99 77
is_linear=0
shrinkage=0.03


Tree=9
num_leaves=31
num_cat=0
split_feature=48 50 6 48 7 6 46 55 46 20 15 14 54 6 34 24 37 8 3 7 59 56 15 7 10 52 27 59 19 57
split_gain=32.1636 19.2898 17.2365 3.56958 4.04073 11.7127 2.22756 2.02852 1.59078 1.556 1.83085 1.34796 1.34404 1.26618 2.03662 1.18519 1.76691 1.08465 2.36488 2.46154 2.81251 1.77963 1.59943 1.39707 2.47353 1.63241 1.34814 1.16667 1.07397 0.978789
threshold=24.509698850000003 23.184668775000002 8.5000000000000018 23.739088700000003 17.500000000000004 10.500000000000002 23.835127000000004 0.36925776101165969 23.403014000000002 22.935546500000004 6.0355075617233673 2.0278207366006664 0.86603094810713355 10.500000000000002 24.151906000000004 23.738104500000002 23.710698000000004 2.5000000000000004 5.0075535000000011 22.500000000000004 10.008333333333335 -0.036143749999999024 3.2707499317953981 17.500000000000004 1.5000000000000002 0.50967097213927348 23.445058500000005 7.491666666666668 24.696130500000002 405.50000000000006
decision_type=2 2 2 2 2 2 2 2 2 2 10 8 2 2 2 2 2 2 2 2 2 2 8 2 2 2 2 2 2 2
left_child=1 7 -2 17 5 8 -4 -1 -5 29 28 -7 13 -6 -15 -16 -17 23 -19 22 21 -21 27 24 -3 26 -26 -20 -11 -9
right_child=2 3 6 4 12 11 -8 9 -10 10 -12 -13 -14 14 15 16 -18 18 19 20 -22 -23 -24 -25 25 -27 -28 -29 -30 -31
leaf_value=-0.019388184671224308 0.018395779667362822 0.01590659210837525 -0.0058770757506785018 0.015866872254875604 0.00078770201072158252 0.022835236458821517 0.018395779667362822 -0.0096803546065794503 0.016067864065076133 0.0081376316326039356 0.031784732800536758 0.0082360195048390428 0.021743118976857878 0.019165114676744366 0.017755180603791703 0.033117899992110629 0.013275899631443043 0.005528320469720553 0.0097388298463172308 0.0049619232831497164 0.032331150176702496 0.0071613970377997146 0.00088901859402584055 0.0028877892526952848 0.035757826543821342 0.0064867905166037356 0.019801654670746984 0.0031670281686197138 0.025676925378785975 0.023727169012243206
leaf_weight=16253 50 272 34 35 203 24 20 6087 38 1741 20 153 33 443 30 32 26 553 21 20 28 51 101 1054 21 21 26 21 30 53
leaf_count=16253 50 272 34 35 203 24 20 6087 38 1741 20 153 33 443 30 32 26 553 21 20 28 51 101 1054 21 21 26 21 30 53
internal_value=-9.42198e-05 -0.000157447 0.0165577 0.00202916 0.00349779 0.00681 0.00480556 -0.00044732 0.0169212 -5.39963e-05 0.000724038 0.00263983 0.00241819 0.00215191 0.00292232 0.00709091 0.00959483 0.00134685 0.00223113 0.00470455 0.00834091 0.00516549 0.00218706 0.00084254 0.00251471 0.00763235 0.0107394 0.00710714 0.000622107 -0.000280944
internal_weight=27494 27390 104 3206 1017 250 54 24184 73 7931 1791 177 767 734 531 88 58 2189 795 242 99 71 143 1394 340 68 47 42 1771 6140
internal_count=27494 27390 104 3206 1017 250 54 24184 73 7931 1791 177 767 734 531 88 58 2189 795 242 99 71 143 1394 340 68 47 42 1771 6140
is_linear=0
shrinkage=0.03


Tree=10
num_leaves=31
num_cat=0
split_feature=48 50 46 31 48 7 52 2 48 35 45 48 39 19 8 3 7 55 59 15 50 43 59 14 7 17 29 54 54 17
split_gain=32.1763 17.9952 14.7639 3.99709 3.19381 4.51061 6.8218 3.06466 1.91948 1.54474 1.4962 1.60087 1.37043 1.7013 1.35961 1.93469 2.1622 2.47901 2.72841 1.61661 1.3212 1.87662 1.16667 1.13027 1.11417 1.68149 1.22693 1.08714 1.04891 1.03613
threshold=24.509698850000003 23.166597275000004 22.490425000000005 24.525064500000003 23.739088700000003 17.500000000000004 0.31654487108700707 7.9570635000000012 23.204255700000004 22.577223000000004 23.403436750000004 23.903640300000003 22.418687000000002 23.882543500000004 2.5000000000000004 5.0075535000000011 22.500000000000004 0.45624384621079467 5.491666666666668 3.2707499317953981 23.236884275000005 23.372822000000003 7.491666666666668 1.5962570478619107 12.500000000000002 1.7236165000000006 23.495687500000006 0.35855699889308507 0.45597541586779422 -0.40052299999999991
decision_type=2 2 2 2 2 2 2 2 2 2 2 2 2 2 2 2 2 2 2 8 2 2 2 10 2 10 2 2 2 8
left_child=1 8 -2 -4 14 6 7 -6 28 -7 -9 -12 13 -10 24 20 19 18 -18 22 21 -16 -17 -8 25 -3 -27 -20 -1 -14
right_child=2 4 3 -5 5 9 23 10 12 -11 11 -13 29 -15 15 16 17 -19 27 -21 -22 -23 -24 -25 -26 26 -28 -29 -30 -31
leaf_value=-0.017343153015406544 0.017843906190901673 0.0083648814747470605 -0.0059147291550321526 0.017843906277341972 0.00097591776926748877 0.021100316145972173 0.020185374864395245 0.015315957165794548 0.020813983649232995 0.015096520256170736 0.010441972098304856 0.015686819101928408 0.0054429645189403983 0.025269132267784725 0.0067235783540253238 0.0094466649509277328 0.0021985148636084893 0.0059042411223644139 0.0064996180006958578 0.00075692490132529106 0.0043111222728160334 0.017445827482176834 0.0030720173235611464 0.012778014178457689 0.0030309646392941009 0.019696053815917412 0.033970001426696997 0.031554906020452841 -0.00072533119278497642 -0.0020663322120054888
leaf_weight=19431 46 203 35 23 20 32 32 40 194 738 20 22 27 43 56 21 20 37 21 103 492 32 21 116 1156 71 37 23 3865 517
leaf_count=19431 46 203 35 23 20 32 32 40 194 738 20 22 27 43 56 21 20 37 21 103 492 32 21 116 1156 71 37 23 3865 517
internal_value=-9.74933e-05 -0.000160733 0.0165577 0.00649138 0.00191224 0.00330882 0.00681 0.0127794 -0.000445975 0.00217208 0.0153476 0.0113929 0.00101697 0.00292089 0.001291 0.00226453 0.0044939 0.00786386 0.0114375 0.00214655 0.00131897 0.00470455 0.00710714 0.00269595 0.000742843 0.00233682 0.00536111 0.0156136 -0.00049502 0.000187501
internal_weight=27494 27390 104 58 3313 1020 250 102 24077 770 82 42 781 237 2293 826 246 101 64 145 580 88 42 148 1467 311 108 44 23296 544
internal_count=27494 27390 104 58 3313 1020 250 102 24077 770 82 42 781 237 2293 826 246 101 64 145 580 88 42 148 1467 311 108 44 23296 544
is_linear=0
shrinkage=0.03


Tree=11
num_leaves=31
num_cat=0
split_feature=48 6 51 9 7 47 49 20 59 46 19 18 6 38 3 59 52 35 17 31 15 6 52 17 40 54 9 14 10 56
split_gain=32.2058 17.2365 16.676 3.94261 2.78729 3.94297 3.84421 2.65069 2.52041 2.22756 1.40622 2.77034 1.37816 2.03915 2.44424 2.49152 3.80859 3.22054 2.44833 1.75808 1.2907 1.15647 1.2364 1.15227 1.07068 0.995103 1.18582 1.52381 0.971485 0.974534
threshold=24.509698850000003 8.5000000000000018 23.294289066666671 23.464097000000006 30.500000000000004 22.937575500000005 23.741256400000001 22.935546500000004 11.491666666666669 23.835127000000004 24.145378000000004 24.144209000000004 14.500000000000002 23.837197500000006 4.1143920000000014 8.7500000000000018 0.30637716717239283 23.473374500000002 3.3267855000000011 23.556437500000005 1.5724052406322473 10.500000000000002 0.15729452664705737 2.1189585000000011 22.651905000000003 0.46637647433844776 24.401146000000004 4.0501001143850095 1.5000000000000002 0.19892900000000149
decision_type=2 2 2 2 2 2 2 2 2 2 2 2 2 2 2 2 2 2 8 2 8 2 2 8 2 2 2 10 2 2
left_child=2 -2 7 20 5 6 -5 25 12 -3 28 -12 13 14 -7 16 18 -17 -16 -18 -4 -6 23 -23 -22 -1 -27 -28 -9 -30
right_child=1 9 3 4 21 8 -8 10 -10 -11 11 -13 -14 -15 15 17 19 -19 -20 -21 24 22 -24 -25 -26 26 27 -29 29 -31
leaf_value=-0.018359830050879253 0.017308589091031466 -0.0055233216035071291 0.012241187278916311 0.032906208238845533 -0.0040580542155472547 0.0042365217864872764 0.013194410785039329 0.00041966776449833972 0.032634890812211874 0.017308589089021709 0.018532189710388614 0.016377593231275547 -0.015091686531587135 0.003981069678369132 0.023057263420783916 0.015038983760974641 0.0088057871821127284 0.00027552446234529527 0.011932239114304575 0.031462413379612364 0.0184582148161383 0.0094101000672671634 0.01453198131057272 0.023280705095060687 0.0039797872526432278 -0.0013542231889226725 0.026760763683259973 -0.012468971223603914 0.0051862770747800012 0.022943586123154624
leaf_weight=18239 50 34 31 38 152 91 34 2769 23 20 85 21 62 155 20 38 30 77 26 36 29 24 472 20 1214 3186 21 21 319 157
leaf_count=18239 50 34 31 38 152 91 34 2769 23 20 85 21 62 155 20 38 30 77 26 36 29 24 472 20 1214 3186 21 21 319 157
internal_value=-0.000105131 0.0165577 -0.0001684 0.00213103 0.00329468 0.00472619 0.0113333 -0.0004067 0.00387366 0.00480556 0.000378022 0.0037783 0.00345561 0.00400687 0.00538208 0.00704736 0.0102321 0.00394565 0.0168587 0.00561364 0.000945448 0.00194461 0.00262209 0.00743182 0.000794651 -0.000529195 -4.36796e-05 0.00496429 0.00026695 0.00151891
internal_weight=27494 104 27390 2572 1298 630 72 24818 558 54 3351 106 535 473 318 227 112 115 46 66 1274 668 516 44 1243 21467 3228 42 3245 476
internal_count=27494 104 27390 2572 1298 630 72 24818 558 54 3351 106 535 473 318 227 112 115 46 66 1274 668 516 44 1243 21467 3228 42 3245 476
is_linear=0
shrinkage=0.03


Tree=12
num_leaves=31
num_cat=0
split_feature=48 50 47 46 9 7 48 52 9 17 54 9 53 53 23 42 50 44 28 35 43 7 53 22 26 30 22 29 9 46
split_gain=32.2311 16.11 15.956 3.50635 3.30403 4.5131 4.02466 5.2253 2.01754 3.27488 1.32122 1.12025 1.23143 1.90294 2.20386 2.03179 1.56296 2.10632 1.13874 1.1787 2.19941 1.12498 1.41251 1.13778 1.06503 0.952381 0.928788 1.0415 0.888961 0.854388
threshold=24.509698850000003 23.184668775000002 22.490483500000007 24.091001000000002 23.821539000000005 17.500000000000004 23.830428400000006 0.33184086164204391 23.935615250000005 -0.3818905000000003 0.30978763497995199 22.796356000000003 0.23558811021075163 0.28334593365667354 23.253957000000003 23.747984000000006 23.581622987500001 23.643754000000005 24.298478000000006 24.088919000000004 23.588647500000004 12.500000000000002 0.80078846871001252 23.397710000000004 22.962684000000007 23.707422000000005 23.701219500000004 23.495687500000006 24.085761000000002 23.942262000000003
decision_type=2 2 2 2 2 2 2 2 2 10 2 2 2 2 2 2 2 2 2 2 2 2 2 2 2 2 2 2 2 2
left_child=1 8 -2 -4 11 6 26 28 10 -10 -1 -3 -13 14 15 -14 -16 -18 21 -20 -21 24 -23 -24 -15 -9 27 -6 -8 -26
right_child=2 4 3 -5 5 -7 7 25 9 -11 -12 12 13 18 16 -17 17 -19 19 20 -22 22 23 -25 29 -27 -28 -29 -30 -31
leaf_value=-0.019383940816415614 0.016789331418430226 -0.0016065655220681657 -0.0057855533091498903 0.016789331416351024 0.013322738799897732 0.015127924335698175 0.012019818024844949 0.015046803077678238 0.020777820476403332 0.015782070348270737 -0.0043182096143514178 0.0015763015690769433 0.027991608984903344 0.018390427645610986 0.0060599354252421174 0.034816097757116894 0.0054755936448360448 -0.0031148472928389159 0.0086707252312703542 0.024062953319731253 0.005225971738012215 0.0034599002575952187 0.022404191094883678 0.025352084254031123 0.018100841260869228 -0.0031334891860466466 -0.00184553794765766 0.01490223756088783 0.014430767985777153 -0.0012254073844295622
leaf_weight=14951 48 413 36 20 37 627 20 28 38 232 8963 485 31 20 84 22 23 22 132 24 31 842 20 25 129 20 36 34 35 66
leaf_count=14951 48 413 36 20 37 627 20 28 38 232 8963 485 31 20 84 22 23 22 132 24 31 842 20 25 129 20 36 34 35 66
internal_value=-0.000111678 -0.000174972 0.0165577 0.00567857 0.0018233 0.00344355 0.00725 0.011483 -0.000439877 0.00213889 -0.000468992 0.00125084 0.00155061 0.00198284 0.0048544 0.0100047 0.00273837 0.00725 0.00157739 0.00374198 0.00743182 0.00121007 0.000738163 0.00591667 0.00315698 0.00425 0.00317523 0.00516549 0.0177955 0.00248077
internal_weight=27494 27390 104 56 3206 837 210 103 24184 270 23914 2369 1956 1471 182 53 129 45 1289 187 55 1102 887 45 215 48 107 71 55 195
internal_count=27494 27390 104 56 3206 837 210 103 24184 270 23914 2369 1956 1471 182 53 129 45 1289 187 55 1102 887 45 215 48 107 71 55 195
is_linear=0
shrinkage=0.03


Tree=13
num_leaves=31
num_cat=0
split_feature=49 6 49 20 31 54 21 19 7 6 54 3 32 59 53 20 32 39 6 30 6 53 53 43 15 44 28 14 54 57
split_gain=26.1952 16.05 15.2198 3.16944 2.97268 2.66822 4.3923 2.31427 1.79247 2.04366 2.50073 1.49579 1.4481 1.73321 1.73865 2.29358 2.39685 1.6 1.39035 1.12425 1.09782 1.44251 2.28709 1.06549 1.80377 0.980335 0.979592 0.925843 0.907142 1.03627
threshold=24.433829775000003 8.5000000000000018 23.421758100000002 22.935546500000004 24.525064500000003 0.83694392504347481 24.146458500000005 24.525064500000003 36.500000000000007 14.500000000000002 0.2038386783624169 4.1143920000000014 23.887775500000004 11.491666666666669 0.3637994703307183 23.828491000000003 23.608041000000004 23.473831750000006 12.500000000000002 22.702346000000002 10.500000000000002 0.29256249532791828 0.27180721143673542 23.745991000000004 4.6738470136841768 23.304198000000003 23.554741000000003 2.0278207366006664 0.46637647433844776 405.50000000000006
decision_type=2 2 2 2 2 2 2 2 2 2 2 2 2 2 2 2 2 2 2 2 2 2 2 2 10 2 2 8 2 2
left_child=2 -2 3 28 -3 8 26 23 9 10 -4 -12 13 14 15 18 -17 -18 -13 -16 -10 22 25 -5 -25 -22 -7 -14 -1 -30
right_child=1 4 5 7 -6 6 -8 -9 20 -11 11 12 27 -15 19 16 17 -19 -20 -21 21 -23 -24 24 -26 -27 -28 -29 29 -31
leaf_value=-0.01715593897380582 0.016285651476266316 -0.01217481418960476 0.008763861823896088 0.0022292589461360419 0.016285651473860484 0.019615301086301922 0.016597765187861376 0.017607223772925819 -0.0075967245070071576 -0.015175013757992628 0.0092404866618663404 -0.00022992044388102123 0.024185610555636745 0.032880936673270619 0.022183840776406099 0.031178092172889936 0.023141800651984217 0.014816269694885432 0.014408576859829525 0.018749610125320955 -0.00057552405019398981 0.0068365462092280296 0.0087054939770243867 0.0076685662426949951 0.012546278951981632 0.015605940745035981 -0.017803726862626573 0.0046884052829391501 -0.0011785640223727965 0.020459198820720559
leaf_weight=18323 42 34 24 3286 27 21 23 39 235 118 200 44 20 28 20 29 20 20 39 242 43 580 20 270 26 26 28 237 3393 37
leaf_count=18323 42 34 24 3286 27 21 23 39 235 118 200 44 20 28 20 29 20 20 39 242 43 580 20 270 26 26 28 237 3393 37
internal_value=-0.00012259 0.0149782 -0.000179374 -0.000378753 0.00515164 0.00232883 0.008 0.000443041 0.0021189 0.00296758 0.00344285 0.00318771 0.00384228 0.00488348 0.00439493 0.00694737 0.0109891 0.01575 0.00358735 0.00291412 0.00114159 0.00176121 0.00531742 0.000363904 0.00208784 0.00272826 0.00292347 0.00205156 -0.000515549 -6.77835e-05
internal_weight=27494 103 27391 25374 61 2017 72 3621 1945 1041 923 899 699 442 414 152 69 40 83 262 904 669 89 3582 296 69 49 257 21753 3430
internal_count=27494 103 27391 25374 61 2017 72 3621 1945 1041 923 899 699 442 414 152 69 40 83 262 904 669 89 3582 296 69 49 257 21753 3430
is_linear=0
shrinkage=0.03


Tree=14
num_leaves=31
num_cat=0
split_feature=48 6 49 48 46 7 6 54 25 40 2 14 52 19 59 17 7 59 7 54 6 43 15 19 17 52 28 29 10 42
split_gain=32.2438 17.2365 13.2771 3.12912 2.22756 2.12812 2.1311 2.45785 1.85932 1.627 1.64226 1.88749 1.41324 1.29517 1.98432 1.98189 1.89486 2.5196 1.63333 1.52231 1.15061 1.14353 1.12968 1.09111 1.63902 1.07302 1.03165 1.2317 0.970118 0.902357
threshold=24.509698850000003 8.5000000000000018 23.421758100000002 22.869764000000004 23.835127000000004 36.500000000000007 14.500000000000002 0.2038386783624169 22.806568500000004 23.836092000000004 7.9570635000000012 2.1058342469493847 0.38724498346856145 23.781942500000003 7.491666666666668 2.7644550000000008 24.500000000000004 5.991666666666668 27.500000000000004 0.68926259082305241 10.500000000000002 23.745991000000004 4.6738470136841768 24.696130500000002 1.2372375000000004 0.12637271824938487 23.782966500000004 23.495687500000006 1.5000000000000002 23.790346250000002
decision_type=2 2 2 2 2 2 2 2 2 2 2 8 2 2 2 8 2 2 2 2 2 2 10 2 10 2 2 2 2 2
left_child=2 -2 3 -1 -3 6 7 -4 -9 10 -10 12 -12 16 15 -15 -13 -18 -17 -19 -7 23 -23 28 -25 -22 27 -16 -5 -11
right_child=1 4 5 21 -6 20 -8 8 9 29 11 13 -14 14 26 18 17 19 -20 -21 25 22 -24 24 -26 -27 -28 -29 -30 -31
leaf_value=-0.015429784403839655 0.015797081931459674 -0.0054568421649681962 0.0085009459691791581 -0.00018033444419132284 0.01579708192964464 -0.0074351813174149224 -0.014719763345252834 0.018866142958343129 0.011738700320369323 0.017060175309254924 0.030837581044155297 0.0035327004302227283 0.015553432298599346 0.030577720822590065 -9.0419041579490247e-05 0.013610366310744353 0.0036944607862238106 0.034301243604549635 -0.0054309052042171048 0.021103151794422931 0.010351015376545751 0.0067530913057425425 0.011428707820384822 0.027309070477789976 -0.0079874125982629038 0.0064527359415780441 -0.0023163424784223138 0.021288984894828479 0.013535689111825552 -0.00031770075791008525
leaf_weight=21289 50 34 24 3105 20 251 118 21 152 119 21 170 20 29 22 40 33 29 20 20 42 340 34 20 21 630 46 31 563 180
leaf_count=21289 50 34 24 3105 20 251 118 21 152 119 21 170 20 29 22 40 33 29 20 20 42 340 34 20 21 630 46 31 563 180
internal_value=-0.000114952 0.0165577 -0.000178258 -0.000364535 0.00480556 0.00216378 0.00305822 0.00351817 0.00327938 0.00308047 0.00394194 0.00480094 0.0109573 0.00422727 0.0061117 0.00936236 0.00282143 0.00656707 0.00625 0.0108827 0.00110266 0.000396217 0.00197727 0.00023679 0.00510366 0.00175 0.00318939 0.00604245 0.000182389 0.00125669
internal_weight=27494 104 27390 25372 54 2018 1095 977 953 932 633 481 41 440 188 89 252 82 60 49 923 4083 374 3709 41 672 99 53 3668 299
internal_count=27494 104 27390 25372 54 2018 1095 977 953 932 633 481 41 440 188 89 252 82 60 49 923 4083 374 3709 41 672 99 53 3668 299
is_linear=0
shrinkage=0.03


Tree=15
num_leaves=31
num_cat=0
split_feature=48 6 50 9 54 20 48 54 59 19 57 42 54 15 34 14 54 57 6 53 6 57 24 40 14 6 55 9 38 6
split_gain=31.1626 18.0288 12.3741 2.70322 2.55 1.5907 1.45667 2.221 1.86911 1.32353 1.27858 1.25994 1.181 1.35452 1.11788 1.08574 0.826963 0.988705 0.811413 1.43671 2.18992 1.77962 1.92714 0.855561 0.801643 0.760628 0.665341 0.976971 0.783766 0.70895
threshold=24.509698850000003 8.5000000000000018 23.153929437500008 23.484262000000005 0.32895936568343481 22.935546500000004 23.830428400000006 0.24926631398967725 11.991666666666669 24.696130500000002 225.00000000000003 23.790346250000002 0.29818269822209575 3.9132268310160292 24.304071500000003 3.6721485749094893 0.46637647433844776 405.50000000000006 11.500000000000002 0.30014628652559411 14.500000000000002 30.500000000000004 23.382189000000004 24.408351000000003 2.089536282047129 10.500000000000002 0.35332876872674251 22.796356000000003 23.273757750000005 13.500000000000002
decision_type=2 2 2 2 2 2 2 2 2 2 2 2 2 8 2 8 2 2 2 2 2 2 2 2 8 2 2 2 2 2
left_child=2 -2 5 25 -3 16 10 -8 11 -7 18 12 13 -9 24 -16 -1 -18 -5 20 21 22 -20 -21 -14 -4 -27 -28 -29 -30
right_child=1 4 3 6 -6 9 7 8 -10 -11 -12 -13 14 -15 15 -17 17 -19 19 23 -22 -23 -24 -25 -26 26 27 28 29 -31
leaf_value=-0.01670191587038862 0.015323169473515879 0.015323169471755306 -0.003310445118911009 -0.00061506754091734375 -0.0057012895860752612 0.0025975084053929316 0.0083161205586602862 0.006204368198698967 0.017889966863858665 0.023205094862726639 0.019673150841543467 0.0046005355539231836 0.028896258417823905 0.011126726941926537 0.020661956277745756 0.022750755474067463 -0.0016878473037594394 0.022746020057088857 0.007146440098583731 0.0060042189212447337 -0.0084689247919401932 0.030181516527908792 0.02958923246231358 0.020708907872125943 0.010698572433208566 -0.0010795085598463542 -0.00018643447931952092 0.015039943184894496 0.01486266415142882 0.01136564483249701
leaf_weight=18201 50 20 357 231 34 2671 22 26 29 28 33 220 36 20 20 27 3041 29 24 405 61 43 44 25 254 318 351 374 315 185
leaf_count=18201 50 20 357 231 34 2671 22 26 29 28 33 220 36 20 20 27 3041 29 24 405 61 43 44 25 254 318 351 374 315 185
internal_value=-0.000121499 0.0162692 -0.000183734 0.00150439 0.00425 -0.000424593 0.00244737 0.00351606 0.00318987 0.000261486 0.0016403 0.00283209 0.00387141 0.00838044 0.00325594 0.00754787 -0.000511647 -5.61882e-05 0.00141087 0.00199086 0.00430814 0.00681757 0.00983824 0.00106395 0.00256035 0.000750001 0.00103872 0.00135612 0.00189302 0.00267
internal_weight=27494 104 27390 3420 54 23970 1520 654 632 2699 866 603 383 46 337 47 21271 3070 833 602 172 111 68 430 290 1900 1543 1225 874 500
internal_count=27494 104 27390 3420 54 23970 1520 654 632 2699 866 603 383 46 337 47 21271 3070 833 602 172 111 68 430 290 1900 1543 1225 874 500
is_linear=0
shrinkage=0.03


Tree=16
num_leaves=31
num_cat=0
split_feature=48 6 50 48 7 6 7 34 55 40 25 20 19 16 7 29 3 22 36 48 45 53 33 33 7 59 50 6 53 50
split_gain=31.1626 18.0288 11.3667 2.46611 3.87388 6.13387 2.35714 1.93393 1.65582 1.18018 1.33424 1.14744 1.20159 1.08906 1.48224 1.51965 0.977454 0.975124 1.0833 0.837209 0.938312 0.821267 0.796466 0.831758 1.07982 0.917397 0.754146 0.977349 1.78967 1.01524
threshold=24.509698850000003 8.5000000000000018 23.153929437500008 23.830428400000006 13.500000000000002 10.500000000000002 19.500000000000004 23.496892000000006 0.35058247880652432 22.937054000000003 24.145378000000004 22.935546500000004 24.696130500000002 -0.58145899999999962 4.5000000000000009 23.707422000000005 5.0075535000000011 23.734984500000003 22.807979500000005 23.950750600000003 23.642761750000002 0.25171689389041502 23.100270500000004 23.423617500000002 28.500000000000004 8.7500000000000018 23.581622987500001 11.500000000000002 0.35297401082028251 23.725256550000005
decision_type=2 2 2 2 2 2 2 2 2 2 2 2 2 8 2 2 2 2 2 2 2 2 2 2 2 2 2 2 2 2
left_child=2 -2 8 13 5 7 -3 -5 -1 10 -6 -10 -13 14 15 21 -16 18 -18 20 -7 -4 -20 25 -25 -24 -15 -28 29 -29
right_child=1 6 3 4 9 19 -8 -9 11 -11 -12 12 -14 26 16 -17 17 -19 22 -21 -22 -23 23 24 -26 -27 27 28 -30 -31
leaf_value=-0.017033347324906079 0.014863474389310434 0.014863474387602622 -0.0022749267383942867 0.012579024615770483 0.0055136405966182533 0.015379855454504288 -0.009057744956540709 0.011347951928928728 -0.0081073845807690774 0.01428163519489457 0.0087193943804406565 0.0079747455567105979 0.02250894201684479 0.0013486510344825366 0.0068655902679928939 0.017282805409822306 0.025717285848666387 -0.001711174828001528 -0.0051080235819475376 -0.0075697540470067749 -0.0069864843547288941 0.016414172618906462 0.00911481958107393 0.028868489838898701 -0.00062485403436674533 0.02206065861453943 0.0008364842043053016 0.023913214696571435 0.0042533380899742882 0.014249288608760992
leaf_weight=15422 50 21 27 28 58 28 33 20 6702 595 34 1818 28 1392 408 20 22 67 38 36 22 51 22 36 62 21 188 22 198 25
leaf_count=15422 50 21 27 28 58 28 33 20 6702 595 34 1818 28 1392 408 20 22 67 38 36 22 51 22 36 62 21 188 22 198 25
internal_value=-0.000121499 0.0162692 -0.000183734 0.00143421 0.00286754 0.00753358 0.00425 0.016125 -0.00041458 0.00195742 0.00511957 -7.9667e-05 0.000582612 0.000981436 0.00192442 0.00537245 0.00142456 0.00283209 0.00387687 0.00273837 0.00525 0.00348077 0.00310475 0.00414362 0.00261735 0.00762209 0.000581508 0.00167494 0.00292347 0.00818617
internal_weight=27494 104 27390 3420 821 134 54 48 23970 687 92 8548 1846 2599 774 98 676 268 201 86 50 78 179 141 98 43 1825 433 245 47
internal_count=27494 104 27390 3420 821 134 54 48 23970 687 92 8548 1846 2599 774 98 676 268 201 86 50 78 179 141 98 43 1825 433 245 47
is_linear=0
shrinkage=0.03


Tree=17
num_leaves=31
num_cat=0
split_feature=48 6 51 48 7 6 46 34 53 8 32 7 55 6 51 59 26 8 26 36 29 20 57 45 16 53 14 18 14 28
split_gain=32.324 17.2365 10.2079 2.41311 3.32526 7.12118 2.22756 2.19651 1.70109 1.08639 1.20866 1.09529 1.14081 1.16631 2.10192 1.58244 1.01445 1.01093 2.61905 0.88972 0.824556 0.796527 1.25175 1.03712 1.02588 2.48595 0.761432 0.734928 0.668938 0.699208
threshold=24.509698850000003 8.5000000000000018 23.135329300000006 23.739088700000003 13.500000000000002 10.500000000000002 23.835127000000004 23.496892000000006 0.21709392081935905 2.5000000000000004 24.527168500000005 16.500000000000004 0.46615296864693195 10.500000000000002 23.331468083333338 10.008333333333335 23.421065500000005 1.5000000000000002 23.603887500000003 22.558866000000005 22.976843500000005 22.619418000000003 405.50000000000006 22.210343500000004 5.3355770000000016 0.27180721143673542 1.4771240661033627 24.703867000000006 4.636971565940029 23.494190500000006
decision_type=2 2 2 2 2 2 2 2 2 2 2 2 2 2 2 2 2 2 2 2 2 2 2 2 10 2 8 2 8 2
left_child=2 -2 8 9 5 7 -3 -5 -1 -4 11 -11 13 -13 20 16 -16 18 -7 -6 -15 22 -10 -24 27 -26 -21 28 29 -23
right_child=1 6 3 4 19 17 -8 -9 21 10 -12 12 -14 14 15 -17 -18 -19 -20 26 -22 24 23 -25 25 -27 -28 -29 -30 -31
leaf_value=-0.019265921537877411 0.014417570157631076 -0.0056783813503681804 0.0054434007241389547 0.012201201172695681 0.017434550294321168 -0.012897347063024259 0.01441757015597453 0.01100751337106085 -0.010598317039057399 0.0016284525093894135 0.028041292218493274 -0.0079518823355436471 0.005126377627189896 0.015246033154409767 0.0071480295995339097 0.025858287135320679 0.0070672347136734853 0.0014171869758000453 0.0096894285025311035 0.028772638254871388 0.0062837359073523169 0.0041710567963923551 0.028993446332885784 0.0059964893852637105 0.056050444699057775 -0.0020076378348541099 0.010808932773113752 0.015886551847131499 -0.0064674537506909432 0.021867885933840446
leaf_weight=14132 50 34 1523 34 21 22 20 20 5833 392 34 38 276 29 28 22 25 96 20 30 72 1852 20 24 20 43 748 34 1853 149
leaf_count=14132 50 34 1523 34 21 22 20 20 5833 392 34 38 276 29 28 22 25 96 20 30 72 1852 20 24 20 43 748 34 1853 149
internal_value=-0.000135683 0.0165577 -0.000199068 0.00133163 0.00257997 0.006125 0.00480556 0.0153611 -0.000418196 0.000824416 0.00164083 0.00142687 0.00237245 0.00401636 0.00504546 0.00885 0.00604245 0.00251087 0.00639286 0.0017281 0.0022203 -0.000115079 -0.000336523 0.00470455 0.000214314 0.00401191 0.00156363 0.000152778 0.000114038 0.000494379
internal_weight=27494 104 27390 3430 991 192 54 54 23960 2439 916 882 490 214 176 75 53 138 42 799 101 9828 5877 44 3951 63 778 3888 3854 2001
internal_count=27494 104 27390 3430 991 192 54 54 23960 2439 916 882 490 214 176 75 53 138 42 799 101 9828 5877 44 3951 63 778 3888 3854 2001
is_linear=0
shrinkage=0.03


Tree=18
num_leaves=31
num_cat=0
split_feature=48 6 9 34 48 54 20 54 59 55 57 30 51 27 6 54 25 35 42 20 32 15 55 52 8 17 26 38 49 8
split_gain=31.2705 18.0288 9.25675 3.56711 2.86753 2.55 2.4084 2.12505 1.55291 1.11567 1.10398 1.97354 1.01293 1.33365 1.14734 1.34643 0.914658 0.752361 0.73585 0.673164 0.730159 0.837821 0.674572 0.622375 0.531864 0.903737 0.896041 0.948795 0.756319 0.467512
threshold=24.509698850000003 8.5000000000000018 23.484262000000005 21.453889000000004 23.739088700000003 0.32895936568343481 22.838808000000004 0.23532802869600003 11.991666666666669 0.35763571188556498 210.50000000000003 23.237088500000002 23.901877633333338 23.554789500000002 13.500000000000002 0.30058017517680508 24.901874500000002 24.906628000000001 22.807686000000004 24.525064500000003 24.151906000000004 4.1350355149214924 0.58130963245132083 0.19749868830126402 2.5000000000000004 1.6986690000000007 23.100540000000002 23.556929500000003 23.130772250000003 2.5000000000000004
decision_type=2 2 2 2 2 2 2 2 2 2 2 2 2 2 2 2 2 2 2 2 2 10 2 2 2 8 2 2 2 2
left_child=2 -2 6 -4 10 -3 23 -6 12 -8 24 -12 13 18 15 -15 17 29 -9 20 21 -17 -22 -1 -5 26 28 -28 -26 -11
right_child=1 5 3 4 7 -7 9 8 -10 16 11 -13 -14 14 -16 19 -18 -19 -20 -21 22 -23 -24 -25 25 -27 27 -29 -30 -31
leaf_value=-0.019896521938962762 0.013985043052902194 0.013985043051295313 0.024179474230296732 0.0031640807977398985 0.007294854278226715 -0.0057857209431721561 -0.0043123541103697585 0.023887001075764729 0.014618561395093595 0.0044756318742586445 0.013537748534507871 0.026530555658567045 0.0029665965334858381 0.010062439851658313 0.0090315350638944508 0.0017022874932738736 0.025064957934724789 0.023012014710317122 0.01482325834820488 0.011203856094655637 0.019364881240140849 0.028851935400235569 0.0041647823947072084 -0.0058137663665487095 0.010032537124454814 0.00018604781086657631 -0.00040835370112868595 0.0087206456213473338 0.0089354537020395076 0.0048367111619484378
leaf_weight=14923 50 20 20 1000 24 34 1539 33 34 2465 40 21 202 28 35 121 26 30 213 25 24 40 22 5600 37 196 63 20 39 570
leaf_count=14923 50 20 20 1000 24 34 1539 33 34 2465 40 21 202 28 35 121 26 30 213 25 24 40 22 5600 37 196 63 20 39 570
internal_value=-0.000149868 0.0162692 -0.000212212 0.00163713 0.00152334 0.00425 -0.000376684 0.00295787 0.00268629 0.000241361 0.000711865 0.00465984 0.0023994 0.00307625 0.00443644 0.00375 0.000569962 0.000522431 0.00144512 0.003 0.00243841 0.00148603 0.00577174 -0.000516115 0.000534134 0.00153169 0.00321226 0.00105723 0.00556579 0.000475701
internal_weight=27494 104 27390 2237 2217 54 25153 801 777 4630 1416 61 743 541 295 260 3091 3065 246 232 207 161 46 20523 1355 355 159 83 76 3035
internal_count=27494 104 27390 2237 2217 54 25153 801 777 4630 1416 61 743 541 295 260 3091 3065 246 232 207 161 46 20523 1355 355 159 83 76 3035
is_linear=0
shrinkage=0.03


Tree=19
num_leaves=31
num_cat=0
split_feature=48 6 51 7 19 7 6 44 55 8 14 10 19 38 6 6 10 7 43 17 44 17 22 56 56 40 29 14 53 17
split_gain=31.2789 18.0288 8.19031 2.35714 2.2403 2.98811 6.42903 1.90172 1.65525 1.2305 0.988972 0.868604 0.820042 1.26812 0.761042 1.42629 2.58232 2.20012 1.62401 1.93251 2.04528 1.17315 1.02989 0.826331 0.731419 0.540772 1.11055 0.992958 0.531595 0.725039
threshold=24.509698850000003 8.5000000000000018 23.135329300000006 19.500000000000004 23.781942500000003 13.500000000000002 10.500000000000002 23.560623000000003 0.35058247880652432 1.5000000000000002 0.58467605608360063 1.5000000000000002 24.696130500000002 22.129260500000004 12.500000000000002 13.500000000000002 1.5000000000000002 14.500000000000002 23.349325500000003 1.7405570000000004 23.748307000000004 1.3335535000000003 23.397710000000004 0.94884750000000129 0.10933900000000031 22.888683500000003 24.088837000000002 3.2378840806645557 0.46529427183680055 1.5238720000000003
decision_type=2 2 2 2 2 2 2 2 2 2 8 2 2 2 2 2 2 2 2 10 2 10 2 2 2 2 2 10 2 10
left_child=2 -2 8 -3 10 6 7 -6 -1 -8 -4 12 -10 -14 23 18 -17 -18 -16 20 21 24 -22 -12 -20 26 27 -7 -13 -30
right_child=1 3 4 -5 5 25 9 -9 11 -11 14 28 13 -15 15 16 17 -19 19 -21 22 -23 -24 -25 -26 -27 -28 -29 29 -31
leaf_value=-0.016131152532022134 0.013565491761315145 0.013565491759756441 0.025886335807285218 -0.0088822433404806642 0.0116443323744513 -0.0040363021518188659 0.018013906732334644 0.010837652281454882 -0.0058685573983022227 0.0010997222638709507 -0.00024143632615796398 0.0012528350616946181 0.025078101556644843 -0.018811936344479606 0.0032340493187719469 -0.0025453465479356101 0.021223180997561857 0.011420877134795664 0.0027629162732442513 -0.00048696494816132647 0.030306101422930151 0.028397694736683118 0.018980042755713699 0.0096767529219562772 0.0090631974775843265 0.010226269283588062 0.011421109110221541 0.010173731294478917 0.0074781767317036703 0.045395761749095639
leaf_weight=15418 50 21 24 33 35 47 36 24 7615 93 1043 511 21 25 258 778 27 40 93 85 28 32 30 33 30 646 24 24 211 159
leaf_count=15418 50 21 24 33 35 47 36 24 7615 93 1043 511 21 25 258 778 27 40 93 85 28 32 30 33 30 646 24 24 211 159
internal_value=-0.000152051 0.0162692 -0.000214402 0.00425 0.00115671 0.00241469 0.00579255 0.0139958 -0.000410684 0.0020407 0.000689425 -7.56841e-05 -0.000178272 0.00381522 0.000630703 0.00109154 0.000315089 0.00596642 0.00227158 0.0037802 0.00530634 0.00350807 0.0101121 3.06699e-05 0.00217683 0.00155769 0.00367105 0.00178521 0.000816403 0.00168243
internal_weight=27494 104 27390 54 3430 929 188 59 23960 129 2501 8542 7661 46 2477 1401 845 67 556 298 213 155 58 1076 123 741 95 71 881 370
internal_count=27494 104 27390 54 3430 929 188 59 23960 129 2501 8542 7661 46 2477 1401 845 67 556 298 213 155 58 1076 123 741 95 71 881 370
is_linear=0
shrinkage=0.03


Tree=20
num_leaves=31
num_cat=0
split_feature=48 6 9 32 48 7 6 9 54 48 8 36 57 25 54 6 59 8 17 26 38 43 49 42 59 34 55 7 57 35
split_gain=32.3916 17.2365 8.51075 2.80936 2.53675 3.6967 5.38823 2.84598 2.22756 2.14592 1.78514 1.09531 1.00138 0.784248 0.717962 0.706739 0.956062 0.642034 1.06009 1.13806 0.955882 0.692534 0.68552 0.618803 0.747009 1.16667 0.593686 0.487342 0.454831 0.579098
threshold=24.509698850000003 8.5000000000000018 23.484262000000005 21.434912500000003 23.739088700000003 13.500000000000002 10.500000000000002 24.085761000000002 0.32895936568343481 22.813169800000004 1.5000000000000002 22.661611000000004 405.50000000000006 24.901874500000002 0.46637647433844776 10.500000000000002 10.991666666666669 2.5000000000000004 1.6986690000000007 23.100540000000002 23.556929500000003 23.610656000000002 23.184823050000006 22.094036000000006 11.991666666666669 23.146615000000004 0.35058247880652432 18.500000000000004 45.500000000000007 24.906628000000001
decision_type=2 2 2 2 2 2 2 2 2 2 2 2 2 2 2 2 2 2 8 2 2 2 2 2 2 2 2 2 2 2
left_child=2 -2 9 -4 12 6 7 -6 -3 14 -8 -7 17 26 -1 27 -17 -5 19 21 -21 22 -19 -16 -25 -26 -11 -13 29 -28
right_child=1 8 3 4 5 11 10 -9 -10 13 -12 15 -14 -15 23 16 -18 18 -20 20 -22 -23 -24 24 25 -27 28 -29 -30 -31
leaf_value=-0.017029770757282577 0.013158527008475666 0.01315852700696375 0.023630146725336833 0.0028311406603281496 0.010061071486527092 0.023456061245292245 0.0083534366660830781 0.010883707731522847 -0.0059012629285496573 -0.0035588931842753333 0.00060407598441616472 0.0086061518195169259 0.023028584823099274 0.02132086920500844 -0.01928612571132499 0.016282204067359293 0.027057966249866384 0.00843714229577135 9.5023210982190446e-05 -0.00061996018810447819 0.0077431976278751298 0.018237167166162339 0.0052147934197693422 0.0024033765343027466 0.059449805476056772 -0.013881422779982062 0.0025432722959262558 -0.0032797451321276397 0.010909340219930962 0.022365447586227404
leaf_weight=17459 50 20 20 1023 28 29 27 27 34 1426 68 25 31 32 1177 388 29 36 196 65 20 21 23 1645 21 21 2670 181 673 29
leaf_count=17459 50 20 20 1023 28 29 27 27 34 1426 68 25 31 32 1177 388 29 36 196 65 20 21 23 1645 21 21 2670 181 673 29
internal_value=-0.000153142 0.0165577 -0.000216593 0.00155666 0.00145568 0.00280362 0.00705 0.0145227 0.00480556 -0.000374299 0.00272368 0.00182669 0.000691697 0.0001941 -0.000509385 0.0015614 0.00227158 0.000572255 0.00165997 0.00343182 0.00101471 0.006 0.00433475 -6.91334e-05 0.0002992 0.00425 0.000162881 0.000123787 0.000379894 0.00020591
internal_weight=27494 104 27390 2237 2217 802 150 55 54 25153 95 652 1415 4830 20323 623 417 1384 361 165 85 80 59 2864 1687 42 4798 206 3372 2699
internal_count=27494 104 27390 2237 2217 802 150 55 54 25153 95 652 1415 4830 20323 623 417 1384 361 165 85 80 59 2864 1687 42 4798 206 3372 2699
is_linear=0
shrinkage=0.03


Tree=21
num_leaves=31
num_cat=0
split_feature=48 6 9 31 48 7 6 9 36 20 8 36 25 8 17 26 38 43 6 59 55 49 40 29 54 41 36 47 30 50
split_gain=31.3204 18.0288 8.08539 2.35714 2.19451 3.77533 5.38823 2.84598 2.46145 1.95581 1.78514 0.98488 0.970295 0.806026 1.14134 1.18481 1.23187 0.919943 0.805829 0.956062 0.746707 0.68552 0.57098 0.500818 0.471985 0.465798 0.905571 0.470244 0.465384 0.422136
threshold=24.509698850000003 8.5000000000000018 23.484262000000005 24.404484500000006 23.739088700000003 13.500000000000002 10.500000000000002 24.085761000000002 21.440604000000004 22.725401000000002 1.5000000000000002 22.661611000000004 24.901874500000002 2.5000000000000004 1.6986690000000007 23.100540000000002 23.556929500000003 23.610656000000002 10.500000000000002 10.991666666666669 0.35058247880652432 23.184823050000006 22.786618000000004 24.703867000000006 0.38711744356668554 24.306791500000003 23.743636500000004 24.410309000000002 24.912451000000001 22.344388587500003
decision_type=2 2 2 2 2 2 2 2 2 2 2 2 2 2 8 2 2 2 2 2 2 2 2 2 2 2 2 2 2 2
left_child=2 -2 9 -3 8 6 7 -6 -4 24 -8 -7 20 23 15 17 -17 21 -13 22 -11 -15 -20 -10 -1 27 -27 -24 -22 -26
right_child=1 3 4 -5 5 11 10 -9 13 12 -12 18 -14 14 -16 16 -18 -19 19 -21 28 -23 25 -25 29 26 -28 -29 -30 -31
leaf_value=-0.017529685723195739 0.01276377119822142 -0.0055951679309066832 0.02448474394387919 0.012763771196754802 0.0097592393419313282 0.021227844296490647 0.0081028335661005504 0.010557196499577159 0.0020844287971751412 -0.0046497995867670772 0.00058595370488368056 -9.3673406039765662e-05 0.022031859501070328 0.008184028026898181 0.00027718841308379183 -0.00063535419655056963 0.010745183755723857 0.018311652694692784 0.013071006726698843 0.026246227262370376 0.0034364554817878376 0.0050583496171763111 0.011835036369636429 0.021542252748097863 -0.017251523124610636 -0.0022895471637448439 0.026220849288980951 0.018969858733436994 0.020941658868233789 0.00017337721032666806
leaf_weight=15052 50 33 20 21 28 31 27 27 1023 2033 68 206 28 36 198 67 22 22 26 29 3644 23 289 22 2058 25 22 26 32 2306
leaf_count=15052 50 33 20 21 28 31 27 27 1023 2033 68 206 28 36 198 67 22 22 26 29 3644 23 289 22 2058 25 22 26 32 2306
internal_value=-0.000162962 0.0162692 -0.000225355 0.00425 0.00150302 0.00275746 0.00705 0.0145227 0.000799198 -0.000379069 0.00272368 0.00177294 0.000107592 0.000651275 0.0018587 0.00366177 0.00127247 0.00628704 0.00151324 0.00227158 8.02687e-05 0.00433475 0.00187887 0.000226077 -0.000522867 0.00157044 0.00435638 0.00115476 0.00033542 -0.000248166
internal_weight=27494 104 27390 54 2237 804 150 55 1433 25153 95 654 5737 1413 368 170 89 81 623 417 5709 59 388 1045 19416 362 47 315 3676 4364
internal_count=27494 104 27390 54 2237 804 150 55 1433 25153 95 654 5737 1413 368 170 89 81 623 417 5709 59 388 1045 19416 362 47 315 3676 4364
is_linear=0
shrinkage=0.03


Tree=22
num_leaves=31
num_cat=0
split_feature=48 6 9 54 32 48 7 6 34 48 8 8 17 26 49 38 50 35 54 48 14 59 53 56 29 35 39 46 46 32
split_gain=31.3288 18.0288 7.38254 2.55 2.19864 1.8318 3.2539 5.56086 2.85836 1.72073 1.45213 1.11458 1.02876 1.108 1.09733 0.998295 0.909138 0.762809 0.733972 0.668605 0.665427 0.583394 1.16153 0.577119 0.504069 0.415481 0.413269 0.831481 0.685057 0.62026
threshold=24.509698850000003 8.5000000000000018 23.439918500000005 0.32895936568343481 21.434912500000003 23.739088700000003 13.500000000000002 10.500000000000002 23.450917500000003 22.813169800000004 1.5000000000000002 2.5000000000000004 1.6986690000000007 23.100540000000002 23.130772250000003 23.556929500000003 23.271821262500001 22.577223000000004 0.46637647433844776 23.079264400000003 1.4771240661033627 11.991666666666669 0.59099167098889971 1.0860415000000005 24.703867000000006 24.906628000000001 22.239514500000002 23.019306000000004 23.329497000000003 22.287794750000003
decision_type=2 2 2 2 2 2 2 2 2 2 2 2 8 2 2 2 2 2 2 2 8 2 2 2 2 2 2 2 2 2
left_child=2 -2 9 -3 -4 11 7 8 -7 18 -9 24 13 14 19 -15 -16 -8 -1 -13 -19 -20 -23 -22 -6 26 27 29 -29 -11
right_child=1 3 4 -5 5 6 17 10 -10 25 -12 12 -14 15 16 -17 -18 20 21 -21 23 22 -24 -25 -26 -27 -28 28 -30 -31
leaf_value=-0.016062212287415889 0.012380858062274727 0.012380858060852127 0.022186700005260285 -0.0056527548665203133 0.0014730596764902031 0.010215397153103916 0.014062527500792055 0.0078597485591175853 0.009290972827301092 -0.0087144040392128797 -2.6602211697858977e-05 0.017321618276167922 0.00063565593364679946 -0.00015204736282281345 0.010820874575726244 0.010173789418811887 0.01553727215588376 0.025770892930805346 -0.003039182968567236 -0.0063446959441005746 0.0081823228192984144 -0.01867167064968548 0.057661109995465268 0.034173750461818399 0.020895985165654916 0.017408951014232281 9.8311694932845929e-05 0.023373730790410017 0.004618816065756033 0.021530186976584438
leaf_weight=17427 50 20 20 34 1171 31 24 27 24 251 76 20 216 71 23 24 21 27 2778 23 607 47 24 23 22 37 4101 23 28 224
leaf_count=17427 50 20 20 34 1171 31 24 27 24 251 76 20 216 71 23 24 21 27 2778 23 607 47 24 23 22 37 4101 23 28 224
internal_value=-0.000165144 0.0162692 -0.000227546 0.00425 0.00134388 0.00126235 0.0023966 0.00627532 0.0139773 -0.000381916 0.00216262 0.000664206 0.00203895 0.00370055 0.00614655 0.00146053 0.00947727 0.0014967 -0.00050143 0.00273837 0.0013048 -5.50186e-05 0.00263028 0.00110714 0.000205575 0.000137651 0.000112331 0.000903993 0.00454412 0.000513159
internal_weight=27494 104 27390 54 2450 2430 839 158 55 24940 103 1591 398 182 87 95 44 681 20276 43 657 2849 71 630 1193 4664 4627 526 51 475
internal_count=27494 104 27390 54 2450 2430 839 158 55 24940 103 1591 398 182 87 95 44 681 20276 43 657 2849 71 630 1193 4664 4627 526 51 475
is_linear=0
shrinkage=0.03


Tree=23
num_leaves=31
num_cat=0
split_feature=48 47 9 43 32 48 54 31 24 57 8 17 26 42 14 52 15 54 53 43 27 14 53 33 55 54 42 50 54 9
split_gain=30.2509 17.4396 7.06153 3.21429 2.21498 1.83594 1.81858 1.81667 1.11911 1.02349 0.815498 0.822068 1.14754 0.751881 0.977016 0.716244 0.712063 1.18241 0.806931 0.698063 0.62924 0.931795 0.539448 0.505561 0.496412 1.04193 1.61879 1.31808 0.536252 0.455723
threshold=24.509698850000003 22.490483500000007 23.439918500000005 23.941203250000004 21.434912500000003 23.739088700000003 0.23532802869600003 22.888441000000004 22.733965500000004 405.50000000000006 2.5000000000000004 1.4388120000000004 23.100540000000002 23.790346250000002 1.5962570478619107 0.18482032698173598 4.3350502143824352 0.3636382474080595 0.7765699350272196 23.202756000000004 23.293830000000003 3.8042333773004513 0.86223921433811179 22.278544500000002 0.43827072143992468 0.48002746211440911 22.925490500000002 23.902877887500001 0.68926259082305241 23.598334500000004
decision_type=2 2 2 2 2 2 2 2 2 2 2 8 2 2 8 2 10 2 2 2 2 10 2 2 2 2 2 2 2 2
left_child=2 -2 7 -3 -4 9 -7 15 -8 10 -6 12 20 14 -10 22 18 -18 24 -19 21 -12 -1 -24 -16 26 -26 -28 -27 -13
right_child=1 3 4 -5 5 6 8 -9 13 -11 11 29 -14 -15 16 -17 17 19 -20 -21 -22 -23 23 -25 25 28 27 -29 -30 -31
leaf_value=-0.018989860009827508 0.012009432320536117 -0.00023000138047769028 0.021521099005102469 0.012009432319026594 0.0014693942471671602 0.0060289130330871054 0.010653965482969537 0.0020222292869702713 0.024137722617026951 0.021726996014054169 0.012472488371360854 0.0030625674416465292 0.00027521628724589905 0.008005703462401469 0.00042180532421535712 -0.0054196007546057166 0.0085450703999458196 0.0066607428239492074 0.028570164959240914 0.00053474589378656125 0.0038514873161827603 0.015322637536371583 0.044441943298552854 -0.008627858021958628 -0.0048982487607301091 9.0248264584254226e-05 0.025672705042820022 0.008700542017524333 0.012634341640942232 -0.00047977099843645257
leaf_weight=14136 48 36 20 20 1169 24 22 4283 22 31 34 74 79 275 141 6478 20 24 22 35 24 24 23 20 28 136 20 34 36 156
leaf_count=14136 48 36 20 20 1169 24 22 4283 22 31 34 74 79 275 141 6478 20 24 22 35 24 24 23 20 28 136 20 34 36 156
internal_value=-0.000168418 0.0159808 -0.000229736 0.00460714 0.00130714 0.00122531 0.00236085 -0.000380713 0.00212117 0.000626493 0.000519231 0.00170524 0.00334938 0.001936 0.00260907 -0.0004973 0.00233468 0.0049462 0.00183993 0.00280932 0.00583537 0.00752586 -0.000616704 0.00273837 0.00152848 0.00232087 0.00510366 0.00813889 0.000994187 0.000554349
internal_weight=27494 104 27390 56 2450 2430 839 24940 815 1591 1560 391 161 793 518 20657 496 79 417 59 82 58 14179 43 395 254 82 54 172 230
internal_count=27494 104 27390 56 2450 2430 839 24940 815 1591 1560 391 161 793 518 20657 496 79 417 59 82 58 14179 43 395 254 82 54 172 230
is_linear=0
shrinkage=0.03


Tree=24
num_leaves=31
num_cat=0
split_feature=48 6 9 26 19 7 6 44 31 36 8 54 44 25 14 25 7 15 52 20 6 14 30 30 59 31 20 53 33 3
split_gain=30.2223 18.839 6.76912 2.01481 1.89702 3.96128 4.86751 2.08325 1.70329 1.55367 1.54045 0.960075 1.18579 1.11185 1.51792 0.941202 0.861529 0.833333 0.738343 0.603589 0.569264 0.803956 0.65941 1.09299 0.589368 0.579708 0.544183 0.535374 0.505561 0.473364
threshold=24.509698850000003 8.5000000000000018 23.439918500000005 24.518559500000006 23.781942500000003 13.500000000000002 10.500000000000002 23.560623000000003 22.888441000000004 22.277638500000005 1.5000000000000002 0.42895792778998049 23.151992000000003 23.520942500000004 1.8583208570113137 23.882848000000003 26.500000000000004 4.6162231390530799 0.18482032698173598 23.828491000000003 11.500000000000002 4.6192968313623917 23.523698500000005 23.581107000000003 10.008333333333335 24.910896500000003 21.785071000000006 0.86223921433811179 22.278544500000002 3.3412340000000005
decision_type=2 2 2 2 2 2 2 2 2 2 2 2 2 2 8 2 2 8 2 2 2 8 2 2 2 2 2 2 2 2
left_child=2 -2 8 -3 11 6 7 -6 18 -7 -8 -4 26 19 -15 17 -17 -16 27 -14 -10 22 -22 -24 -25 -23 -13 -1 -29 -20
right_child=1 3 4 -5 5 9 10 -9 20 -11 -12 12 13 14 15 16 -18 -19 29 -21 21 25 23 24 -26 -27 -28 28 -30 -31
leaf_value=-0.018420164209532665 0.011649149350790382 -0.00021101184487692522 -5.6795422029733054e-05 0.011649149349455818 0.0099012850951280765 0.012309672773882572 0.018606426291470038 0.0090594693207483919 -0.0025026704944529497 0.009995390992205996 -0.00079945105350106454 0.020875466034949389 0.0024134948491990756 0.023446419749953023 0.024085468699115119 0.011159270451235872 -0.001533565625118056 0.032454452051094533 -0.020848565047287458 0.042186487756198869 0.0050554654048712939 -0.00066000975054011078 0.01967454872231238 0.014944531810892553 0.021503575444272963 0.02184305880153798 0.0022605860692341303 0.043108684999596317 -0.0083690222812998327 -0.0019838456475882514
leaf_weight=14136 50 34 822 20 34 20 21 24 1247 628 58 20 190 21 40 21 55 20 1478 30 940 1839 22 187 27 21 446 23 20 5000
leaf_count=14136 50 34 822 20 34 20 21 24 1247 628 58 20 190 21 40 21 55 20 1478 30 940 1839 22 187 27 21 446 23 20 5000
internal_value=-0.00016078 0.0159808 -0.000222069 0.00369445 0.00128265 0.00249841 0.00713321 0.0137328 -0.000369887 0.00151852 0.00228798 0.00070946 0.00142082 0.00267175 0.00460032 0.00344118 0.00122368 0.00625 -0.000482778 0.00129546 0.000174586 0.000396246 0.0010102 0.00242797 0.00177337 8.06523e-06 0.000408799 -0.000604009 0.00273837 -0.000217428
internal_weight=27494 104 27390 54 2450 785 137 58 24940 648 79 1665 843 377 157 136 76 60 20657 220 4283 3036 1176 236 214 1860 466 14179 43 6478
internal_count=27494 104 27390 54 2450 785 137 58 24940 648 79 1665 843 377 157 136 76 60 20657 220 4283 3036 1176 236 214 1860 466 14179 43 6478
is_linear=0
shrinkage=0.03


Tree=25
num_leaves=31
num_cat=0
split_feature=48 6 19 20 26 7 6 44 39 15 37 55 7 14 25 17 30 17 32 31 52 55 57 17 23 23 34 19 7 52
split_gain=29.1959 17.9648 5.43443 2.19605 2.01481 1.52349 4.37035 4.725 1.65 1.29985 1.16578 0.848096 1.10294 0.960475 1.23032 0.861967 0.893449 1.23075 0.879633 0.825084 0.822145 0.744048 0.570273 0.529349 0.588955 0.611111 0.55 0.543054 0.702359 0.712292
threshold=24.509698850000003 8.5000000000000018 23.703745000000001 22.935546500000004 24.518559500000006 13.500000000000002 10.500000000000002 23.560623000000003 23.295003000000005 4.8512628607071582 21.558299000000002 0.42064007472260773 45.500000000000007 2.7404941734301214 23.999946000000005 1.0262960000000003 22.838407500000002 1.6601850000000007 22.900195000000004 24.525064500000003 0.19749868830126402 0.52467497465590829 405.50000000000006 1.7771490000000005 23.381318000000004 23.736530500000004 22.627325000000003 22.899206500000002 4.5000000000000009 0.23511561010784485
decision_type=2 2 2 2 2 2 2 2 2 10 2 2 2 8 2 10 2 10 2 2 2 2 2 10 2 2 2 2 2 2
left_child=2 -2 3 20 -3 6 7 8 -4 -8 -7 -5 13 14 15 -13 -17 18 -18 -15 -1 -19 23 -22 27 26 -26 -25 -29 -30
right_child=1 4 5 11 -6 10 9 -9 -10 -11 -12 12 -14 19 -16 16 17 21 -20 -21 22 -23 -24 24 25 -27 -28 28 29 -31
leaf_value=-0.0156159986069949 0.011299674870266636 -0.00020468148953066065 -0.003776147684925177 -0.00045025714794111251 0.011299674868972147 0.011940382590666137 0.00030825878464947934 0.0087876852411258935 0.009621938293713387 0.020039044708147134 0.0075557374613748236 0.00035184074418542224 -0.0017415199094917592 0.014854747115716315 0.02386918954588825 0.0054256787497008489 0.023056333474530337 -0.0012372887825246924 0.023306208501915674 0.019014833756189144 -0.0060258809297401615 0.028447633221761196 0.017671667238193828 -0.0036841608114129678 0.019420858441747124 -0.011727303694486688 0.011044335288222218 0.020834753664597031 0.015378667685083499 0.0051883306765370136
leaf_weight=15423 50 34 27 2130 20 20 171 24 33 26 1185 152 680 1112 35 77 21 35 32 35 4866 21 46 867 36 33 30 20 30 223
leaf_count=15423 50 34 27 2130 20 20 171 24 33 26 1185 152 680 1112 35 77 21 35 32 35 4866 21 46 867 36 33 30 20 30 223
internal_value=-0.000172782 0.0156923 -0.000233022 -0.000334233 0.00369445 0.00153129 0.00352046 0.00925 0.00475 0.00107741 0.00106743 0.000282333 0.000695455 0.00114474 0.00246716 0.00191272 0.00328226 0.00502982 0.0083066 0.000714691 -0.000457981 0.00192857 -0.000164729 -0.000189803 0.000363802 0.00258333 0.00425 0.000171053 0.00133791 0.00091008
internal_weight=27494 104 27390 25904 54 1486 281 84 60 197 1205 4330 2200 1520 373 338 186 109 53 1147 21574 56 6151 6105 1239 99 66 1140 273 253
internal_count=27494 104 27390 25904 54 1486 281 84 60 197 1205 4330 2200 1520 373 338 186 109 53 1147 21574 56 6151 6105 1239 99 66 1140 273 253
is_linear=0
shrinkage=0.03


Tree=26
num_leaves=31
num_cat=0
split_feature=48 6 9 53 46 9 7 50 47 51 2 55 7 46 57 55 53 7 42 9 14 25 14 46 17 35 32 20 54 2
split_gain=29.2079 16.3396 5.70222 2.68886 2.55 2.4395 0.975347 1.13615 2.61567 1.12277 1.10245 0.957784 1.02022 1.30236 1.06795 0.910699 0.723742 0.576084 0.636098 0.791479 0.669988 1.48052 0.786985 0.663603 0.573405 0.557041 0.677583 0.527858 0.52228 0.473063
threshold=24.509698850000003 8.5000000000000018 23.821539000000005 1.0035133477646265 23.835127000000004 22.796356000000003 36.500000000000007 23.460293637500005 22.710173000000001 23.901877633333338 7.9570635000000012 0.50073827731422582 22.500000000000004 23.424252500000005 59.500000000000007 0.42064007472260773 0.21709392081935905 45.500000000000007 22.078102000000005 22.806799000000002 2.7404941734301214 23.999946000000005 2.1807406668214617 23.403014000000002 -0.42012500000000003 23.082264500000004 22.807428500000004 24.222181000000003 0.35274690169872375 10.810244500000001
decision_type=2 2 2 2 2 2 2 2 2 2 2 2 2 2 2 2 2 2 2 2 8 2 10 2 8 2 2 2 2 2
left_child=2 -2 5 6 -3 16 7 24 -9 10 -10 12 13 -12 -15 -7 -1 18 -17 -20 21 22 28 25 -4 26 -24 -13 -21 -18
right_child=1 4 3 -5 -6 15 -8 8 9 -11 11 27 -14 14 -16 17 29 -19 19 20 -22 -23 23 -25 -26 -27 -28 -29 -30 -31
leaf_value=-0.019091614283915915 0.010960684624158668 -0.0055061148393198691 0.0063462215477355713 0.0094925059078546318 0.010960684622902974 -0.00080962355236815738 0.0069389488650032612 0.014739388210162428 -0.0024411209022508376 -0.0019708709363430487 0.013898284952397299 0.0057227361437050053 0.025363734089747236 -0.000726780702926791 0.0081945229857999687 -0.0029124107730587523 -0.0027564293057244973 -8.5672002426149304e-05 0.018984702015827956 0.020412908759663027 0.0076779037657954269 0.024611267754500989 0.012907489437306557 0.00098495845484658159 0.0041642946323410006 0.0040675605103760518 0.02293283132910668 0.011419637871432858 4.5832679029646155e-05 -0.020395508257857724
leaf_weight=13161 50 34 25 24 20 3048 518 31 50 92 26 57 23 34 26 241 5761 826 25 30 1166 39 21 32 244 24 23 21 199 1623
leaf_count=13161 50 34 25 24 20 3048 518 31 50 92 26 57 23 34 26 241 5761 826 25 30 1166 39 21 32 244 24 23 21 199 1623
internal_value=-0.000176056 0.0156923 -0.000236308 0.00181191 0.00425 -0.000327786 0.00160397 0.00239785 0.0035 0.00271505 0.00380696 0.00486497 0.00668119 0.00518023 0.00275 0.000222859 -0.000479861 0.000632331 0.000933334 0.00115507 0.00106878 0.00218478 0.00152964 0.00375 0.000922863 0.00542647 0.00743182 0.00232692 0.000560044 -0.000242144
internal_weight=27494 104 27390 1171 54 26219 1147 629 360 329 237 187 109 86 60 5674 20545 2626 1800 1559 1534 368 329 100 269 68 44 78 229 7384
internal_count=27494 104 27390 1171 54 26219 1147 629 360 329 237 187 109 86 60 5674 20545 2626 1800 1559 1534 368 329 100 269 68 44 78 229 7384
is_linear=0
shrinkage=0.03


Tree=27
num_leaves=31
num_cat=0
split_feature=48 6 9 31 43 52 7 20 55 53 59 36 55 53 15 52 15 37 54 9 59 52 52 53 47 42 6 47 30 54
split_gain=28.1715 17.1113 5.17367 2.13915 2.01481 1.81518 1.52515 1.32701 1.61102 2.24977 1.39296 1.00119 1.00087 0.764898 1.23821 0.719669 0.686786 0.586287 0.577235 0.684098 0.521196 1.00159 2.57302 0.503974 0.494202 0.486111 0.472614 0.925357 0.497199 0.748448
threshold=24.509698850000003 8.5000000000000018 23.732680000000006 22.899790500000005 23.835127000000004 1.0799270838352784 36.500000000000007 23.253659500000001 0.43827072143992468 0.35297401082028251 11.991666666666669 22.878187000000004 0.69179584461832289 0.47753644483108976 4.1949176278260571 0.18482032698173598 4.9313600830674593 23.789895000000005 0.34659582555184437 22.785888500000002 10.991666666666669 0.39833722925681786 0.28446856158652933 0.86223921433811179 24.410309000000002 22.321055500000003 10.500000000000002 21.992163250000004 23.161912000000004 0.37728643523314248
decision_type=2 2 2 2 2 2 2 2 2 2 2 2 2 2 8 2 10 2 2 2 2 2 2 2 2 2 2 2 2 2
left_child=2 -2 3 15 -3 6 7 17 16 -10 11 12 -11 14 -13 23 -9 -4 -5 -20 26 22 -22 -1 -8 -25 -21 -28 -29 -30
right_child=1 4 5 18 -6 -7 24 8 9 10 -12 13 -14 -15 -16 -17 -18 -19 19 20 21 -23 -24 25 -26 -27 27 28 29 -31
leaf_value=-0.016491339934195364 0.010631864085433897 -0.00028374730384683939 -0.00075793404384398696 -0.00087145496073474124 0.010631864084215934 0.033133128299008607 0.0013860996849663248 0.0038549391329630849 0.024042920973917338 0.029606870815751855 0.026824130931510971 0.023192348318635717 0.0080013182365221633 0.0064562909842845384 -0.0028773579432812492 -0.0040098889196096632 0.007141447259271635 0.0080201685767915809 -0.000545094675456861 -0.0036194827502391892 0.011664849048160834 -0.0026947555373949272 0.024721248782869496 -0.014898687707022438 0.014243774786391671 0.042366597286990063 0.015058989135852812 0.00068164166876990369 0.024143053415769215 0.0096310255839424114
leaf_weight=14266 50 34 197 1692 20 27 593 229 36 20 20 32 22 115 21 6798 20 20 1437 272 50 45 24 21 32 24 38 486 56 797
leaf_count=14266 50 34 197 1692 20 27 593 229 36 20 20 32 22 115 21 6798 20 20 1437 272 50 45 24 21 32 24 38 486 56 797
internal_value=-0.00018042 0.0154038 -0.000239594 -0.000334711 0.00369445 0.00154769 0.00139444 0.00232377 0.00315291 0.00477632 0.00368478 0.00296429 0.00710714 0.00192857 0.00491038 -0.00046576 0.00141868 0.000355991 0.000230193 0.000466849 0.000861992 0.00277941 0.00492568 -0.000586489 0.000306001 0.00258333 0.000723621 0.000949347 0.000818335 0.00125469
internal_weight=27494 104 27390 26006 54 1384 1357 732 515 266 230 210 42 168 53 21109 249 217 4897 3205 1768 119 74 14311 625 45 1649 1377 1339 853
internal_count=27494 104 27390 26006 54 1384 1357 732 515 266 230 210 42 168 53 21109 249 217 4897 3205 1768 119 74 14311 625 45 1649 1377 1339 853
is_linear=0
shrinkage=0.03


Tree=28
num_leaves=31
num_cat=0
split_feature=48 6 9 26 57 48 7 6 48 55 35 14 55 42 42 20 7 16 7 15 52 59 5 52 56 24 9 53 19 25
split_gain=28.1754 17.1113 4.92005 2.01481 1.72888 1.45983 1.54342 4.20336 2.52695 0.947182 0.692489 0.848529 0.582007 0.611597 0.692832 0.562504 0.485381 1.06361 0.528535 1.07701 0.92271 0.613907 0.692078 0.481425 0.659333 0.694869 0.69373 0.993586 0.731268 0.697543
threshold=24.509698850000003 8.5000000000000018 22.947023500000004 24.518559500000006 885.00000000000011 23.701094800000003 13.500000000000002 10.500000000000002 24.007748500000002 0.35058247880652432 22.577223000000004 2.1807406668214617 0.42064007472260773 23.036127000000004 23.066439000000006 22.636970500000004 44.500000000000007 5.0711215000000012 38.500000000000007 4.2718054743038056 0.48928874268863426 11.991666666666669 4.1143920000000014 0.53701900214904963 -0.27134024999999967 23.003082500000001 23.935615250000005 0.31634780943738972 23.939196000000006 23.606055000000001
decision_type=2 2 2 2 2 2 2 2 2 2 2 10 2 2 2 2 2 10 2 8 2 2 2 2 2 2 2 2 2 2
left_child=2 -2 9 -3 5 12 7 8 -7 -1 11 -8 -4 -14 -15 -11 17 18 21 20 -20 -17 -23 24 25 -16 28 -28 -26 -29
right_child=1 3 4 -5 -6 6 10 -9 -10 15 -12 -13 13 14 23 16 -18 -19 19 -21 -22 22 -24 -25 26 -27 27 29 -30 -31
leaf_value=-0.015443227663938151 0.010312908162870919 -0.00027523488473143429 -0.00022665109407604513 0.010312908161689406 0.025405297178850036 0.0056297590636290237 0.0017529055044404819 0.0042729401379598009 0.0080025677300765742 -0.0092659961393624091 0.0078196453798398645 0.01360377910082107 0.0013423487725417577 0.020740402810297282 0.0063893156761630713 0.00046813569506842117 -0.0043130973217850631 0.053953081098593585 0.0136531717767144 0.0014983193703628093 0.066363323022064297 -0.0015546291794150703 0.024679108978889898 -0.0014881321035556164 0.0051707611935702955 0.028852247804835984 0.025074652202040946 0.00027323463802983173 0.012025088041259924 0.019689624401947072
leaf_weight=14493 50 34 2270 20 27 38 23 148 24 4960 833 22 1152 20 27 1430 756 24 41 151 38 28 22 206 489 46 21 59 22 20
leaf_count=14493 50 34 2270 20 27 38 23 148 24 4960 833 22 1152 20 27 1430 756 24 41 151 38 28 22 206 489 46 21 59 22 20
internal_value=-0.000181512 0.0154038 -0.000240689 0.00369445 0.000566322 0.000528599 0.00151103 0.00382143 0.010379 -0.000441017 0.000958429 0.00458333 0.000281857 0.000646703 0.00122802 -0.000166107 0.000201808 0.000478374 0.000390352 0.00172826 0.00456646 0.000182433 0.00345 0.00110393 0.00148684 0.00418151 0.00116489 0.00345 0.000717711 0.00190823
internal_weight=27494 104 27390 54 5447 5420 1088 210 62 21943 878 45 4332 2062 910 7450 2490 1734 1710 230 79 1480 50 890 684 73 611 100 511 79
internal_count=27494 104 27390 54 5447 5420 1088 210 62 21943 878 45 4332 2062 910 7450 2490 1734 1710 230 79 1480 50 890 684 73 611 100 511 79
is_linear=0
shrinkage=0.03


Tree=29
num_leaves=31
num_cat=0
split_feature=48 6 9 57 19 59 55 26 55 29 9 14 53 6 26 24 17 17 42 42 14 32 44 47 34 21 49 59 51 39
split_gain=17.9209 12.9918 4.525 1.74653 1.42361 1.06973 0.956109 0.787037 0.644714 0.567353 0.655564 0.989755 0.703966 0.632788 0.608777 0.586437 0.9 1.06563 0.537718 0.697534 0.879574 0.815579 0.709772 0.747075 0.779315 0.760083 0.852484 1.32964 0.523435 0.668975
threshold=24.509698850000003 8.5000000000000018 22.947023500000004 885.00000000000011 23.781942500000003 12.491666666666669 0.35058247880652432 24.518559500000006 0.37852390399666086 22.316608500000005 23.821539000000005 4.0501001143850095 0.30014628652559411 12.500000000000002 22.503548000000006 23.254516500000005 1.6459460000000004 1.0668135000000003 23.790346250000002 23.203058500000004 2.6587691524973711 23.887775500000004 24.092058500000004 23.261839000000002 23.450917500000003 23.939196000000006 23.741256400000001 8.7500000000000018 22.22105079166667 22.312162500000003
decision_type=2 2 2 2 2 2 2 2 2 2 2 10 2 2 2 2 10 10 2 2 8 2 2 2 2 2 2 2 2 2
left_child=2 -2 6 4 8 18 -1 -3 -4 -10 -11 12 13 -12 -14 -16 17 -17 19 -6 -21 22 23 24 -22 26 -25 -28 -8 -30
right_child=1 7 3 -5 5 -7 28 -9 9 10 11 -13 14 -15 15 16 -18 -19 -20 20 21 -23 -24 25 -26 -27 27 -29 29 -31
leaf_value=-0.014979930834020045 0.010003520917984817 -0.00026697783818946359 -0.00064429080045403254 0.024643138263484549 0.0072015185367521606 0.0074756424240408062 -0.017227671279296111 0.010003520916838688 -0.0064063476578465192 0.0052325521988035072 0.0038412573251228681 -0.0018984519778428423 0.028559191986801985 0.027134268920293258 -0.0064271866827455785 0.007445123651894113 0.0043513161086094201 0.027115839723755517 0.0017235530584371671 -0.0017466180352685213 0.01457944054548215 0.0020268177405146806 0.016605668761944279 0.001557188238039859 0.01759195130810429 -0.00085600736290702766 0.023230729275960635 0.0054589619432055822 0.011731187754746152 -0.003579718687471263
leaf_weight=14493 50 34 1761 27 321 31 2286 20 383 1809 23 126 25 33 89 59 80 21 279 85 33 78 20 43 23 53 23 22 1356 3808
leaf_count=14493 50 34 1761 27 321 31 2286 20 383 1809 23 126 25 33 89 59 80 21 279 85 33 78 20 43 23 53 23 22 1356 3808
internal_value=-0.00019897 0.0122308 -0.000246166 0.000527768 0.000489853 0.00150519 -0.000438283 0.00202778 0.000257032 0.000552871 0.000733444 0.00175 0.00261364 0.00567857 0.00198723 0.00153916 0.002625 0.004875 0.00133163 0.00177497 0.00264474 0.00341949 0.00436521 0.00381853 0.00675 0.00265426 0.00436364 0.00725 -0.00016208 5.22922e-06
internal_weight=27494 104 27390 5447 5420 1011 21943 54 4409 2648 2265 456 330 56 274 249 160 80 980 701 380 295 217 197 56 141 88 45 7450 5164
internal_count=27494 104 27390 5447 5420 1011 21943 54 4409 2648 2265 456 330 56 274 249 160 80 980 701 380 295 217 197 56 141 88 45 7450 5164
is_linear=0
shrinkage=0.03


Tree=30
num_leaves=31
num_cat=0
split_feature=48 6 9 9 54 18 57 44 26 10 19 15 29 52 14 46 38 38 42 22 59 38 21 19 54 44 15 26 55 3
split_gain=17.9367 12.9918 4.16822 1.77607 1.42516 1.46667 1.018 0.804125 0.787037 0.743039 0.722458 0.635212 0.730827 0.631051 0.617396 0.982093 0.967248 0.606353 1.0373 1.159 0.943323 1.01739 0.532127 0.516761 0.479182 0.467532 0.467133 0.857621 0.449466 0.442476
threshold=24.509698850000003 8.5000000000000018 22.796356000000003 23.821539000000005 0.83694392504347481 24.085761000000002 59.500000000000007 23.151992000000003 24.518559500000006 1.5000000000000002 23.781942500000003 4.7270608663513913 23.939814500000004 0.15895187623412457 2.561787957587073 23.403014000000002 23.500040000000002 23.425557000000001 23.891281000000003 24.220343500000002 10.008333333333335 23.947052000000003 23.827526000000002 22.797635000000003 0.34659582555184437 21.296586000000001 4.3737233705363474 23.273590000000002 0.74065074430201949 3.3412340000000005
decision_type=2 2 2 2 2 2 2 2 2 2 2 8 2 2 10 2 2 2 2 2 2 2 2 2 2 2 8 2 2 2
left_child=2 25 13 10 6 -6 7 -5 -3 23 24 -12 28 -1 -11 -16 -17 26 19 20 21 -19 -14 -9 -4 -2 -8 -28 -13 -15
right_child=1 8 3 4 5 -7 17 9 -10 14 11 12 22 29 15 16 -18 18 -20 -21 -22 -23 -24 -25 -26 -27 27 -29 -30 -31
leaf_value=-0.017185830674542116 0.011757902082528878 -0.00025896850304374136 -0.0010917659378339242 -0.0011287277726697777 0.0028774007370366297 0.0075594630998595935 0.01370857900463069 0.033885333379752129 0.0097034152893334981 0.011526508277252837 0.0051151626869894978 0.0071816417344043194 0.025315459528156344 -0.019691355714351783 0.0074089616221449306 0.014757065283768633 -0.0010625977205932641 0.017176734989845545 -0.0014771811478782343 0.0029108336129990099 0.012960578833721382 0.022008398297170172 0.0036277195801204015 0.0039474207992028221 0.0035036401661421171 0.0097034152896673369 0.026762102473633424 0.0010078428200330195 0.0099303600251910498 -0.0024983329710812226
leaf_weight=13315 28 34 2253 324 24 20 120 20 20 81 348 142 26 1622 26 26 42 26 28 26 24 20 34 295 2845 22 29 40 26 5608
leaf_count=13315 28 34 2253 324 24 20 120 20 20 81 348 142 26 1622 26 26 42 26 28 26 24 20 34 295 2845 22 29 40 26 5608
internal_value=-0.000204426 0.0122308 -0.000251642 0.000389519 0.00145325 0.00675 0.00124645 0.000687347 0.00202778 0.00145408 0.000169987 0.00117708 0.0024079 -0.000465258 0.00302143 0.00467553 0.00277941 0.00270048 0.00433065 0.0058125 0.00782143 0.010337 0.00525 0.000583334 5.61992e-05 0.02325 0.00163095 0.00359783 0.00139286 -0.000239626
internal_weight=27494 104 27390 6845 1171 44 1127 814 54 490 5674 576 228 20545 175 94 68 313 124 96 70 46 60 315 5098 50 189 69 168 7230
internal_count=27494 104 27390 6845 1171 44 1127 814 54 490 5674 576 228 20545 175 94 68 313 124 96 70 46 60 315 5098 50 189 69 168 7230
is_linear=0
shrinkage=0.03


Tree=31
num_leaves=31
num_cat=0
split_feature=48 6 9 9 53 55 7 15 55 51 50 17 44 17 20 26 54 33 51 24 7 34 33 44 28 47 33 16 24 56
split_gain=16.323 12.9375 3.9876 1.51141 1.66586 0.900662 0.667906 1.10679 0.744824 0.969996 1.99117 1.13955 0.654675 0.634615 0.526266 0.503704 0.496919 0.549755 0.676547 0.822358 0.461897 0.566167 0.886961 0.933414 0.871111 0.844086 0.670021 0.461709 0.435833 0.399233
threshold=24.509698850000003 8.5000000000000018 22.947023500000004 23.821539000000005 1.0035133477646265 0.35058247880652432 36.500000000000007 5.0110401988718687 0.40764776983607992 23.610532508333339 23.939538250000005 1.0995160000000002 21.296586000000001 2.0124380000000004 22.636970500000004 24.518559500000006 0.49846437255426651 24.151906000000004 23.739461466666672 23.399464500000004 42.500000000000007 22.081216500000004 23.527617500000002 23.790346250000002 23.494190500000006 22.029519500000003 23.325166000000003 5.3355770000000016 22.426727000000003 0.82854799999999973
decision_type=2 2 2 2 2 2 2 10 2 2 2 10 2 10 2 2 2 2 2 2 2 2 2 2 2 2 2 10 2 2
left_child=2 12 5 16 6 29 7 8 -5 28 11 -11 -2 -13 -7 -3 17 -4 19 -19 21 -18 23 25 -25 -23 -27 -16 -10 -1
right_child=1 15 3 4 -6 14 -8 -9 9 10 -12 13 -14 -15 27 -17 20 18 -20 -21 -22 22 -24 24 -26 26 -28 -29 -30 -31
leaf_value=-0.014019403550936714 0.011405165020053011 -0.00025119944795243238 -0.00020838870488850588 0.0012724705885291418 0.0073161661650033762 -0.0087479979657350548 0.00539374122510578 0.015014649318087147 0.01786751819354207 0.0066290004657398698 0.0017621901794778857 0.021633213766522087 0.0094123128309773103 0.013349246832808205 0.0017919428345779817 0.0094123128306534912 -0.0027895372279433516 0.0078066770250481959 0.001236607055845463 0.023955515432241878 -0.00020544726426810481 0.022487641193614013 3.0801471928173648e-06 0.015293814643881111 0.028561004603918191 0.01240671673723228 0.014541548313035602 0.051880149932503533 0.0037512791997560014 0.02121578776330512
leaf_weight=14457 28 34 3023 226 24 4960 518 23 26 31 58 22 22 26 2456 20 105 20 96 21 462 27 194 25 20 249 34 34 217 36
leaf_count=14457 28 34 3023 226 24 4960 518 23 26 31 58 22 22 26 2456 20 105 20 96 21 462 27 194 25 20 249 34 34 217 36
internal_value=-0.00020879 0.0116538 -0.000253833 0.000472692 0.00142763 -0.000434181 0.00126395 0.00192091 0.00167574 0.00248684 0.00450548 0.00760443 0.02265 0.0105 -0.000166107 0.00147222 0.000211179 1.89881e-05 0.00187774 0.00510366 0.000755377 0.00126835 0.00165437 0.00254578 0.00658333 0.00195968 0.00147615 0.00018976 0.00134877 -0.000571982
internal_weight=27494 104 27390 5447 1171 21943 1147 629 606 380 137 79 50 48 7450 54 4276 3160 137 41 1116 654 549 355 45 310 283 2490 243 14493
internal_count=27494 104 27390 5447 1171 21943 1147 629 606 380 137 79 50 48 7450 54 4276 3160 137 41 1116 654 549 355 45 310 283 2490 243 14493
is_linear=0
shrinkage=0.03


Tree=32
num_leaves=31
num_cat=0
split_feature=48 47 9 9 53 43 57 44 38 42 33 7 46 59 28 53 55 56 2 33 17 17 54 9 39 2 50 57 27 10
split_gain=16.308 11.3848 3.79246 1.69375 1.67679 1.15714 0.796873 0.763408 0.748807 1.0373 0.774107 0.768254 0.744289 0.870195 0.728139 0.703385 0.651764 0.621775 0.603149 0.968566 0.7558 1.42333 0.976464 0.547735 0.801514 0.447096 0.817457 0.443113 1.04762 0.426275
threshold=24.509698850000003 22.490483500000007 22.796356000000003 23.821539000000005 1.0035133477646265 23.941203250000004 59.500000000000007 23.151992000000003 23.425557000000001 23.891281000000003 23.583842500000003 13.500000000000002 23.102578000000005 5.991666666666668 23.254275500000002 0.21709392081935905 0.42064007472260773 -0.01433625000000127 9.249916500000003 23.831733500000002 1.6459460000000004 1.1175350000000006 0.31260864246207659 22.816828500000003 22.202543000000002 10.810244500000001 21.551463750000003 255.00000000000003 22.495308000000005 1.5000000000000002
decision_type=2 2 2 2 2 2 2 2 2 2 2 2 2 2 2 2 2 2 2 2 8 10 2 2 2 2 2 2 2 2
left_child=2 17 15 16 6 -3 7 -5 -8 10 -10 -12 13 14 -9 -1 -4 -2 -14 20 21 -20 -22 24 -18 26 -17 29 -29 -28
right_child=1 5 3 4 -6 -7 8 12 9 -11 11 -13 18 -15 -16 25 23 -19 19 -21 22 -23 -24 -25 -26 -27 27 28 -30 -31
leaf_value=-0.016341415268120166 0.0090631617263665261 -0.00025627414596478742 -0.00070973070625461262 -0.0011430060359732834 0.0070966811800532333 0.0091299434457338437 0.021581671816906803 0.0010484824884919469 0.021083964550852548 -0.0015544954818988946 0.0044075256910222297 0.007256026545359724 -0.0020691503015347508 0.0018961609600261066 0.036010266691803516 0.0083601568918590819 0.016581515502047301 0.0116099736214245 0.0017554819622229555 -0.0021090983432748103 0.0064117302383697606 0.01957713743052733 -0.0027835250399164879 0.0044045678010598607 -0.0034309122979622486 -0.017991886682940293 -0.0048524461613496618 0.031075050733342286 -0.010311133227718171 0.012070532463373756
leaf_weight=13161 23 36 3048 327 24 20 199 22 40 28 20 36 173 47 20 34 33 25 26 80 24 38 67 2544 49 1623 5291 21 33 382
leaf_count=13161 23 36 3048 327 24 20 199 22 40 28 20 36 173 47 20 34 33 25 26 80 24 38 67 2544 49 1623 5291 21 33 382
internal_value=-0.000203335 0.0116538 -0.000248356 0.000363222 0.00140201 0.00246429 0.00123779 0.000742719 0.00250077 0.00433065 0.0058125 0.00353572 0.0014834 0.0039691 0.00710714 -0.000452117 0.000148838 0.022375 0.000941177 0.00193085 0.00331452 0.0058125 0.00155769 0.000495241 0.00290854 -0.000217767 -9.38632e-05 -0.000121398 0.00258333 -0.000147144
internal_weight=27494 104 27390 6845 1171 56 1147 824 323 124 96 56 497 89 42 20545 5674 48 408 235 155 64 91 2626 82 7384 5761 5727 54 5673
internal_count=27494 104 27390 6845 1171 56 1147 824 323 124 96 56 497 89 42 20545 5674 48 408 235 155 64 91 2626 82 7384 5761 5727 54 5673
is_linear=0
shrinkage=0.03


Tree=33
num_leaves=31
num_cat=0
split_feature=48 6 9 9 52 7 20 25 51 44 48 51 29 49 25 9 37 55 7 44 26 52 14 18 18 9 35 45 23 6
split_gain=13.3102 10.1713 3.68451 1.57182 1.41498 0.843464 0.723495 1.221 0.950913 1.14943 1.15227 0.665664 0.607734 0.661765 0.868015 0.923748 0.600147 0.587355 0.553874 0.548701 0.503704 0.471366 0.914591 0.467023 0.948328 0.403099 0.667368 0.357662 0.352976 0.391155
threshold=24.509698850000003 8.5000000000000018 22.796356000000003 23.821539000000005 1.0799270838352784 38.500000000000007 23.253659500000001 22.678064000000003 23.901877633333338 24.012764500000003 23.950750600000003 21.988000450000005 23.521205000000005 23.913662200000001 23.739837000000005 24.290063000000004 23.789895000000005 0.42064007472260773 31.500000000000004 21.296586000000001 24.518559500000006 0.66517579341683641 1.4205703131777139 21.678185250000002 21.512005750000004 22.816828500000003 22.501159000000005 23.746806500000002 22.604257500000006 11.500000000000002
decision_type=2 2 2 2 2 2 2 2 2 2 2 2 2 2 2 2 2 2 2 2 2 2 8 2 2 2 2 2 2 2
left_child=2 19 11 17 5 6 16 -8 9 12 -11 -1 18 14 15 -14 27 -4 -9 -2 -3 -13 -23 24 -24 26 -19 -5 -27 -30
right_child=1 20 3 4 -6 -7 7 8 -10 10 -12 21 13 -15 -16 -17 -18 25 -20 -21 -22 22 23 -25 -26 28 -28 -29 29 -31
leaf_value=-0.029664609154583844 0.010766283752499767 -0.00023597524013492882 -0.00068843878506695869 -0.0035165370400567588 0.028767565699728576 0.002937079568352971 0.028860289724032612 -0.0025515522849304173 -0.0024717122427812457 0.020290066853307927 0.014695876749870862 -0.0065948714418868227 0.019083353833370224 0.0052672062897259429 0.001561870838181592 0.021502476750831438 0.0055704165838627541 0.017153343958120567 0.026763084522449538 0.0088179360180489913 0.0088560451423617785 0.010168317910904473 -0.026668920491003022 -0.0029788569402093039 0.029018109441264289 -0.0011551259654315053 0.0019595807505696076 0.0046562319981385061 -0.0018221330113458844 0.011326472196385211
leaf_weight=9119 28 34 3048 153 27 468 20 111 98 24 20 10653 27 80 31 32 20 24 38 22 20 36 26 690 21 488 58 22 473 1583
leaf_count=9119 28 34 3048 153 27 468 20 111 98 24 20 10653 27 80 31 32 20 24 38 22 20 36 26 690 21 488 58 22 473 1583
internal_value=-0.000212064 0.0105 -0.000252738 0.000350074 0.00135077 0.00119056 0.00186834 0.00249324 0.00217842 0.00288636 0.00743182 -0.000453577 0.00225941 0.00348529 0.00525 0.00738559 0.000326924 0.00014355 0.000860739 0.02025 0.00147222 -0.000301023 0.000414296 0.000186229 0.00307979 0.000472392 0.00254268 -0.000235714 0.000405661 0.000577822
internal_weight=27494 104 27390 6845 1171 1144 676 481 461 363 44 20545 319 170 90 59 195 5674 149 50 54 11426 773 737 47 2626 82 175 2544 2056
internal_count=27494 104 27390 6845 1171 1144 676 481 461 363 44 20545 319 170 90 59 195 5674 149 50 54 11426 773 737 47 2626 82 175 2544 2056
is_linear=0
shrinkage=0.03


Tree=34
num_leaves=31
num_cat=0
split_feature=48 47 9 9 53 43 57 53 38 23 38 54 44 17 16 27 17 54 55 2 56 10 25 33 26 43 24 20 9 36
split_gain=11.254 6.93132 3.42149 1.40395 1.73198 1.15714 0.845412 0.717168 0.631784 0.814716 1.14822 0.996099 0.578669 0.564259 0.638809 1.03337 0.617878 0.741826 0.544328 0.463769 0.512494 0.433348 0.484835 0.780488 0.930757 0.560104 0.779221 0.427907 0.412046 0.899737
