tree
version=v4
num_class=1
num_tree_per_iteration=1
label_index=0
max_feature_idx=60
objective=quantile
feature_names=object_id canonical_label display_x display_y anchor_x anchor_y hour minute day_of_week source_temp people_count_total people_count_within_1m people_count_within_2m people_count_within_3m nearest_person_distance mean_person_distance nearest_person_dx nearest_person_dy temp_lag_1 temp_lag_2 temp_lag_3 temp_lag_4 temp_lag_5 temp_lag_6 temp_lag_7 temp_lag_8 temp_lag_9 temp_lag_10 temp_lag_11 temp_lag_12 temp_lag_13 temp_lag_14 temp_lag_15 temp_lag_16 temp_lag_17 temp_lag_18 temp_lag_19 temp_lag_20 temp_lag_21 temp_lag_22 temp_lag_23 temp_lag_24 temp_lag_25 temp_lag_26 temp_lag_27 temp_lag_28 temp_lag_29 temp_lag_30 temp_roll_mean_5 temp_roll_mean_10 temp_roll_mean_20 temp_roll_mean_30 temp_roll_std_5 temp_roll_std_10 temp_roll_std_20 temp_roll_std_30 temp_delta_1 seconds_since_previous observations_in_frame target_minutes_ahead requested_horizon_min
feature_infos=none none none none none none [6:17] [0:59] [1:4] [19.69858:26.252689] [0:3] none none none [3.3069835610309584:12.187622276456798] [3.3553012799332942:12.187622276456798] [-12.005157000000001:-2.5648229999999996] [-4.578068:-0.15987600000000002] [19.69858:26.252689] [19.69858:26.252689] [19.69858:26.252689] [19.69858:26.252689] [19.69858:26.252689] [19.69858:26.252689] [19.69858:26.252689] [19.69858:26.252689] [19.69858:26.252689] [19.69858:26.252689] [19.69858:26.252689] [19.69858:26.252689] [19.69858:26.252689] [19.69858:26.252689] [19.69858:26.252689] [19.69858:26.252689] [19.69858:26.252689] [19.69858:26.252689] [19.69858:26.252689] [19.69858:26.252689] [19.69858:26.252689] [19.69858:26.252689] [19.69858:26.252689] [19.69858:26.252689] [19.69858:26.252689] [19.69858:26.252689] [19.69858:26.252689] [19.69858:26.252689] [19.69858:26.252689] [19.69858:26.252689] [19.749679200000003:25.930108000000001] [19.767039399999998:25.899973299999999] [19.80870715:25.7905281] [19.840720300000001:25.768155833333331] [0.0056549193437947821:1.8249662179205504] [0.015226422657935163:1.8237327000183627] [0.042449092159210819:1.8594706330831972] [0.044771429804252943:1.8466729585304664] [-2.0867159999999991:2.7088180000000008] [27:321213] [1:2] [5:180] [5:120]
tree_sizes=2610 2844 2849 2831 2843 2820 2872 2828 2858 2831 2840 2861 2838 2835 2851 2874 2849 2850 2856 2833 2864 2860 2870 2852 2848 2866 2858 2851 2866 2879 2865 2883 2871 2871 2888 2864 2880 2859 2868 2876 2870 2875 2872 2923 2889 2890 2891 2878 2891 2894 2863 2924 2881 2882 2869 2891 2871 2884 2884 2895 2906 2902 2903 2881 2895 2895 2926 2901 2880 2913 2914 2905 2903 2910 2918 2913 2916 2888 2929 2898 2929 2921 2895 2917 2917 2892 2915 2912 2920 2923 2927 2906 2908 2925 2924 2917 2923 2924 2941 2928 2941 2933 2909 2939 2939 2928 2915 2931 2933 2945 2912 2924 2903 2921 2934 2940 2929 2943 2937 2913 2957 2925 2899 2917 2908 2948 2896 2941 2934 2951 2949 2940 2931 2926 2920 2942 2928 2925 2916 2939 2927 2938 2914 2930 2939 2935 2928 2927 2954 2945 2907 2924 2913 2927 2912 2936 2923 2867 2896 2921 2911 2939 2921 2925 2920 2933 2911 2895 2940 2920 2914 2935 2943 2946 2927 2915 2906 2896 2923 2946 2919 2923 2942 2940 2933 2941 2966 2949 2935 2946 2959 2930 2919 2942 2912 2921 2915 2891 2910 2920 2938 2908 2923 2936 2933 2936 2942 2901 2930 2945 2906 2906 2937 2907 2936 2932 2934 2938 2944 2928 2934 2910 2899 2907 2949 2918 2910 2927 2948 2927 2902 2941 2912 2918 2926 2913 2936 2915 2910 2931 2917 2923 2917 2915 2918 2939 2924 2929 2916 2940 2913 2920 2917 2942 2925 2919 2946 2918 2944 2907 2918 2937 2955 2934 2917 2954 2932 2929 2943 2940 2913 2919 2943 2926 2891 2946 2928 2917 2894 2926 2919 2916 2946 2952 2959 2910 2911 2917 2924 2912 2913 2920 2932 2918 2943 2945 2947 2986 2951 2923 2942 2917 2897 2972 2919 2902 2924 2931 2936 2936 2920 2951 2927 2939 2916 2914 2923 2935 2922 2956 2922 2925 2885 2925 2935 2924 2937 2935 2910 2910 2957 2930 2920 2937 2920 2951 2962 2917 2924 2942 2938 2919 2937 2891 2925 2949 2934 2940 2943 2944 2908 2975 2910 2947 2909 2925 2925 2916 2956 2947 2931 2955 2944 3003 2945 2913 2948 2930 2922 2926 2931 2939 2932 2895 2936 2942 2961 2916 2927 2950 2940 2894 2897 2917 2947 2938 2911 2925 2950 2930 2952 2907 2943 2931 2932 2936 2943 2936 2932 2932 2945 2970 2924 2924 2926 2939 2902 2969 2932 2921 2914 2924 2945 2973 2926 2953 2956 2916 2925 2915 2899 2934 2915 2938 2939 2948 2948 2949 2925 2941 2934 2921 2931 2956 2915 2947 2920 2946 2925 2949 2953 2940 2929 2954 2958 2950 2956 2951 2954 2939 2948 2987 2934 2938 2942 2938 2922 2940 2968 2893 2912 2907 2907 2942 2927 2935 2930 2904 2921 2937 2918 2959 2942 2942 2935 2970 2939 2935 2928 2936 2910 2929 2918 2928 2936 2923 2964 2903 2931 2930 2928 2958 2935 2958 2924 2908 2916 2915 2929 2934 2934 2947 2942 2911 2892 2921 2911 2939 2933 2942 2924 2921 2945 2916 2912 2928 2935 2947 2939 2927 2965 2935 2953 2937 2921 2992 2959 2935 2946 2955 2932 2929 2925 2926 2957 2916 2937 2925 2945 2951 2945 2941 2911 2948 2936 2937 2952 2930 2922 2981 2960 2940 2946 2956 2930 2985 2967 2907 2940 2968 2923 2971 2936 2952 2942 2939 2946 2935 2950 2952 2932 2963 2921 2970 2938 2920 2939 2939 2927 2928 2935 2936 2953 2935 2928 2923 2955 2950 2932 2930 2936 2946 2935 2928 2939 2955 2945 2947 2970 2953 2954 2933 2937 2920 2930 2927 2939 2938 2948 2955 2979 2922 2940 2937 2941 2939 2926 2952 2933 2936 2947 2914 2954 2939 2921 2956 2941 2939 2954 2955 2949 2950 2930 2928 2958 2930 2958 2935 2948 2923 2992 2944 2954 2948 2942 2974 2932 2912 2915 2911 2956 2941 2942 2956 2939 2924 2924 2939 2933 2922 2918 2951 2946 2984 2962 2928 2896 2951 2927 2906 2937 2913 2959 2957 2965 2955 2936 2921 2928 2923 2943 2933 2922 2957 2957 2889 2988 2954 2933 2936 2941 2946 2964 2973 2927 2954 2946 2969 2944 2921 2955 2976 2969 2955 2944 2930 2952 2955 2930 2938 2945 2939 2925 2919 2952 2952 2962 2952 2943 2948 2944 2928 2962 2941 2929 2932 2949 2938 2929 2950 2940 2940 2943 2936 2947 2926 2946 2945 2944 2952 2938 2938 2926 2942 2917 2917 2957 2943 2933 2927 2933 2942 2942 2914 2951 2913 2907 2909 2934 2945 2965 2914 2913 2942 2944 2932 2928 2946 2927 2921 2952 2958 2925 2966 2949 2935 2921 2952 2944 2948 2952 2941 2942 2927 2939 2903 2926 2922 2938 2957 2911 2923 2953 2919 2955 2936 2923 2926 2891 2956 2925 2920 2937 2963 2936 2966 2949 2919 2976 2927 2943 2906 2945 2914 2938 2929 2959 2936 2919 2925 2933 2943 2941 2925 2910 2938 2947 2986 2943 2926 2933 2973 2931 2947 2918 2942 2951 2929 2944 2933 2929 2953 2941 2943 2978 2925 2961 2959 2925 2936 2956 2954 2934 2959 2936 2933 2940 2932 2954 2947 2982 2945 2941 2951 2973 2953 2948 2965 2951 2956 2947 2926 2955 2930 2913 2940 2944 2989 2971 2928 2970 2950 2949 2969 2943 2945 2936 2964 2942 2928 2939 2955 2966 2938 2929 2970 2952 2961 2947 2937 2978 2953 2930 2924 2921 2931 2958 2945 2919 2953 2950 2935 2968 2924 2932 2949 2959 2964 2926 2946 2941 2942 2951 2965 2917 2946 2940 2959 2944 2932 2934 2938 2928 2928 2925 2936 2972 2943 2951 2963 2933 2924 2968 2942 2941 2941 2959 2956 2955 2919 2950 2950 2935 2919 2960 2936 2948 2951 2942 2943 2945 2938 2946 2928 2948 2949 2955 2932 2932 2961 2944 2928 2938 2966 2942 2961 2980 2923 2937 2964 2954 2942 2924 2963 2929 2937 2953 2926 2931 2954 2939 2931 2942 2920 2945 2925 2940 2935 2953 2932 2919 2925 2910 2938 2935 2963 2950 2943 2962 2967 2944 2944 2968 2934 2935 2951 2970 2943 2965 2944 2957 2952 2963 2918 2944 2940 2956 2937 2922 2948 2941 2948 2943 2952 2919 2955 2939 2955 2974 2910 2931 2941 2958 2966 2955 2953 2961 2944 2944 2932 2954 2950 2936 2944 2929 2970 2969 2922 2957 2965 2920 2986 2952 2940 2938 2946 2959 2949 2923 2938 2929 2943 2969 2969 2947 2920 2945 2948 2934 2955 2945 2931 2937 2928 2958 2941 2940 2925 2954 2952 2951 2963 2959 2945 2971 2922 2954 2917 2942 2943 2927 2936 2923 2973 2925 2956 2957 2984 2903 2930 2957 2947 2921 2943 2940 2970 2957 2958 2941 2949 2953 2936 2918 2929 2951 2949 2935 2927 2940 2933 2949 2926 2941 2947 2938 2925 2960 2965 2931 2953 2946 2944 2971 2977 2919 2954 2926 2949 2954 2938 2940 2932 2934 2915 2948 2942 2940 2929 2909 2938 2940 2955 2950 2943 2954 2951 2955 2970 2947 2910 2964 2935 2948 2947 2928 2942 2941 2938 2933 2950 2925 2971 2941 2940 2948 2929 2941 2938 2956 2954 2936 2942 2951 2923 2969 2930 2920 2964 2950 2906

Tree=0
num_leaves=31
num_cat=0
split_feature=9 59 6 50 59 7 59 51 51 59 47 59 59 59 38 42 56 59 59 59 59 59 28 57 46 32 7 7 44 7
split_gain=124.714 36.792 19.9252 12.2933 4.81493 7.43041 4.2016 3.44555 2.07263 1.83644 2.10208 1.82636 1.81848 1.70385 1.43968 1.33497 1.16393 1.05502 0.929321 0.801767 0.781417 0.728139 0.473469 0.303265 0.262987 0.253612 0.235714 0.223455 0.425386 0.160396
threshold=19.980952000000006 45.50833333333334 7.5000000000000009 19.985296600000005 29.958333333333339 45.500000000000007 10.750000000000002 20.179047016666669 19.912149916666667 94.00833333333334 19.914856000000004 10.491666666666669 45.00833333333334 30.508333333333336 19.964574000000002 20.193045000000001 -0.013673000000000711 19.758333333333336 7.0083333333333337 30.491666666666671 60.716666666666676 62.00833333333334 19.930528500000005 60.500000000000007 19.910318500000006 20.057363500000005 29.500000000000004 37.500000000000007 20.074416500000002 13.500000000000002
decision_type=2 2 2 2 2 2 2 2 2 2 2 2 2 2 2 2 2 2 2 2 2 2 2 2 2 2 2 2 2 2
left_child=1 2 4 6 -1 26 -2 12 -3 10 -10 -4 13 15 19 18 -12 -13 -5 -8 -18 -21 -11 29 -16 -25 -6 -14 -29 -20
right_child=3 8 11 7 5 -7 14 -9 9 22 16 17 27 -15 24 -17 20 -19 23 21 -22 -23 -24 25 -26 -27 -28 28 -30 -31
leaf_value=20.048653044702007 20.049751520162477 20.055923805236816 20.050551919943381 20.054573814397745 20.050393982891158 20.054366035463985 20.052395977982801 20.08254716873169 20.054219093322754 20.054701424605881 20.054430797580061 20.055490760803224 20.055923805236816 20.054219093322754 20.054876353269755 20.054219093322754 20.053976392747511 20.054177182199023 20.054219093322754 20.055536535740472 20.054219093322754 20.054219093322754 20.057899742126466 20.054927917491032 20.05611761093752 20.055241920486434 20.052469557764486 20.054219093322754 20.058258399963378 20.056777935039651
leaf_weight=152 21 50 21 28 22 25 26 12263 22 20 27 26 151 38 22 24 21 35 20 20 20 22 29 28 28 25 20 22 31 81
leaf_count=152 21 50 21 28 22 25 26 12263 22 20 27 26 151 38 22 24 21 35 20 20 20 22 29 28 28 25 20 22 31 81
internal_value=20.0558 20.041 20.0345 20.0564 20.0297 20.0364 20.0475 20.0565 20.0513 20.0495 20.0469 20.0471 20.0539 20.0522 20.0497 20.0532 20.0495 20.0497 20.0541 20.0469 20.0463 20.0494 20.0541 20.055 20.0536 20.0532 20.0287 20.056 20.0543 20.056
internal_weight=13340 490 301 12850 219 67 139 12711 189 139 90 82 448 244 118 206 68 61 182 68 41 42 49 154 50 53 42 204 53 101
internal_count=13340 490 301 12850 219 67 139 12711 189 139 90 82 448 244 118 206 68 61 182 68 41 42 49 154 50 53 42 204 53 101
is_linear=0
shrinkage=1


Tree=1
num_leaves=31
num_cat=0
split_feature=9 59 6 50 59 43 59 9 59 54 53 59 59 48 39 38 59 28 34 59 45 59 59 28 25 37 30 7 37 41
split_gain=116.991 34.4813 18.8907 11.1386 4.29218 7.95704 3.55136 3.36274 2.00568 1.84442 2.19947 1.78215 1.80905 1.35146 1.27482 1.25648 1.23596 0.914123 0.800525 1.25021 0.577874 0.549504 0.728139 0.415135 0.72 0.352941 0.246531 0.400742 0.232689 0.126722
threshold=19.980952000000006 45.50833333333334 7.5000000000000009 19.985296600000005 29.958333333333339 22.069973000000005 10.750000000000002 20.319315000000007 10.491666666666669 0.0600872266241049 0.06458793621884408 45.00833333333334 30.508333333333336 19.961440400000004 20.286382000000003 19.964574000000002 93.50833333333334 19.825237000000005 20.033735000000004 10.491666666666669 19.825237000000005 30.491666666666671 62.00833333333334 22.055500000000006 19.914856000000004 19.988907000000001 20.033735000000004 37.500000000000007 19.964574000000002 20.110126500000003
decision_type=2 2 2 2 2 2 2 2 2 2 2 2 2 2 2 2 2 2 2 2 2 2 2 2 2 2 2 2 2 2
left_child=1 2 4 6 20 -6 -2 11 -4 -3 16 12 14 -10 18 21 17 -11 19 -5 -1 -8 -23 24 -12 -21 27 -13 -17 -20
right_child=3 9 8 7 5 -7 15 -9 13 10 23 26 -14 -15 -16 28 -18 -19 29 25 -22 22 -24 -25 -26 -27 -28 -29 -30 -31
leaf_value=-0.0046589016315036246 -0.0058979773466922934 8.9139175415056112e-05 -0.0051215895592192596 -0.0013046720081011287 -0.0021866376124207725 -0.0050633617617969404 -0.0033328532609806769 0.02591380176544188 -0.0015878932857778592 -0.0014760889974639823 -0.00019198752051842379 8.9139175415056112e-05 -0.0015644313812255815 9.2893072034643936e-05 -0.0015906416533848354 -0.00090803795214220882 -0.0015720280988324134 -0.0017184433910000861 7.1780735830941257e-05 0.0013939547153364272 -0.006982567261591157 -0.00028651223603684881 -0.0015644313812255815 0.00061059451573138284 -0.0015669718322564806 -0.00084133706559439911 8.9139175415056112e-05 -0.0015644313812255815 0.00020188418792252302 -0.0015644313812255815
leaf_weight=31 21 48 21 22 28 39 26 12275 41 23 25 27 37 20 20 23 20 24 86 27 121 20 22 24 25 24 151 22 27 20
leaf_count=31 21 48 21 22 28 39 26 12275 41 23 25 27 37 20 20 23 20 24 86 27 121 20 22 24 25 24 151 22 27 20
internal_value=1.46177e-05 -0.0143724 -0.0206786 0.00056323 -0.0252774 -0.0189515 -0.00788309 0.000655594 -0.00839634 -0.00432937 -0.00605851 -0.00193349 -0.00369915 -0.00564344 -0.00256658 -0.00586017 -0.00999627 -0.0126543 -0.00176397 -0.00418151 -0.0280658 -0.00851471 -0.00639286 -0.00249324 -0.00405 -0.00160294 0.00015 -0.00169898 -0.00225 -9.90566e-05
internal_weight=13340 490 301 12850 219 67 139 12711 82 189 141 436 236 61 199 118 67 47 179 73 152 68 42 74 50 51 200 49 50 106
internal_count=13340 490 301 12850 219 67 139 12711 82 189 141 436 236 61 199 118 67 47 179 73 152 68 42 74 50 51 200 49 50 106
is_linear=0
shrinkage=0.03


Tree=2
num_leaves=31
num_cat=0
split_feature=9 59 44 30 59 59 50 23 51 53 59 51 59 59 59 41 7 7 59 19 47 28 59 34 59 59 56 56 19 59
split_gain=107.561 30.4053 18.3976 10.9754 5.36365 5.08235 5.16598 2.15817 1.94892 2.00509 1.81275 1.78856 1.77858 1.72116 1.89733 1.96281 0.998406 0.987487 1.72194 0.859524 0.828321 0.751111 0.563333 0.489061 0.375056 0.503106 0.457925 0.347565 0.193785 0.143254
threshold=19.980952000000006 45.50833333333334 21.900444000000004 20.033735000000004 7.0083333333333337 20.716666666666672 19.900343750000001 19.964574000000002 19.912149916666667 0.06458793621884408 113.50833333333334 20.179047016666669 10.008333333333335 33.708333333333336 30.491666666666671 20.167821000000004 30.500000000000004 33.500000000000007 19.758333333333336 19.958571500000001 22.334908500000004 19.875945000000005 15.008333333333335 20.033735000000004 93.00833333333334 14.741666666666669 0.042169999999998715 -0.018288500000002369 20.072601500000001 60.491666666666674
decision_type=2 2 2 2 2 2 2 2 2 2 2 2 2 2 2 2 2 2 2 2 2 2 2 2 2 2 2 2 2 2
left_child=1 2 5 4 -2 6 12 19 -3 10 16 13 -1 14 15 23 -10 -4 -19 -6 -11 -7 -8 -5 25 -9 27 28 -27 -21
right_child=3 8 17 11 7 21 22 24 9 20 -12 -13 -14 -15 -16 -17 -18 18 -20 29 -22 -23 -24 -25 -26 26 -28 -29 -30 -31
leaf_value=-0.0057259653821187233 -0.0053419725182692803 8.6465000152600161e-05 -0.0070963314572129472 -0.001000632117864888 -0.0047925608053706326 -0.0013673521074672229 -0.0039469271793196722 0.00012833480269134823 -0.0016742944167730299 -0.001518057338944595 -0.0010494091936272198 0.025136387712478659 -0.0051800323381822229 8.6465000152600161e-05 -0.0015420416211789189 -0.0017658702720567388 -0.001579069583890575 -0.0063131407499351505 -0.0044917251253820721 -0.001312750253617501 0.00014492871117972349 5.9045664939010362e-05 -0.001600428090566872 0.00011922002795260163 0.0013981898384974219 -0.0014697579840491557 -0.0015472888390997007 0.00027176957828636714 -0.000769188246924989 -0.0010538867175496991
leaf_weight=20 20 50 99 35 24 20 30 25 23 37 20 12252 38 152 21 30 25 25 24 36 34 25 20 76 44 24 36 20 35 20
leaf_count=20 20 50 99 35 24 20 30 25 23 37 20 12252 38 152 21 30 25 25 24 36 34 25 20 76 44 24 36 20 35 20
internal_value=3.48576e-05 -0.0137602 -0.0196819 0.000560895 -0.00527113 -0.0123873 -0.0159167 -0.00413636 -0.00432937 -0.00615647 -0.00983824 0.000692703 -0.0220086 -0.00154299 -0.00369444 -0.00244149 -0.013 -0.027223 -0.0237398 -0.00825 -0.00263028 -0.00391667 -0.00885 -0.000601351 -0.00234783 -0.00310714 -0.00394565 -0.00266772 -0.00382627 -0.00621429
internal_weight=13340 490 301 12850 284 153 108 264 189 139 68 12566 58 314 162 141 48 148 49 80 71 45 50 111 184 140 115 79 59 56
internal_count=13340 490 301 12850 284 153 108 264 189 139 68 12566 58 314 162 141 48 148 49 80 71 45 50 111 184 140 115 79 59 56
is_linear=0
shrinkage=0.03


Tree=3
num_leaves=31
num_cat=0
split_feature=18 59 47 8 51 59 59 7 59 54 59 39 28 59 23 59 27 59 59 59 59 44 33 22 39 57 59 59 59 56
split_gain=98.7841 28.2334 24.1204 9.35046 4.52753 4.2 3.11456 2.01785 3.00426 1.82827 1.73323 2.05882 1.45077 1.21695 1.14258 1.12667 1.18596 1.12431 1.64274 0.689382 2.92058 0.792906 0.705932 0.479326 0.45873 0.324849 0.245455 0.221631 0.214881 0.166387
threshold=20.001266500000003 45.50833333333334 21.899728000000003 3.5000000000000004 19.912149916666667 10.750000000000002 5.5083333333333337 33.500000000000007 20.491666666666671 0.0600872266241049 94.50833333333334 20.319185000000004 20.074416500000002 20.716666666666672 19.964574000000002 122.00833333333334 19.936974500000002 21.008333333333336 15.750000000000002 29.958333333333339 33.00833333333334 20.074416500000002 19.980952000000006 19.840532500000005 19.875945000000005 89.500000000000014 14.741666666666669 12.008333333333335 43.50833333333334 -0.073250000000001578
decision_type=2 2 2 2 2 2 2 2 2 2 2 2 2 2 2 2 2 2 2 2 2 2 2 2 2 2 2 2 2 2
left_child=1 2 4 -2 5 -1 -5 -4 26 -3 11 14 15 -7 28 16 23 18 24 21 -21 29 -22 -11 -6 -24 -9 -23 -8 -16
right_child=3 9 7 6 17 13 10 8 -10 12 -12 -13 -14 -15 19 -17 -18 -19 -20 20 22 27 25 -25 -26 -27 -28 -29 -30 -31
leaf_value=-0.0045623265482068152 0.026178331847705856 8.3871050148047739e-05 -0.0065528188610747048 -0.0054307571794648662 -0.0022991438003905885 -0.0050645074911811914 -0.0013009281799933299 -0.0059978026761256208 -0.0033577937725174528 -0.0016146579284473091 0.0013895746723117111 -0.0055873008606670636 -0.00019293200423879078 -0.0011488178331772402 -0.00085276502031836733 0.0011268496175123679 -0.0014733095097529741 0.0036760162225598814 -0.0016606932774331732 -0.0015100086492388436 -0.0014766250858105183 -0.0014645223316271227 8.3871050148047739e-05 -0.00045432534088574519 -0.00068479938299763441 -0.0014715449597183987 -0.0060692926492877429 -0.0006911114823470217 -0.0010222701160232052 0.00012081264367686193
leaf_weight=24 12231 55 93 36 24 29 28 24 29 39 122 23 41 27 20 20 32 22 20 38 27 20 67 29 21 33 20 27 20 99
leaf_count=24 12231 55 93 36 24 29 28 24 29 39 122 23 41 27 20 20 32 22 20 38 27 20 67 29 21 33 20 27 20 99
internal_value=4.16042e-05 -0.0124194 -0.0178986 0.00057644 -0.0098488 -0.015 -0.00321429 -0.025997 -0.0222637 -0.00397222 -0.00262786 -0.00357836 -0.0055854 -0.0105 -0.00304947 -0.00725 -0.00855 -0.00511207 -0.00709615 -0.00242221 -0.00379545 -0.00105723 -0.0016122 -0.00630882 -0.00391667 -0.00045 -0.0272045 -0.00435638 -0.007375 0.000245798
internal_weight=13340 549 333 12791 167 80 560 166 73 216 524 402 161 56 379 120 100 87 65 331 165 166 127 68 45 100 44 47 48 119
internal_count=13340 549 333 12791 167 80 560 166 73 216 524 402 161 56 379 120 100 87 65 331 165 166 127 68 45 100 44 47 48 119
is_linear=0
shrinkage=0.03


Tree=4
num_leaves=31
num_cat=0
split_feature=18 59 47 8 51 59 59 39 59 35 59 59 51 54 51 28 59 27 27 7 59 59 42 44 7 30 59 59 35 39
split_gain=96.3429 27.1481 23.5804 9.09945 4.38727 3.70439 2.59739 2.69149 2.19422 3.27421 1.99271 2.78264 2.06525 1.82827 1.52006 1.45077 1.12667 1.18596 0.999313 0.932248 0.881834 1.17216 0.605258 0.417564 0.338565 0.337209 0.456269 0.322158 0.320856 0.312554
threshold=20.001266500000003 45.50833333333334 21.899728000000003 3.5000000000000004 19.879956116666673 20.716666666666672 45.491666666666674 20.286382000000003 20.491666666666671 22.079774500000003 30.508333333333336 5.5083333333333337 20.023627383333338 0.0600872266241049 19.963536916666669 20.074416500000002 122.00833333333334 19.936974500000002 19.914856000000004 29.500000000000004 20.716666666666672 15.491666666666669 21.975967500000003 20.074416500000002 37.500000000000007 20.115569000000004 95.00833333333334 11.008333333333335 19.795615000000002 22.135888000000005
decision_type=2 2 2 2 2 2 2 2 2 2 2 2 2 2 2 2 2 2 2 2 2 2 2 2 2 2 2 2 2 2
left_child=1 2 4 -2 5 27 7 10 28 -10 11 -5 -12 -3 -8 16 17 22 -13 20 21 -6 -15 -20 -16 26 -26 -1 -4 -24
right_child=3 13 8 6 19 -7 14 -9 9 -11 12 18 -14 15 24 -17 -18 -19 23 -21 -22 -23 29 -25 25 -27 -28 -29 -30 -31
leaf_value=-0.004255373888543303 0.025392981892274662 8.1354918643619095e-05 -0.0059553764941707148 -0.0044173135904521828 -0.0037327640879444186 -0.0011143532981819602 -0.0014316724177719051 -0.0061695017379254412 -0.0032104839277842024 -0.0056152865693998777 -0.00029208609348858877 -0.0013583744744149911 -0.0014259369316763325 -0.0004424731705049644 0.00010060711813722049 -0.00018714404411161148 0.0010930441289869655 -0.0014291102244604174 5.4160879106284198e-05 -3.7610937969760788e-05 -0.00050577561148037087 -0.001608308809819188 -0.001601713483046822 -0.0013457295047590656 -0.0014402133127018586 0.0044323784906672237 0.00018121155799185828 -0.0049435870288914215 -0.0063783085013542256 -0.0014902983935245434
leaf_weight=21 12231 55 22 33 39 20 30 26 33 31 26 27 23 26 151 41 20 32 128 23 21 21 20 44 20 29 23 22 80 22
leaf_count=21 12231 55 22 33 39 20 30 26 33 31 26 27 23 26 151 41 20 32 128 23 21 21 20 44 20 29 23 22 80 22
internal_value=5.05997e-05 -0.0122555 -0.0176284 0.000578786 -0.00966916 -0.0159167 -0.00316071 -0.00501547 -0.0256355 -0.0212813 -0.00416103 -0.003 -0.00965816 -0.00397222 -0.000910079 -0.0055854 -0.00725 -0.00855 -0.00166206 -0.00588462 -0.00739815 -0.00925 -0.00630882 -0.000819767 -5.71749e-05 -0.00175 -0.00343605 -0.0208779 -0.0283676 -0.00853571
internal_weight=13340 549 333 12791 167 63 560 307 166 64 281 232 49 216 253 161 120 100 199 104 81 60 68 172 223 72 43 43 102 42
internal_count=13340 549 333 12791 167 63 560 307 166 64 281 232 49 216 253 161 120 100 199 104 81 60 68 172 223 72 43 43 102 42
is_linear=0
shrinkage=0.03


Tree=5
num_leaves=31
num_cat=0
split_feature=18 59 55 8 47 40 59 49 59 59 51 49 59 53 59 59 51 38 59 25 53 59 59 56 37 48 59 59 20 37
split_gain=92.5663 27.4588 18.287 11.091 4.08643 3.38413 3.98377 2.79645 2.48858 2 1.71237 1.66583 1.21712 1.24488 1.20788 2.91222 2.27273 1.65 0.962791 0.9 0.823129 0.681792 0.541918 0.472969 0.466667 0.408293 0.2475 0.571883 0.225 0.161404
threshold=19.980952000000006 45.50833333333334 0.077639102472458046 3.5000000000000004 20.427498000000003 22.069973000000005 20.491666666666671 19.896098900000002 5.5083333333333337 15.750000000000002 19.912149916666667 20.001202500000002 93.50833333333334 0.06458793621884408 45.00833333333334 30.508333333333336 20.023627383333338 20.263469000000004 14.741666666666669 19.936974500000002 0.050789197039009179 19.758333333333336 31.508333333333336 -0.10795300000000017 19.964574000000002 20.291359300000007 61.00833333333334 20.491666666666671 19.936974500000002 20.062505000000005
decision_type=2 2 2 2 2 2 2 2 2 2 2 2 2 2 2 2 2 2 2 2 2 2 2 2 2 2 2 2 2 2
left_child=1 2 7 -2 8 6 18 9 -5 -1 -3 26 13 20 15 17 -17 25 -4 -15 -12 28 -7 -16 -14 29 27 -10 -9 -13
right_child=3 10 5 4 -6 22 -8 21 11 -11 12 14 24 19 23 16 -18 -19 -20 -21 -22 -23 -24 -25 -26 -27 -28 -29 -30 -31
leaf_value=-0.004806955156654984 0.024631192435506433 7.8914271084258296e-05 -0.0056417653748651337 -0.004191160741788093 -0.0060529927575193251 -0.0061685757598613474 -0.0035923967469336919 -5.4329604896995782e-05 -0.0014254624562037538 -0.0033301243166668358 -0.00042031102651396424 0.00012930130424003037 -0.0010335046805060996 0.0001392102226667668 -0.0013906427243177292 -0.00021740292348156591 -0.0013831588237260917 -0.0013802147765355243 -0.0054597070453385995 -0.0013848079140631241 -0.0015744907314221056 -0.0015344228526147079 -0.004387017488168183 7.8336705099459888e-05 0.0019945345430172168 -0.00029729706975955287 -0.0013996008497800599 -0.00032955748107391927 -0.0036353473196690357 -0.0013558756212054919
leaf_weight=25 12231 53 23 38 24 87 27 20 26 25 21 92 20 20 25 22 22 25 20 20 28 31 21 208 28 24 25 29 20 60
leaf_count=25 12231 53 23 38 24 87 27 20 26 25 21 92 20 20 25 22 22 25 20 20 28 31 21 208 28 24 25 29 20 60
internal_value=6.40929e-05 -0.0127469 -0.0184139 0.000551572 -0.0033629 -0.0245309 -0.0193929 -0.00941529 -0.00287416 -0.01485 -0.00382895 -0.00236828 -0.00560037 -0.00767697 -0.0016977 -0.00316837 -0.0101591 -0.00163806 -0.025064 -0.00375 -0.0108827 -0.00558803 -0.0278611 -0.000151288 -0.00175 -0.000613636 -0.006375 -0.00525 -0.003 -3.94737e-05
internal_weight=13340 489 299 12851 620 178 70 121 596 50 190 558 137 89 478 245 44 201 43 40 49 71 108 233 48 176 80 55 40 152
internal_count=13340 489 299 12851 620 178 70 121 596 50 190 558 137 89 478 245 44 201 43 40 49 71 108 233 48 176 80 55 40 152
is_linear=0
shrinkage=0.03


Tree=6
num_leaves=31
num_cat=0
split_feature=9 59 47 50 59 59 6 40 59 51 47 59 40 59 27 23 59 28 40 59 19 25 44 34 27 31 9 9 45 20
split_gain=92.7222 26.8736 21.1314 8.84176 3.34924 3.11118 4.23425 2.48575 3.07692 1.60062 1.47074 1.43385 1.75591 1.88917 1.8848 1.17353 0.807634 0.773193 0.735466 0.59134 0.580277 0.570311 0.645879 0.39982 0.235199 0.167334 0.247882 0.0499185 0.0429577 0.0406542
threshold=19.980952000000006 45.50833333333334 21.899728000000003 20.196462275000005 5.0250000000000012 20.716666666666672 7.5000000000000009 22.069973000000005 15.491666666666669 19.912149916666667 19.888912500000004 45.00833333333334 20.305084500000003 29.958333333333339 20.079494500000006 19.964574000000002 15.491666666666669 22.055500000000006 20.036497000000004 32.00833333333334 19.825237000000005 19.914856000000004 20.074416500000002 19.825237000000005 19.970525000000006 20.030318000000005 20.182265000000005 20.182265000000005 20.286382000000003 20.191144000000005
decision_type=2 2 2 2 2 2 2 2 2 2 2 2 2 2 2 2 2 2 2 2 2 2 2 2 2 2 2 2 2 2
left_child=1 2 5 4 -2 6 -1 8 -4 -3 -11 12 13 21 18 -13 -8 20 -15 -9 -12 -6 24 -22 -23 26 -17 -5 -27 -26
right_child=3 9 7 27 11 -7 16 19 -10 10 17 15 -14 14 -16 25 -18 -19 -20 -21 23 22 -24 -25 29 28 -28 -29 -30 -31
leaf_value=-0.0045826523026809207 -0.0046891683545368891 7.6546842951685784e-05 -0.0054357769376851342 -0.0001269947861665426 -0.001354077873033862 -0.0009810189697365601 -0.0040690425027711833 -0.0063839143377011354 -0.0052550441803948956 -0.0013319912701441501 -0.0015754549659491345 -0.00051625394315663303 -0.0042491768059547763 -0.00018472957095817057 -0.0014303962283703133 0.00014696142442314559 -0.0014065093864997463 0.00059515479369460871 -0.00040627634298698615 -0.0042763625264269928 -0.00018179769322524046 -0.0013877880666603689 -0.0013520304267414156 -0.0013437067270333496 0.00018559204770298221 7.6001043122179445e-05 -0.0013867749052673944 0.022954552216195266 3.3351683969117352e-05 -6.2493031322172421e-05
leaf_weight=37 28 50 20 20 21 39 38 94 32 26 28 36 24 30 21 48 21 24 23 20 23 26 40 38 87 122 29 12255 20 20
leaf_count=37 28 50 20 20 21 39 38 94 32 26 28 36 24 30 21 48 21 24 23 20 23 26 40 38 87 122 29 12255 20 20
internal_value=8.88306e-05 -0.0127194 -0.0182865 0.000577237 -0.0030587 -0.00947222 -0.012375 -0.0254548 -0.0200192 -0.00385317 -0.00550899 -0.00254068 -0.00397603 -0.00327985 -0.00735811 -0.000897059 -0.00738559 -0.00402876 -0.00434434 -0.0279342 -0.00531742 -0.00172423 -0.00115751 -0.00367623 -0.000152256 -7.19178e-05 -0.00119805 0.000747556 0.000538732 0.000469626
internal_weight=13340 490 301 12850 575 135 96 166 52 189 139 547 292 268 74 255 59 113 53 114 89 194 173 61 133 219 77 12275 142 107
internal_count=13340 490 301 12850 575 135 96 166 52 189 139 547 292 268 74 255 59 113 53 114 89 194 173 61 133 219 77 12275 142 107
is_linear=0
shrinkage=0.03


Tree=7
num_leaves=31
num_cat=0
split_feature=18 59 47 8 47 51 59 51 59 52 59 32 59 59 59 7 41 39 59 59 59 26 26 57 48 7 59 27 59 44
split_gain=88.6312 26.7874 18.1186 8.86667 2.81446 2.47575 2.20432 2.00405 1.92408 2.077 1.89106 1.71041 2.5641 1.27813 1.21077 0.936047 0.797701 0.79164 1.11573 4.2513 1.03817 0.47242 0.466667 0.460199 0.456269 0.44503 1.0428 0.169033 0.331787 0.16653
threshold=19.980952000000006 33.708333333333336 21.899728000000003 3.5000000000000004 20.427498000000003 19.912149916666667 5.5083333333333337 19.879956116666673 93.50833333333334 0.069572038444875459 19.758333333333336 19.836975000000006 15.491666666666669 11.008333333333335 94.50833333333334 25.500000000000004 20.0527525 19.970525000000006 33.708333333333336 23.208333333333336 43.50833333333334 20.110126500000003 19.914856000000004 59.500000000000007 19.936770000000006 32.500000000000007 59.958333333333336 20.011148500000004 32.50833333333334 20.041602000000005
decision_type=2 2 2 2 2 2 2 2 2 2 2 2 2 2 2 2 2 2 2 2 2 2 2 2 2 2 2 2 2 2
left_child=1 2 7 -2 6 -3 -5 13 9 25 24 12 -4 -1 15 17 29 20 19 23 -8 27 -10 -19 -9 26 -7 -18 -29 -17
right_child=3 5 11 4 -6 8 14 10 22 -11 -12 -13 -14 -15 -16 16 21 18 -20 -21 -22 -23 -24 -25 -26 -27 -28 28 -30 -31
leaf_value=-0.0038614327421041847 0.02320362009595538 7.4250437663145866e-05 -0.0054142676302684125 -0.0039419593615413282 -0.0056798855446626864 -0.0029946945975421 -0.0013278838997063428 4.3487009393373014e-05 -0.00097509550754466226 -0.0040642493990189618 -0.0014695346878635426 -0.0057938464167642317 -0.0051144227106428592 -0.0044451727336005092 0.0013930622368090229 7.3706572652838535e-05 -0.00051937678567371521 9.6084404578417355e-05 0.00043276490944253986 -0.0013877631227468927 -0.0013295274608935512 -0.00018057448782894168 0.0013720239885009135 -0.0012157133951445267 -0.0034682266875979808 -0.0010579035131328164 -0.0014413388221585714 -0.0012287159062999665 -0.0013319466189115263 -0.00035667983917883194
leaf_weight=21 12231 60 25 38 24 26 32 23 20 24 22 84 27 37 128 90 27 37 44 20 23 31 28 30 20 36 36 33 25 38
leaf_count=21 12231 60 25 38 24 26 32 23 20 24 22 84 27 37 128 90 27 37 44 20 23 31 28 30 20 36 36 33 25 38
internal_value=9.55772e-05 -0.0124402 -0.019057 0.000572582 -0.00292742 -0.00498913 -0.00252181 -0.0107134 -0.00683824 -0.00884016 -0.00709615 -0.0266029 -0.0223269 -0.0147672 -0.0020457 -0.00280814 -0.00158607 -0.00441129 -0.00314313 -0.00511207 -0.00743182 -0.00338793 -0.00175 -0.00148881 -0.00343605 -0.00690306 -0.00844355 -0.00454412 -0.0054569 4.6875e-05
internal_weight=13340 489 259 12851 620 230 596 123 170 122 65 136 52 58 558 430 244 186 131 87 55 116 48 67 43 98 62 85 58 128
internal_count=13340 489 259 12851 620 230 596 123 170 122 65 136 52 58 558 430 244 186 131 87 55 116 48 67 43 98 62 85 58 128
is_linear=0
shrinkage=0.03


Tree=8
num_leaves=31
num_cat=0
split_feature=9 59 47 30 59 59 6 40 59 51 59 59 20 39 51 27 59 59 34 59 59 59 18 59 22 18 34 52 38 38
split_gain=87.8598 30.5371 21.1314 7.45342 4.06198 3.11118 4.23425 2.48575 3.07692 1.36936 1.31776 2.1562 1.17881 1.01061 1.00681 1.23234 0.838685 1.07478 1.34173 0.807634 0.59134 0.473984 0.546543 0.938706 0.768254 0.456984 0.30761 0.236025 0.0393617 0.0295918
threshold=19.980952000000006 45.50833333333334 21.899728000000003 20.033735000000004 7.0083333333333337 20.716666666666672 7.5000000000000009 22.069973000000005 15.491666666666669 20.179047016666669 33.708333333333336 30.491666666666671 19.936974500000002 20.193045000000001 19.912149916666667 20.121875000000003 120.99166666666669 91.50833333333334 19.883233000000004 15.491666666666669 32.00833333333334 95.00833333333334 20.072601500000001 29.958333333333339 19.988907000000001 20.173116500000003 20.033735000000004 0.11918759416070429 22.065500000000004 20.047953500000002
decision_type=2 2 2 2 2 2 2 2 2 2 2 2 2 2 2 2 2 2 2 2 2 2 2 2 2 2 2 2 2 2
left_child=1 2 5 4 -2 6 -1 8 -4 10 11 13 -6 26 -3 16 17 18 -16 -8 28 22 23 -14 -25 -24 -5 -27 -9 -23
right_child=3 14 7 9 12 -7 19 20 -10 -11 -12 -13 21 -15 15 -17 -18 -19 -20 -21 -22 29 25 24 -26 27 -28 -29 -30 -31
leaf_value=-0.0043118175515924981 -0.0044297415456256021 7.2022924533250436e-05 -0.0051102756006465603 -0.00055872307686329222 -0.0035567525960777556 -0.000818233218636486 -0.0038288936317022789 -0.0053475909067656063 -0.0049439601736637386 0.020711475726475151 7.1942989143948535e-05 -0.0013042731747335069 -0.0010682983927128718 -0.0013396961179084476 1.4961586562125873e-05 2.9205641457998866e-05 -0.00069110183630324059 -0.0012641116083236719 -0.0014125937343722555 -0.0013223528261229131 -0.0040261441686636696 0.0013571100879526412 0.0001181820659572306 -0.00040684211497320503 -0.0013097087881747799 -0.0012872053465311335 0.00011183469593456681 -7.029136048642086e-05 -0.0062095877190528267 0.00040070578522956914
leaf_weight=37 20 50 20 35 32 39 38 20 32 12252 152 21 39 34 28 34 22 22 33 21 20 29 41 24 21 38 72 20 74 20
leaf_count=37 20 50 20 35 32 39 38 20 32 12252 152 21 39 34 28 34 22 22 33 21 20 29 41 24 21 38 72 20 74 20
internal_value=0.000115817 -0.012352 -0.0182865 0.000591245 -0.00421479 -0.00947222 -0.012375 -0.0254548 -0.0200192 0.000699865 -0.00125637 -0.00313889 -0.00322727 -0.00180319 -0.00290079 -0.00421403 -0.00582143 -0.00720181 -0.00515164 -0.00738559 -0.0279342 -0.00248276 -0.00318443 -0.00496429 -0.00791667 -0.00167424 -0.000371495 -0.00338793 -0.0289309 0.000137755
internal_weight=13340 490 301 12850 284 135 96 166 52 12566 314 162 264 141 189 139 105 83 61 59 114 232 183 84 45 99 107 58 94 49
internal_count=13340 490 301 12850 284 135 96 166 52 12566 314 162 264 141 189 139 105 83 61 59 114 232 183 84 45 99 107 58 94 49
is_linear=0
shrinkage=0.03


Tree=9
num_leaves=31
num_cat=0
split_feature=9 59 45 50 59 6 23 40 59 59 59 59 51 27 59 59 34 59 53 59 38 9 28 7 9 26 48 7 59 7
split_gain=87.0621 30.1427 21.0519 7.2264 4.34979 5.45245 2.3567 1.94544 2.63043 1.40944 1.3866 2.5 1.00681 1.23234 0.838685 1.07478 1.34173 0.807634 0.782196 0.685744 0.6784 0.672003 0.427907 0.385775 0.362218 0.351852 0.303444 0.175 0.171237 0.158025
threshold=19.980952000000006 45.50833333333334 21.977577000000004 20.196462275000005 20.716666666666672 7.5000000000000009 19.964574000000002 22.135888000000005 19.758333333333336 15.750000000000002 33.00833333333334 30.508333333333336 19.912149916666667 20.121875000000003 120.99166666666669 91.50833333333334 19.883233000000004 15.491666666666669 0.048906615384209949 5.991666666666668 20.121875000000003 20.030318000000005 19.908297500000007 37.500000000000007 20.255556000000002 19.826965000000005 20.291359300000007 52.500000000000007 60.491666666666674 25.500000000000004
decision_type=2 2 2 2 2 2 2 2 2 2 2 2 2 2 2 2 2 2 2 2 2 2 2 2 2 2 2 2 2 2
left_child=1 2 4 6 5 27 9 8 -4 -2 11 18 -3 14 15 16 -14 -7 -8 -20 26 -11 -6 -12 -25 -9 29 -1 -23 -21
right_child=3 12 7 -5 22 17 10 25 -10 21 23 -13 13 -15 -16 -17 -18 -19 19 20 -22 28 -24 24 -26 -27 -28 -29 -30 -31
leaf_value=-0.0039068947928637982 -0.0047147585818692024 6.9862236797213487e-05 -0.0054879742696646392 0.020090131454680884 -0.00079368622207734766 -0.0037140268227512079 0.0002316081006530461 -0.0050960872558182884 -0.0047429782412003185 -0.0024350337278836831 6.9337085798899524e-05 -0.001217991083238843 1.4512738965275831e-05 2.8329472214281281e-05 -0.00067036878121415897 -0.0012261882600739166 -0.0013702159223410932 -0.0012826822413392488 -0.0024226586196574281 -0.0013223926055591511 -0.0011516635455736536 -0.00026454613173362298 0.0011936965349990769 -0.00127549101443233 5.1390914933757675e-06 -0.0055090526536108438 -0.00021059184858774965 -0.0035769636173111591 -0.0002630663814173131 0.00062231624313695646
leaf_weight=24 20 50 23 12275 20 38 66 32 23 20 182 25 28 34 22 22 33 21 23 45 33 26 23 26 31 76 22 21 20 36
leaf_count=24 20 50 23 12275 20 38 66 32 23 20 182 25 28 34 22 22 33 21 23 45 33 26 23 26 31 76 22 21 20 36
internal_value=0.000120315 -0.0122908 -0.0181869 0.00059358 -0.0100663 -0.0133846 -0.00269348 -0.0259383 -0.0207717 -0.00727326 -0.00188804 -0.00345 -0.00290079 -0.00421403 -0.00582143 -0.00720181 -0.00515164 -0.00738559 -0.00245 -0.00358962 -0.00277941 -0.00515909 -0.0020407 -0.000254184 -0.00240789 -0.0281389 -0.0015801 -0.02125 -0.00316304 -0.000731482
internal_weight=13340 490 301 12850 147 104 575 154 46 86 489 250 189 139 105 83 61 59 225 159 136 66 43 239 57 108 103 45 46 81
internal_count=13340 490 301 12850 147 104 575 154 46 86 489 250 189 139 105 83 61 59 225 159 136 66 43 239 57 108 103 45 46 81
is_linear=0
shrinkage=0.03


Tree=10
num_leaves=31
num_cat=0
split_feature=9 60 6 50 43 60 7 7 23 52 7 53 60 60 53 60 60 50 9 38 60 9 27 6 23 42 9 34 20 9
split_gain=87.1568 26.4941 18.8216 6.36679 4.02964 8.23472 3.96635 2.52312 2.21467 1.54353 0.92915 0.880279 0.956001 1.34451 0.990476 0.81 2.81667 0.92326 0.618247 0.545947 0.512397 0.413976 0.252101 0.209278 0.355227 0.204817 0.199674 0.1 0.097971 0.0393617
threshold=19.980952000000006 25.000000000000004 7.5000000000000009 20.196462275000005 21.976488000000003 52.500000000000007 29.500000000000004 45.500000000000007 19.964574000000002 0.052622766676564035 49.500000000000007 0.05411000533785109 37.500000000000007 25.000000000000004 0.070123021013662731 105.00000000000001 75.000000000000014 19.900343750000001 20.030318000000005 20.006427500000004 12.500000000000002 20.046137000000005 21.900179000000005 8.5000000000000018 20.057363500000005 20.048562000000004 20.182265000000005 20.033735000000004 20.105236000000001 19.883233000000004
decision_type=2 2 2 2 2 2 2 2 2 2 2 2 2 2 2 2 2 2 2 2 2 2 2 2 2 2 2 2 2 2
left_child=1 2 7 8 10 6 -6 29 18 -7 15 25 13 14 -13 16 17 -3 -2 -16 -9 -14 -11 24 -23 -10 -5 -20 -27 -1
right_child=3 4 -4 26 5 9 -8 20 11 22 -12 12 21 -15 19 -17 -18 -19 27 -21 -22 23 -24 -25 -26 28 -28 -29 -30 -31
leaf_value=-0.0053731666411518117 -0.0043821807878492323 -0.00076987563541500484 -0.0032513931890970215 -0.00068645216233472178 -0.0037642792144997558 -0.0013544725737477657 -0.0019011042711393911 -0.0047531646937581471 5.4861150262403278e-05 -0.00089365743603488275 6.7766369693345044e-05 -0.0014301211748554911 -0.00083518733165743235 -0.0012754309123556235 -0.00057121849334992706 0.0039682259665396605 -0.0011898656963029036 1.731792141586413e-05 -0.0027847412001460723 3.8259468018642363e-05 -0.004100019999412988 0.00043616511244016321 2.7479588047825131e-05 0.0012791783944558833 -0.0012920039185201624 -0.00017020135372500329 0.020345758831396096 -0.0010448000473476235 -0.0013930286354666894 -0.0054605651185553675
leaf_weight=74 26 21 63 20 22 21 26 28 136 21 55 39 22 31 27 20 20 39 36 64 30 24 30 75 23 25 12255 24 23 20
leaf_count=74 26 21 63 20 22 21 26 28 136 21 55 39 22 31 27 20 20 39 36 64 30 24 30 75 23 25 12255 24 23 20
internal_value=0.000127061 -0.0122908 -0.0201802 0.000600584 -0.00612273 -0.01025 -0.019875 -0.0258947 -0.00248478 -0.00383333 -0.00292742 -0.00170399 -0.00269262 -0.00428106 -0.00294231 -0.00465 -0.006 -0.00275 -0.00692442 -0.00122802 -0.0209741 -0.000916667 -0.00101471 -0.000233607 -0.00180319 -6.52174e-05 0.000745112 -0.00525 -0.00175 -0.0289309
internal_weight=13340 490 215 12850 275 120 48 152 575 72 155 489 305 161 130 100 80 60 86 91 58 144 51 122 47 184 12275 60 48 94
internal_count=13340 490 215 12850 275 120 48 152 575 72 155 489 305 161 130 100 80 60 86 91 58 144 51 122 47 184 12275 60 48 94
is_linear=0
shrinkage=0.03


Tree=11
num_leaves=31
num_cat=0
split_feature=9 59 51 8 59 6 35 59 59 59 49 51 27 7 59 59 39 59 7 59 59 29 7 35 59 59 23 33 21 48
split_gain=85.6653 30.3761 21.5968 5.35269 4.13138 5.85971 1.95577 3.38407 1.54298 1.88846 1.85649 0.921168 1.12751 0.87236 1.43036 0.782609 0.716568 0.627085 0.652497 0.594652 0.523533 0.491738 0.452174 0.427907 0.343172 1.10201 0.312462 0.321457 0.236132 0.179315
threshold=19.980952000000006 45.50833333333334 20.13597501666667 3.5000000000000004 20.716666666666672 7.5000000000000009 22.079774500000003 29.958333333333339 33.00833333333334 30.508333333333336 19.988662600000001 19.912149916666667 20.121875000000003 34.500000000000007 93.50833333333334 15.750000000000002 20.193045000000001 8.7500000000000018 29.500000000000004 60.50833333333334 15.491666666666669 20.001678500000004 44.500000000000007 19.883233000000004 120.72500000000001 63.991666666666674 20.164135000000005 20.026084000000001 20.047525500000003 20.291359300000007
decision_type=2 2 2 2 2 2 2 2 2 2 2 2 2 2 2 2 2 2 2 2 2 2 2 2 2 2 2 2 2 2
left_child=1 2 4 -2 5 -1 7 22 9 10 15 -3 13 14 19 -5 17 18 -12 -13 -7 24 -4 -6 25 28 -19 -28 -10 -23
right_child=3 11 6 8 23 20 -8 -9 21 -11 16 12 -14 -15 -16 -17 -18 26 -20 -21 -22 29 -24 -25 -26 -27 27 -29 -30 -31
leaf_value=-0.0038766045565034927 0.020673090512700155 6.5733378602566008e-05 -0.0051679000709998982 -0.0044184551133622579 8.8887432595613321e-05 -0.0035050642223957524 -0.0051054314540170511 -0.0018993902137077788 0.00010535298810336221 -0.001143188423371093 -0.0017167483015858949 -0.0013119493727248104 2.6655200406366928e-05 -0.00041441574098329215 0.00041999001902337936 -0.0021426707447158551 -0.0011745267375206732 0.00045047779311792725 0.00010823465993517487 -0.0011541697254137812 -0.0011466599784262039 6.6130948137035618e-05 -0.0046497331637244841 -0.00074677936635250577 0.00096508118752671379 -0.001225107747472236 -0.00074515824592069776 -0.00015657815973225001 -0.00069139945833739699 -0.00056754894006569507
leaf_weight=45 12231 50 26 23 23 38 87 21 35 28 20 29 34 36 20 23 38 104 21 20 21 157 20 20 27 27 21 32 23 40
leaf_count=45 12231 50 26 23 23 38 87 21 35 28 20 29 34 36 20 23 38 104 21 20 21 157 20 20 27 27 21 32 23 40
internal_value=0.000142804 -0.0121684 -0.0180872 0.000612257 -0.00986225 -0.0130962 -0.0259383 -0.0220858 -0.00210945 -0.00360484 -0.00286702 -0.00274206 -0.0039982 -0.00553571 -0.00751087 -0.00838043 -0.00179237 -0.00106818 -0.00437195 -0.0102704 -0.00687712 -0.000609223 -0.0266413 -0.0020407 -0.00219643 -0.00313235 -0.000205414 -0.00208019 -0.000801724 0.000293147
internal_weight=13340 490 301 12850 147 104 154 67 619 310 282 189 139 105 69 46 236 198 41 49 59 309 46 43 112 85 157 53 58 197
internal_count=13340 490 301 12850 147 104 154 67 619 310 282 189 139 105 69 46 236 198 41 49 59 309 46 43 112 85 157 53 58 197
is_linear=0
shrinkage=0.03


Tree=12
num_leaves=31
num_cat=0
split_feature=9 59 6 23 59 43 59 59 51 59 52 59 33 59 25 48 59 35 33 59 30 59 59 59 57 42 49 59 56 23
split_gain=72.3671 24.1118 13.9965 4.82758 4.3401 3.43545 4.29176 1.52356 1.04615 0.86148 0.876895 0.825779 1.48289 1.20192 1.87546 0.774293 0.65849 2.79837 1.16667 0.601377 1.29078 0.496032 0.689548 2.02187 0.61553 0.49663 0.403395 0.319155 0.318598 0.266327
threshold=19.980952000000006 45.491666666666674 7.5000000000000009 20.306423500000005 10.008333333333335 21.897172000000005 20.716666666666672 5.0250000000000012 19.912149916666667 94.50833333333334 0.048526215975327545 94.00833333333334 19.826965000000005 90.491666666666688 19.936974500000002 20.009212600000001 19.758333333333336 22.079774500000003 22.133429500000002 19.758333333333336 19.930528500000005 63.50833333333334 30.491666666666671 36.00833333333334 105.50000000000001 20.142433 20.111932000000007 61.00833333333334 -0.015007500000001171 19.883233000000004
decision_type=2 2 2 2 2 2 2 2 2 2 2 2 2 2 2 2 2 2 2 2 2 2 2 2 2 2 2 2 2 2
left_child=1 2 4 7 -1 6 -6 -2 -3 10 26 12 -10 14 -14 -12 18 -18 -7 20 -4 22 25 -24 -25 28 27 -9 -17 -13
right_child=3 8 19 -5 5 16 -8 9 11 -11 15 29 13 -15 -16 21 17 -19 -20 -21 -22 -23 23 24 -26 -27 -28 -29 -30 -31
leaf_value=-0.0055434843089478963 -0.0038776412348053976 6.3761377244517798e-05 -0.0037397866851152034 0.018256862030717542 -0.0038348655864539711 -0.0044896200013594461 -0.00058961877845637226 4.3248404631896033e-05 4.0699144605553495e-05 0.0012541094981129148 -0.0029603237017135067 -0.00084241267309633438 -0.0017653115289497263 -0.0011430952694918219 -0.00088356949005420431 -0.00098571904327185932 -0.0042547668027315957 -0.0046125307899614696 -0.0040439629302037611 -0.0010770826163279802 0.0004051308258564882 0.0011730142639431072 -0.0011604510966839985 0.00033659136107938575 -0.0011718057161913178 -0.00091663358016957929 -0.0013660240648378686 -0.001094230134721154 0.00012330745269711446 0.0014620828795595855
leaf_weight=47 28 51 21 12275 37 21 22 136 23 122 36 20 24 20 28 31 27 39 21 34 26 30 21 26 22 30 23 20 50 29
leaf_count=47 28 51 21 12275 37 21 22 136 23 122 36 20 24 20 28 31 27 39 21 34 26 30 21 26 22 30 23 20 50 29
internal_value=0.000187781 -0.0111276 -0.0165381 0.000619261 -0.0205584 -0.0182919 -0.0124703 -0.00206739 -0.00294231 -0.00171801 -0.00235588 -0.00425 -0.00588158 -0.008 -0.00559615 -0.00351829 -0.0214722 -0.0233409 -0.0185357 -0.00591667 -0.00371809 -0.00282143 -0.00341667 -0.00577174 -0.002375 -0.0019527 -0.00075838 -0.000211538 -0.000731482 -0.00108673
internal_weight=13340 490 295 12850 214 167 59 575 195 547 425 144 95 72 52 246 108 66 42 81 47 210 180 69 48 111 179 156 81 49
internal_count=13340 490 295 12850 214 167 59 575 195 547 425 144 95 72 52 246 108 66 42 81 47 210 180 69 48 111 179 156 81 49
is_linear=0
shrinkage=0.03


Tree=13
num_leaves=31
num_cat=0
split_feature=9 59 47 18 51 59 59 59 7 59 44 29 51 40 59 59 59 7 59 25 59 59 48 51 25 31 7 9 23 59
split_gain=70.0085 23.0418 13.4063 5.56045 2.7203 2.20004 1.93242 1.91825 1.54291 2.86896 1.94118 1.35 1.04615 1.0087 3.11874 2.77778 0.825779 1.65789 1.12 2.16117 0.622414 0.549193 0.640244 0.470383 0.435374 0.396066 0.33462 0.315018 0.266327 0.22893
threshold=19.980952000000006 45.491666666666674 21.899728000000003 20.319315000000007 19.879956116666673 33.00833333333334 11.008333333333335 20.491666666666671 15.500000000000002 23.208333333333336 20.110126500000003 20.170967000000005 19.912149916666667 22.135888000000005 19.758333333333336 20.491666666666671 94.00833333333334 34.500000000000007 90.491666666666688 19.936974500000002 16.008333333333336 19.758333333333336 19.936770000000006 19.854021233333338 19.836975000000006 20.030318000000005 27.500000000000004 20.152213000000007 19.883233000000004 14.741666666666669
decision_type=2 2 2 2 2 2 2 2 2 2 2 2 2 2 2 2 2 2 2 2 2 2 2 2 2 2 2 2 2 2
left_child=1 2 4 5 7 8 -4 23 9 11 26 20 -3 15 -15 -8 17 18 19 -14 -2 22 -6 -1 -16 27 29 -7 -18 -10
right_child=3 12 6 -5 21 25 13 -9 10 -11 -12 -13 16 14 24 -17 28 -19 -20 -21 -22 -23 -24 -25 -26 -27 -28 -29 -30 -31
leaf_value=-0.0037789183075038497 -0.0032535895266776662 6.1848535927175869e-05 -0.0053795136377478986 0.017709156169796004 0.00033886523609649927 -0.00018125071200208431 -0.0042146327456391644 -0.0024987333598995168 -4.0848536895773546e-05 -0.0014396674238152329 -0.0038446523490079901 7.4956600875402527e-05 -0.0017532646710065201 -0.0042220258205446408 -0.0045289812043115439 -0.00093128184897316765 -0.00081714029290339669 4.0103494359213666e-05 -0.0011088024114070962 -0.00085706240535260512 -0.00068352853325085686 -0.0010555940032983006 -0.0029762197376677329 -0.0033140569376565367 -0.0034719434426624309 6.2358636468101287e-05 -1.4245272450772555e-06 -0.0012018220714374369 0.0014182203931728068 -0.00096140820751777984
leaf_weight=21 29 51 40 12274 21 94 25 21 20 20 34 35 22 28 21 20 20 25 20 28 20 30 20 20 28 163 106 29 29 26
leaf_count=21 29 51 40 12274 21 94 25 21 20 20 34 35 22 28 21 20 20 25 20 28 20 30 20 20 28 163 106 29 29 26
internal_value=0.000185532 -0.0109439 -0.0162331 0.000609922 -0.00917481 -0.00227083 -0.0220278 -0.0137661 -0.00411207 -0.00703846 -0.00247581 -0.00460714 -0.00294231 -0.0201516 -0.022237 -0.0165833 -0.00425 -0.00588158 -0.00825 -0.00585 -0.00782143 -0.00516549 -0.00290854 -0.0175427 -0.026801 -0.000403846 -0.00102632 -0.00168902 -0.00108673 -0.00316304
internal_weight=13340 490 295 12850 133 576 162 62 290 104 186 84 195 122 77 45 144 95 70 50 49 71 41 41 49 286 152 123 49 46
internal_count=13340 490 295 12850 133 576 162 62 290 104 186 84 195 122 77 45 144 95 70 50 49 71 41 41 49 286 152 123 49 46
is_linear=0
shrinkage=0.03


Tree=14
num_leaves=31
num_cat=0
split_feature=9 59 47 50 50 59 55 59 59 50 59 43 59 59 59 51 28 32 59 59 38 49 33 59 59 31 34 59 9 38
split_gain=67.0444 21.6542 10.7716 5.76467 2.37195 2.01999 1.90993 4.77321 2.23214 2.10787 1.80146 2.5 1.58429 1.55556 1.10612 0.921168 1.08402 0.823389 2.85727 1.60087 0.720561 0.665934 0.651895 1.33318 1.35048 0.286541 0.340363 0.250216 0.199674 0.165107
threshold=19.980952000000006 33.708333333333336 21.899728000000003 20.196462275000005 19.900343750000001 33.00833333333334 0.088523469708254601 29.958333333333339 5.491666666666668 20.170862950000004 45.50833333333334 19.972361500000002 7.0083333333333337 10.750000000000002 18.250000000000004 19.912149916666667 21.896650500000003 19.825237000000005 19.758333333333336 13.258333333333335 20.033735000000004 19.988662600000001 19.826965000000005 113.50833333333334 64.00833333333334 20.030318000000005 20.033735000000004 20.008333333333336 20.182265000000005 19.908297500000007
decision_type=2 2 2 2 2 2 2 2 2 2 2 2 2 2 2 2 2 2 2 2 2 2 2 2 2 2 2 2 2 2
left_child=1 2 4 5 13 6 8 9 -2 20 11 -3 -4 -1 -6 -12 22 -14 19 -19 -8 -10 -17 24 -24 26 29 -15 -5 -7
right_child=3 10 12 28 14 25 7 -9 21 -11 15 -13 17 27 -16 16 -18 18 -20 -21 -22 -23 23 -25 -26 -27 -28 -29 -30 -31
leaf_value=-0.0032684798439839577 -0.0033613843068490299 -0.00052474372970310408 -0.0052517758995416887 -0.00056945948523398247 -0.0025220979392828872 -0.00097699014829317945 -0.0039596252053212501 -0.0020885549953871575 -0.00093230116731867288 0.00015920070792749548 5.9993079849327555e-05 -0.0032314627169612109 -0.0042107784857652927 -0.0036618570902385256 -0.0010509858468496834 -0.00043477719308799727 7.8074501256288889e-05 -0.0046266805874242128 -0.0043413313378025788 -0.0031630338675333221 -0.00098915354236809596 0.00011424779945713833 -0.0011515016945907242 0.0011980224809404684 -0.0010755383390648335 6.0458999039916247e-05 -0.0010927616836506674 -0.0024600817294151266 0.018036212805057694 -0.00011616458501839425
leaf_weight=21 20 20 24 20 37 25 23 20 39 51 50 20 37 22 20 33 33 20 38 22 38 101 32 21 20 153 29 20 12255 76
leaf_count=21 20 20 24 20 37 25 23 20 39 51 50 20 37 22 20 33 33 20 38 22 38 101 32 21 20 153 29 20 12255 76
internal_value=0.000192279 -0.010699 -0.0166063 0.000607588 -0.01 -0.00232826 -0.00407877 -0.00675 -0.001875 -0.00433929 -0.00396616 -0.00975 -0.0222287 -0.0140119 -0.00556579 -0.00274206 -0.0039982 -0.0207885 -0.0225 -0.0171071 -0.00810246 -0.000535714 -0.00547642 -0.00705822 -0.00963462 -0.000522085 -0.00155769 -0.0106786 0.000745112 -0.000735149
internal_weight=13340 490 261 12850 120 575 292 132 160 112 229 40 141 63 57 189 139 117 80 42 61 140 106 73 52 283 130 42 12275 101
internal_count=13340 490 261 12850 120 575 292 132 160 112 229 40 141 63 57 189 139 117 80 42 61 140 106 73 52 283 130 42 12275 101
is_linear=0
shrinkage=0.03


Tree=15
num_leaves=31
num_cat=0
split_feature=9 47 50 19 53 51 20 6 47 51 24 35 32 44 23 35 23 9 21 7 20 22 22 9 20 27 9 7 57 19
split_gain=62.2181 7.79823 4.65151 1.43769 0.838943 0.77073 0.737035 0.497685 0.41581 0.461749 0.300589 0.311074 0.229729 0.222222 0.210898 0.20434 0.337193 0.139225 0.12585 0.125171 0.0908125 0.0879699 0.0740741 0.0520346 0.0493827 0.0334522 0.0246914 0.00320513 0.00203963 0.00150427
threshold=19.980952000000006 21.899728000000003 20.271682275 19.958571500000001 0.048906615384209949 19.854021233333338 19.910318500000006 9.5000000000000018 20.011148500000004 19.963536916666669 19.826965000000005 23.234377000000006 20.047525500000003 22.542095000000003 20.164135000000005 20.001678500000004 20.206529000000007 20.054840000000002 20.101340000000004 37.500000000000007 19.985183500000002 20.076644000000005 19.970525000000006 19.836975000000006 19.858802500000007 19.840532500000005 19.836975000000006 10.500000000000002 225.50000000000003 19.858802500000007
decision_type=2 2 2 2 2 2 2 2 2 2 2 2 2 2 2 2 2 2 2 2 2 2 2 2 2 2 2 2 2 2
left_child=1 5 3 -2 21 23 10 8 9 20 11 -3 25 22 18 16 -10 -17 -11 27 -6 -5 -8 -1 26 -7 -12 -19 -29 -27
right_child=2 6 -4 4 7 12 13 -9 15 14 24 -13 -14 -15 -16 17 -18 19 -20 -21 -22 -23 -24 -25 -26 29 -28 28 -30 -31
leaf_value=-0.0029147132016320043 -0.0037852638626525402 -0.0038921373863449924 0.018432830867151927 5.6315150038830188e-05 -0.0021580834191828996 -0.002704050078317428 -0.0041843149908519332 0.00088684816088475732 -0.0011177509252289443 5.0863463751221877e-05 -0.0038372797738481755 -0.0041608849406170488 -0.00060492342963474493 -0.0044393065965553412 -0.0010809990422652775 -0.00087219032926475577 -0.00095924497862761595 -0.00039982283880626678 -0.00050851832486790321 -0.00016928569423995155 -0.001493204810204982 -0.00042945136019109767 -0.0046829784772853388 -0.0029683514392752908 -0.003915370795091304 -0.0017792039233333848 -0.0039335808392204127 -0.00095108690879131875 -0.0011209931194170802 -0.0022786245750054113
leaf_weight=27 35 43 12231 117 35 27 27 45 32 74 54 27 26 27 24 20 25 26 24 23 26 35 27 26 27 26 27 56 22 99
leaf_count=27 35 43 12231 117 35 27 27 45 32 74 54 27 26 27 24 20 25 26 24 23 26 35 27 26 27 26 27 56 22 99
internal_value=0.000221514 -0.0102704 0.000621595 -0.00191559 -0.00156164 -0.00626299 -0.0138446 -0.00223611 -0.00258333 -0.00154508 -0.0149242 -0.0133929 -0.00531742 -0.0114722 -0.000479508 -0.00351471 -0.00503947 -0.00292347 0.000137755 -0.00255709 -0.00367623 0.000355263 -0.0103611 -0.00943868 -0.0159167 -0.00576316 -0.016287 -0.003 -0.00309615 -0.00597
internal_weight=13340 490 12850 619 584 231 259 432 387 183 178 70 178 81 122 204 57 147 98 127 61 152 54 53 108 152 81 104 78 125
internal_count=13340 490 12850 619 584 231 259 432 387 183 178 70 178 81 122 204 57 147 98 127 61 152 54 53 108 152 81 104 78 125
is_linear=0
shrinkage=0.03


Tree=16
num_leaves=31
num_cat=0
split_feature=18 60 6 8 34 60 60 47 60 7 60 35 43 60 42 26 31 60 28 28 35 60 18 26 26 60 7 55 60 31
split_gain=50.3263 16.1631 9.17759 4.9875 2.67881 5.63333 2.4603 2.00045 1.93421 1.11386 1.12341 0.947556 0.830769 0.591363 0.738193 0.772325 0.583333 0.512821 1.23077 0.820513 0.286364 0.261099 0.247936 0.24117 0.18544 0.162531 0.875758 0.0953256 0.1875 0.0793982
threshold=19.980952000000006 25.000000000000004 7.5000000000000009 3.5000000000000004 21.897172000000005 75.000000000000014 7.5000000000000009 20.427498000000003 17.500000000000004 12.500000000000002 37.500000000000007 19.825237000000005 19.826965000000005 17.500000000000004 20.142433 19.985183500000002 22.133429500000002 75.000000000000014 19.855958500000003 19.855958500000003 19.883233000000004 7.5000000000000009 20.237710000000003 20.074416500000002 19.858802500000007 17.500000000000004 8.5000000000000018 0.068391459544242375 52.500000000000007 20.237710000000003
decision_type=2 2 2 2 2 2 2 2 2 2 2 2 2 2 2 2 2 2 2 2 2 2 2 2 2 2 2 2 2 2
left_child=1 2 6 -2 12 16 -1 9 11 10 25 -8 -3 14 15 -11 -6 19 -19 -14 -12 -17 27 -24 -13 26 -5 28 -15 -29
right_child=3 4 -4 7 5 -7 8 -9 -10 13 20 24 17 22 -16 21 -18 18 -20 -21 -22 -23 23 -25 -26 -27 -28 29 -30 -31
leaf_value=-0.0044370107540762354 0.017879845941137375 6.4641895671061129e-05 -0.002537298075276011 -0.0032362203766658441 -0.0022119685129104918 0.0020348957933547496 -0.0041850619568502443 -0.0042591770951454638 -0.0040925725383577655 -0.00081411736322925413 -0.00097491345164269069 -0.0037233003902144043 -0.0015914404637450386 8.0638443251533143e-05 -0.00097505270147377004 -0.00033227994943043021 -0.0028562203769474984 -0.00045691748551431716 -0.00094101587500014571 0.00017388101406760052 0.0010989108126196342 0.0011069438965050115 -0.0011256938602429445 -1.846834297552119e-05 -0.0039759850832189513 -0.0011882209310744832 -2.3701052579994509e-05 5.4079668995625988e-05 -0.0010515987944677598 -0.00070232223977376271
leaf_weight=34 12231 65 66 24 21 32 20 24 38 20 20 26 39 24 33 25 27 26 26 39 35 66 23 28 30 30 20 189 24 35
leaf_count=34 12231 65 66 24 21 32 20 24 38 20 20 26 39 24 33 25 27 26 26 39 35 66 23 28 30 30 20 189 24 35
internal_value=0.000257496 -0.00918865 -0.0153715 0.000616936 -0.00437727 -0.009 -0.0195203 -0.00200806 -0.0174079 -0.00166611 -0.00413372 -0.0146447 -0.00248077 -0.000984475 -0.00258333 -0.00141216 -0.0155 -0.00386538 -0.00617308 -0.00232692 -0.000886364 -0.000239011 -0.000271672 -0.00219118 -0.0126429 -0.0065473 -0.00538636 8.82353e-05 -0.001125 0.000348214
internal_weight=13340 489 214 12851 275 80 148 620 114 596 129 76 195 467 144 111 48 130 52 78 55 91 323 51 56 74 44 272 48 224
internal_count=13340 489 214 12851 275 80 148 620 114 596 129 76 195 467 144 111 48 130 52 78 55 91 323 51 56 74 44 272 48 224
is_linear=0
shrinkage=0.03


Tree=17
num_leaves=31
num_cat=0
split_feature=9 59 6 59 8 40 59 59 59 35 54 59 28 59 7 53 59 53 59 26 59 59 36 38 7 30 9 41 9 59
split_gain=49.781 16.7811 7.02484 4.71168 3.69199 1.61155 1.93051 1.59207 1.35124 1.60734 1.23572 2.06044 1.10924 1.07824 0.948328 0.81635 1.34888 0.714637 0.847595 0.501158 0.673401 0.432922 0.3145 0.275086 0.290342 0.294304 0.424825 0.272398 0.272057 0.265696
threshold=19.980952000000006 33.708333333333336 7.5000000000000009 7.0083333333333337 3.5000000000000004 23.290023000000001 20.508333333333336 19.758333333333336 33.00833333333334 19.858802500000007 0.075804049067646664 46.491666666666674 21.896650500000003 19.758333333333336 9.5000000000000018 0.048906615384209949 30.491666666666671 0.066822156200651281 15.750000000000002 19.936974500000002 89.75833333333334 63.00833333333334 22.506008000000005 19.875945000000005 37.500000000000007 20.115569000000004 20.255556000000002 19.997164000000001 20.054840000000002 14.741666666666669
decision_type=2 2 2 2 2 2 2 2 2 2 2 2 2 2 2 2 2 2 2 2 2 2 2 2 2 2 2 2 2 2
left_child=1 2 3 -1 -2 6 13 14 9 -6 19 -12 21 22 -4 -11 17 18 -17 -3 -21 -13 29 -10 -25 26 -26 -19 -29 -5
right_child=4 10 7 5 8 -7 -8 -9 23 15 11 12 -14 -15 -16 16 -18 27 -20 20 -22 -23 -24 24 25 -27 -28 28 -30 -31
leaf_value=-0.0048282292844416463 0.017343450562903227 2.9552163062593421e-05 -0.0032850373710948183 -0.0039481392163906856 -0.003787409245525993 -0.0035684897735311335 -0.0016070283302587814 -0.00088775102530484491 -0.00084294557158000056 1.8549379057880216e-05 -0.0029216626242249575 -0.00098522357465619819 0.00027653727074245183 -0.0039132812162477864 0.00060295156168483938 -0.0022698874330223055 -0.0012448002970420705 -0.000591263846063681 -0.0006886476333033977 9.0060183887149812e-05 -0.00092218621506184818 -0.00085950763087245011 -0.0033388276683727208 5.5333384497622259e-05 -0.0010256295121035554 0.0032177754331991289 -0.00011816843841591305 -0.00069263032437564273 3.7933954182655229e-05 -0.0038331734041419912
leaf_weight=30 12231 76 21 29 20 20 39 25 21 84 20 20 33 27 26 37 21 25 29 27 22 31 20 209 22 31 26 21 73 24
leaf_count=30 12231 76 21 29 20 20 39 25 21 84 20 20 33 27 26 37 21 25 29 27 22 31 20 209 22 31 26 21 73 24
internal_value=0.000277736 -0.00910714 -0.0143075 -0.0173452 0.000635603 -0.0152877 -0.0141421 -0.00633333 -0.0016248 -0.00302419 -0.00318013 -0.00559615 -0.00353571 -0.01635 -0.00307979 -0.0024569 -0.0034733 -0.00265541 -0.00515909 -0.00117 -0.00353571 -0.00630882 -0.0144555 -0.000220874 2.08333e-05 -0.00152848 -0.003 -0.00126681 -0.000526596 -0.0156651
internal_weight=13340 490 261 189 12850 159 139 72 619 310 229 104 84 100 47 290 206 185 66 125 49 51 73 309 288 79 48 119 94 53
internal_count=13340 490 261 189 12850 159 139 72 619 310 229 104 84 100 47 290 206 185 66 125 49 51 73 309 288 79 48 119 94 53
is_linear=0
shrinkage=0.03


Tree=18
num_leaves=31
num_cat=0
split_feature=9 59 6 59 8 40 59 59 59 40 54 59 53 59 7 7 30 59 44 26 59 59 44 36 38 7 30 9 59 56
split_gain=49.181 17.1786 7.02484 4.71168 3.54283 1.61155 1.93051 1.59207 1.25956 1.53281 1.0799 2.20009 1.21284 1.07824 0.948328 0.926627 0.526814 1.06869 0.69555 0.501158 0.673401 0.47363 0.416545 0.3145 0.275086 0.290342 0.294304 0.424825 0.265696 0.0406699
threshold=19.980952000000006 33.708333333333336 7.5000000000000009 7.0083333333333337 3.5000000000000004 23.290023000000001 20.508333333333336 19.758333333333336 33.00833333333334 20.305084500000003 0.075804049067646664 46.491666666666674 0.064894788539099482 19.758333333333336 9.5000000000000018 23.500000000000004 20.076644000000005 15.241666666666669 20.012220500000002 19.936974500000002 89.75833333333334 5.991666666666668 20.074416500000002 22.506008000000005 19.875945000000005 37.500000000000007 20.115569000000004 20.255556000000002 14.741666666666669 0.1033155000000008
decision_type=2 2 2 2 2 2 2 2 2 2 2 2 2 2 2 2 2 2 2 2 2 2 2 2 2 2 2 2 2 2
left_child=1 2 3 -1 -2 6 13 14 9 15 19 -12 -13 23 -4 16 17 -6 -18 -3 -21 -17 -23 28 -10 29 27 -27 -5 -26
right_child=4 10 7 5 8 -7 -8 -9 24 -11 11 12 -14 -15 -16 21 18 -19 -20 20 -22 22 -24 -25 25 26 -28 -29 -30 -31
leaf_value=-0.0046833824059083883 0.01682314704601609 2.8665598170693554e-05 -0.0031864862499619254 -0.0038296950398989641 -0.0027916498462757745 -0.003461435080325188 -0.001558817480351013 -0.00086111849454565076 -0.00081765720443258258 -0.0034416943321051272 -0.0028340127454982212 -0.00094532602354057793 5.0309074579572175e-05 -0.0037958827797603093 0.00058486301483428292 -0.00075011158003967962 -0.00097869154443352611 -0.00095368390268542823 1.3652126746404587e-05 8.7358378370555874e-05 -0.00089452062861003771 0.00014874957255502438 -0.00066466405719141776 -0.0032386628383215504 5.3673382962671211e-05 -0.0009948606267404605 0.0031212421702031387 -0.00011462338526344138 -0.0037181782020177072 0.00067341730534284351
leaf_weight=30 12231 76 21 29 30 20 39 25 21 25 20 38 46 27 26 21 28 36 33 27 22 107 30 20 187 22 31 26 24 22
leaf_count=30 12231 76 21 29 30 20 39 25 21 25 20 38 46 27 26 21 28 36 33 27 22 107 30 20 187 22 31 26 24 22
internal_value=0.000282234 -0.00904592 -0.0143075 -0.0173452 0.000637938 -0.0152877 -0.0141421 -0.00633333 -0.00157633 -0.00292742 -0.00304913 -0.00530769 -0.00317857 -0.01635 -0.00307979 -0.00230263 -0.00421063 -0.00606818 -0.00220082 -0.00117 -0.00353571 -0.000768987 -0.000125912 -0.0144555 -0.000220874 2.08333e-05 -0.00152848 -0.003 -0.0156651 0.000606459
internal_weight=13340 490 261 189 12850 159 139 72 619 310 229 104 84 100 47 285 127 66 61 125 49 158 137 73 309 288 79 48 53 209
internal_count=13340 490 261 189 12850 159 139 72 619 310 229 104 84 100 47 285 127 66 61 125 49 158 137 73 309 288 79 48 53 209
is_linear=0
shrinkage=0.03


Tree=19
num_leaves=31
num_cat=0
split_feature=19 59 46 8 6 59 59 59 50 59 7 59 59 54 55 7 59 7 59 53 53 59 20 25 38 54 23 42 22 22
split_gain=39.2091 14.3938 7.19258 5.24061 2.84045 2.56 2.44152 3.04105 2.85014 2.06712 0.92995 1.26109 0.816327 1.58791 0.785415 0.666868 0.5625 0.546049 0.500595 0.468044 0.665193 1.2426 0.316478 0.306253 0.297756 0.237576 0.162963 0.1425 0.1875 0.0363636
threshold=19.958571500000001 45.50833333333334 21.980001500000004 3.5000000000000004 7.5000000000000009 29.958333333333339 20.716666666666672 19.758333333333336 19.929866950000005 11.008333333333335 12.500000000000002 10.491666666666669 19.758333333333336 1.1759106531896919 1.4690127489325293 7.5000000000000009 20.008333333333336 12.500000000000002 60.716666666666676 0.05411000533785109 0.070808731091119639 20.491666666666671 20.191144000000005 19.855958500000003 20.191144000000005 0.18897326601716999 19.825237000000005 20.048562000000004 20.076644000000005 20.036497000000004
decision_type=2 2 2 2 2 2 2 2 2 2 2 2 2 2 2 2 2 2 2 2 2 2 2 2 2 2 2 2 2 2
left_child=1 2 6 -2 5 -5 7 8 23 -4 11 -6 -11 -14 17 -13 -17 -3 -18 27 21 -21 29 -1 -23 -24 -19 -12 -29 -22
right_child=3 14 9 4 10 -7 -8 -9 -10 12 19 15 13 -15 -16 16 18 26 -20 20 22 24 25 -25 -26 -27 -28 28 -30 -31
leaf_value=-0.0033711080103157303 0.01631845263463564 -0.00085626996168131715 -0.0045359383680232158 -0.0042603675348689106 -0.0022724252699725155 -0.0014723301747505673 -0.00032597922997299708 -0.0026540753685066233 -4.5656855322558159e-05 -0.0034998868634274817 5.1798432770251995e-05 1.6879485704625159e-05 -0.0028382631018599768 -0.0037550033285757567 -0.00090840629736579004 8.7714480175796742e-05 -0.0012092193158511411 -0.00095658245763197136 -0.00087841965004829402 -0.00078639719201589644 -0.00033135798325652606 -0.00070133995881201388 -0.00093581063299743672 -0.0031426321860757805 0.003387390789585578 0.0014875972918946085 3.8750694120951946e-05 6.541562340398735e-05 -0.001042767375678016 0.0001117045940288721
leaf_weight=21 12231 38 32 20 22 25 38 23 29 35 152 53 24 39 24 24 20 20 28 33 22 29 55 25 34 20 88 24 24 88
leaf_count=21 12231 38 32 20 22 25 38 23 29 35 152 53 24 39 24 24 20 20 28 33 22 29 55 25 34 20 88 24 24 88
internal_value=0.00030922 -0.00853899 -0.0128966 0.000608184 -0.00196917 -0.00925 -0.00807353 -0.0105765 -0.00765 -0.0179423 -0.00144745 -0.00353571 -0.0157806 -0.0178214 -0.00172059 -0.00237 -0.00425 -0.000893836 -0.006125 -0.000809252 -0.00159875 -0.003625 -0.000547297 -0.0122935 -0.00115476 -0.00205 0.000194444 0.0003 -0.001125 0.000477273
internal_weight=13340 436 266 12904 673 45 136 98 75 130 628 147 98 63 170 125 72 146 48 481 281 96 185 46 63 75 108 200 48 110
internal_count=13340 436 266 12904 673 45 136 98 75 130 628 147 98 63 170 125 72 146 48 481 281 96 185 46 63 75 108 200 48 110
is_linear=0
shrinkage=0.03


Tree=20
num_leaves=31
num_cat=0
split_feature=9 59 47 59 8 54 59 50 47 59 59 40 7 59 49 59 26 30 59 44 21 38 47 51 7 26 26 59 21 7
split_gain=42.0674 14.9713 5.09876 3.4377 3.11382 2.26896 4.20291 1.68504 1.49214 1.25714 1.17138 1.61725 1.14239 0.899533 0.719657 0.776968 0.589669 0.526814 1.06869 0.69555 0.303898 0.291436 0.259304 0.221367 0.19624 0.39783 0.164602 0.15873 0.0406699 8.88178e-16
threshold=19.980952000000006 30.716666666666672 21.899728000000003 7.0083333333333337 3.5000000000000004 1.1759106531896919 89.75833333333334 19.900343750000001 23.173270500000005 15.750000000000002 33.00833333333334 20.305084500000003 23.500000000000004 12.508333333333335 19.955000550000005 90.491666666666688 19.914856000000004 20.076644000000005 15.241666666666669 20.012220500000002 20.152213000000007 19.875945000000005 22.545106500000003 19.854021233333338 37.500000000000007 20.074416500000002 19.964574000000002 6.0083333333333337 19.964574000000002 45.500000000000007
decision_type=2 2 2 2 2 2 2 2 2 2 2 2 2 2 2 2 2 2 2 2 2 2 2 2 2 2 2 2 2 2
left_child=1 2 7 -4 29 14 -7 23 13 -9 11 12 17 -5 22 -16 -15 18 -6 -19 27 -12 26 -1 28 -26 -3 -14 -23 -2
right_child=4 5 3 8 10 6 -8 9 -10 -11 21 -13 20 16 15 -17 -18 19 -20 -21 -22 24 -24 -25 25 -27 -28 -29 -30 -31
leaf_value=-0.0030227733353213604 0.017792190223809463 2.8368871149229363e-05 -0.0044217261764596047 -0.0038620618068100458 -0.0026325483860124973 -0.0022433197395316518 0.0019830365049941377 -0.002063877237271014 -0.0036707452314376447 -0.00076371287189711857 -0.00076710714412859746 -0.0032023653511013615 -0.00069632521136811293 -0.0034434111632199922 -0.0012154074050544379 -0.00086350636686225119 -0.0026626155815659175 -0.00091305421862505182 -0.00088879680612932949 1.1571311050734847e-05 -0.000608557257243655 3.7247533109522481e-05 -0.0009051437405931574 -0.0023247323548262885 -0.00099176501108825372 0.0006399048288418484 -0.00055610305480697955 0.00016501659965305129 5.0509228490689396e-05 0.013113502174493056
leaf_weight=23 9298 93 24 20 30 37 28 35 27 20 21 25 21 30 29 22 27 28 36 33 32 22 22 33 35 44 20 105 187 2933
leaf_count=23 9298 93 24 20 30 37 28 35 27 20 21 25 21 30 29 22 27 28 36 33 32 22 22 33 35 44 20 105 187 2933
internal_value=0.000315967 -0.00831122 -0.0136851 -0.0177656 0.000644942 -0.00319422 -0.00801923 -0.00897973 -0.0154038 -0.00525 -0.00143094 -0.00273387 -0.00209211 -0.013276 -0.00150806 -0.00454412 -0.0113553 -0.00421063 -0.00606818 -0.00220082 -0.000389241 -0.000123786 -0.000361111 -0.0126429 0.000125 -0.00114873 0.000219027 0.00027381 0.000606459 0.00075
internal_weight=13340 490 239 128 12850 251 65 111 104 55 619 310 285 77 186 51 57 127 66 61 158 309 135 56 288 79 113 126 209 12231
internal_count=13340 490 239 128 12850 251 65 111 104 55 619 310 285 77 186 51 57 127 66 61 158 309 135 56 288 79 113 126 209 12231
is_linear=0
shrinkage=0.03


Tree=21
num_leaves=31
num_cat=0
split_feature=9 59 6 50 59 54 59 47 59 21 59 29 59 7 39 59 49 59 43 59 26 19 47 29 9 59 22 44 26 19
split_gain=39.293 12.4218 4.41625 3.81425 2.70175 1.95265 4.20291 1.86141 1.49453 2.69135 1.28708 1.00663 1.2797 0.969954 1.04377 0.809043 0.725311 0.874744 0.609675 0.568692 0.825916 0.249459 0.233271 0.225256 0.500521 0.206843 0.17381 0.166176 0.156522 0.025
threshold=19.958571500000001 30.716666666666672 7.5000000000000009 20.271682275 5.5083333333333337 1.1759106531896919 89.75833333333334 23.269844000000003 33.00833333333334 19.883233000000004 16.508333333333336 19.934904000000003 15.491666666666669 23.500000000000004 20.193045000000001 16.008333333333336 19.955000550000005 90.491666666666688 20.049607500000004 23.208333333333336 20.167821000000004 20.319315000000007 22.545106500000003 20.001678500000004 20.152213000000007 15.241666666666669 20.047953500000002 20.051006500000003 19.964574000000002 20.263469000000004
decision_type=2 2 2 2 2 2 2 2 2 2 2 2 2 2 2 2 2 2 2 2 2 2 2 2 2 2 2 2 2 2
left_child=1 2 4 8 -1 16 -7 11 9 -2 -4 15 -13 18 27 -6 22 -18 19 20 25 23 28 24 26 -11 -10 -15 -3 -29
right_child=3 5 10 -5 7 6 -8 -9 21 13 -12 12 -14 14 -16 -17 17 -19 -20 -21 -22 -23 -24 -25 -26 -27 -28 29 -30 -31
leaf_value=-0.004295399358408258 -0.0032555828280611669 2.756930546229675e-05 -0.0026066962171296744 0.015421589418828532 -0.003310996284906156 -0.0021760201473457262 0.0019235454098442714 -0.0035057816461625548 4.7231933302684914e-05 -0.0025342848118707758 -0.00074080148574019104 -0.0034994899245468889 -0.0027548559185015032 7.6428169173772641e-05 -0.00089183541192499184 -0.0033056946787926684 -0.0012500202187694697 -0.00083940969806823348 -5.5409229443756405e-05 -0.0011459331640585307 0.00018391752102753152 -0.00087081377338387085 -0.00087798942837538987 4.9311612966776569e-05 -0.0010354610714311441 -0.00070342383348035819 -0.00070948196187188095 -6.1663024473981783e-05 -0.00053941996316271893 -0.00042492091548985641
leaf_weight=21 25 72 37 12231 33 37 28 20 73 31 20 28 31 113 25 21 27 20 29 20 31 23 22 183 20 24 35 20 20 20
leaf_count=21 25 72 37 12231 33 37 28 20 73 31 20 28 31 113 25 21 27 20 29 20 31 23 22 183 20 24 35 20 20 20
internal_value=0.00032946 -0.00851773 -0.0137524 0.000629098 -0.0163929 -0.00363053 -0.00801923 -0.0148139 -0.00157143 -0.00297781 -0.00661842 -0.0133208 -0.0160297 -0.00222125 -0.000766854 -0.0103611 -0.0018587 -0.00499468 -0.00413889 -0.0051934 -0.00413372 -0.000148204 -0.000565789 7.47588e-05 -0.000890625 -0.00634091 -8.33333e-05 0.000161765 9.78261e-05 -0.0015
internal_weight=13340 437 211 12903 154 226 65 133 672 338 57 113 59 313 178 54 161 47 135 106 86 334 114 311 128 55 108 153 92 40
internal_count=13340 437 211 12903 154 226 65 133 672 338 57 113 59 313 178 54 161 47 135 106 86 334 114 311 128 55 108 153 92 40
is_linear=0
shrinkage=0.03


Tree=22
num_leaves=31
num_cat=0
split_feature=18 59 8 6 54 59 59 42 51 59 41 59 34 55 59 54 59 43 59 36 31 56 35 37 38 22 55 39 59 52
split_gain=34.2404 10.8849 4.83816 3.55383 2.06235 4.37581 1.98866 1.70675 1.71197 1.39339 1.29954 1.1753 1.08604 0.923604 1.57788 0.868288 0.610132 0.442205 0.544273 0.372813 0.292741 0.283355 0.283147 0.241503 0.207675 0.435374 0.131169 0.106977 0.0416667 0.033021
threshold=19.934904000000003 30.716666666666672 3.5000000000000004 7.5000000000000009 0.87754728434789242 89.75833333333334 33.00833333333334 20.267280000000003 19.963536916666669 5.5083333333333337 23.155350000000002 10.491666666666669 19.936974500000002 0.11304757337759964 29.958333333333339 0.12583886068122724 19.758333333333336 19.826965000000005 89.75833333333334 19.836975000000006 19.980952000000006 -0.10795300000000017 22.580413000000004 20.011148500000004 19.875945000000005 20.006427500000004 0.063359838344133029 19.855958500000003 6.0083333333333337 0.12139114717958181
decision_type=2 2 2 2 2 2 2 2 2 2 2 2 2 2 2 2 2 2 2 2 2 2 2 2 2 2 2 2 2 2
left_child=1 3 -2 9 17 22 7 8 11 -1 16 -4 -13 28 15 -15 19 -3 27 -11 -21 -8 -6 -17 25 -23 -26 -19 -10 -28
right_child=2 4 6 -5 5 -7 21 -9 13 10 -12 12 -14 14 -16 23 -18 18 -20 20 -22 24 -24 -25 26 -27 29 -29 -30 -31
leaf_value=-0.0038345283678270221 0.014958941736263682 0.00011765773649719234 -0.003144704824230789 -0.00091144857897630346 -0.0015116422470896015 0.0018688250470486761 -0.00083718290692528781 -0.0031877664814628816 -0.00010953581636394524 -0.0014318354451772618 -0.0035161832670283009 -0.00063723369227436366 -0.00060909391443239038 -0.0027077401059094112 -0.0011004236002939342 -0.00022137733563681641 -0.0032876353537980561 -0.00017571210631691096 -0.00085475210401809336 -0.0032948040276057191 -0.0035867345861273015 3.800855872716762e-05 -0.0025057951701755576 0.00021626896719398306 -0.0008703904306752618 -0.00078374653176123703 4.7514603247016392e-05 0.0002384653914520006 0.00013369065895569649 -0.00037356542777981382
leaf_weight=20 12231 52 20 35 21 32 34 39 20 23 25 35 24 24 21 26 37 20 32 20 21 28 22 60 25 21 222 23 100 27
leaf_count=20 12231 52 20 35 21 32 34 39 20 23 25 35 24 24 21 26 37 20 32 20 21 28 22 60 25 21 222 23 100 27
internal_value=0.000347451 -0.00849282 0.000608764 -0.0138356 -0.00370545 -0.00765 -0.00177066 -0.00331504 -0.00261364 -0.0158938 -0.0147262 -0.00646519 -0.00433475 -0.00140139 -0.00314313 -0.00170455 -0.0132104 -0.00137598 -0.00285 -0.0114375 -0.0131524 -0.00017437 -0.0139012 -0.000296512 9.98452e-05 -0.00169898 0.000421533 -0.000645349 0.0005 0.000629518
internal_weight=13340 383 12957 181 202 75 726 369 330 146 126 79 59 251 131 110 101 127 75 64 41 357 43 86 323 49 274 43 120 249
internal_count=13340 383 12957 181 202 75 726 369 330 146 126 79 59 251 131 110 101 127 75 64 41 357 43 86 323 49 274 43 120 249
is_linear=0
shrinkage=0.03


Tree=23
num_leaves=31
num_cat=0
split_feature=18 60 8 6 44 56 60 21 60 36 48 60 39 7 60 27 60 33 60 46 38 22 44 37 7 26 7 47 26 7
split_gain=33.089 10.2674 4.68084 3.66942 2.14789 1.6703 1.38143 1.60647 1.35172 1.01411 0.804767 0.75 0.701189 0.768053 0.674386 0.700833 0.625926 0.667064 0.541867 0.679995 0.293936 0.560897 0.236948 0.428571 0.171429 0.411429 0.157858 0.117647 0.0357143 0.0267857
threshold=19.934904000000003 25.000000000000004 3.5000000000000004 7.5000000000000009 19.840532500000005 -0.18826299999999915 37.500000000000007 19.964574000000002 105.00000000000001 23.234377000000006 19.841370400000006 52.500000000000007 20.193045000000001 23.500000000000004 25.000000000000004 20.037909500000005 12.500000000000002 19.858802500000007 17.500000000000004 22.421368500000003 19.875945000000005 19.944028500000005 20.051006500000003 20.048562000000004 37.500000000000007 20.057363500000005 51.500000000000007 22.545106500000003 19.964574000000002 12.500000000000002
decision_type=2 2 2 2 2 2 2 2 2 2 2 2 2 2 2 2 2 2 2 2 2 2 2 2 2 2 2 2 2 2
left_child=1 3 -2 9 28 -4 7 16 10 18 11 -6 13 14 15 -9 -7 -18 19 26 21 -8 -15 -24 -22 -26 -1 -12 -3 -17
right_child=2 4 5 -5 8 6 20 12 -10 -11 27 -13 -14 22 -16 29 17 -19 -20 -21 24 -23 23 -25 25 -27 -28 -29 -30 -31
leaf_value=-0.0032352514654108797 0.014510173484175758 4.5925439723775748e-05 -0.0034447645145480143 -0.00088410512160704805 -0.0020942932381465096 -0.0030144187185246083 3.6868301965303043e-05 -0.0014410282971088679 -0.00012225421172893801 -0.0031871124826045507 -0.0009808107553971779 -0.00070322464442586251 -0.0006975576395170357 8.7092408176780433e-05 -0.0008261260025954982 3.1637916146349764e-05 -0.001474301164623772 -0.00066407364550545925 -0.0033562777833336778 -0.0034755705720306775 4.6089165149645335e-05 -0.00078641665298009237 -0.0018030213067028809 8.608437450543648e-05 -0.00095976442271093634 0.00066688770239828907 -0.0020949076222720039 -0.0019606933901876069 -9.1704368160386768e-05 2.8153492989839923e-05
leaf_weight=21 12231 50 23 35 24 27 28 27 29 24 32 24 38 118 20 27 21 24 28 38 210 24 21 27 25 45 22 36 20 21
leaf_count=21 12231 50 23 35 24 27 28 27 29 24 32 24 38 118 20 27 21 24 28 38 210 24 21 27 25 45 22 36 20 21
internal_value=0.000354198 -0.00833616 0.000611079 -0.0138929 -0.00399419 -0.00172934 -0.00146906 -0.00272709 -0.00607759 -0.0161673 -0.00752586 -0.0105 -0.00175836 -0.00120402 -0.00335526 -0.00205 -0.00675 -0.00458333 -0.0149381 -0.0136944 -6.3253e-05 -0.00213462 2.71084e-05 -0.00175 0.000321429 -0.000964286 -0.0111105 -0.00542647 0.000321429 0.000125
internal_weight=13340 383 12957 168 215 726 703 371 145 133 116 48 299 261 95 75 72 45 109 81 332 52 166 48 280 70 43 68 70 48
internal_count=13340 383 12957 168 215 726 703 371 145 133 116 48 299 261 95 75 72 45 109 81 332 52 166 48 280 70 43 68 70 48
is_linear=0
shrinkage=0.03


Tree=24
num_leaves=31
num_cat=0
split_feature=9 59 39 59 8 59 7 59 59 24 32 59 32 59 7 38 59 23 26 59 54 44 37 59 30 22 59 59 24 7
split_gain=32.0897 10.4857 3.66359 3.54998 3.116 1.7545 1.65304 1.55763 1.40441 1.72201 1.09343 0.99777 1.39716 0.857143 0.791102 0.994818 0.777472 1.33284 0.625 0.540766 1.32482 0.262371 0.398268 0.206843 0.161974 0.320093 0.291879 0.432692 0.0357143 0.0321429
threshold=19.958571500000001 22.008333333333336 21.900444000000004 19.758333333333336 3.5000000000000004 11.008333333333335 45.500000000000007 94.00833333333334 33.00833333333334 19.840532500000005 22.079774500000003 11.508333333333335 22.139130500000004 45.491666666666674 23.500000000000004 20.191144000000005 89.75833333333334 19.855958500000003 19.936974500000002 29.958333333333339 0.12583886068122724 20.051006500000003 20.048562000000004 15.241666666666669 20.047953500000002 20.036497000000004 95.00833333333334 61.00833333333334 19.951365500000005 10.500000000000002
decision_type=2 2 2 2 2 2 2 2 2 2 2 2 2 2 2 2 2 2 2 2 2 2 2 2 2 2 2 2 2 2
left_child=1 2 3 5 -2 18 7 10 9 -6 16 -4 -13 -12 19 21 17 -3 -1 20 23 -16 -23 -11 25 -10 27 -27 -8 -22
right_child=4 6 11 -5 8 -7 28 -9 24 14 13 12 -14 -15 15 -17 -18 -19 -20 -21 29 22 -24 -25 -26 26 -28 -29 -30 -31
leaf_value=-0.0030536386720968448 0.014074868279650481 -0.00086060444087883491 -0.0040105610740941971 -0.0021124635530337245 -0.003033944598234444 -0.00087237812751333446 7.7174061066126904e-05 0.001793286426310956 3.662356038393748e-05 -0.0022734825612320572 -0.0024007155615822181 -0.0033149402770932717 -0.0027866891362724588 -0.0016066225394762994 7.889018554373581e-05 -0.00074852062593789757 -0.00076368833721469074 0.0003289471413213722 -0.0016583999581506297 -0.00097584476532427142 -6.8252233235415434e-05 -0.0015784482437197769 7.5212281399132699e-05 -0.00060305355324601724 4.5168543015710764e-05 -0.00019419330390532043 0.00096161210499573165 -0.00082198124269578117 -4.0515334746942257e-05 0.00024252490183853697
leaf_weight=20 12231 37 35 26 20 39 50 41 86 31 21 21 27 21 114 25 23 36 20 24 20 21 23 24 153 32 43 20 20 36
leaf_count=20 12231 37 35 26 20 39 50 41 86 31 21 21 27 21 114 25 23 36 20 24 20 21 23 24 153 32 43 20 20 36
internal_value=0.00036994 -0.00762529 -0.0129734 -0.00925 0.000640723 -0.00608544 -0.00358735 -0.00511592 -0.00134821 -0.00271154 -0.0066413 -0.0176837 -0.014875 -0.0106786 -0.00217453 -0.000889344 -0.004875 -0.00335959 -0.0105 -0.00391667 -0.00303378 -9.49368e-06 -0.00197727 -0.00634091 3.14371e-05 -0.000575967 -0.00177632 -0.00328846 0.000321429 0.000214286
internal_weight=13340 437 188 105 12903 79 249 179 672 338 138 83 48 42 318 183 96 73 40 135 111 158 44 55 334 181 95 52 70 56
internal_count=13340 437 188 105 12903 79 249 179 672 338 138 83 48 42 318 183 96 73 40 135 111 158 44 55 334 181 95 52 70 56
is_linear=0
shrinkage=0.03


Tree=25
num_leaves=31
num_cat=0
split_feature=9 60 41 8 60 7 24 60 29 60 24 20 7 38 36 35 60 23 60 44 30 56 44 37 30 26 27 57 60 24
split_gain=31.5589 9.41657 3.95372 3.116 2.74349 1.72449 1.42726 1.28571 1.24756 1.22221 1.7771 0.875041 0.782249 1.0171 0.648214 0.484158 1.0947 0.781385 0.446429 0.410917 0.257703 0.247433 0.231293 0.435374 0.175844 0.25098 0.244344 0.328205 0.0984644 0.0357143
threshold=19.958571500000001 25.000000000000004 22.079774500000003 3.5000000000000004 17.500000000000004 45.500000000000007 19.860796000000004 105.00000000000001 19.934904000000003 37.500000000000007 19.840532500000005 19.795615000000002 23.500000000000004 20.191144000000005 23.234377000000006 22.946815500000003 75.000000000000014 19.855958500000003 12.500000000000002 20.012220500000002 20.173116500000003 0.075377500000001887 20.051006500000003 20.048562000000004 20.047953500000002 19.964574000000002 19.993008500000006 59.500000000000007 12.500000000000002 19.951365500000005
decision_type=2 2 2 2 2 2 2 2 2 2 2 2 2 2 2 2 2 2 2 2 2 2 2 2 2 2 2 2 2 2
left_child=1 2 4 -2 6 7 -1 11 -8 10 -5 -3 19 22 18 16 17 -13 -4 21 -21 28 -14 -24 25 -11 -27 -28 -12 -7
right_child=3 5 14 9 -6 29 8 -9 -10 24 12 15 13 -15 -16 -17 -18 -19 -20 20 -22 -23 23 -25 -26 26 27 -29 -30 -31
leaf_value=-0.0029183639976226479 0.013652622231260984 -0.0019594429741546303 -0.0038912162830093849 -0.0029429262602874598 -0.0019762715265623744 7.4858839234170257e-05 -0.0027636426496102148 0.0013113265137299835 7.6025238134078501e-05 3.0574866483857418e-05 -0.0021331452637359687 -0.00067234356894968559 8.3510292962091223e-05 -0.00072606500715979426 -0.0029831817348307159 -0.0019379423834106318 -0.00074164187092217251 6.9388209878575762e-05 -0.0032140400315761541 -0.00080385396430850814 0.00012796558151775199 -0.0011927847833862546 -0.0015310947964081835 8.3317865296112569e-05 4.3755730125941745e-05 -0.00075213414411535518 5.7129858617111703e-05 -0.0008821141541404474 -0.00067596565320113624 -3.9299874704568099e-05
leaf_weight=26 12231 24 28 20 29 50 27 35 30 68 23 24 119 25 24 28 22 42 28 28 23 27 21 28 149 24 48 30 39 20
leaf_count=26 12231 24 28 20 29 50 27 35 30 68 23 24 119 25 24 28 22 42 28 28 23 27 21 28 149 24 48 30 39 20
internal_value=0.000372189 -0.00755664 -0.0125313 0.000640723 -0.00889286 -0.00365816 -0.00611747 -0.00525 -0.00346053 -0.00134821 -0.00256445 -0.00653571 -0.00204279 -0.000804404 -0.017625 -0.0054569 -0.00436364 -0.00243182 -0.0158571 -0.00375 -0.00160294 -0.00498034 3.57143e-05 -0.00169898 -2.3511e-06 -0.000661765 -0.00160294 -0.000788462 -0.00602419 0.000321429
internal_weight=13340 437 192 12903 112 245 83 175 57 672 353 140 333 193 80 116 88 66 56 140 51 89 168 49 319 170 102 78 62 70
internal_count=13340 437 192 12903 112 245 83 175 57 672 353 140 333 193 80 116 88 66 56 140 51 89 168 49 319 170 102 78 62 70
is_linear=0
shrinkage=0.03


Tree=26
num_leaves=31
num_cat=0
split_feature=9 59 40 59 8 59 43 59 59 24 59 32 33 44 59 42 7 59 55 45 22 23 21 35 7 44 38 29 9 7
split_gain=29.5492 9.36069 4.72377 3.54187 2.60819 1.27357 1.25199 1.41544 1.22954 1.83109 0.99777 1.39716 0.93134 0.722952 0.669779 0.626468 0.849389 0.731757 0.887361 0.459574 0.363025 0.310968 0.196931 0.1875 0.133188 0.268596 0.17374 0.042126 0.034375 0.0333333
threshold=19.958571500000001 22.008333333333336 21.900444000000004 19.758333333333336 3.5000000000000004 10.008333333333335 19.840532500000005 94.00833333333334 33.00833333333334 19.840532500000005 11.508333333333335 22.139130500000004 19.795615000000002 22.623400500000006 43.50833333333334 20.267280000000003 23.500000000000004 29.958333333333339 0.12119221597099537 19.840532500000005 19.944028500000005 19.836975000000006 20.152213000000007 19.910318500000006 37.500000000000007 20.074416500000002 19.875945000000005 19.958571500000001 20.030318000000005 10.500000000000002
decision_type=2 2 2 2 2 2 2 2 2 2 2 2 2 2 2 2 2 2 2 2 2 2 2 2 2 2 2 2 2 2
left_child=1 2 3 5 -2 -1 23 12 9 -6 -4 -12 -8 14 -14 16 17 18 20 -7 -11 -16 27 -3 26 -26 -10 -18 -27 -20
right_child=4 6 10 -5 8 19 7 -9 24 15 11 -13 13 -15 21 -17 22 -19 29 -21 -22 -23 -24 -25 25 28 -28 -29 -30 -31
leaf_value=-0.0028730867463531225 0.013243043564323109 0.00024366469761611065 -0.0037735077533811454 -0.0019898015006458792 -0.0028546384724787923 -0.0016480677438561943 -0.00026409807998882534 -9.5018741589891144e-06 -0.0006284811138020346 -0.00039678687075386099 -0.0031190708678331949 -0.0026066672612370155 -0.00033340905995533552 -0.0021765012529141531 -0.00085210767848829436 -0.0016099140505292174 2.84066756103587e-05 -0.00092465987683472601 -4.2089047309086495e-05 0.00018191005796015292 -0.0021810236897967005 -0.0017879987699279422 -0.00021308340247935288 -0.00037200077711438211 -0.00086453481108683845 -0.0003220872942748002 4.1955459246572019e-05 0.00013624806550209791 0.00050738158765581669 0.00014237652308247064
leaf_weight=32 12231 50 35 26 20 20 21 40 21 21 21 27 23 26 21 25 20 24 20 27 30 38 31 30 31 20 218 107 44 40
leaf_count=32 12231 50 35 26 20 20 21 40 21 21 21 27 23 26 21 25 20 24 20 27 30 38 31 30 31 20 218 107 44 40
internal_value=0.00039018 -0.00728204 -0.0123351 -0.00810714 0.000650023 -0.0049462 -0.00346687 -0.00493047 -0.00116964 -0.00244527 -0.0176837 -0.014875 -0.0064593 -0.00758333 -0.00620122 -0.00189151 -0.00150256 -0.00325 -0.00222297 -0.00180319 -0.00513235 -0.00789407 -9.49368e-06 -0.000375 0.000121257 -0.000828947 0.000498954 0.00051378 0.00028125 0.00025
internal_weight=13340 437 188 105 12903 79 249 169 672 338 83 48 129 108 82 318 293 135 111 47 51 59 158 80 334 95 239 127 64 60
internal_count=13340 437 188 105 12903 79 249 169 672 338 83 48 129 108 82 318 293 135 111 47 51 59 158 80 334 95 239 127 64 60
is_linear=0
shrinkage=0.03


Tree=27
num_leaves=31
num_cat=0
split_feature=19 59 46 59 8 59 18 55 59 59 33 59 56 59 49 39 59 52 51 44 51 28 27 59 59 42 26 29 27 47
split_gain=23.726 8.97851 5.25885 3.20333 3.11113 1.80186 1.26572 1.2298 1.18703 2.69856 1.14925 2.30769 1.14833 0.622191 0.70431 0.35517 1 0.267576 0.297724 0.317618 0.261785 0.334821 0.252101 0.215957 0.818698 0.20988 0.119048 0.157143 0.111395 0.0336066
threshold=19.958571500000001 22.008333333333336 21.980001500000004 19.758333333333336 3.5000000000000004 5.5083333333333337 20.054840000000002 0.068391459544242375 19.758333333333336 11.508333333333335 21.975967500000003 89.75833333333334 -0.18826299999999915 30.716666666666672 19.955000550000005 20.286382000000003 30.491666666666671 0.069572038444875459 20.151699733333334 20.110126500000003 19.928140350000003 19.855958500000003 19.936974500000002 62.00833333333334 30.491666666666671 20.142433 19.964574000000002 19.795615000000002 20.237710000000003 20.319185000000004
decision_type=2 2 2 2 2 2 2 2 2 2 2 2 2 2 2 2 2 2 2 2 2 2 2 2 2 2 2 2 2 2
left_child=1 2 3 7 -2 6 -6 -1 9 -4 13 -12 -7 -3 26 17 -17 20 19 23 21 -14 -9 24 -19 28 27 -15 -22 -20
right_child=4 10 8 -5 5 12 -8 22 -10 -11 11 -13 15 14 -16 16 -18 18 29 -21 25 -23 -24 -25 -26 -27 -28 -29 -30 -31
leaf_value=-0.0026192552247931399 0.012845752257393421 -0.0010720515933132814 -0.0035774697131831816 -0.0019543801622533062 -0.0028597561009483059 -0.0023370008989193956 -0.0019294738439367728 -0.0025614367759549924 -0.0029825041070294916 -0.0027847104095061973 -0.0018567589995609319 0.0017190955907631176 0.00039063640422046974 -0.0008069310667645031 -0.00063559303896008586 -0.0015101330462740361 0.00059247549539526633 -0.00012915102470303404 0.0004983450200453563 3.4689462486285101e-05 3.6054943783667643e-05 -0.00078814759558817253 0.00013969663663073668 -0.00065078277192973067 -0.00076235745047097668 -0.00054272161987579612 -0.00045451022428021965 5.4183823207356888e-05 -0.00044808077882493646 2.535841572713036e-05
leaf_weight=24 12231 21 35 25 20 21 26 21 20 32 39 26 24 21 23 20 25 39 41 24 262 32 30 32 22 33 20 99 32 20
leaf_count=24 12231 21 35 25 20 21 26 21 20 32 39 26 24 21 23 20 25 39 41 24 262 32 30 32 22 33 20 99 32 20
internal_value=0.000408171 -0.00647477 -0.0114425 -0.00675 0.000640732 -0.0013451 -0.00707609 -0.00365 -0.0168362 -0.0149216 -0.00274398 -0.00617308 -0.000924641 -0.00153261 -0.000906442 -0.000685644 -0.00325 -0.000479947 -0.00144101 -0.00232692 -3.32898e-05 -0.00192857 -0.00101471 -0.00312097 -0.00416803 0.000291284 -0.000107143 0.00025 0.000545918 0.000258197
internal_weight=13340 436 187 100 12904 673 46 75 87 67 249 65 627 184 163 606 45 561 178 117 383 56 51 93 61 327 140 120 294 61
internal_count=13340 436 187 100 12904 673 46 75 87 67 249 65 627 184 163 606 45 561 178 117 383 56 51 93 61 327 140 120 294 61
is_linear=0
shrinkage=0.03


Tree=28
num_leaves=31
num_cat=0
split_feature=18 59 8 39 34 59 33 59 59 59 7 59 7 38 41 7 59 59 37 59 38 59 45 22 59 23 43 56 18 6
split_gain=21.1036 7.69378 4.20099 3.87048 2.15833 1.4937 3.31202 1.1608 1.78571 1.10973 1.06738 1.24515 0.695157 0.765449 0.466766 0.417041 0.84965 0.370523 0.36617 0.449011 0.332633 0.971645 0.22548 0.19818 0.145946 0.0846169 0.0792793 0.0381206 0.0361111 8.88178e-16
threshold=19.910318500000006 30.491666666666671 3.5000000000000004 19.875945000000005 20.713065000000004 5.5083333333333337 19.910318500000006 12.008333333333335 19.758333333333336 15.491666666666669 34.500000000000007 93.50833333333334 12.500000000000002 19.855958500000003 20.0527525 7.5000000000000009 29.958333333333339 64.50833333333334 20.263469000000004 48.216666666666676 22.177629500000005 47.00833333333334 19.840532500000005 20.164135000000005 20.008333333333336 20.164135000000005 19.826965000000005 -0.060492500000000497 20.237710000000003 11.500000000000002
decision_type=2 2 2 2 2 2 2 2 2 2 2 2 2 2 2 2 2 2 2 2 2 2 2 2 2 2 2 2 2 2
left_child=1 3 29 9 5 6 -4 -5 -9 -1 11 20 13 -7 22 24 -17 18 19 23 -3 -22 -14 -16 -15 -25 -12 -24 -19 -2
right_child=2 10 4 7 -6 12 -8 8 -10 -11 26 -13 14 15 17 16 -18 28 -20 -21 21 -23 27 25 -26 -27 -28 -29 -30 -31
leaf_value=-0.0023798731551474593 0.024535969033347291 -0.00061057264491196311 -0.002640941917855113 -0.0034675704997210502 -0.003283472784126024 -0.0016824260780998902 -0.00012981516608616506 -0.0026289516280433474 -0.0027526749487904196 -0.0019685668772660763 0.00024776669203412923 0.0016682692229152093 -0.00055013963992724634 -0.00064097415038490938 5.8324970162392716e-05 0.00026304441943913808 -0.00074456917236373607 0.00076741327241114864 -0.0010848715426237381 -0.00073736348405172231 -0.0021245517004236701 -0.0005020208463152896 -0.00014522741530047895 -0.00041256648021939898 0.00010627113638802498 -8.7069785777266022e-06 -0.00048770874386470817 3.7135358586284631e-05 0.00070618027246127884 0.0011935568747301771
leaf_weight=39 9162 34 20 36 20 32 32 28 28 22 44 27 33 20 49 27 39 52 30 26 22 20 24 22 54 21 30 258 20 3069
leaf_count=39 9162 34 20 36 20 32 32 28 28 22 44 27 33 20 49 27 39 52 30 26 22 20 24 22 54 21 30 258 20 3069
internal_value=0.000423913 -0.00706818 0.000613951 -0.0119951 -0.00152214 -0.00126581 -0.00617308 -0.0158804 -0.0131786 -0.00613525 -0.00280932 -0.00478398 -0.00090488 -0.00256395 -0.000371495 -0.00160714 -0.00334091 -0.00143182 -0.00229054 -0.00153814 -0.00675 -0.00853571 0.000369048 -0.000554348 -6.08108e-05 -0.0020407 -6.08108e-05 0.000643617 0.000333333 0.00075
internal_weight=13340 330 13010 153 779 759 52 92 56 61 177 103 707 172 535 140 66 220 148 118 76 42 315 92 74 43 74 282 72 12231
internal_count=13340 330 13010 153 779 759 52 92 56 61 177 103 707 172 535 140 66 220 148 118 76 42 315 92 74 43 74 282 72 12231
is_linear=0
shrinkage=0.03


Tree=29
num_leaves=31
num_cat=0
split_feature=9 59 39 50 59 7 24 33 59 59 59 32 49 59 49 59 39 22 59 56 7 44 59 48 59 9 24 19 59 7
split_gain=22.8985 8.22828 6.47854 2.06811 1.87553 1.01666 0.975156 0.937159 0.927111 0.817268 0.757494 1.39716 0.694471 0.440194 0.64161 1.1824 0.869828 0.500662 0.329232 0.438312 0.32055 0.377069 0.271834 0.137143 0.104762 0.0499185 0.0357143 0.0256098 0.025 1.77636e-15
threshold=19.958571500000001 22.008333333333336 21.900444000000004 20.196462275000005 19.758333333333336 45.500000000000007 19.888912500000004 19.858802500000007 94.00833333333334 30.491666666666671 11.508333333333335 22.139130500000004 19.955000550000005 33.00833333333334 20.089486400000002 23.208333333333336 20.193045000000001 19.970525000000006 36.00833333333334 -0.00083949999999965985 37.500000000000007 20.074416500000002 48.94166666666667 20.291359300000007 10.750000000000002 20.182265000000005 19.951365500000005 19.858802500000007 63.00833333333334 51.500000000000007
decision_type=2 2 2 2 2 2 2 2 2 2 2 2 2 2 2 2 2 2 2 2 2 2 2 2 2 2 2 2 2 2
left_child=1 2 4 7 6 8 -1 9 12 -2 -4 -12 18 14 17 16 23 -9 -3 -20 -15 -22 -14 -16 -8 -5 -7 -10 -23 -27
right_child=3 5 10 25 -6 26 24 13 27 -11 11 -13 22 20 15 -17 -18 -19 19 -21 21 28 -24 -25 -26 29 -28 -29 -30 -31
leaf_value=-0.0026238749585427664 -0.0025087575188727064 -0.00052264380471785229 -0.0034610838994629262 -0.00015207952422014562 -0.0018124190444409197 0.00010892831435083948 -0.0012786369699203698 -0.001215847954974137 0.0001739889972694131 -0.00051819177979891228 -0.0028503041576770946 -0.0023564118717252511 -0.0019276111320023384 3.8504708257563095e-05 0.00021047816427948338 -0.00086767678528318912 -0.0005601742483545486 7.8401690577656227e-05 7.3737801857739132e-05 -0.00056491491808641258 -0.00088202820980832499 0.00023862986369584487 -0.00059998405583808277 -9.9780928512001291e-05 0.00021015483358952721 0.013050951664661558 -2.5196934653730338e-05 0.0031093531263176018 0.00085786473980639807 0.0072692385107733766
leaf_weight=37 31 21 35 20 26 50 20 38 20 32 21 27 29 219 54 20 31 121 27 28 21 20 33 21 22 10566 20 21 20 1689
leaf_count=37 31 21 35 20 26 50 20 38 20 32 21 27 29 219 54 20 31 121 27 28 21 20 33 21 22 10566 20 21 20 1689
internal_value=0.000432909 -0.00632094 -0.0110585 0.000661648 -0.00610714 -0.00274398 -0.00380696 -0.00101752 -0.00394274 -0.0044881 -0.0173223 -0.014875 -0.00511957 -0.000630531 -0.00146053 -0.00305952 -0.00179717 -0.000193396 -0.00319737 -0.00197727 0.000214286 -0.00170902 -0.00747581 -5e-05 -0.000678571 0.000747556 0.000321429 1.82927e-05 -6.98492e-12 0.00075
internal_weight=13340 437 188 12903 105 249 79 628 179 63 83 48 138 565 285 126 106 159 76 55 280 61 62 75 42 12275 70 41 40 12255
internal_count=13340 437 188 12903 105 249 79 628 179 63 83 48 138 565 285 126 106 159 76 55 280 61 62 75 42 12275 70 41 40 12255
is_linear=0
shrinkage=0.03


Tree=30
num_leaves=31
num_cat=0
split_feature=19 59 40 8 59 31 25 59 54 59 33 28 59 23 7 41 55 7 19 7 59 59 59 37 59 56 36 59 26 18
split_gain=20.24 8.0918 6.33814 2.72664 1.77778 1.66981 1.22222 1.03179 1.53409 0.845007 1.62973 0.62069 0.590017 0.811594 0.464645 0.492749 0.428571 0.424998 0.486282 0.423798 0.885698 0.500595 0.296569 0.370448 0.271786 0.26501 0.139394 0.121511 0.0380037 0.0352941
threshold=19.958571500000001 22.008333333333336 21.900444000000004 3.5000000000000004 19.758333333333336 20.747083500000006 19.936974500000002 5.5083333333333337 0.084394343798390989 45.50833333333334 22.065500000000004 19.855958500000003 11.508333333333335 19.825237000000005 12.500000000000002 20.0527525 0.070863375735056022 12.500000000000002 19.825237000000005 7.5000000000000009 20.008333333333336 60.716666666666676 64.50833333333334 20.263469000000004 30.716666666666672 0.0089615000000016227 20.048562000000004 21.508333333333336 19.883233000000004 20.237710000000003
decision_type=2 2 2 2 2 2 2 2 2 2 2 2 2 2 2 2 2 2 2 2 2 2 2 2 2 2 2 2 2 2
left_child=1 2 4 -2 6 7 16 8 -5 10 11 -3 -4 -14 19 28 -1 -11 -19 27 -21 -22 23 24 26 -26 -17 -9 -16 -24
right_child=3 9 12 5 -6 -7 -8 14 -10 17 -12 -13 13 -15 15 22 -18 18 -20 20 21 -23 29 -25 25 -27 -28 -29 -30 -31
leaf_value=-0.0025064043280783321 0.012206495828106441 -0.00080478387653654061 -0.0032674362339454852 -0.0024173835660400672 -0.0017337737664808982 -0.003036052085566226 0.00018136363721345353 -0.00057661037028989236 6.9133770644456253e-05 -0.00057006280415898276 -0.0020220159607949725 0.00015587579480459839 -0.0027149331191518222 -0.0024998133410491417 -0.0001388532337197903 -0.00028950947435173998 -0.0022326381444044319 -0.00058977327204966202 7.006708656684155e-05 0.00024540220926414614 -0.00084164648172468937 -0.00060481677053369099 0.0012954532229784068 -0.00030531178601991165 -0.00068931254396215568 -0.00032452818934556921 6.1811533595019361e-05 0.00016359735484888381 3.7313348417496474e-05 0.00068666223568018044
leaf_weight=27 12231 29 33 24 27 20 33 21 20 38 21 29 21 25 24 20 21 37 95 26 20 28 48 24 25 21 46 37 249 20
leaf_count=27 12231 29 33 24 27 20 33 21 20 38 21 29 21 25 24 20 21 37 95 26 20 28 48 24 25 21 46 37 249 20
internal_value=0.000432909 -0.00592431 -0.0106404 0.000647706 -0.00591667 -0.00121137 -0.00369444 -0.000949847 -0.00538636 -0.00238253 -0.0049462 -0.00235345 -0.0170981 -0.0149022 -0.00062931 -0.000193396 -0.00675 -0.00119118 -0.000386364 -0.00220455 -0.00370946 -0.006125 -0.00130882 -0.00211765 -0.00139286 -0.00316304 -0.000159091 -0.000284483 0.00064011 0.000308824
internal_weight=13340 436 187 12904 108 673 81 653 44 249 79 58 79 46 609 477 48 170 132 132 74 48 204 136 112 46 66 58 273 68
internal_count=13340 436 187 12904 108 673 81 653 44 249 79 58 79 46 609 477 48 170 132 132 74 48 204 136 112 46 66 58 273 68
is_linear=0
shrinkage=0.03


Tree=31
num_leaves=31
num_cat=0
split_feature=9 59 39 8 59 49 59 24 33 59 59 32 59 59 39 26 19 47 59 7 26 23 57 32 59 21 9 7 7 7
split_gain=21.5676 8.39016 6.81283 2.0369 1.43854 1.08205 1.26129 0.975156 0.96887 0.817268 0.757494 1.39716 0.482015 0.711443 0.704198 0.41791 0.398374 0.362427 0.271834 0.219505 0.339821 0.209275 0.272593 0.131413 0.104762 0.0439024 0.0361248 8.88178e-16 2.22045e-16 1.11022e-16
threshold=19.958571500000001 22.008333333333336 21.900444000000004 3.5000000000000004 19.758333333333336 19.955000550000005 94.00833333333334 19.888912500000004 19.858802500000007 30.491666666666671 11.508333333333335 22.139130500000004 33.00833333333334 30.716666666666672 20.193045000000001 19.883233000000004 19.825237000000005 22.948410000000003 48.94166666666667 37.500000000000007 20.074416500000002 20.206529000000007 135.50000000000003 19.934904000000003 10.750000000000002 19.985183500000002 19.836975000000006 45.500000000000007 52.500000000000007 50.500000000000007
decision_type=2 2 2 2 2 2 2 2 2 2 2 2 2 2 2 2 2 2 2 2 2 2 2 2 2 2 2 2 2 2
left_child=1 2 4 27 7 16 18 -1 9 -5 -4 -12 13 14 15 -10 17 -3 -7 -14 -21 25 -23 26 -9 -17 -18 -2 29 -29
right_child=3 5 10 8 -6 6 -8 24 12 -11 11 -13 19 -15 -16 21 23 -19 -20 20 -22 22 -24 -25 -26 -27 -28 28 -30 -31
leaf_value=-0.0024723701405550249 0.013503684656913215 -0.00023438037244941405 -0.0032602695240404882 -0.0023545978916010733 -0.0017060332601132346 -0.0018091223192184082 0.0016168213088920392 -0.0011677563538415108 -0.0015850351964710105 -0.00048530955301916503 -0.0026865738359957338 -0.0022076333190970223 3.6244653995097817e-05 -0.00068907795478444949 -0.00046700716515675814 -7.5214094240158363e-05 -0.00014121445769799937 -0.00086136061479430567 -0.00056384003104692677 -0.00069878811875339502 0.00060079444890000276 -0.00061391019945637487 7.8151820342989194e-05 -0.0002498686002552435 0.00023520596624190102 0.00010204076196342495 6.0765629323169537e-05 0.0098847183635781734 0.0090685645850097987 0.0065115150859902824
leaf_weight=37 9298 20 35 31 26 29 23 20 25 32 21 27 223 26 38 20 21 21 33 39 44 27 23 36 22 144 66 1018 1451 464
leaf_count=37 9298 20 35 31 26 29 23 20 25 32 21 27 223 26 38 20 21 21 33 39 44 27 23 36 22 144 66 1018 1451 464
internal_value=0.000439655 -0.00611499 -0.0108989 0.000661648 -0.00582143 -0.00250301 -0.00525 -0.00380696 -0.000946429 -0.0044881 -0.0173223 -0.014875 -0.000580049 -0.00142822 -0.000982852 -0.000379707 -0.00107927 -0.00364024 -0.00747581 0.000259804 -0.00105723 4.90654e-05 -0.00165 -0.00022561 -0.000678571 0.000567073 0.000405172 0.00075 0.00075 0.00075
internal_weight=13340 437 188 12903 105 249 85 79 672 63 83 48 609 303 277 239 164 41 62 306 83 214 50 123 42 164 87 12231 2933 1482
internal_count=13340 437 188 12903 105 249 85 79 672 63 83 48 609 303 277 239 164 41 62 306 83 214 50 123 42 164 87 12231 2933 1482
is_linear=0
shrinkage=0.03


Tree=32
num_leaves=31
num_cat=0
split_feature=9 59 6 59 42 50 59 59 59 25 49 59 57 33 59 59 49 59 19 47 41 59 59 47 59 20 32 7 26 9
split_gain=20.2487 8.07426 7.18873 47.2356 6.74447 2.17721 1.20034 1.24838 1.18418 1.10526 1.08205 1.26129 1.02523 0.911537 0.817268 0.693979 0.46529 0.612847 0.398374 0.362427 0.334495 0.630662 0.271834 0.245962 0.237274 0.143662 0.131413 0.119788 0.132997 0.0499154
