tree
version=v4
num_class=1
num_tree_per_iteration=1
label_index=0
max_feature_idx=60
objective=regression
feature_names=object_id canonical_label display_x display_y anchor_x anchor_y hour minute day_of_week source_temp people_count_total people_count_within_1m people_count_within_2m people_count_within_3m nearest_person_distance mean_person_distance nearest_person_dx nearest_person_dy temp_lag_1 temp_lag_2 temp_lag_3 temp_lag_4 temp_lag_5 temp_lag_6 temp_lag_7 temp_lag_8 temp_lag_9 temp_lag_10 temp_lag_11 temp_lag_12 temp_lag_13 temp_lag_14 temp_lag_15 temp_lag_16 temp_lag_17 temp_lag_18 temp_lag_19 temp_lag_20 temp_lag_21 temp_lag_22 temp_lag_23 temp_lag_24 temp_lag_25 temp_lag_26 temp_lag_27 temp_lag_28 temp_lag_29 temp_lag_30 temp_roll_mean_5 temp_roll_mean_10 temp_roll_mean_20 temp_roll_mean_30 temp_roll_std_5 temp_roll_std_10 temp_roll_std_20 temp_roll_std_30 temp_delta_1 seconds_since_previous observations_in_frame target_minutes_ahead requested_horizon_min
feature_infos=none none none none none none [6:17] [0:59] [1:4] [19.69858:26.252689] [0:3] none none none [3.3069835610309584:12.187622276456798] [3.3553012799332942:12.187622276456798] [-12.005157000000001:-2.5648229999999996] [-4.578068:-0.15987600000000002] [19.69858:26.252689] [19.69858:26.252689] [19.69858:26.252689] [19.69858:26.252689] [19.69858:26.252689] [19.69858:26.252689] [19.69858:26.252689] [19.69858:26.252689] [19.69858:26.252689] [19.69858:26.252689] [19.69858:26.252689] [19.69858:26.252689] [19.69858:26.252689] [19.69858:26.252689] [19.69858:26.252689] [19.69858:26.252689] [19.69858:26.252689] [19.69858:26.252689] [19.69858:26.252689] [19.69858:26.252689] [19.69858:26.252689] [19.69858:26.252689] [19.69858:26.252689] [19.69858:26.252689] [19.69858:26.252689] [19.69858:26.252689] [19.69858:26.252689] [19.69858:26.252689] [19.69858:26.252689] [19.69858:26.252689] [19.749679200000003:25.930108000000001] [19.767039399999998:25.899973299999999] [19.80870715:25.7905281] [19.840720300000001:25.768155833333331] [0.0056549193437947821:1.8249662179205504] [0.015226422657935163:1.8237327000183627] [0.042449092159210819:1.8594706330831972] [0.044771429804252943:1.8466729585304664] [-2.0867159999999991:2.7088180000000008] [27:321213] [1:2] [5:180] [5:120]
tree_sizes=2674 2847

Tree=0
num_leaves=31
num_cat=0
split_feature=9 9 9 59 6 36 51 6 6 6 59 59 6 59 6 51 6 7 55 59 48 59 59 59 7 6 6 59 39 51
split_gain=15313.4 2835.97 2467.25 730.009 379.229 302.946 264.755 173.805 171.143 168.599 162.247 130.199 90.6192 68.0818 87.3928 62.3751 51.0994 48.3733 41.554 67.5839 37.974 36.3958 35.7663 32.9829 32.7044 32.1619 74.0862 24.1884 23.5974 15.8922
threshold=22.773169000000006 20.747083500000006 24.071793500000002 90.491666666666688 14.500000000000002 21.394208500000001 22.030989266666669 8.5000000000000018 7.5000000000000009 8.5000000000000018 45.491666666666674 60.716666666666676 12.500000000000002 90.50833333333334 7.5000000000000009 24.211539566666673 8.5000000000000018 35.500000000000007 0.26472286585453231 37.50833333333334 25.228563600000005 111.50833333333334 62.00833333333334 60.716666666666676 32.500000000000007 8.5000000000000018 11.500000000000002 69.958333333333357 24.888835000000004 24.649686683333339
decision_type=2 2 2 2 2 2 2 2 2 2 2 2 2 2 2 2 2 2 2 2 2 2 2 2 2 2 2 2 2 2
left_child=1 -1 5 9 6 27 11 13 24 15 28 12 -3 -7 -15 17 -8 23 19 -9 -10 -20 -6 -4 -5 -13 -27 -2 -11 -17
right_child=2 4 3 8 22 7 16 18 20 10 -12 25 -14 14 -16 29 -18 -19 21 -21 -22 -23 -24 -25 -26 26 -28 -29 -30 -31
leaf_value=22.407577734266084 22.537740403319528 22.453916987597406 22.539362507726892 22.555257948843334 22.441112748953806 22.504841387892398 22.498432128005415 22.511389663207709 22.47612000849599 22.513452766625818 22.499541435636694 22.47181327269357 22.467102074583167 22.507388187303004 22.475524390952526 22.554754773454359 22.472335168787385 22.501297931451312 22.476142774303884 22.478794038458162 22.500765022778321 22.50411536696733 22.425125692905716 22.565479627908726 22.521586712203781 22.454086200679701 22.473080819763339 22.566676358027848 22.547155595270674 22.562377125207902
leaf_weight=1122 78 3665 146 54 478 1690 72 114 77 20 92 566 538 139 175 376 1087 23 383 115 209 47 171 62 50 425 327 39 287 713
leaf_count=1122 78 3665 146 54 478 1690 72 114 77 20 92 566 538 139 175 376 1087 23 383 115 209 47 171 62 50 425 327 39 287 713
internal_value=22.4764 22.452 22.5187 22.5432 22.4588 22.5001 22.4609 22.4981 22.5061 22.5516 22.5345 22.4582 22.4556 22.5025 22.4896 22.5567 22.474 22.5426 22.4847 22.495 22.4941 22.4792 22.4369 22.5471 22.5391 22.4664 22.4623 22.5474 22.545 22.5597
internal_weight=13340 8451 4889 2109 7329 2780 6680 2663 390 1719 399 5521 4203 2004 314 1320 1159 231 659 229 286 430 649 208 104 1318 752 117 307 1089
internal_count=13340 8451 4889 2109 7329 2780 6680 2663 390 1719 399 5521 4203 2004 314 1320 1159 231 659 229 286 430 649 208 104 1318 752 117 307 1089
is_linear=0
shrinkage=1


Tree=1
num_leaves=31
num_cat=0
split_feature=9 8 8 6 6 59 59 6 50 6 59 6 59 6 6 59 37 50 59 59 48 59 59 59 6 6 6 59 7 7
split_gain=14408.4 2697.67 2338.51 628.617 361.782 336.795 285.087 252.903 229.567 127.986 122.126 92.5455 63.113 82.8083 48.4585 36.9654 60.8903 51.3096 85.2268 36.9161 35.7972 63.1934 33.7497 30.3212 28.6347 27.3661 61.3516 13.1804 12.8583 12.4338
threshold=22.773169000000006 3.5000000000000004 1.5000000000000002 8.5000000000000018 14.500000000000002 30.508333333333336 120.49166666666669 9.5000000000000018 22.056018425000001 8.5000000000000018 60.50833333333334 12.500000000000002 90.50833333333334 7.5000000000000009 8.5000000000000018 108.00833333333334 24.878069000000004 24.572865450000005 45.525000000000006 119.99166666666669 23.559899100000003 33.00833333333334 62.00833333333334 111.50833333333334 9.5000000000000018 8.5000000000000018 11.500000000000002 63.991666666666674 17.500000000000004 18.500000000000004
decision_type=2 2 2 2 2 2 2 2 2 2 2 2 2 2 2 2 2 2 2 2 2 2 2 2 2 2 2 2 2 2
left_child=1 4 3 6 8 7 15 -5 10 12 11 -1 -4 29 -10 17 -17 18 -2 24 23 -22 -6 -11 -7 -12 -27 -16 -13 -14
right_child=2 -3 9 5 22 19 -8 -9 14 20 25 28 13 -15 27 16 -18 -19 -20 -21 21 -23 -24 -25 -26 26 -28 -29 -30 -31
leaf_value=-0.021724605858363909 0.061954964116729544 -0.067325827411104683 0.027501503852580961 0.068403326301444509 -0.034293527517122092 0.024574709528832023 0.02976479999193056 0.0033993988060815766 0.021330672180435307 -0.001356263249181211 -0.004668737720912663 -0.013913746719260382 0.044588960832671116 -0.00088983260632625647 -0.0053858924729422459 0.07442335167596506 0.027953113069136937 0.082291997199928427 0.088132958065379755 -0.0040835430934517214 0.031629040704876099 0.002707973646620909 -0.049727404717076026 0.025500323677604846 -0.010702334747184067 -0.020508586522222805 -0.0034784482946111396 0.0051607257915441381 -0.0047006850832394349 0.024562506092446191
leaf_weight=3681 348 1109 1713 293 485 151 127 66 72 270 573 237 38 175 899 86 36 888 165 88 137 135 173 44 24 450 330 121 321 105
leaf_count=3681 348 1109 1713 293 485 151 127 66 72 270 573 237 38 175 899 86 36 888 165 88 137 135 173 44 24 450 330 121 321 105
internal_value=-1.29118e-10 -0.0237141 0.0409916 0.0632595 -0.0171266 0.0375581 0.0729481 0.0564527 -0.0150372 0.0216593 -0.017494 -0.0199988 0.0252229 0.0129488 -0.00245573 0.0765491 0.0607108 0.0779283 0.0703748 0.0117664 0.00930815 0.0172748 -0.0383514 0.00240708 0.0197367 -0.00964667 -0.0133035 -0.00413477 -0.00861376 0.0298842
internal_weight=13340 8451 4889 2272 7342 622 1650 359 6684 2617 5592 4239 2031 318 1092 1523 122 1401 513 263 586 272 658 314 175 1353 780 1020 558 143
internal_count=13340 8451 4889 2272 7342 622 1650 359 6684 2617 5592 4239 2031 318 1092 1523 122 1401 513 263 586 272 658 314 175 1353 780 1020 558 143
is_linear=0
shrinkage=0.03


end of trees

feature_importances:
target_minutes_ahead=20
hour=19
minute=4
source_temp=4
temp_roll_mean_30=3
day_of_week=2
temp_roll_mean_5=2
temp_roll_mean_20=2
temp_lag_19=1
temp_lag_20=1
temp_lag_22=1
temp_roll_std_30=1

parameters:
[boosting: gbdt]
[objective: regression]
[metric: rmse,l2]
[tree_learner: serial]
[device_type: cpu]
[data_sample_strategy: bagging]
[data: ]
[valid: ]
[num_iterations: 1200]
[learning_rate: 0.03]
[num_leaves: 31]
[num_threads: 8]
[seed: 42]
[deterministic: 0]
[force_col_wise: 0]
[force_row_wise: 0]
[histogram_pool_size: -1]
[max_depth: -1]
[min_data_in_leaf: 20]
[min_sum_hessian_in_leaf: 0.001]
[bagging_fraction: 0.85]
[pos_bagging_fraction: 1]
[neg_bagging_fraction: 1]
[bagging_freq: 0]
[bagging_seed: 400]
[bagging_by_query: 0]
[feature_fraction: 0.85]
[feature_fraction_bynode: 1]
[feature_fraction_seed: 30056]
[extra_trees: 0]
[extra_seed: 12879]
[early_stopping_round: 0]
[early_stopping_min_delta: 0]
[first_metric_only: 0]
[max_delta_step: 0]
[lambda_l1: 0]
[lambda_l2: 0]
[linear_lambda: 0]
[min_gain_to_split: 0]
[drop_rate: 0.1]
[max_drop: 50]
[skip_drop: 0.5]
[xgboost_dart_mode: 0]
[uniform_drop: 0]
[drop_seed: 17869]
[top_rate: 0.2]
[other_rate: 0.1]
[min_data_per_group: 100]
[max_cat_threshold: 32]
[cat_l2: 10]
[cat_smooth: 10]
[max_cat_to_onehot: 4]
[top_k: 20]
[monotone_constraints: ]
[monotone_constraints_method: basic]
[monotone_penalty: 0]
[feature_contri: ]
[forcedsplits_filename: ]
[refit_decay_rate: 0.9]
[cegb_tradeoff: 1]
[cegb_penalty_split: 0]
[cegb_penalty_feature_lazy: ]
[cegb_penalty_feature_coupled: ]
[path_smooth: 0]
[interaction_constraints: ]
[verbosity: -1]
[saved_feature_importance_type: 0]
[use_quantized_grad: 0]
[num_grad_quant_bins: 4]
[quant_train_renew_leaf: 0]
[stochastic_rounding: 1]
[linear_tree: 0]
[max_bin: 255]
[max_bin_by_feature: ]
[min_data_in_bin: 3]
[bin_construct_sample_cnt: 200000]
[data_random_seed: 175]
[is_enable_sparse: 1]
[enable_bundle: 1]
[use_missing: 1]
[zero_as_missing: 0]
[feature_pre_filter: 1]
[pre_partition: 0]
[two_round: 0]
[header: 0]
[label_column: ]
[weight_column: ]
[group_column: ]
[ignore_column: ]
[categorical_feature: 0,1]
[forcedbins_filename: ]
[precise_float_parser: 0]
[parser_config_file: ]
[objective_seed: 16083]
[num_class: 1]
[is_unbalance: 0]
[scale_pos_weight: 1]
[sigmoid: 1]
[boost_from_average: 1]
[reg_sqrt: 0]
[alpha: 0.9]
[fair_c: 1]
[poisson_max_delta_step: 0.7]
[tweedie_variance_power: 1.5]
[lambdarank_truncation_level: 30]
[lambdarank_norm: 1]
[label_gain: ]
[lambdarank_position_bias_regularization: 0]
[eval_at: ]
[multi_error_top_k: 1]
[auc_mu_weights: ]
[num_machines: 1]
[local_listen_port: 12400]
[time_out: 120]
[machine_list_filename: ]
[machines: ]
[gpu_platform_id: -1]
[gpu_device_id: -1]
[gpu_use_dp: 0]
[num_gpu: 1]

end of parameters

pandas_categorical:[["cableduct_1", "cableduct_2", "cableduct_3", "cableduct_4", "chair_1", "machine_1", "machine_2", "machine_3", "machine_4", "machine_5", "machine_6", "screen_1", "screen_2", "window_1"], ["Cableduct", "Chair", "Machine", "Screen", "Window"]]
